{"conv1.0.weight": [[[[13665177.0, 32634590.0, -28858364.0, 15539879.0, -19724052.0], [4248345.0, -10958502.0, -19596552.0, -28244744.0, 12841029.0], [987823.8125, -5090372.5, 7982208.0, 33417836.0, 38060568.0], [-21999000.0, -1495508.375, 3840373.5, 3537143.75, -13100425.0], [5112512.0, -10232965.0, 3520192.25, -5169198.0, 22249858.0]]], [[[2042032.625, -327357.59375, -27514242.0, 9153999.0, -5641499.5], [-1485568.125, 14725762.0, -776261.5625, -10327046.0, -13570809.0], [7035016.0, 11754892.0, -12827155.0, 8262978.0, -14780736.0], [5345806.5, -11063920.0, 18176470.0, 9573557.0, -36332744.0], [-1336056.5, 12226948.0, -19970030.0, 17354372.0, 1944332.625]]], [[[-17660252.0, 12061772.0, -2483284.75, -14535671.0, -25186710.0], [29992326.0, -4063590.75, -478044.3125, 26517502.0, 4594636.0], [-25384326.0, 20243596.0, -17679756.0, -9494933.0, -19624600.0], [16210521.0, 4313040.0, -16781698.0, -20068174.0, -15071265.0], [38448412.0, 25115460.0, 18635442.0, -16750931.0, 8589360.0]]], [[[14692947.0, -17573154.0, 2249418.5, -3604578.5, 2840803.5], [6840519.0, -15437928.0, 8765226.0, -13779402.0, 4033313.0], [-25442880.0, -19828146.0, -24362910.0, -1675670.625, -30011474.0], [38330776.0, 20042614.0, -14090877.0, -28482406.0, 6629298.0], [-41725100.0, -10667671.0, -12722573.0, 4789220.0, -10461129.0]]], [[[-9420618.0, -24092196.0, 35241024.0, -7809651.0, 57033584.0], [-8679921.0, 5211586.0, 6224132.5, -3410373.75, -13195054.0], [-17411762.0, 2847816.25, -24342576.0, 7784391.0, -8547371.0], [-159512.421875, 11779919.0, -8385473.0, -154850.03125, 1336883.625], [-670401.125, 12186387.0, -3954574.5, -1132481.625, -28446330.0]]], [[[2601731.5, -6078966.5, -6148621.5, -979145.6875, 10449338.0], [9793049.0, -12540607.0, -28668164.0, 991546.375, 1834762.5], [-5039755.5, 32472688.0, 23776506.0, 19757214.0, 17546076.0], [-21360780.0, 22754582.0, 18694476.0, 31376980.0, 14675742.0], [-4988864.5, -33437610.0, 17051000.0, 4955405.5, 7506646.0]]], [[[-17894756.0, -9872693.0, 13870976.0, -535212.625, -6786536.0], [-22530974.0, -8548760.0, -12711638.0, -12292862.0, -4065211.25], [46377772.0, -3298320.0, 37209988.0, -4313289.0, 4372195.5], [-1891546.875, 14862260.0, 13507884.0, 13076161.0, -27205406.0], [10106490.0, -4379794.5, -6233588.0, -18582876.0, -1160584.375]]], [[[-14833885.0, -10260476.0, 575003.8125, 14902145.0, -8497884.0], [-29638360.0, -2580022.75, 769530.0, -24307658.0, 34728680.0], [-22224952.0, -1012255.1875, 33143018.0, -19648998.0, 7606681.5], [17942566.0, -13446056.0, -4184361.25, 27650898.0, -14932192.0], [-18577444.0, -11276324.0, 6322168.0, -10772161.0, -26497552.0]]], [[[-6054736.5, -12935406.0, 16299864.0, -8353962.0, -1611847.75], [-4500524.0, 1134167.0, 4290514.5, 17464330.0, -6040059.0], [20355238.0, -8054645.5, -11440836.0, -16205840.0, 392244.0], [-1248461.0, 14112964.0, 10372208.0, 2372744.25, 8354942.0], [-29636750.0, -34233520.0, 14293370.0, -2849551.5, -5658500.5]]], [[[-2904953.25, -31686990.0, 12323625.0, 24068812.0, 10006949.0], [-10617319.0, -6709851.0, -2639500.25, -15217334.0, -14120894.0], [20978494.0, 15741868.0, 3275819.75, -15577688.0, -20074382.0], [-14743766.0, -11502650.0, 18838986.0, 546405.875, -9737713.0], [-9452976.0, 29455884.0, 1769530.5, 14500104.0, 8045908.5]]], [[[-17053236.0, -31665968.0, -25162834.0, -26351604.0, 16394028.0], [3789320.25, -10156053.0, 1514336.5, -11468309.0, -3887522.25], [3044894.5, -31473860.0, -18021712.0, 25175148.0, -17399074.0], [-1984626.0, -17141970.0, -13428506.0, -5889280.0, -1631949.75], [5441128.5, -36068172.0, 11827382.0, 3452094.75, -9158187.0]]], [[[-21568986.0, 19653242.0, 2850678.75, 13857711.0, 17875072.0], [-27788898.0, 14071040.0, -18106734.0, -10242699.0, 16871096.0], [-11000694.0, -24468262.0, 8226681.0, -5543095.5, 13769990.0], [-21396628.0, 15765393.0, 9929136.0, -37738344.0, 23888744.0], [-23269760.0, 24233820.0, 13240416.0, 11247199.0, 4865786.5]]], [[[-3681162.0, -28485928.0, 10612853.0, -25094798.0, 13632152.0], [-7179384.5, 3867537.25, -18852288.0, -3299330.75, -3358734.0], [-7230313.5, -43516252.0, 17630304.0, 17658534.0, -26411976.0], [5953068.0, 18209780.0, 10352958.0, -19457250.0, 6231997.5], [11811800.0, 1396511.25, 5635664.0, 34210708.0, 275076.15625]]], [[[-21849108.0, 8351616.0, -18271512.0, -4519128.5, 2282799.75], [-2389534.25, -2216896.5, -5060534.5, 21615288.0, -1027622.5], [14261043.0, -11586248.0, 15303106.0, -4122417.75, -9766022.0], [29468774.0, 14399666.0, -566420.375, 12861948.0, -6519018.0], [-10299822.0, 13278028.0, 15981078.0, -43779308.0, -3051245.25]]], [[[-24296008.0, -9451021.0, 13085656.0, -33646676.0, -33039024.0], [-14321210.0, -3557487.0, -9964220.0, -12737925.0, 35289868.0], [18928394.0, 7731133.0, -9422132.0, -2390469.5, -1752330.75], [-24030216.0, -234833.09375, -414581.53125, 13527558.0, -6238424.5], [-14362426.0, -48380904.0, -14000398.0, -17874396.0, 8006417.0]]], [[[9426291.0, 3911629.25, 21674056.0, -12000479.0, -12622372.0], [12965898.0, -808910.8125, -6423509.0, -22266588.0, -13807005.0], [8186129.0, 16628471.0, 23638974.0, -42333660.0, 13360164.0], [-18593048.0, -12333070.0, -42522840.0, 20635986.0, -12266209.0], [17365230.0, 19687404.0, 898526.0, 7275187.0, 7626818.5]]]], "conv1.0.bias": [-4357333.5, 16482828.0, 26160320.0, -5132331.0, -2695200.25, 9930067.0, 21717252.0, 3097284.5, 22094410.0, 12342458.0, 6481902.0, -11122658.0, 34048080.0, 18851734.0, 3735487.5, -2581655.25], "conv2.0.weight": [[[[-3918334.5, -6013199.5, 4869170.5, -17597360.0, 8942380.0], [2809191.5, -19561222.0, 12572589.0, 21803996.0, -3344952.0], [40277016.0, -18125108.0, 31686962.0, -10962610.0, 9700824.0], [-3045333.25, -36226144.0, -1625667.5, -11623019.0, 16729610.0], [18490288.0, 5480690.5, 25071804.0, 21433946.0, 1617144.0]], [[-4984697.0, -19119726.0, -255076.25, -20695702.0, 10694893.0], [9940035.0, 22518670.0, 13164290.0, -1121374.75, -30214332.0], [-23926310.0, 18212182.0, 28469130.0, 2818493.0, -636582.1875], [24108128.0, 5749513.5, -41466132.0, 6371361.0, -8190442.5], [20779852.0, 356643.625, -17506880.0, -1165775.5, -1118645.5]], [[-6271069.0, -17299492.0, -345297.34375, 22018108.0, 14290490.0], [22791044.0, -2324463.0, 19455494.0, 16308371.0, 37202596.0], [-1388452.875, -5464635.0, 6547929.0, -26546324.0, 2210467.5], [224949.28125, -17497590.0, 2503475.75, 13082783.0, -19100032.0], [-15765158.0, -16530165.0, 24778638.0, 41273504.0, -9201580.0]], [[5618345.0, -17719608.0, -26370248.0, -16063216.0, -38643832.0], [3079506.0, 27455910.0, -12822907.0, -30884860.0, -5395057.5], [7042180.0, 16066030.0, 5669889.5, 6997707.0, 3881383.0], [-9637481.0, 20635266.0, -19894206.0, 16009055.0, 13806304.0], [-1607767.75, -1882966.625, -13163749.0, -39954800.0, 16691811.0]], [[1272994.875, -9874226.0, -13065717.0, -14387636.0, 14311778.0], [-10087184.0, 27726788.0, -5138526.5, 16373077.0, 10682147.0], [-7102187.0, 395629.71875, 24004908.0, -275303.4375, 29499296.0], [-8227953.0, 407249.0, -10122425.0, -1382114.0, 26972546.0], [-38588788.0, 15963345.0, -27332102.0, 5467894.5, -24516960.0]], [[18300244.0, -7945059.5, -35241668.0, 25273716.0, -1279925.75], [-1783518.75, -1166762.25, 39219048.0, 6214951.0, 17474166.0], [-22522626.0, -12264690.0, 14778804.0, -11683367.0, 30320124.0], [2366326.5, 14338860.0, 15444252.0, -32800942.0, 2471324.0], [10123505.0, 756042.4375, -10605795.0, 25682290.0, 40429488.0]], [[28057854.0, 7273215.0, -24722116.0, 21831290.0, 1713420.75], [-6885683.0, 1521327.75, -20057718.0, -25412274.0, -9990270.0], [-10416526.0, -7765793.0, 54222024.0, -30738128.0, -17509038.0], [-37313388.0, -12359889.0, 15064569.0, 8045657.5, 17366020.0], [12178243.0, 2422095.5, 15972176.0, -10250099.0, 6579426.0]], [[15017612.0, 32737602.0, -15411588.0, -14611480.0, 4919671.5], [-17045296.0, -12037439.0, -14922955.0, 9341833.0, 4927353.0], [-28576224.0, 22518306.0, -20766060.0, -492990.28125, 6162517.0], [-21073888.0, -11634887.0, 3353112.75, 3340788.0, -12094255.0], [-6879975.0, 21464870.0, 8528439.0, -11169499.0, 8693028.0]], [[12710983.0, -22908028.0, 12650702.0, -19617748.0, -3752358.75], [4188615.75, -36203892.0, 19047266.0, -9005964.0, -15806552.0], [19542472.0, -14728210.0, 1126465.125, 24824656.0, -36531432.0], [9534707.0, -13081509.0, -3923082.75, 19741764.0, -2782678.75], [-6872745.0, 17535046.0, -18997006.0, 19170996.0, -16605983.0]], [[7620209.5, 16373331.0, -10483908.0, -21074994.0, 10032018.0], [-33901412.0, -1629999.75, -64254888.0, 1626124.0, 43698672.0], [25750658.0, 7913935.0, 44589876.0, -14367350.0, -21074040.0], [-16201151.0, -1302716.5, 10242028.0, 10412997.0, 8775772.0], [37812768.0, -8759234.0, -22171686.0, 29149768.0, -33023578.0]], [[-30493934.0, -22663068.0, 22061490.0, -5473188.0, 14315286.0], [-1265819.125, 15094894.0, 18286980.0, -19827124.0, -18690372.0], [-15381739.0, 19114060.0, -24937490.0, 3246642.5, -30485634.0], [38981900.0, 26803380.0, 5325206.0, 5119703.0, 34695636.0], [-24395614.0, 1354402.125, 4227303.5, 2573477.25, -31727082.0]], [[-35288056.0, 14868363.0, 596368.25, -3843074.5, 37696548.0], [2102018.25, 9912817.0, 14369136.0, -10138660.0, -23305436.0], [-10592303.0, -7653097.0, 16613434.0, -5303081.5, 1935107.125], [19432102.0, 2093117.5, -13942098.0, 29509926.0, -12473886.0], [6882123.5, -7924930.0, -15961771.0, 7181776.0, 2598241.25]], [[16655250.0, 9861748.0, 26727450.0, 17868154.0, -4853709.5], [10530162.0, -20260982.0, 15793847.0, -7955040.0, -1669983.0], [-8240130.0, -19956372.0, 9692831.0, 22855324.0, 1594789.125], [18642150.0, 29314764.0, 7315325.5, -20924922.0, -10702290.0], [46261360.0, -12172553.0, 9999321.0, 4200614.5, -17082646.0]], [[-1498132.25, -26078944.0, -2681307.75, 5291618.5, -43714476.0], [-665621.875, 28086696.0, -31766012.0, -18651706.0, 16990918.0], [-2478458.5, 1794350.25, 18421366.0, 9389036.0, -5715831.5], [20285262.0, 13635759.0, -10474625.0, 22211202.0, -16434375.0], [-11910020.0, 27331578.0, 12229328.0, -25888500.0, 12828379.0]], [[-18767854.0, -740122.375, 5276237.5, 18757572.0, -134983.15625], [-7709903.0, -321482.65625, 27174440.0, 4501038.5, 7665385.5], [-742594.8125, 43034336.0, -13842085.0, -2603399.25, -20805292.0], [4943865.5, 26236352.0, -18206492.0, 36601592.0, 14229762.0], [11383007.0, 47041256.0, 640294.125, 12021488.0, -15907307.0]], [[5260660.0, 17192416.0, -10177388.0, 1330490.125, 23212230.0], [52468420.0, 32985786.0, 26546412.0, -5036942.0, -7292778.0], [-24098376.0, -2963564.75, -22242454.0, -2582370.75, 2630474.25], [17094898.0, 26659922.0, 2615633.75, 29040968.0, -3903482.0], [-15362183.0, 9488793.0, 16304014.0, -13101697.0, 16407078.0]]], [[[7596081.0, 34377752.0, 650445.9375, 9625597.0, 6178322.0], [-1131791.875, -8510450.0, -41875524.0, -7825387.5, 33375668.0], [-8387758.0, -2186611.25, 9722888.0, 33718508.0, 17442012.0], [23546212.0, 15854262.0, -11930166.0, 8253422.5, -24233634.0], [-9718952.0, 15339205.0, 8695272.0, 10957921.0, -1686260.625]], [[-31951478.0, 2570978.0, -18625992.0, 16750035.0, 29360088.0], [29548744.0, -797700.875, 9054653.0, 97374.203125, 10790737.0], [9457161.0, 7076646.0, 12249394.0, -6187555.5, 4123450.5], [-6573244.5, 10107969.0, -11056076.0, -13062496.0, 22236184.0], [-16371699.0, -1794554.625, 750130.5, 6398749.0, -3539922.75]], [[-14745230.0, -8429559.0, -9408456.0, 16723499.0, 12190601.0], [-30377296.0, 9528514.0, -9187279.0, 21592978.0, 18905472.0], [15393400.0, -27391250.0, -2628408.75, 19427212.0, -13744707.0], [6898992.0, 22758100.0, -7585080.5, 37438932.0, -4977262.5], [1627525.0, -3200878.5, 3463921.5, 41270312.0, 5279604.0]], [[-1307503.5, -25083468.0, -4298135.0, -9651639.0, 18004498.0], [-8965463.0, 40620012.0, 27504416.0, -30017190.0, -16083822.0], [-35122584.0, -21557974.0, 3822386.25, 12485652.0, -48866132.0], [7201247.0, 12303668.0, 19940694.0, 13066112.0, 2010703.125], [-3315022.75, 5060902.5, 21853038.0, 6530734.5, -11290679.0]], [[-15282033.0, 16261263.0, -25885036.0, -400911.03125, -6919666.0], [-7129808.5, -4898278.0, -2973281.0, 868437.375, 13936502.0], [-32610158.0, -26309418.0, 267767.71875, -21941666.0, 4493314.5], [25166762.0, -1884884.5, 9731096.0, 27465506.0, -27793696.0], [26614632.0, -12819118.0, -7325507.0, 27134274.0, 3303053.5]], [[33558636.0, -491518.1875, 14644626.0, 11515281.0, -21717658.0], [26409106.0, -17301268.0, -15223750.0, 10319009.0, 2568782.0], [29112682.0, -28571514.0, -6790034.5, 25499184.0, 4796500.5], [-15198239.0, 4107549.75, 12240555.0, 4391416.0, -27231708.0], [3327153.0, 20210246.0, -4230619.0, -46458984.0, 8601493.0]], [[11243526.0, 33639008.0, 16448512.0, 15669151.0, -18452906.0], [-22142336.0, 4559527.5, 25201746.0, 25049040.0, -11577471.0], [-17394018.0, -30980068.0, 44760904.0, -5000991.5, 14759713.0], [-9586975.0, -5562563.0, 24305128.0, -3049397.25, -16995956.0], [21990574.0, -18885612.0, 2676798.0, -14619184.0, 5044453.5]], [[4363759.5, 9196545.0, -24339706.0, -5334270.0, -5876877.0], [30190420.0, 12466153.0, -14645433.0, 39724620.0, -4417778.0], [35426132.0, 9423892.0, -23147016.0, 4013929.75, -19943762.0], [3656979.25, -8898995.0, -54241048.0, -14037087.0, -31043930.0], [20719290.0, -8488916.0, 19711038.0, -4877804.0, 476875.71875]], [[-8764554.0, -6238192.5, 12443856.0, -7409970.0, 9874058.0], [9705800.0, 21487966.0, -5813393.0, 32986254.0, -33897368.0], [-35320636.0, -9873036.0, -16678279.0, 200596.15625, -4575267.0], [-15812929.0, -21055430.0, -18545574.0, 907326.625, -4425522.5], [8937976.0, 5947000.5, -7404322.5, -6996124.5, -38159136.0]], [[-26042108.0, 13396530.0, 4176505.75, -12857279.0, 10894680.0], [-2642648.5, 18956856.0, 6717496.0, -371235.78125, -12068691.0], [-35848556.0, 21303768.0, -6537043.0, 11120725.0, 27370414.0], [23309180.0, -40088348.0, 43061216.0, 3484257.0, 14383129.0], [3666812.0, -767234.375, 7364810.0, 1141071.375, -3047474.0]], [[-38948940.0, -1505777.625, 14063408.0, -6649369.5, 17120760.0], [-4239939.0, 34282740.0, -15469226.0, 16984768.0, 9459139.0], [-12293828.0, 1482271.25, 977141.625, -24669584.0, -6314154.0], [-25078008.0, 34576044.0, -14458200.0, -13561041.0, 28456026.0], [8750522.0, -4942634.0, 8314401.5, -25076492.0, -7035837.5]], [[-5160522.0, 12541648.0, 11895945.0, -10381738.0, 19638034.0], [-6681586.5, 15602790.0, 22581304.0, -9880756.0, 3158523.0], [-39532284.0, 21609942.0, -949318.875, -4479050.0, -5249174.0], [-33772796.0, -7338094.0, -17262022.0, -50392468.0, -13822820.0], [15921290.0, -25324580.0, 17232144.0, -5949418.5, -20161112.0]], [[-9701617.0, 5218523.5, 4859494.5, -3846683.25, 19376368.0], [24480474.0, -11946653.0, -13611569.0, -19420262.0, -19609848.0], [-9482504.0, 21569378.0, -3484269.0, -272329.03125, -10316059.0], [-18533230.0, 20039128.0, -6772413.0, 14695539.0, 9062771.0], [-21670404.0, 19397266.0, -17796484.0, 9199518.0, 34783992.0]], [[-6415850.0, 4044236.25, -1188306.125, 27050158.0, -28423740.0], [-3263983.5, -24026320.0, -32280558.0, 5724271.0, 4359675.0], [2213840.75, 4340904.5, -15274150.0, 32731626.0, 26497380.0], [-15405402.0, 18642028.0, -12142869.0, 17989056.0, -5134706.0], [-2467661.75, -11166429.0, 4569506.5, -37498020.0, -29577788.0]], [[-11976613.0, -20557898.0, 18350350.0, 6168472.5, -1078837.125], [-15503712.0, -21968844.0, -5281389.5, -25338276.0, -10474458.0], [-19403606.0, 15175083.0, 5130381.0, 5489232.5, -2940668.5], [-17531946.0, 18950628.0, 19447776.0, -3878206.5, -4591777.0], [24898246.0, -323067.09375, -30377098.0, 22767724.0, 16221372.0]], [[14425216.0, 19720612.0, 40089.84375, -11397830.0, -13906950.0], [18252754.0, 17022720.0, -25350180.0, 15833974.0, -11379961.0], [27154892.0, 15760182.0, -13487270.0, 333598.40625, -39758884.0], [-6024082.5, -10309531.0, 1190687.625, -2519624.0, 23439012.0], [-21455764.0, -15989918.0, -23344950.0, 32055360.0, 8750171.0]]], [[[8677749.0, -13654728.0, -7663027.5, -10810043.0, 3732728.25], [-13637427.0, 14881400.0, -17826552.0, 6404163.0, 26090538.0], [23627404.0, -27688446.0, -11473178.0, 3963760.0, -2980563.75], [3415528.5, -2727480.5, -3770946.75, 17564196.0, 19073492.0], [-21218070.0, 14567888.0, 17942296.0, -7937443.0, 3868989.5]], [[-20790914.0, 10521672.0, 14406144.0, -5574277.0, -12099314.0], [33708588.0, -3542112.75, -602165.375, -2974600.5, -30545272.0], [-4445502.5, 2783222.5, 8687895.0, -1114541.5, -2542781.0], [33425974.0, -17800516.0, -8292913.5, -13148806.0, 9311676.0], [29923854.0, -523139.25, 22971982.0, -12588482.0, 2561329.75]], [[409863.78125, 12417207.0, -6965928.0, 9885447.0, 4209904.5], [5820930.0, -874689.3125, -19214538.0, 12420434.0, -15022287.0], [-18037498.0, 14618928.0, 19360088.0, -18267128.0, -10451884.0], [-9194712.0, 9924224.0, 11853975.0, -9415981.0, 4446440.5], [12772540.0, -5489656.5, 6735115.0, -15680245.0, 5622983.0]], [[2396072.75, -23341404.0, 26658626.0, -25425372.0, 14218645.0], [-4255870.0, 19251112.0, 3750400.5, -4101676.5, -14083666.0], [16465995.0, -8669030.0, -26242662.0, 19898070.0, -22425594.0], [-21491188.0, 10292801.0, -17896652.0, -7400780.0, 13963639.0], [-4653937.5, 5267266.5, -5983461.5, 5200760.5, 17791278.0]], [[27812094.0, -29489644.0, -15996801.0, -18943352.0, -13038591.0], [-19937630.0, 32188586.0, -1459875.625, 2227397.75, -10497608.0], [-786796.25, -15814932.0, -16133057.0, -7260648.5, -28476712.0], [1125048.125, 15403009.0, -15960015.0, -25294400.0, -18429648.0], [-34449388.0, 20234334.0, 912588.25, -10979109.0, -11712722.0]], [[25432042.0, 43902168.0, 29548624.0, 3518132.0, -2945081.5], [-2125713.0, 8840184.0, 23498954.0, -3353084.25, -13520255.0], [-41122500.0, -14076414.0, -10040858.0, 3703695.75, -4607107.5], [14834896.0, -21621150.0, -1431256.125, 2288253.75, 29831798.0], [-7330242.0, -302377.09375, 21109414.0, -15632381.0, -31213236.0]], [[-11514231.0, -20700368.0, 3915974.25, 17915268.0, 5188963.5], [-10690415.0, 23095176.0, 31648404.0, 4156191.0, -9748221.0], [24010266.0, -35930116.0, -16540095.0, -34342436.0, 3575614.5], [477294.59375, -5975839.5, -9398924.0, -22495436.0, 6649851.0], [-656194.6875, 14211213.0, -18879408.0, 2605949.5, -6013080.5]], [[-4824454.0, 14886165.0, 12197346.0, 1172457.0, -15192025.0], [28755314.0, 25360926.0, 18259018.0, 18524298.0, 10693922.0], [-13916721.0, 11829265.0, -6680502.0, 5617046.5, 10183035.0], [-13331017.0, -17178696.0, -9237341.0, -4444172.0, 3481496.25], [-15280245.0, -3773288.75, 10637248.0, 13048208.0, 25765980.0]], [[8898931.0, -13736156.0, 2391614.25, 11820776.0, -22915762.0], [24985660.0, 18525822.0, -18823824.0, 18385772.0, 23514736.0], [10103489.0, -17424262.0, -9023266.0, 1302660.0, 13869981.0], [-6675792.0, 14184102.0, 13753796.0, -10068987.0, 17438940.0], [-13458015.0, 27769308.0, 14391073.0, -233046.84375, -21391518.0]], [[-27807724.0, -17024890.0, 23161534.0, -1495164.0, 6395478.5], [13246959.0, -25508152.0, -17226996.0, -13639848.0, -25131372.0], [1730659.625, -1869340.875, 29278634.0, 2823153.0, -8553791.0], [-24867956.0, -17843002.0, -5589151.0, 13247506.0, 15053226.0], [-10685869.0, -5511877.5, 46195040.0, 13062174.0, 491586.90625]], [[-24725514.0, -19514448.0, -13890405.0, -37059540.0, -3675874.75], [-11429595.0, 9832069.0, 10986126.0, 2130591.75, 20475518.0], [3674779.5, -7190847.5, -36246012.0, 18238096.0, -6589881.0], [22941828.0, 13194903.0, 17781932.0, -19531420.0, -18859842.0], [-15882813.0, -23350182.0, -5940852.0, -46650612.0, 16077722.0]], [[-16049722.0, -24175926.0, 12472800.0, -9479825.0, -19712674.0], [3053130.5, -29571300.0, -2172569.25, -30590260.0, -14020471.0], [7846239.0, 40967608.0, -3354448.75, 27215240.0, 9936745.0], [-20289120.0, -2272104.25, 21583490.0, -2372552.5, -17111640.0], [5768641.0, -15250194.0, -2154371.75, -8213310.0, 7304070.0]], [[-20952798.0, -12610392.0, -24468208.0, 4325301.0, -48530012.0], [-12631723.0, -13353934.0, 12271287.0, 30151322.0, -22361348.0], [3375981.0, 32652302.0, 13680290.0, -17402436.0, -13417788.0], [-8385339.0, 13256601.0, 39208208.0, 17453106.0, 9896227.0], [-8844174.0, 12355215.0, 25164436.0, -1269096.125, -26315778.0]], [[-30629444.0, 2978927.25, -3758927.25, -3574725.0, -11044334.0], [-12658417.0, 13414741.0, -16797888.0, -16543979.0, 14651721.0], [-20475508.0, -36289272.0, 4631977.0, 7754247.0, 1227614.25], [31491222.0, -28156424.0, 2976058.25, 6419688.5, -11982843.0], [15561097.0, 9743890.0, 8335809.0, -15537966.0, -37655512.0]], [[1267155.625, 10047179.0, 5536839.5, 37722332.0, 12542622.0], [-11884290.0, -2503582.5, 8135619.5, 1260050.625, 24035226.0], [21382072.0, -11014446.0, -22216966.0, -9565801.0, -9278336.0], [-1729617.75, -7387423.5, -10722844.0, 23330828.0, -1027795.25], [-23866278.0, -1836054.75, -1382278.375, -7188133.5, 4766695.0]], [[16480746.0, -8874858.0, -17530044.0, 1935958.125, -16661391.0], [13248067.0, -17284352.0, -1008692.1875, -19805832.0, 12939626.0], [14715252.0, 4633850.5, -35236620.0, -40592732.0, 7640658.5], [2205720.0, -25497024.0, 14957220.0, -22600548.0, 2478979.25], [-10104759.0, -4841851.5, -5677686.5, -6917227.5, 6984635.0]]], [[[2736102.75, -31827990.0, -9598617.0, -36186444.0, -28875504.0], [9463184.0, 17721866.0, -12195019.0, -17584108.0, -33068448.0], [2151701.0, -32148464.0, 1807565.125, 1610520.375, -6503406.0], [-432807.4375, -22276240.0, -11179581.0, -26925764.0, 19261110.0], [39154884.0, -16567123.0, 22429206.0, 15203439.0, -17242832.0]], [[13005932.0, -29052762.0, -6991617.0, 5791333.0, 5579385.5], [6516244.5, 43487808.0, 2698878.25, -3741312.0, -14730512.0], [-3050078.5, 1793616.125, -7668049.5, 15435354.0, 1519931.75], [3683763.0, 1264794.125, 6698362.5, 42101312.0, -15254099.0], [-4519863.0, -20795052.0, 12033673.0, 9154960.0, 25609610.0]], [[-34260612.0, 14945327.0, 16706610.0, 11179900.0, -5040559.5], [-10589396.0, -10373544.0, 10480203.0, -1501085.125, 10116700.0], [-2974442.75, 11969312.0, 8767446.0, -5488543.0, -289105.75], [15638517.0, -13639342.0, -8536816.0, -6292381.0, 6814819.5], [-12661435.0, -20334452.0, 14407898.0, -25450512.0, 31026684.0]], [[11470110.0, -12072476.0, 6302056.0, -4232617.0, 18027370.0], [-16050399.0, -11237830.0, -6765271.5, 10266771.0, -10830598.0], [12613843.0, -9197772.0, -15524725.0, 11248746.0, -3941750.0], [2886279.0, -3306205.5, -10441826.0, 12612133.0, -3626535.25], [-15522039.0, 2508149.0, 27140440.0, 13141037.0, -1080032.375]], [[-34127320.0, 5900437.0, 2889775.0, 12165831.0, 21735276.0], [2277272.5, -4126636.5, -1527431.375, -211311.21875, -9566710.0], [6913592.5, -38102904.0, 27287392.0, 5327141.5, 18838102.0], [3702295.75, -1243513.125, -19502230.0, -5428272.0, -8867836.0], [8455379.0, -21530734.0, 7534361.5, -5849786.5, 13226816.0]], [[-21650948.0, -32589384.0, 30585420.0, 11290250.0, -6529615.0], [17991114.0, 6625715.5, 6859101.0, -125336.9375, 41168848.0], [16326963.0, 11901884.0, 3874587.25, -19860460.0, -23376590.0], [36899760.0, 18670008.0, 16677550.0, -8642504.0, 510332.5625], [-26791152.0, 13735306.0, 12219032.0, 5189583.0, -8353718.5]], [[15492150.0, -10292936.0, 24926690.0, 48752508.0, 2253853.5], [-16963248.0, 9077353.0, -15299034.0, -17083212.0, -16880894.0], [47440768.0, 17778014.0, 17475958.0, -18646514.0, 21771204.0], [2884792.5, 4206026.0, 38928660.0, 16300283.0, -9632823.0], [-18019908.0, 7916206.0, -9278615.0, 5285833.5, 39491688.0]], [[-17178356.0, 16187543.0, -7168476.5, -33871716.0, 4050755.75], [441287.15625, -8973953.0, 20174904.0, 653048.0625, -5489193.5], [3886185.0, 17668460.0, -36436476.0, 27233496.0, -33951992.0], [12967905.0, 2432037.75, 1502541.5, -10081433.0, 6874265.0], [-21895786.0, 22321186.0, 24461034.0, 10165410.0, -13593506.0]], [[16980310.0, 4176407.25, 16195984.0, 9609671.0, -7633294.5], [-18739404.0, 14421882.0, -13971116.0, -410911.78125, 24617586.0], [23044990.0, 7724266.5, -30538416.0, -241376.421875, 15171688.0], [-5976528.0, 2227456.5, 14347791.0, 15616493.0, -24209752.0], [-5626512.5, -20276874.0, -758736.3125, 108853.4765625, 2243538.0]], [[23937542.0, -11874189.0, -9336530.0, -8570517.0, 24332760.0], [12304995.0, 16341987.0, 5989062.5, 38749104.0, 398075.09375], [15056795.0, -36281264.0, 14270585.0, -25454392.0, -711852.6875], [-13373265.0, 11514478.0, 2321932.75, 13849251.0, -19353272.0], [-15023664.0, 7683351.0, -11880184.0, 7740755.0, -14703826.0]], [[7657575.0, -21832310.0, -13819848.0, 15990025.0, 1620043.375], [10066719.0, 25523766.0, -7046264.5, 14332372.0, 2275227.0], [-4850704.5, -28253936.0, 7560265.5, 18825048.0, -1502346.625], [-6087680.5, 11943676.0, 1054992.75, 28926180.0, 40993424.0], [10724744.0, 34061404.0, 557207.625, -4757452.5, 21150096.0]], [[-19237972.0, -17375304.0, -23024290.0, -4369242.0, -16057735.0], [-1030308.4375, 20157010.0, -9064998.0, -7807103.5, 14764440.0], [-1962268.375, -3170868.0, -5846449.5, 9648704.0, 28863582.0], [-20586396.0, -1908603.5, -3131008.5, -8939109.0, -21608348.0], [13615664.0, -5865226.5, -2716401.5, 33209860.0, -29873644.0]], [[18150588.0, -15564418.0, -3984992.5, -6130977.0, -35688384.0], [16771302.0, -3113852.0, 8795326.0, 17328936.0, 1923301.5], [-6288760.0, 12575792.0, 10923941.0, 3722116.25, 8912643.0], [30356034.0, 4415048.5, -1823565.375, 32161200.0, -18757616.0], [-16029232.0, 5775957.0, 17863236.0, -19253662.0, -14399445.0]], [[-386967.9375, -1049170.375, -12413706.0, -21468422.0, 5790780.5], [-414784.40625, 36723720.0, 3794598.75, -2480127.5, -21409992.0], [16930094.0, 17406882.0, -875098.375, -23626632.0, 7548234.5], [-7794906.0, 9304544.0, 12143564.0, -35230800.0, -8371080.0], [18461894.0, -1940194.25, 4624075.5, 1096562.125, 3087722.0]], [[-28405000.0, -6205779.0, 24342484.0, -27015152.0, 1402463.875], [23097486.0, -59795140.0, -3867360.0, 18980328.0, 18954304.0], [-8710467.0, 16960032.0, -16525389.0, -3423147.0, -7548815.0], [-25560828.0, 2262082.5, 3257641.5, -8425947.0, -4714297.5], [19766918.0, -3590283.0, 11233054.0, -41894260.0, -2628879.75]], [[17887896.0, -9295775.0, 1067850.375, 3534843.5, -3735880.5], [6618568.0, 18064682.0, -9527721.0, -39195240.0, 17182362.0], [-15604092.0, -13312772.0, -2214435.25, -557284.375, -21801648.0], [12359566.0, 19818108.0, -21343578.0, 22781408.0, 30792238.0], [-33080820.0, 1210342.0, 13234258.0, -4889785.5, -13544575.0]]], [[[19800758.0, 2137056.5, -18505524.0, -5091175.0, -10905194.0], [14208158.0, -7999644.0, 29831142.0, 5139967.5, 2977567.75], [21995260.0, 9159081.0, 15694265.0, -24946752.0, -14003079.0], [-11610481.0, 20490846.0, -37840956.0, 9277737.0, 6592009.0], [-34216068.0, -20124140.0, 26456214.0, -1571023.625, 23797186.0]], [[28526644.0, 4830770.5, 2757063.0, 1546737.5, -16498192.0], [-9533464.0, 8564827.0, -18767980.0, -3367737.0, -11654117.0], [-10083863.0, 31056422.0, -60317464.0, -9374670.0, -16518799.0], [-5682554.0, 3466776.0, -10368448.0, -39750296.0, -36217.140625], [-19014962.0, -10270030.0, -17649822.0, 3970972.0, 12364728.0]], [[15578111.0, 4357867.5, -2729943.25, -7747307.0, -1321054.375], [3764886.5, -8488708.0, -4597102.5, -12683896.0, 282382.59375], [-12471060.0, 2761790.75, -4140564.0, -23241622.0, 35877752.0], [8052334.0, -13357005.0, 14139776.0, -9081126.0, -4223243.5], [27276628.0, -13413849.0, -4367665.5, -9718899.0, 23025844.0]], [[5578488.0, 16724269.0, 14554959.0, 8613744.0, -19937696.0], [-23427430.0, 12938804.0, 10650140.0, -8718082.0, 26772550.0], [5559589.0, -2246022.0, -6318453.5, 6199012.0, 1789365.25], [668169.3125, -28386040.0, 27812284.0, -1304018.25, 12729548.0], [618264.5625, 19055182.0, 12045435.0, -1477965.125, -4610070.5]], [[16995598.0, 11330076.0, -30562172.0, 16254197.0, 18227140.0], [4559208.5, 24188182.0, 14008269.0, -8385741.0, -9418739.0], [17194300.0, 4502817.0, 9856922.0, -3517217.5, 10354587.0], [-18913050.0, -10105472.0, 2915285.5, -2638570.0, 173244.46875], [16088608.0, -35344864.0, 5711164.0, -28226952.0, -19263106.0]], [[19817764.0, -28089788.0, -18528196.0, 7854509.5, -23060704.0], [-16853354.0, 4117347.75, -15488190.0, 17736912.0, 14076108.0], [11538613.0, -29823180.0, -7357760.5, -8516178.0, -41575288.0], [14389888.0, -7389163.5, 4947441.0, 19113888.0, -40134668.0], [-13129849.0, 21768622.0, 1568801.125, -12896732.0, -9792903.0]], [[-5246656.0, 14041097.0, 21741976.0, -11475251.0, 14195343.0], [-5143636.0, -13681481.0, -13368223.0, 39783696.0, -33647760.0], [15440340.0, -22126808.0, 36018020.0, 14091872.0, -9295.9091796875], [-21513906.0, 32695580.0, -24810922.0, -17274750.0, -18693418.0], [-3111595.0, -7708683.5, -6103899.0, 4583823.0, -22754044.0]], [[34921312.0, 16362258.0, -12559823.0, 3997000.75, 21095422.0], [-16792388.0, -29521970.0, -25181142.0, -1832955.0, 27892614.0], [-1350106.0, -5066202.0, 7080007.0, -8936547.0, 23498964.0], [-7014279.5, 3717500.75, -8284599.0, -7499832.5, 4078106.75], [-2176386.0, -4742930.5, -3269750.25, -18275478.0, -16706438.0]], [[29228754.0, -7250548.0, -27492904.0, -28315428.0, -31818606.0], [4275734.5, 49021952.0, 4906465.0, -4157270.25, 36311208.0], [-32769414.0, 31249524.0, -34146736.0, -3384123.75, -8294200.5], [8868083.0, 3054589.0, -1918977.75, -14688955.0, 6165934.0], [23131842.0, 26910252.0, 1129228.125, 6849746.0, -22974350.0]], [[-16952932.0, -14391094.0, -56754036.0, -9145388.0, -886872.0], [14218665.0, -16876852.0, -7355506.5, 23555118.0, 7503654.0], [-18479000.0, -22185208.0, -9512497.0, 139375.015625, 31603836.0], [-30951770.0, -6222336.0, -10706755.0, -6554223.0, 626539.625], [-12305998.0, -23128974.0, 10695493.0, 9949563.0, 2001777.125]], [[18980868.0, -37085688.0, -4045931.25, 4357599.0, 27096138.0], [-16048244.0, -21609862.0, 9992133.0, 18248160.0, -6997957.0], [-9983126.0, 11946890.0, 10172010.0, -1798724.75, -10911842.0], [-15120576.0, -19313996.0, -37731504.0, -18870072.0, -3538581.75], [-7005018.0, 8418617.0, 5281471.5, 12700397.0, -371953.03125]], [[-6082777.0, 2121765.25, 17354148.0, 21397720.0, 4825831.5], [-12812446.0, -1396788.375, -4346918.0, 22062762.0, 6834537.5], [-14055314.0, 20830444.0, 7445731.5, -3729713.75, -10351225.0], [4694315.0, -3828836.5, -2038687.375, -1450609.75, -14536799.0], [8008638.0, 293333.53125, 9166505.0, 24601350.0, -10871577.0]], [[-8714958.0, 11020548.0, 8089336.5, -30400510.0, 3895483.5], [6290083.5, -10437438.0, 32574922.0, 7136032.0, 8501633.0], [8319955.5, 11647633.0, -24448006.0, 32045580.0, 23838196.0], [31100556.0, -17880858.0, 5672053.0, -27045472.0, -31095084.0], [-17646442.0, 30570384.0, 12314632.0, -13438746.0, -43213688.0]], [[-5804541.0, 19618546.0, -16169794.0, 6016738.5, -7894557.5], [6846957.5, 33486590.0, 23759688.0, 22876998.0, -8552126.0], [-13758042.0, 27524760.0, -1219376.25, 3482552.5, -12441265.0], [28255668.0, 10876199.0, 41576400.0, -15802945.0, -6119611.0], [7340943.0, -20427202.0, -31713340.0, 21236712.0, 5523430.0]], [[-10531323.0, -12159548.0, -10794930.0, -7801219.0, 4643301.0], [17924206.0, 8174828.5, 29087846.0, -760667.5625, -23411864.0], [-6013376.0, -2203016.75, -9768841.0, 6716317.5, 16348710.0], [-10028845.0, -21923788.0, 34573384.0, 28061196.0, 9786845.0], [2990154.5, 28749776.0, 12905772.0, 7266155.5, 3075569.0]], [[5206658.5, -875500.9375, -3580439.75, -20099128.0, 11605234.0], [11959733.0, -1538330.5, 617117.4375, -7265655.0, -31116308.0], [-26249814.0, 7111060.5, 976410.625, 7464328.5, -4670803.5], [19735526.0, 2591996.5, 20156412.0, -4118217.0, 8496074.0], [20453518.0, -10525394.0, -39095724.0, 27109584.0, 34042544.0]]], [[[-21656620.0, -1702905.875, 5594806.5, -13490319.0, 13594126.0], [6981972.5, 2543837.0, 24160260.0, 4878974.5, -3475110.25], [9249225.0, -2899706.75, -20284806.0, 24655520.0, -5675137.0], [-17332936.0, -2605269.0, 19535746.0, 5281068.5, -1040295.625], [138058.65625, -19804270.0, 12688192.0, 12466311.0, -4271017.5]], [[10876111.0, 445326.625, -17591404.0, -20261242.0, -2497949.5], [13279851.0, 5472496.5, 4459644.0, -2436497.25, 5490809.5], [28104064.0, -40799604.0, -16238017.0, 1820823.375, 14630555.0], [3461697.25, -8369085.0, -15114809.0, 9298954.0, 22463996.0], [9017753.0, 7457072.5, -11235366.0, 15958083.0, -2219200.5]], [[-15186861.0, -10160720.0, 1190806.75, 3830888.0, -22395698.0], [-20956312.0, 16295557.0, -11338616.0, 17032024.0, 9647549.0], [-20940498.0, -21109600.0, -16970748.0, -13029296.0, -10870508.0], [13060195.0, -30519848.0, 20476530.0, -2880825.75, -38004936.0], [-24710972.0, 27812774.0, 7497063.5, -3213589.0, -30310296.0]], [[-24008664.0, 11876883.0, 11012151.0, 50032332.0, 2762209.25], [-10520388.0, 11552389.0, -32427996.0, 7466241.5, 6297617.0], [17668350.0, 11872194.0, 11870935.0, -6061916.5, -1470505.125], [-10709306.0, -11315325.0, 11988970.0, 23157900.0, -2516891.5], [35334864.0, 13383412.0, -10664138.0, 548776.5, 2711825.0]], [[33153202.0, 19703354.0, -26967732.0, -20828686.0, 11705884.0], [9354812.0, -9551671.0, 17432218.0, 35807460.0, 21447620.0], [8755279.0, 31218256.0, 6507225.5, 5125846.0, -2709740.25], [4961928.5, -4208117.0, 5814548.5, -28034072.0, -8684820.0], [5049592.0, 27906288.0, 18200960.0, -291201.71875, 4035720.0]], [[-18153758.0, 24155324.0, 3480936.25, -10881201.0, -28438128.0], [-7889919.0, 1742847.125, -1541662.625, -2708509.5, -1350309.125], [27710556.0, -22495506.0, 3809750.75, -10911663.0, 22140796.0], [-3297815.5, -12131494.0, -5546946.5, 10170350.0, -5261908.5], [-5707279.0, -29561020.0, -1799674.125, 36659564.0, -7771689.5]], [[-35547352.0, 16796.2734375, 22537732.0, 29763542.0, 40020080.0], [356912.28125, 11824935.0, -22758614.0, -5107825.0, -11707329.0], [10309173.0, 11434892.0, -9377685.0, 8451059.0, 28935154.0], [13196555.0, -171580.328125, -6965601.0, 313043.53125, -15234087.0], [-6044056.5, -7506187.0, -14755622.0, -26659546.0, 9769711.0]], [[2812361.0, 24985240.0, -2003595.75, 19998354.0, -14909052.0], [7179603.5, -3648839.0, -39368868.0, 42054388.0, -17252308.0], [-7489646.5, 14921574.0, -29528766.0, -8337324.5, -32514630.0], [11836167.0, -24945390.0, -16675380.0, -13921016.0, 7717849.5], [-28100788.0, -611768.75, -50950772.0, -23390330.0, 11794418.0]], [[6542344.5, -28894468.0, -18207802.0, -10685768.0, -34246620.0], [5468992.0, 3110238.0, 11336211.0, -23929292.0, -12515087.0], [-11811624.0, -20455328.0, -18844120.0, 37541152.0, 9698289.0], [17615094.0, -1207065.0, 26019328.0, -7856431.5, -19564086.0], [-9347141.0, 20994640.0, -16014750.0, 30589090.0, -210646.03125]], [[-14499756.0, 12162224.0, 19547790.0, -22298390.0, 7734573.0], [-8549282.0, -5645122.0, -5427013.5, -2097763.25, -6862039.0], [-5494655.5, 21898724.0, 815782.3125, 5896009.0, 9473476.0], [17290572.0, 29733606.0, -17430960.0, 24690074.0, -821374.6875], [-30379812.0, 15318963.0, -6386144.0, 1101739.875, 7369990.5]], [[5487148.0, 8124095.5, 6260458.0, 5525080.5, -625732.125], [5659356.0, 16658823.0, 7181973.0, 9351118.0, 13764644.0], [-21320836.0, 11924282.0, 12492912.0, 11545828.0, -29451474.0], [4848415.5, -13619718.0, 5405172.0, -8914043.0, -7755528.0], [14302961.0, 20353748.0, 7829162.5, 4949876.5, -9367255.0]], [[17800056.0, -19026688.0, -7890293.0, 27499902.0, 25953002.0], [-15400853.0, -28381222.0, -2701003.75, 6285179.5, -24564940.0], [-12563420.0, 10582377.0, -23985438.0, 15584445.0, 9680415.0], [-11812192.0, 33680664.0, -12185205.0, 8518656.0, 12594399.0], [-809557.625, 7343796.0, -4083155.0, -4672105.5, -8792117.0]], [[-8356877.5, 11890893.0, -17854930.0, -12945213.0, -11166845.0], [1950360.375, -10036636.0, 14549973.0, -7499367.5, 2940380.25], [20244618.0, 164149.171875, -10319947.0, 14679615.0, 9286919.0], [-1095809.625, -12291771.0, 1966398.5, 5286833.5, -3004408.75], [1574503.0, -6432165.5, -4870618.0, 18145152.0, -19638738.0]], [[-13039688.0, -24142650.0, -11169648.0, -18598938.0, -34524768.0], [9207003.0, -15609865.0, 13170157.0, -24696.857421875, -18943954.0], [-23238858.0, 16150930.0, -19331668.0, -4173788.75, -2818791.25], [-5062047.0, -12172512.0, 25738632.0, -27584940.0, 5359854.0], [21779602.0, 37047672.0, -9313014.0, -9877905.0, -11323301.0]], [[10016023.0, -8162098.5, -2989280.0, -521824.0, -2999740.5], [-8196320.5, -4407410.0, 5342374.0, -6401001.0, -13694428.0], [-20435004.0, 3836359.5, 20598772.0, -32742418.0, -23884606.0], [-22022236.0, -1539696.875, 22530838.0, 2580603.0, 1548771.25], [-12447528.0, 21248594.0, 9890504.0, -4396407.5, 9308968.0]], [[-3745882.5, -22865858.0, -38530612.0, -8579700.0, 6443802.0], [-7529760.0, -3709967.5, -14429654.0, 8543244.0, -29649466.0], [758757.8125, -5755003.5, -4077817.5, -1507821.375, 52041756.0], [13848447.0, -5149461.5, -16052669.0, 18190404.0, 16120590.0], [-4054737.75, 6647020.0, -15528301.0, 2332998.0, -17035800.0]]], [[[-2552743.75, -25123606.0, 200311.546875, 16626911.0, -15636701.0], [4796477.5, -8804638.0, 10792011.0, -5789531.5, 25846322.0], [-48264292.0, -1264168.0, 11413524.0, 5882846.5, -2677972.75], [-335597.15625, 884894.125, -23518004.0, 21458586.0, -10163715.0], [318921.96875, 11475003.0, 169245.40625, -29460526.0, 2853487.25]], [[-18009060.0, 2193163.75, -24249710.0, 20377316.0, -2326986.75], [-10487107.0, 32922540.0, -25057104.0, 3837565.5, -9765243.0], [12124662.0, -655690.875, 10053969.0, 42088668.0, 25358794.0], [24950436.0, -4043955.75, 16424384.0, -23405816.0, 452429.625], [-13756626.0, 4772183.5, 32322322.0, 19310728.0, 19648796.0]], [[29127912.0, 17897802.0, 35903844.0, 494810.6875, -2061088.75], [18380440.0, 13097986.0, -14199764.0, -8689137.0, 16085623.0], [-12581331.0, -19508606.0, 33881772.0, 2597884.25, 5450886.5], [19856966.0, 22730792.0, -3091094.0, -15937270.0, 33533220.0], [20222182.0, 2337205.25, -9969480.0, -15187808.0, -25828238.0]], [[-44910696.0, 3119020.25, -14764551.0, -6615734.0, 27513326.0], [-9492809.0, 8674538.0, 11942533.0, 35146644.0, 36767188.0], [-7123361.5, -9284774.0, -14918091.0, -5160803.5, -20185878.0], [5961008.0, 56121224.0, 5369607.0, 18538884.0, -12333223.0], [6532400.0, -5992378.5, -12867820.0, -8136086.5, -248758.59375]], [[205441.03125, 26147064.0, 24679022.0, -5770409.5, 16689902.0], [-9317070.0, -5997425.0, 56400296.0, -8179428.0, 477039.25], [-17668928.0, -13095494.0, -20046136.0, 982815.375, -22244986.0], [25660960.0, -19095280.0, -11750596.0, 5919065.5, -36615136.0], [-18407200.0, 14663532.0, -11360445.0, 1368763.25, -8588825.0]], [[14885127.0, 215441.171875, 2696112.75, -4660499.5, 792477.5625], [-7266963.0, -11612607.0, -11561109.0, 13061361.0, -11527756.0], [-9510182.0, 5469436.5, 11603054.0, -4113779.5, -1686975.75], [7163532.0, -7789635.0, -530545.5, 12349383.0, -8738947.0], [8271188.5, 26492454.0, -22314340.0, 10414192.0, -26758522.0]], [[6669702.0, 3931141.5, 28088924.0, -32290648.0, -14856733.0], [20453120.0, -15931147.0, -17814040.0, 1836233.375, 7756501.0], [24730410.0, -887445.4375, -21681334.0, -10403670.0, 13425988.0], [-6822232.0, 13502298.0, 20031522.0, -3414615.75, 7013.2099609375], [-10578682.0, -9587071.0, 35671780.0, -22218678.0, -30751362.0]], [[630930.9375, 684506.375, 12494119.0, -5239246.0, 7042665.5], [-8983531.0, -13901046.0, -9240711.0, -3654011.25, 64265.4375], [-12465243.0, 1451191.75, -18047616.0, -1619607.0, 8120267.0], [11950844.0, -19245066.0, -23883050.0, 19556982.0, 12022300.0], [-19498994.0, -13028864.0, -19583390.0, 16463607.0, -11753435.0]], [[8406919.0, 13780222.0, -31019430.0, -4200126.0, 21451758.0], [11913996.0, 2491872.25, -4694392.5, -17111388.0, 3729151.5], [29328768.0, 22615260.0, -57972740.0, 6258221.5, -1907983.375], [-5868213.0, 7997478.0, 3339834.0, 6050214.0, -14910024.0], [-27849698.0, -763681.5625, 31158930.0, 9234440.0, 273206.5625]], [[-27807348.0, -14145428.0, 7744554.0, 31828970.0, 5829483.5], [-8249088.0, 23064122.0, -4609372.5, 32089764.0, 13052419.0], [-4688154.0, -4982703.5, 7415423.0, 7286509.5, -18053378.0], [21282196.0, -5809087.0, 3085740.0, 11328708.0, -707392.25], [-33838200.0, 23074232.0, 8557343.0, 1806477.75, 7361346.0]], [[-11466939.0, 19537996.0, -37255176.0, -1222933.875, -26657348.0], [-29263078.0, -7113293.5, 9355192.0, -10682250.0, 9637196.0], [-1505459.0, -11483322.0, 13343970.0, 18859784.0, 7950321.0], [-3409392.75, 17519124.0, -27108206.0, 14005968.0, 12899542.0], [-10732715.0, 11233460.0, 4741023.0, -7217309.5, 558726.4375]], [[16679218.0, 12001780.0, -21908424.0, -1950235.5, 28693600.0], [-10462607.0, 12481369.0, 9378909.0, 14407224.0, 2568321.75], [-6229481.0, -6677532.0, 25719128.0, 5770333.5, 7584659.5], [15058678.0, -26746060.0, 46445808.0, 13323468.0, -1472078.375], [17891456.0, 18640436.0, 6609831.0, -41373144.0, -17675208.0]], [[-1433580.25, -11730502.0, -30470466.0, -15930499.0, -18305556.0], [18343690.0, 50619480.0, 12099747.0, 26425274.0, 8417390.0], [-13690152.0, 199438.578125, 10194951.0, -12250691.0, -11285546.0], [35960580.0, -2583746.0, 4790839.0, -16105185.0, 10086229.0], [42604068.0, 8586462.0, 5493586.5, -2687783.75, -25271292.0]], [[18919302.0, 27873532.0, 4482468.0, 33594748.0, -2898127.5], [18687422.0, 8944380.0, 6328836.5, 11536218.0, -12015625.0], [-24672888.0, -10471173.0, 8018253.0, -4325902.0, -39584756.0], [-24719192.0, 19124892.0, 25392674.0, 8286745.5, -5715652.0], [-54749372.0, -2227700.0, -6895756.5, -9994214.0, 6966732.5]], [[42243732.0, 22366764.0, -2213949.75, -8943031.0, -10719713.0], [-10869076.0, -10853781.0, -8382076.0, 11970355.0, -15973339.0], [5772351.0, -10320329.0, 25344612.0, 7754641.5, -11443121.0], [35239360.0, -18792800.0, 5739144.0, -3832114.25, -699891.375], [-10202325.0, -414583.34375, -10431605.0, -15640831.0, 10948554.0]], [[2451929.0, -11427577.0, -25381254.0, 13564134.0, -661937.4375], [3856567.5, -8046678.5, -17872518.0, -10243079.0, 4292856.0], [-12739015.0, 15939589.0, -13949525.0, 11362659.0, 20334514.0], [4143366.75, -35631400.0, 2290081.75, -21785668.0, -695021.4375], [-15806898.0, -16698066.0, 20979414.0, -6412336.0, -25294374.0]]], [[[35092392.0, -23784670.0, 5124078.5, -26589732.0, 938557.5625], [-21721742.0, 34254480.0, 14985360.0, -13403247.0, 1076036.0], [-34251876.0, -33592628.0, 1082522.25, -6592366.5, 3061805.75], [-3428331.0, 428559.75, 22070982.0, -9548170.0, 10061772.0], [10757721.0, -9776532.0, -8528805.0, -8889982.0, 10785562.0]], [[-36403920.0, 3936483.0, -22002622.0, 20714826.0, 10822962.0], [24822324.0, -9570943.0, 17924478.0, -11907020.0, -8019610.0], [11471326.0, 11969436.0, 16975080.0, 4015575.0, -1446494.25], [8505998.0, -4316232.5, -1797811.375, 14684988.0, -13018928.0], [5050109.5, -34490748.0, 29385732.0, -6145956.5, -9941195.0]], [[3747110.5, -928503.0, 12228056.0, -20847990.0, -550383.0625], [25840824.0, 12302247.0, -215279.3125, 25871808.0, 26336648.0], [10300221.0, -7745659.5, 19331580.0, -8612132.0, -5464744.0], [-6052959.0, 10211640.0, -541060.625, -23516966.0, -23553618.0], [37906872.0, 5464936.0, -2006022.75, -20514266.0, 4548576.0]], [[-6072821.5, -20091352.0, -394655.625, 11358848.0, -26204536.0], [-8558650.0, 5910048.0, -18218256.0, -8013071.5, -3000908.0], [-32222556.0, -20222578.0, -10514500.0, -9392605.0, 3728119.0], [29450342.0, 17241338.0, 15711628.0, 10159386.0, 8415856.0], [40008256.0, 9420891.0, -25417520.0, 27015498.0, -44793700.0]], [[7834948.5, -10948952.0, -16168965.0, -17633848.0, 5734012.5], [-21579324.0, 242523.640625, -24523848.0, 19225048.0, -20266928.0], [18252486.0, 7077618.0, -17473026.0, 23209990.0, -15733522.0], [-7647481.0, 17171034.0, -17294806.0, -3370192.25, 7263244.0], [46938564.0, -20276896.0, 3534314.0, -24212626.0, -11200190.0]], [[-23129664.0, 10917180.0, -10337093.0, -2279103.0, -25976292.0], [-24377920.0, 3148015.5, 2646604.25, 3906999.75, -2804829.0], [574607.1875, -25009800.0, 16659378.0, 4718935.5, -5874572.5], [-46640400.0, -16201240.0, -17056760.0, -13937223.0, 29964622.0], [29537034.0, 14177813.0, -15006803.0, -15591455.0, 17605332.0]], [[3460641.75, 15766559.0, -14041060.0, 7996941.5, 9344028.0], [-7197238.5, -22537240.0, -8602864.0, -14918736.0, 12861080.0], [-14005946.0, -21095810.0, 30552026.0, -10205152.0, 718418.5], [-12271043.0, -5669708.5, -12224901.0, 8065820.5, -9374420.0], [23539658.0, -15474864.0, 29998880.0, -1391348.375, 1117550.5]], [[2581920.5, 12789030.0, 441065.71875, 15429081.0, -9033061.0], [-34962464.0, 51590920.0, 26625960.0, -11947064.0, 35442976.0], [31353216.0, 21032640.0, -9662980.0, -30222688.0, -20927238.0], [-8196789.5, -13826864.0, 12808390.0, -18800230.0, 16764646.0], [15495393.0, 11944275.0, 53441.0390625, -3927304.5, -5944405.5]], [[-8005162.5, 6292349.5, 10750012.0, 10840927.0, -4678428.5], [-25742616.0, 19218616.0, -2155957.5, 4970124.5, -2735821.5], [-21216668.0, -15469835.0, 4715262.5, -26893002.0, 16469304.0], [-23392584.0, 4390354.0, 2694658.0, 10283260.0, 11067381.0], [8712226.0, 20817102.0, -9767438.0, -1633233.25, -10297612.0]], [[18163222.0, 23607358.0, -43511712.0, 70967.8125, -13043766.0], [23927536.0, -6963826.5, -13448637.0, -15274752.0, -22390272.0], [-5813936.5, 28138170.0, 27930634.0, 16731138.0, 12468963.0], [3083107.5, -6977289.0, -57112116.0, -21721164.0, -4325900.5], [6052909.0, 14422536.0, 22242468.0, 227185.921875, 7406643.5]], [[19473236.0, 10432325.0, -3820832.75, -14804367.0, -6064162.0], [-2333910.5, 17895640.0, -744110.3125, -5992291.5, -451272.3125], [-292868.15625, 2308189.0, 35695088.0, 10552771.0, -1223237.75], [4615948.0, 3456826.25, -1729514.25, -9471408.0, -17771300.0], [-4282806.5, -37696044.0, 4812645.0, -8784218.0, -124875.09375]], [[-7664392.5, 9715581.0, -5351159.5, 3111953.75, 2244685.75], [3160883.25, -801244.3125, 28031394.0, 25846800.0, -6020671.0], [-16978762.0, 1601289.0, -11635793.0, -9892867.0, -12588272.0], [21753576.0, -7918470.0, 11713521.0, 13028528.0, -11941313.0], [4261310.5, -37193200.0, -3278124.0, 3199134.5, -8818727.0]], [[-513657.65625, 38918292.0, 5250376.5, -28438338.0, 9637617.0], [16426574.0, -9267437.0, 11143815.0, 21954518.0, -33825032.0], [-3808651.25, -8986622.0, -10650132.0, -17666070.0, 2950767.0], [-11314119.0, 3697819.25, -18402772.0, 19999568.0, -13342155.0], [1766386.5, -4547036.0, -5691201.5, -3135959.25, 4796533.0]], [[-18519354.0, -12239700.0, 48728040.0, 28123596.0, 7633831.5], [-2652446.25, 10944610.0, -6199686.5, -18079140.0, 19048924.0], [17596980.0, 5176824.5, 8897590.0, 5938258.5, -15452565.0], [-16193784.0, -15985954.0, 8120669.0, -10581107.0, -6599088.0], [-9879914.0, 5243.86767578125, 6364911.5, 10429907.0, -2549058.75]], [[-1724819.0, -1696505.5, 13661928.0, 8597730.0, 3268534.0], [-13231557.0, 8912588.0, 14841189.0, -30594500.0, 13119106.0], [-10069038.0, 21072818.0, 15884214.0, 4858423.5, -3399656.25], [2336932.0, 2631317.75, 9784464.0, 2059179.125, 1497880.375], [9380472.0, -8821378.0, -7683410.0, -15162009.0, 15578433.0]], [[17013648.0, -1350115.75, -35465372.0, -14562798.0, 9095571.0], [23014648.0, -7895383.0, 4659290.5, 5057053.0, 39466804.0], [-7365452.0, -2662228.5, 23257744.0, -3675244.5, 3919037.0], [-733221.9375, 15446479.0, 29734548.0, 37115108.0, 18454878.0], [18896644.0, 43169616.0, 1544488.125, -31372102.0, -18912066.0]]], [[[-2398752.0, 20697190.0, -12301073.0, 3366099.0, -21923444.0], [1536849.375, 25341258.0, 24079490.0, 19504008.0, 562341.75], [23848942.0, 9858458.0, 14340678.0, -21175088.0, 38745032.0], [-17278786.0, 6368727.5, 5990272.0, 20358704.0, -2546143.75], [-44249652.0, -31868378.0, 12760754.0, 24888694.0, -2669250.5]], [[30261558.0, 4546849.0, -11853529.0, -39995916.0, -6944205.5], [-15655008.0, 9927398.0, -8998522.0, 3616352.0, 1967220.0], [10446153.0, 3909867.75, -6511317.0, -5843770.5, -1691261.25], [-321274.40625, 8465210.0, -8199444.5, 9382925.0, 26902728.0], [-21784734.0, -9177343.0, 6043215.5, -6580329.0, 14789414.0]], [[20432078.0, 8290448.5, 7286457.0, 27825232.0, -238668.140625], [-24634920.0, 8067006.0, -1865474.625, -2164180.75, -1546228.125], [-9967327.0, -485581.15625, -909042.5625, -941133.8125, -36106120.0], [-32204950.0, -30921216.0, 795687.1875, -1903998.875, 3335923.5], [-360572.25, -9160399.0, -10207663.0, 12017779.0, 283850.625]], [[4811833.5, -12051399.0, 2606356.5, 21579052.0, 14763614.0], [-11392430.0, -11976523.0, -7621089.0, 5426118.0, 35575420.0], [-3090723.75, 5204554.0, -8573925.0, -19767774.0, 9626814.0], [15040958.0, 1949004.625, -14826188.0, -14735004.0, 21140460.0], [16245548.0, -9819393.0, 10108116.0, -7257669.5, -6545920.5]], [[-17313900.0, 278389.125, -6324580.0, 47409488.0, 18406140.0], [2935216.5, 28864044.0, 28650674.0, 15058869.0, -17965504.0], [-12856382.0, -30374122.0, -21823552.0, 4191082.25, -819986.375], [13313433.0, 18473716.0, -17439856.0, 22686400.0, -11108648.0], [36689124.0, 4977752.0, -31187154.0, 16660388.0, -30223268.0]], [[-9802648.0, -9647909.0, 10003617.0, 7102808.0, 8625268.0], [-30763918.0, -24813568.0, -6505290.0, -21669930.0, 846465.625], [-5613723.5, 1560863.5, -14501489.0, 1753131.25, -4805520.0], [12710602.0, 17070204.0, 4166119.75, -15930107.0, -14983537.0], [-30138918.0, -14367926.0, 11930271.0, -17242930.0, 15297006.0]], [[-10446458.0, -22679872.0, 457018.40625, 19428448.0, -17336588.0], [475302.96875, 921738.9375, -1049952.625, 5885134.5, 23627538.0], [14288124.0, 11134075.0, 16689869.0, 10367342.0, -639054.3125], [-15142267.0, 18035192.0, 242858.015625, 2297573.0, -6685227.5], [-20469496.0, -18043994.0, -2386297.75, -19661140.0, 4926601.0]], [[-9355268.0, 36836920.0, -663128.1875, -28711900.0, 7058170.5], [-22886866.0, 17276778.0, -28967214.0, -1617648.875, -7943357.5], [8172690.5, 25574964.0, 3992828.25, 14115152.0, -24802326.0], [6648929.0, 31817258.0, -44902852.0, -17679072.0, 1532489.875], [16871574.0, 8081641.0, 2955322.5, -1725853.375, -18500696.0]], [[5583388.0, 6849972.5, -13561992.0, -6921577.0, 10777286.0], [4877285.0, 21184510.0, 26769054.0, 33869448.0, 9245836.0], [6641637.5, -20633454.0, 6087047.5, 16311156.0, 4158746.5], [24335440.0, -19393534.0, 14299722.0, -11624076.0, 6446151.0], [-2003452.75, 121242.984375, -31340684.0, -9449518.0, -1726343.25]], [[277402.0, -5714841.0, 2826404.75, 12473866.0, 8324712.5], [-31320874.0, 1578179.875, 5035540.5, -3865327.75, 6396601.0], [311691.90625, 12778208.0, 12311025.0, -244205.625, -9682828.0], [-13945764.0, 3828786.75, -17388748.0, 16944576.0, 14399771.0], [8349499.5, 20781236.0, 1551168.25, 973456.8125, -3835110.0]], [[27882822.0, -16918140.0, 31101996.0, -12027739.0, -16240635.0], [5430911.0, -16026540.0, -13085774.0, 13506054.0, 24752666.0], [2776267.0, 1915080.375, 7157919.0, -27298192.0, 14058366.0], [-7073859.0, -4682393.0, -26253954.0, 26440214.0, -51364272.0], [3921511.5, 39208388.0, -2176453.25, 5916276.5, -24448454.0]], [[-5260512.0, -8996302.0, 7118951.0, 295204.125, -32041088.0], [-22543492.0, -7209470.0, -25325648.0, 11060289.0, 5731863.5], [-14390199.0, -9763162.0, -9516232.0, 15884243.0, -1309091.5], [-16466847.0, -7484336.0, -20887208.0, 7331785.5, -22809546.0], [9222249.0, 18332154.0, -9080879.0, -19149082.0, 4925561.5]], [[14415081.0, 26088474.0, 5111764.5, -2916093.5, 28090312.0], [-21088096.0, -28061464.0, -6265277.5, 26483178.0, 13415954.0], [29365920.0, 30872256.0, -800446.1875, -8098450.5, -502590.1875], [-6235553.5, 6162231.0, 2588623.0, -10168238.0, 4440451.5], [-3130061.5, -10182134.0, -14200172.0, 27498608.0, 466330.125]], [[-2880194.25, 2770827.75, -12071238.0, -8705351.0, 5014050.5], [-28203840.0, -5209991.5, 7160819.5, -29659620.0, 15593592.0], [7720201.5, 9031354.0, 12407147.0, -4267912.5, -12053846.0], [13990530.0, 11591954.0, 498990.1875, 13969158.0, 8291265.5], [9139448.0, 14248093.0, -21302688.0, 16139777.0, -18867768.0]], [[4014553.75, -49450536.0, 18355904.0, 12212316.0, 19459308.0], [-5546861.5, 3232663.5, -2377044.5, -23287982.0, 21766878.0], [-8762543.0, -11269110.0, 1352823.875, -5924458.0, 4913765.5], [-33135564.0, -27032450.0, -20625272.0, -3902838.75, -20886750.0], [8825979.0, 12765966.0, -13340518.0, -15057644.0, 6079362.5]], [[-2308508.5, -13833102.0, -1105174.625, 2234656.5, -16331029.0], [13460842.0, 522777.96875, -29850972.0, 27354658.0, -17634034.0], [24621452.0, -12254510.0, 1381679.0, 2358250.5, 10503693.0], [-14299994.0, -2973842.25, -17104578.0, 2543906.5, 1097979.5], [1645575.625, -4727959.5, -25257772.0, -5706384.0, -6493121.5]]], [[[16310172.0, 3261606.25, -18750312.0, 6961447.0, -18473290.0], [-10868431.0, 3802608.75, -2624912.25, 6870371.0, -23540836.0], [-26086122.0, -10547144.0, -1668198.0, 7320118.5, 6990100.5], [10169772.0, 6936247.5, 26151372.0, -5797862.0, 14796865.0], [15581447.0, -22263706.0, -31820042.0, -20559486.0, -20219802.0]], [[19446950.0, 23549022.0, -21796962.0, -2038589.75, 21082644.0], [44005236.0, -15322872.0, 28354980.0, -26239546.0, -1591670.625], [-10182542.0, 7065475.0, -399511.96875, 12631243.0, 8015146.0], [7373725.5, 18615672.0, 21609640.0, 14901781.0, -18394202.0], [11976969.0, 17713864.0, -1721481.0, -3241282.25, -9307335.0]], [[-14236067.0, 14894332.0, 1054840.25, 4734568.0, -4754213.5], [32905620.0, -14356609.0, -852069.0, 24790490.0, -5173849.5], [-44463272.0, 2775528.5, -3486589.5, -6913147.5, -16065156.0], [17439416.0, 9409172.0, 20459918.0, 41068180.0, -3386070.25], [3828082.5, 31529860.0, 21071514.0, 14423904.0, -39105156.0]], [[18478848.0, -2578167.75, -29423880.0, 14630252.0, -1957206.625], [-11737191.0, 840410.6875, -10290032.0, -40521444.0, -18668176.0], [-18861298.0, 8957463.0, 1874113.875, -15045413.0, 1989616.25], [1748446.5, 1418850.75, 8228813.0, 42673808.0, 1988736.375], [9359990.0, 4043594.5, -44027876.0, -31408476.0, 14337580.0]], [[-6714928.0, -22640130.0, 12887146.0, 1243742.625, 21570748.0], [9533161.0, -22529722.0, 488237.9375, -3150106.75, -17859120.0], [19809834.0, 23326686.0, 3829428.0, -15038743.0, 5397247.5], [9933800.0, 27489276.0, -9856457.0, -12214487.0, 18447154.0], [-6525806.0, -21634134.0, 24324010.0, -8842503.0, -3587029.25]], [[20926002.0, 20638616.0, -20270292.0, -14814141.0, -863457.125], [5632949.5, -19217306.0, -135440.75, -29569206.0, 44042276.0], [-360523.0625, -21708114.0, -20818446.0, 7222147.5, -5104791.0], [-2348305.75, 53563828.0, 3612456.5, 8565758.0, -10800695.0], [-24717522.0, 45928508.0, -10338537.0, 14339207.0, 10438656.0]], [[17575558.0, 30133494.0, -6194311.5, 11586324.0, 16869774.0], [9140168.0, -6033907.5, -15899003.0, 17111480.0, -6946115.5], [18241690.0, -9806222.0, -14534329.0, -9617064.0, -11848378.0], [18004330.0, 4228343.5, 567267.875, -7973593.5, 19231924.0], [-1205625.75, 1769995.5, -896422.25, 11410119.0, 24961154.0]], [[8191912.5, 42146292.0, -16939728.0, 4271346.0, 9489359.0], [-5772832.0, -17377080.0, 2293311.5, -10900650.0, 8235681.0], [2991543.25, -2448431.25, -20407128.0, -5597962.5, -34717688.0], [-24188476.0, -700335.3125, -21761898.0, -2666183.5, -9893794.0], [-2908563.5, 14436387.0, 9022476.0, -4632937.0, 10479636.0]], [[-16415097.0, 9532456.0, -31808802.0, 14262574.0, 6930715.5], [9941528.0, -6983430.0, 6753130.5, -2420200.75, 3591079.25], [4376364.0, 15177639.0, -13284276.0, 14117049.0, -11403555.0], [-35549044.0, 10373905.0, -29925620.0, -27764196.0, 7910319.0], [11099391.0, 14427687.0, 7957013.5, 3965711.25, -5120291.0]], [[-10341485.0, 13610943.0, -3454471.5, -1230820.625, -27854716.0], [-13363362.0, 13285257.0, -4451438.5, -7144678.5, -8185577.0], [14675808.0, -4569273.0, 10971220.0, -29908942.0, 40063760.0], [-10022718.0, 18110672.0, -7066032.0, -22280914.0, 14761815.0], [2635267.25, -23647398.0, 28472252.0, 3072578.5, -8503488.0]], [[-11860203.0, 37358788.0, 12012632.0, 21725120.0, 21765954.0], [15835722.0, 7762911.0, 15707646.0, -7424532.0, 9734305.0], [5519724.0, 28652246.0, 22998852.0, 39762340.0, 1252867.625], [2537007.5, 16278260.0, 14077027.0, 6331312.0, -381261.875], [-22109080.0, -20180334.0, 4160206.5, -19468780.0, -13938608.0]], [[24468384.0, -14578253.0, -12436053.0, -17467542.0, -19974798.0], [-8588835.0, -6899392.5, -14411652.0, -8355799.0, 15696027.0], [13177332.0, 19787710.0, 1300151.0, -18728252.0, -1770680.625], [23912292.0, -30087802.0, -18853522.0, 25429260.0, -5897981.5], [-47798996.0, -13135166.0, 7934644.5, -14327076.0, -4995500.5]], [[31225730.0, -24294986.0, -7383680.0, 12031353.0, -8692587.0], [-31982036.0, 27687136.0, 13295423.0, -2085428.75, 4949745.0], [-4872958.5, 23859508.0, -114964.2421875, -48736524.0, -12397536.0], [16685853.0, 6191125.5, 11330316.0, -7263484.5, -14257791.0], [-6765297.0, 1888946.375, 12458833.0, 779816.25, 25435058.0]], [[-33969972.0, 2126889.0, 41892976.0, 10935525.0, 6325888.0], [20632782.0, -811731.5625, 14055447.0, -9394161.0, 8177569.5], [4081133.25, 3375108.25, -1994386.875, -4509541.5, -7675512.0], [928309.625, 3154605.0, 19924894.0, 40246692.0, 7082255.0], [-11546613.0, -16609569.0, 19810164.0, -13600957.0, -8446274.0]], [[5970998.0, 13039008.0, -13411721.0, -2205916.5, -8657507.0], [4441220.0, -4127147.0, 23579370.0, -7754034.0, 28191960.0], [-3690910.5, 14421074.0, 25842520.0, 4014456.0, 13521989.0], [24177518.0, -16388169.0, 14176344.0, -22595350.0, -28987278.0], [10361990.0, 1883574.375, -13304445.0, -25968942.0, 19216328.0]], [[-8782068.0, -29299880.0, 9396698.0, -11992643.0, 31623322.0], [-7780467.0, -383735.28125, -38274608.0, -4458384.0, 34731116.0], [-32007166.0, 39217932.0, 15543039.0, -7950234.0, 2260324.5], [8936043.0, 15875322.0, -2911438.0, -10889404.0, -11472012.0], [3463654.75, -16596297.0, -14559669.0, -16600391.0, -13299603.0]]], [[[-15943563.0, -1599321.0, 23424964.0, -24410106.0, 22330602.0], [-1060258.75, 14579905.0, 7839285.0, 2220028.75, -31188250.0], [-17296300.0, 5908452.0, 2428004.0, -3137153.0, -2551771.75], [-25140096.0, 24083532.0, 6989952.0, -9402727.0, 15934429.0], [2659703.0, -5721579.5, -1561367.125, 29387738.0, 2435336.75]], [[-51850656.0, 17221436.0, -4160164.0, -7213941.0, 23618004.0], [17284572.0, -10142353.0, 6521589.5, 33640724.0, 22125202.0], [19343334.0, 10525568.0, 14383941.0, -5179010.5, 7576392.0], [-26114064.0, -23774004.0, 13570571.0, -12276293.0, -3308163.25], [-5929297.5, -28587088.0, -6169640.0, -6827988.0, 23716638.0]], [[68066.6875, 3360455.25, 22778760.0, -19988484.0, -3064320.0], [10090217.0, 9343681.0, 14005905.0, 22809808.0, 18807352.0], [-12975240.0, -22308876.0, 1836452.75, 11222504.0, 25684694.0], [23231898.0, -7271099.5, 23208316.0, -3508864.5, 22954172.0], [-9077650.0, -22608472.0, 16807524.0, 6237653.0, 4646538.0]], [[25945982.0, 919591.625, -25245070.0, 1400378.25, 23041802.0], [-4999621.5, -1403498.5, -1584336.375, -6387531.0, -9743552.0], [-7249494.5, 3007181.75, 18521728.0, 31970590.0, 81391.8828125], [-5191287.0, 6509271.0, 11670044.0, -31463738.0, -7569357.5], [4836124.0, -23236672.0, 35633900.0, -9769617.0, 31622812.0]], [[18171060.0, 13176192.0, -544041.3125, -7077984.5, 28419626.0], [-1024906.1875, -24675050.0, 12124909.0, 126989.2421875, -32744106.0], [33873672.0, 13151156.0, 5948876.0, -12740479.0, 13333182.0], [10121712.0, -4504985.0, 7068237.0, 2150113.5, 6379182.5], [-19808502.0, -8909388.0, 25007936.0, 14509736.0, 9933897.0]], [[-4022618.25, -2263498.75, -155861.046875, 18945800.0, -3734504.25], [5441622.5, -20422056.0, 14265087.0, 4249622.5, 33459588.0], [11707942.0, -3452061.25, -41688200.0, -6597720.0, -33187718.0], [79170.953125, 16910988.0, -17512122.0, 27008074.0, 15147145.0], [826940.8125, 621464.5, 7969410.5, 7487968.5, -3726811.5]], [[27039318.0, -14703147.0, 7403954.5, 8666289.0, 15692178.0], [-26660162.0, 5216907.5, 8653543.0, -7335488.5, -922802.625], [3345479.5, 7621870.5, 9457145.0, -14898477.0, 8978291.0], [14464505.0, -13512339.0, -10373435.0, -20693226.0, 922414.3125], [-26894460.0, 3701487.0, -36019824.0, -19574124.0, -20762846.0]], [[11326625.0, 15903072.0, -22239826.0, 3818408.75, 19413588.0], [-41119952.0, -1471334.875, 9373547.0, 4072433.5, -4303686.5], [11230971.0, -17126804.0, -3298970.25, -5800783.0, -17638292.0], [29415896.0, 13892198.0, -7426334.0, -19003604.0, 17622952.0], [-20487718.0, 26590854.0, -21383546.0, 11655326.0, -21946274.0]], [[782125.9375, 14285469.0, 15515544.0, 2721895.5, -16357372.0], [22075406.0, -13843304.0, -15236555.0, -13577762.0, -5246065.0], [29626344.0, 13480195.0, -472963.5625, -7182823.5, -5199970.0], [5815332.5, -34163968.0, 10363011.0, -21480016.0, -16532623.0], [-7032295.5, -7884629.0, 904046.25, 15398220.0, 21500372.0]], [[-22460100.0, 33355836.0, 41339808.0, -5238675.0, -7979932.0], [18338536.0, 5765070.5, 5260871.5, 3611941.0, 5249644.0], [29265906.0, 7414465.0, -19438720.0, -19512936.0, 23154124.0], [20048680.0, 10137652.0, -21331380.0, -7251681.0, -12587738.0], [-8377030.5, -9297735.0, -31573626.0, 22993060.0, 8228420.0]], [[-17516744.0, 20271820.0, -32945466.0, 24137736.0, -4600184.0], [18268832.0, 10581747.0, 17014280.0, -536190.8125, 359546.53125], [-3016680.25, 36284592.0, -8399636.0, 6746494.5, 12627774.0], [2826066.5, -2425732.75, -25540476.0, -1286472.625, 16809184.0], [-28289224.0, 804909.0, 15467959.0, 24970590.0, -29692856.0]], [[4979506.0, 17563632.0, -11580003.0, -21852030.0, 10855931.0], [5999635.5, 18814220.0, 41304396.0, 13668597.0, 17621364.0], [-6233348.5, 18557326.0, 8443352.0, 15368299.0, -12186133.0], [2208116.0, -8127655.5, -12463875.0, -1061198.875, -26008456.0], [18945878.0, -5634039.5, -20100334.0, -7111588.5, 1989991.625]], [[7965524.5, -3176479.5, 17394980.0, -1220091.375, 12845098.0], [-9035830.0, -7135093.5, 14588565.0, 11505480.0, 10057741.0], [-2478213.5, 21934610.0, -5170696.0, 19401952.0, 3367687.5], [-485206.3125, -36026200.0, 17984476.0, -14340102.0, 15366441.0], [-33165538.0, -8417519.0, -1900860.375, -8431247.0, -8819475.0]], [[-17522058.0, 4002898.0, -23038980.0, 8211906.0, 6296960.5], [29946512.0, 5720375.0, 10868580.0, 50108.09765625, 20095144.0], [-15153796.0, -781562.5625, 32906332.0, 593668.5625, 7137882.0], [-13648333.0, 20219398.0, -28006208.0, -24320640.0, -9818507.0], [14601342.0, -6177676.0, -11805843.0, -14687426.0, 13779938.0]], [[-3467954.0, -8274186.5, 10064805.0, -14212494.0, -15499539.0], [3855123.75, -19201262.0, -2582013.5, 9475920.0, -2253016.5], [33540122.0, -28024050.0, 22524648.0, 34973264.0, -7668661.5], [-3859775.25, 3508524.5, -9798432.0, 290566.9375, -18816354.0], [29919534.0, -6870824.0, -32466306.0, -48938484.0, -11867900.0]], [[6504873.5, 2063860.5, 38782704.0, 12860643.0, -8538927.0], [-4430202.0, -16584574.0, -18453386.0, 10775229.0, -3065926.25], [24678040.0, -25725762.0, -5277306.0, -5779714.5, -1366411.5], [-12463847.0, -13287136.0, -21486418.0, -28321878.0, -20459206.0], [379687.46875, -8904290.0, -36507832.0, -9153721.0, -22695232.0]]], [[[-29569312.0, -7260968.0, -19470804.0, 10713704.0, -41144516.0], [7988535.0, 36182364.0, -6871380.5, -4822313.5, -6132123.0], [-26609344.0, -4856491.0, -44114864.0, 15758253.0, -24140742.0], [-35776628.0, -6851428.0, 3913383.5, -17730576.0, 5970409.0], [-1026652.0, 24324074.0, 23150322.0, 5542193.5, 28106684.0]], [[-1589881.5, -3910919.0, 3486448.5, -2164669.75, 12250212.0], [-28522228.0, -8798384.0, 3803935.5, -1026111.0, 17134462.0], [24806148.0, 1495687.5, -10273062.0, -2699457.75, -1132912.0], [-14287302.0, -27164518.0, 19912168.0, -29832500.0, -4327011.5], [-3466230.5, 7473093.0, 6292311.0, 44680876.0, -14173868.0]], [[-3119427.75, -3556249.0, 3948870.0, 13643013.0, 12893161.0], [-37786812.0, -4809480.0, -3780387.0, 1041564.0, -31016788.0], [-16828616.0, -11317527.0, 4545034.5, -2306244.5, 35819700.0], [-9531937.0, -9407492.0, 1378113.125, 1735625.625, -8249103.5], [-15787729.0, 14600425.0, -8448430.0, -3510553.5, 19302942.0]], [[31000450.0, -8868388.0, 4386041.5, -26356386.0, -3241185.25], [-9809215.0, 13631043.0, 5058247.5, 2293021.25, 18671662.0], [34273840.0, 2768171.75, 11414953.0, 5013248.5, -5777824.0], [26725642.0, -6825334.5, 28703296.0, -28372438.0, -18756398.0], [-3780004.5, 18465366.0, -8081176.0, 116943.8671875, 39829856.0]], [[-10041777.0, 1974037.875, -2039924.0, -2889694.75, 2554472.25], [-22864924.0, 22372898.0, 6438673.5, 1860267.375, -7033547.0], [17194098.0, 6015345.0, 30321148.0, 15869012.0, 6937569.0], [-455393.625, -9373510.0, -4976752.0, -19368148.0, 17697740.0], [9057400.0, -26116750.0, -21313458.0, -19043920.0, -3615902.0]], [[-2823224.75, -3333243.0, 42317804.0, -3220563.5, 4380460.5], [-14749140.0, 8374386.5, 25644928.0, -1042003.375, -23724952.0], [-6031367.0, -572326.9375, 3757354.5, -20240712.0, 8639693.0], [-1767262.875, 19421872.0, 2063876.25, -16332860.0, 6775454.5], [-7406167.5, -22323136.0, 33169566.0, 35943996.0, 18144612.0]], [[-10084974.0, 11456484.0, -18981380.0, -16827002.0, -13343462.0], [-21639484.0, -10914975.0, -11864863.0, -9367630.0, 9426013.0], [50567028.0, 1010651.5625, 45890628.0, 14264275.0, -15372551.0], [-19783954.0, -20670932.0, 4653492.5, -5851501.0, 24871046.0], [-9713649.0, 17717022.0, 34570200.0, 6864910.0, -853282.3125]], [[23531250.0, 7260221.0, -2518581.75, -16510835.0, -55720132.0], [-19723780.0, 14050976.0, 13514497.0, 4066122.0, 24757248.0], [-2532266.25, -10952109.0, -9748914.0, -3792043.5, 22005870.0], [3331896.75, -15032055.0, -10036274.0, -1730577.5, -9307672.0], [-2413969.5, 14719682.0, -15988769.0, -10369386.0, -9174846.0]], [[-1708837.5, 4733655.0, -35432376.0, -10257687.0, 17819194.0], [5074786.5, -4805840.0, -13542572.0, 3132246.0, -5225686.0], [-14070423.0, -26646516.0, 22489698.0, -3187268.25, -18286440.0], [16121145.0, -16816090.0, -19383918.0, 18279936.0, 31037616.0], [-3176151.0, 5280411.0, -39193784.0, -460447.15625, -15572488.0]], [[22447316.0, -22458302.0, -14460759.0, -4085781.0, -26136470.0], [-29628990.0, -26733108.0, 13833910.0, -22794440.0, 17692008.0], [-6628575.0, 27638244.0, 1296872.25, 33522850.0, 2905113.5], [-15321613.0, -3088679.0, -7198852.5, -4344175.0, 25486146.0], [-9611372.0, 34843008.0, 15018660.0, -9086704.0, -13477744.0]], [[22252042.0, 7462475.5, -18575348.0, 26171850.0, -10649966.0], [8518446.0, 11558753.0, -9838405.0, -2698056.25, -22166750.0], [-15339402.0, -5657159.5, -8037484.5, -2159379.75, -6861772.0], [166036.3125, -6916309.0, -4755065.0, 14005916.0, -14549519.0], [10921610.0, -16472850.0, 2078244.75, -31030712.0, -981930.5]], [[30992518.0, -15271059.0, 16528344.0, 7885468.5, 9427150.0], [27986858.0, -12080337.0, 25051450.0, 25669320.0, 5810479.0], [7632106.5, -17098698.0, 36323736.0, 34733460.0, 9196744.0], [12661374.0, -12822918.0, -7168644.5, -6848286.0, 32891992.0], [-1124364.0, -14979311.0, 11975258.0, 25498996.0, -12843313.0]], [[14743393.0, 3532886.0, 13157040.0, -14377537.0, 18762180.0], [32027038.0, -11792825.0, 22375180.0, 18909850.0, -23633692.0], [-36660640.0, 2593593.0, 20561704.0, -18908696.0, 4751979.0], [6002230.5, 12660664.0, -14063029.0, -5319439.0, 17727680.0], [-12089178.0, 7193282.5, -20969730.0, 12171205.0, 4839441.5]], [[-5630836.5, -8408053.0, -45076220.0, -8284372.0, -15723126.0], [-173219.8125, -8988957.0, 3352845.75, 16100603.0, 3748317.5], [2876379.0, 12396641.0, -16366140.0, 3204306.0, 14208393.0], [17649080.0, -4103618.25, 14793049.0, -2381994.25, 4207300.0], [-17552222.0, -25435872.0, -3097689.25, 9742066.0, 13480116.0]], [[-27687720.0, 28872524.0, -8704710.0, 13509490.0, 457726.4375], [4843341.5, -8372977.5, -2252718.5, 504597.125, 19251364.0], [-17223728.0, 11711204.0, 4743831.0, -1022671.0625, -11002613.0], [-7274891.5, 38037.2578125, -15088302.0, -12367506.0, 34422984.0], [-393185.0625, 2207056.5, -28778880.0, 17123442.0, -24156080.0]], [[15084987.0, -1090945.375, 3548698.0, 4103619.0, -2004081.75], [-24117842.0, -15598768.0, 20343784.0, -9786070.0, -4921379.0], [35578992.0, 25590126.0, 30197432.0, 7008663.0, 7147805.0], [-47285564.0, 4905639.0, 26699334.0, -8480742.0, 50467688.0], [-4742817.5, 28736420.0, -36349140.0, -15602844.0, -4303516.0]]], [[[4808768.0, 31617804.0, 467911.375, -23441322.0, 10786954.0], [-3265162.75, 9491592.0, 21967926.0, 4278344.5, 44925104.0], [-22486972.0, 10475795.0, 6388105.0, -19774912.0, 3348846.0], [8383881.0, 10751899.0, -4140790.25, 6166696.5, 762811.8125], [-1712202.25, 38267548.0, -2328570.5, -2557209.0, 9645146.0]], [[37528584.0, -9424394.0, 7388227.5, 12073790.0, 4003778.25], [14005787.0, 2237758.5, -1871707.25, -13500542.0, -28597658.0], [-49073004.0, -38778124.0, -2441803.5, 16665544.0, -2694814.5], [-13851798.0, -8908448.0, -6159250.5, -4888821.0, -32398754.0], [-752031.9375, 15975510.0, -10301406.0, -16922532.0, 11010641.0]], [[-10596347.0, -22529602.0, -2113609.75, -24174792.0, -9644373.0], [22224506.0, -44817776.0, -8047682.0, -9334539.0, 27545076.0], [-29439384.0, 18025506.0, -18350316.0, -25703762.0, -510796.09375], [27570398.0, -16936358.0, -42950904.0, 31165020.0, 30125568.0], [9917835.0, 15762446.0, -6275520.0, -12362421.0, 7070422.0]], [[-2368381.0, 8412129.0, 13262720.0, -33509188.0, -10416726.0], [11057202.0, -37973424.0, 35822608.0, -1826343.0, -5573229.5], [10828700.0, -7156594.5, 14557037.0, 14643397.0, 22989736.0], [6504388.0, -47192168.0, 12968566.0, 527690.5625, 14113944.0], [-3714771.75, -15289549.0, 16212592.0, 24464848.0, 5539252.5]], [[-13617822.0, 9457293.0, -17216756.0, -23388430.0, -3320895.5], [-23532208.0, -28637392.0, -3857427.75, 20306244.0, 5386492.0], [-12054734.0, -22166148.0, -18596708.0, -22042932.0, 21141052.0], [-2825071.75, -27613550.0, -17117246.0, -11842690.0, 12241743.0], [9516174.0, 661000.6875, 7156135.0, -39941080.0, -30092326.0]], [[9969987.0, -25151076.0, -38890452.0, -8625123.0, -10247158.0], [15139121.0, 3410443.5, 28317170.0, 3969505.75, 11772329.0], [8496606.0, -8867759.0, -18211348.0, 652430.3125, 4618176.0], [-21954102.0, -4857326.5, 4376136.0, -33216690.0, -7072782.0], [13485597.0, 41666316.0, -5601563.5, -5094672.5, 37031824.0]], [[13601136.0, -4913311.5, -1851854.625, 12295624.0, 10077922.0], [24203006.0, -1067378.75, 41330568.0, -3240393.0, 14841159.0], [-16751891.0, -10279036.0, -3337300.5, 16184330.0, 48987296.0], [4372074.0, 3521182.75, 12493522.0, -14166963.0, -16101364.0], [22817314.0, 9432273.0, -16247857.0, 289199.8125, -20673062.0]], [[27858936.0, 11717468.0, -7418187.0, -12722261.0, -4181324.25], [27529062.0, 32545878.0, 24748826.0, 35105344.0, -1424633.625], [570449.875, -14674803.0, 5459445.5, 12360723.0, -13678752.0], [-11081332.0, 9327407.0, 6783324.0, 25035762.0, -6730003.0], [8871120.0, -8244685.5, -16326045.0, 16834152.0, 6168197.5]], [[2774352.75, 21272540.0, 20920798.0, -17613154.0, -5863497.5], [2005075.0, 36206404.0, -7206261.0, -24560124.0, 11813070.0], [-12595760.0, -6034555.5, -13074675.0, 18101426.0, 24407424.0], [5799883.0, -25564524.0, -19281752.0, 10464491.0, -24685542.0], [-27729978.0, -39401172.0, 16988332.0, 17796930.0, -3979456.5]], [[-13363058.0, -47703376.0, 7101157.0, -6750556.0, -11769290.0], [-34887600.0, 12506464.0, -38409480.0, 26523664.0, -6204105.0], [-38391596.0, -10153713.0, 1745479.875, 2532978.75, 14118220.0], [13999896.0, -11839873.0, -5553334.5, -15495300.0, -16629073.0], [-18878486.0, 13940462.0, 7627090.0, -12324974.0, -29271980.0]], [[-13951176.0, 23980068.0, -26781570.0, 12036720.0, -9111585.0], [-8477573.0, 18053570.0, 7827744.0, -5867966.0, -13894496.0], [-5771659.5, -19581966.0, -17751380.0, 12797004.0, 24011316.0], [-19733670.0, -24788570.0, -10058445.0, 10219303.0, 11638585.0], [1383030.375, 32172580.0, -199258.375, -23632182.0, 13968677.0]], [[7817149.5, 16155234.0, -11961831.0, 2559669.5, 23370708.0], [-35862140.0, -12711308.0, 5291999.0, -12851220.0, 15094350.0], [-22161006.0, 13037522.0, 23439556.0, 24429748.0, 15056784.0], [9365976.0, 23139130.0, -597838.9375, -12117596.0, 33796056.0], [7143111.0, -12707047.0, -7803174.0, 8053563.5, -16341068.0]], [[13966521.0, -26359416.0, 1028157.0, 2258102.0, 12439238.0], [2451156.75, -30387842.0, -24959116.0, -4869624.0, -7204342.5], [15351806.0, -12212336.0, 7781091.0, 5760970.5, -4201750.5], [-7669143.0, 6485662.0, 31305920.0, 12556287.0, 10349867.0], [-11729682.0, 12421385.0, -28965798.0, -11056543.0, 11170596.0]], [[30298728.0, 29000888.0, 5300850.0, 3913709.0, 3854509.75], [1373074.375, 10194396.0, -11134784.0, 1824105.375, -576369.0], [1361041.125, -6163979.5, 1698045.75, -13558100.0, 6866596.0], [-6113916.5, -5052180.0, 8051017.0, -26427730.0, 15716520.0], [-1012327.75, -10443837.0, -10567917.0, 901775.625, 18564548.0]], [[21881010.0, -2160090.75, 19474588.0, 41850320.0, -20499166.0], [145737.953125, 2574710.0, 9398150.0, 20511468.0, 37098656.0], [9678693.0, -9156272.0, 19996662.0, -29566858.0, -21095856.0], [-35223224.0, 16261260.0, -20747926.0, 25826680.0, 6841600.5], [-250982.59375, 1356078.75, -1384469.5, 19791588.0, 25451454.0]], [[6391078.0, -10801269.0, -33782024.0, -19268728.0, -4548873.5], [6652074.0, 4518363.0, 27833436.0, -31422852.0, 27647432.0], [-18309444.0, 17937844.0, 5218791.0, 18971694.0, 11476320.0], [-10941835.0, 33082822.0, 9777942.0, 19265604.0, 5036199.0], [10861307.0, -21596166.0, 516531.46875, -9269855.0, -15796897.0]]], [[[-2335605.0, 18572542.0, -6301652.5, 16858014.0, -1195684.75], [-3349641.25, -3976173.25, -21293112.0, 6990945.0, -12055790.0], [7788408.5, -44285692.0, 3326248.5, 11285612.0, -4061163.75], [-13793422.0, 10304908.0, 4886912.0, 6977073.0, -97054.7109375], [2794102.75, -19463526.0, 20110612.0, 9081218.0, 7256369.0]], [[-8537612.0, 45267068.0, -10417431.0, -24744436.0, 21396820.0], [-21093350.0, -23699666.0, -38580916.0, -4422085.5, -2405965.75], [26450804.0, -22756440.0, -15416095.0, 26441310.0, -10069088.0], [-11957634.0, -17633676.0, -33366014.0, -22180106.0, -31190546.0], [-10589560.0, 40290384.0, 4393239.5, 8188451.5, -7974837.5]], [[23491448.0, -13711488.0, 32613570.0, 5715367.0, -2850102.75], [4231281.0, 6624746.0, 32751534.0, -27447554.0, 2937311.5], [-34213972.0, -14066035.0, 8628773.0, -5301538.0, 6163354.5], [-20006720.0, -6783489.0, -2920261.75, -1086378.625, -59109.75], [29294994.0, -6364569.0, 16980066.0, 3857199.0, 199944.375]], [[-2607342.75, -9723936.0, -19383600.0, -8809537.0, 26720214.0], [-2752728.25, -15529650.0, -794297.1875, -7156502.0, -3245181.75], [-5562018.5, -6609085.5, -12484875.0, -2685139.5, -17105200.0], [12375893.0, 14147722.0, -32923228.0, -4501624.5, 113727.0234375], [-10173735.0, -8441238.0, 15584304.0, 10645432.0, -25259954.0]], [[21394086.0, 19807482.0, -7583284.5, -9438992.0, 7411836.0], [-18082454.0, -8123429.0, 15652788.0, -17482072.0, -18618148.0], [14477105.0, -16062684.0, 7532538.0, -7565761.5, -1590959.75], [8915364.0, -2055567.75, -934031.3125, 8349390.0, -985181.0], [5280966.0, -4797366.0, -3292209.0, -4837222.5, 33939252.0]], [[-4145974.25, -5602385.0, 420988.0, 15593870.0, -6464168.0], [-20304138.0, 3716403.75, -33819880.0, -1647807.25, -10502995.0], [-12737014.0, 37454404.0, -23095658.0, -16616154.0, 20798986.0], [3622564.5, -433364.34375, -17342492.0, 7663574.0, -23648490.0], [-20840034.0, -4299475.5, -15818986.0, 12919590.0, 21848534.0]], [[-28161366.0, 27508248.0, -2281570.25, -13825926.0, -20076130.0], [14175433.0, -15783361.0, -503936.15625, -15806892.0, 2477194.75], [-31847764.0, 14099184.0, -34393312.0, -24674776.0, 25778214.0], [24078544.0, -33557360.0, -38801520.0, 7516948.5, -9356689.0], [4529546.5, -7864273.0, 5488786.5, 8459964.0, -43926680.0]], [[2023789.125, -28476690.0, -5489376.5, 39151568.0, 2201978.0], [6331428.0, 22727178.0, -19620646.0, -12255409.0, 21168840.0], [-4194455.0, 7910145.0, -22740612.0, -19153852.0, -14759184.0], [3211369.5, 919753.875, -359618.40625, 32302848.0, -15469204.0], [-3269776.75, 19385424.0, 23365004.0, 1134731.25, 25006124.0]], [[-27365440.0, 11015619.0, 165673.84375, 20874298.0, 23947978.0], [-20131684.0, 12864069.0, 16599108.0, -22562078.0, 6001164.0], [895300.5, 63214460.0, 4312717.5, 920053.875, -5665199.5], [-27355752.0, 3665894.0, -45610564.0, -12458613.0, 13638089.0], [-21650776.0, 8342258.5, 9133892.0, 15325066.0, 18421524.0]], [[35156732.0, 35791532.0, -16914916.0, -35448024.0, 16019274.0], [16285398.0, 15567916.0, 14013607.0, 2696456.25, -18374346.0], [38432388.0, -1225383.75, -8713954.0, -15928813.0, 214868.40625], [18247868.0, -4297896.0, 4426713.0, -22410028.0, 9385377.0], [23080682.0, -21178162.0, 12015538.0, 12099664.0, 1785894.0]], [[-21998406.0, -4739501.0, 813960.125, 4372205.5, -6326596.5], [-6402945.0, 15178494.0, -8669566.0, -1600800.25, -52604424.0], [-50316924.0, 18774714.0, -19906416.0, 23368752.0, 8384458.0], [18110664.0, 35516608.0, 34733920.0, 37140584.0, -7666006.5], [-406101.21875, 10793105.0, 13787095.0, -9247095.0, 10603897.0]], [[-12074847.0, -19426872.0, -26093658.0, -6871031.0, 14500145.0], [6439735.5, -18174064.0, 15817551.0, 23248802.0, -17664390.0], [-10261565.0, -3781734.0, -1427625.125, -36416584.0, 1544133.5], [-17821104.0, -4557931.0, 21383996.0, -6734376.0, -7510156.5], [7418215.0, 25315818.0, -8364842.0, 18893656.0, 11184398.0]], [[-1156840.75, -4684050.0, 15275805.0, 15209638.0, 7130884.0], [-22151076.0, -11815684.0, -9112068.0, 10273370.0, -912548.75], [-16260077.0, 27136788.0, 7210870.5, 14380594.0, 14241897.0], [-11931630.0, 19850220.0, -23295016.0, 2860684.0, -2457536.25], [21764810.0, 4481697.0, 5842972.5, -18674430.0, 12621283.0]], [[-726097.1875, 4880257.5, -21799378.0, -3999022.75, 28728380.0], [-3237260.75, -24305220.0, -15302504.0, 39629588.0, 11001747.0], [-15500664.0, 16195329.0, -33177564.0, -6652539.0, -969618.6875], [-16154509.0, 1770681.375, 3579870.5, 16050677.0, 8861358.0], [-14757615.0, -5747491.5, 1695704.25, 24991884.0, 36545120.0]], [[-10489774.0, 14639322.0, -18148584.0, 17691994.0, -24570882.0], [-17780344.0, 10140326.0, 24814118.0, -2404863.75, 20473666.0], [-2429805.75, -19422972.0, 4448388.0, -6140353.5, 4375535.0], [10629755.0, -3397379.25, 2783131.0, -6791640.0, 27887744.0], [28079114.0, 7166108.0, 11558223.0, 2360712.75, -3314527.0]], [[-40031000.0, 1730475.25, 6773803.5, 9928382.0, -11000960.0], [-17709008.0, -14061368.0, 39102108.0, 7202419.5, 25780548.0], [-5323549.0, -18206520.0, -9536517.0, 12523166.0, 11977209.0], [6776081.5, -7247550.0, -7037860.5, -12736379.0, 2395971.75], [-33688976.0, -7979848.0, 6796714.0, -25494488.0, -20710492.0]]], [[[-17627714.0, 6614506.5, 3576852.75, -39576860.0, -3103920.75], [11791358.0, -582457.4375, -4336489.0, 13507995.0, -15444323.0], [10041421.0, -25941230.0, 42878316.0, 1692255.125, 4022271.0], [24159612.0, 19603520.0, -7300912.5, -132616.5, 13549495.0], [-4211682.0, -46632604.0, 12327918.0, -14914162.0, -94804.265625]], [[15899863.0, -7684623.0, -8124600.5, 2464737.25, -6104020.5], [22731958.0, -7137657.5, -25050442.0, 19381332.0, 4888847.0], [-14366266.0, -4617690.0, 22103830.0, 4681776.5, -840371.1875], [19100488.0, 19386706.0, 11224238.0, -11493452.0, -15013181.0], [9605250.0, 36209616.0, -23816422.0, 37747384.0, 1572172.375]], [[-7128637.5, 19629642.0, -20152990.0, 370809.75, -9522720.0], [-1618592.5, 3755611.75, 7243466.0, -17109804.0, 16498512.0], [15844772.0, -43242032.0, -18306668.0, -18642704.0, 14191399.0], [-38372380.0, -1344818.875, 27409516.0, 16120237.0, -12707743.0], [-11907587.0, -9247867.0, -1739893.5, 14646960.0, -2567640.5]], [[-2802371.25, 26574792.0, -5573677.0, -38003404.0, 1199966.5], [5170049.5, 22531454.0, 15108730.0, -19579058.0, -18350530.0], [12552456.0, 13842362.0, 409605.625, 10690580.0, -615985.875], [-16670792.0, 15506259.0, -13274292.0, -7081876.0, -8482260.0], [-28848516.0, -10352630.0, 17806594.0, -16583471.0, -12982193.0]], [[11454756.0, -9271398.0, -6732556.0, 5404212.5, -3331887.5], [41352592.0, 3074147.0, -29977306.0, -9868451.0, 46831252.0], [-9406942.0, -14768567.0, 25928184.0, -3157719.0, -25219812.0], [-18385424.0, 324710.34375, 13553501.0, -6522131.5, -34307460.0], [-8779936.0, -28913310.0, 20970864.0, -25376402.0, -12629364.0]], [[-12694076.0, -12370972.0, -5965215.0, 12534637.0, -9364923.0], [-45933664.0, -4693777.0, -4948476.0, -35569040.0, 11468151.0], [7913295.5, -1070352.875, 12550311.0, 9589251.0, -25819524.0], [-2853390.75, -22382524.0, -14969543.0, 8121055.0, 2250068.25], [-14431447.0, -8561101.0, -13333642.0, -10319025.0, 10971078.0]], [[18634850.0, -2709030.75, -10841478.0, 14802807.0, 10837854.0], [-27582426.0, -12456813.0, 7098192.0, -20731990.0, 317169.53125], [24037270.0, -7151287.5, 3699407.5, 4548426.5, -17711376.0], [13954910.0, -34621668.0, -2537037.75, 16214895.0, -10051957.0], [-22011852.0, 10841296.0, 13974054.0, -13828228.0, -3104928.0]], [[23664070.0, 7125777.0, -44319468.0, 14545657.0, 17604852.0], [-12833314.0, 7200765.0, 9383229.0, 188441.09375, 28669950.0], [5474026.5, -8988731.0, -5616409.5, -37633484.0, -8026206.0], [24476114.0, 6223209.0, -10678353.0, -3611890.5, 37175492.0], [36551016.0, 6042328.5, -19754124.0, 11529700.0, 9256347.0]], [[-2515955.0, 20185138.0, -1401295.5, -8912688.0, 28472958.0], [-16838512.0, -52524168.0, -537494.8125, 33154690.0, -38096652.0], [20768920.0, 15578770.0, -37325468.0, 6880347.5, -15006581.0], [9148141.0, -17706498.0, 2721067.0, 4209424.5, -14487939.0], [-795461.375, -15347090.0, -22215570.0, -5188534.5, -4215472.0]], [[-8984246.0, -25715270.0, -10509960.0, 546858.875, 25351132.0], [-7973948.5, -21598120.0, -12317544.0, 22369044.0, -9625706.0], [21458916.0, 2636264.0, -28275108.0, -19506298.0, -1971577.125], [-22625922.0, -17742484.0, 16747221.0, 34806692.0, -15435105.0], [-28897920.0, 31153116.0, -7450466.0, -6216684.5, -6329164.0]], [[-25139886.0, 22691990.0, -2418836.0, 16638423.0, 11464296.0], [-5994433.0, -6214675.0, -5688655.0, -35298656.0, 4143305.5], [7750352.5, 10085836.0, -27082042.0, -15711622.0, -11979114.0], [21389970.0, -11232102.0, 17798842.0, 17975212.0, -23084058.0], [-5493697.5, -9724843.0, -10904303.0, -6044120.0, -33302958.0]], [[36076072.0, 14927526.0, -20529822.0, -23770182.0, 25673300.0], [31237710.0, 36936240.0, -18930942.0, -4531088.0, -16765697.0], [8020900.5, 9824858.0, -5507038.5, 33962976.0, 5668250.0], [-28173546.0, -27035200.0, 18167342.0, -34747796.0, -21097586.0], [-36304712.0, -12051053.0, 12637882.0, -2143992.25, 24751504.0]], [[-36451136.0, 51861216.0, 26264402.0, 16014600.0, 4609185.0], [47012236.0, -10280782.0, -14004068.0, -8926797.0, 45470640.0], [-9896168.0, -7115041.0, 14629528.0, 1542124.5, -9681787.0], [42720696.0, 16784080.0, 28568338.0, -37294696.0, -21374350.0], [-17648166.0, -12244413.0, 21546098.0, 20985228.0, 6277122.0]], [[-16511021.0, -346550.125, 19761578.0, 35756576.0, -16538138.0], [-15981802.0, 22352882.0, 31333838.0, -50999200.0, -12512835.0], [31500204.0, -13636544.0, 9770259.0, -19324974.0, 10006949.0], [-9721557.0, -16805532.0, 3017806.5, -5824058.5, 9194686.0], [-6541487.5, 24832362.0, 17924728.0, -9123596.0, 6790495.0]], [[68356.2734375, -9559489.0, -40471992.0, -6200058.5, 15655087.0], [13235633.0, 3625082.0, 6757291.0, -12591098.0, 4668281.0], [10474294.0, -1034455.6875, 10944220.0, -14379838.0, 27901576.0], [1773809.25, 4521252.0, 17515492.0, 2969583.0, 33361932.0], [1827437.25, 1832801.625, 9628140.0, 30689938.0, 30504276.0]], [[5245185.5, 4641820.5, 18469510.0, 152319.125, 12987678.0], [15832770.0, -33191178.0, -9934842.0, -20202990.0, -29442696.0], [19981856.0, -6240829.5, 7654912.0, 9012990.0, -13976154.0], [5463242.0, -13236846.0, -18493002.0, 19146408.0, -4716482.5], [4836694.5, -20060968.0, -37556112.0, 14041632.0, -7721673.0]]], [[[-27650770.0, -23714660.0, 6076633.0, 32709462.0, -15743005.0], [14447508.0, -8493334.0, 12179437.0, 7905820.0, -2217156.5], [6279504.0, -15226719.0, 11217640.0, -29124672.0, 1330150.125], [-27346812.0, 11787842.0, 27044794.0, -25447170.0, 18924680.0], [42941352.0, 817292.5, -10610505.0, -15670008.0, -8668248.0]], [[-10618441.0, -8096997.5, -13807639.0, -20670584.0, 33828196.0], [-47104136.0, 4722361.5, -16509348.0, 15176532.0, -7011168.0], [-3092224.25, -16409550.0, -15732043.0, 29843568.0, 4292510.5], [-2495398.0, -2540067.75, 5873644.0, -4127271.25, -3198857.25], [-49415144.0, -4093881.75, 8415447.0, -29747592.0, -7597776.0]], [[10959311.0, 3104444.5, -915808.3125, 5149136.5, -14035680.0], [20599998.0, 1247567.5, -385605.6875, 10103267.0, 11457081.0], [14129097.0, -15443568.0, -18784156.0, -7673394.0, -9234569.0], [-5458239.0, -10648913.0, -16737177.0, 57377256.0, 28450128.0], [10175153.0, 10998807.0, 9331815.0, 6090705.5, -837643.75]], [[-1886502.375, -4346373.0, 6867351.5, -2795579.25, -16459563.0], [-647568.0, -42229184.0, 1394725.25, 257912.859375, 129116.921875], [-12402747.0, 2700128.0, -14541677.0, -16524563.0, -10295854.0], [28237996.0, 2607149.0, 22369414.0, 7751797.5, -10833860.0], [-13089222.0, 9983765.0, -2793762.0, -25905844.0, 787736.1875]], [[-7910491.5, -18640830.0, 2236828.5, -9417789.0, 397827.0625], [536445.75, -15381145.0, 9385667.0, 3398313.0, -6974995.5], [-15339465.0, 16920640.0, -12068583.0, -3368865.0, -783008.5], [-10657940.0, -6346261.5, 19725216.0, -3440574.0, -4547971.0], [-25807088.0, 3463320.0, -30950142.0, 871486.25, 31462710.0]], [[-6224919.0, -15834111.0, 23853024.0, -7637593.5, -23641338.0], [-563311.0, -21708114.0, 13460181.0, -1535053.875, -4280553.5], [31463498.0, -15758286.0, -34785504.0, -2436213.5, -24884010.0], [-7814671.5, -22003730.0, 14397297.0, -19033856.0, -2429060.0], [10123014.0, -11773887.0, 37155940.0, -13849206.0, 6593580.0]], [[-3152006.25, 35836296.0, -2147417.0, -14211740.0, -3810547.25], [-2737997.25, 22303304.0, 7178831.5, -3250704.75, 24502440.0], [-5649294.5, -9732998.0, 2698530.75, -18336946.0, 6902528.0], [-4286186.0, 31066866.0, 10154497.0, 14677200.0, 21179810.0], [-1953313.875, 19057110.0, 12199587.0, 3686557.25, -4301087.5]], [[-9204452.0, -19488270.0, -14118091.0, -11381481.0, 6102629.0], [6385259.0, -24045542.0, 3326523.0, 7420760.0, 18861286.0], [13432158.0, 13839816.0, 28955122.0, -3693885.75, -7874262.0], [-3609516.75, -172418.0, 26857836.0, -19053872.0, -10064485.0], [34672416.0, 7517603.0, -36537144.0, 2729427.75, -2245701.0]], [[3023482.25, 1574895.25, 13628987.0, -38916696.0, -3001997.25], [-17797216.0, -18777824.0, 6906019.5, 24778528.0, 11480646.0], [-19211346.0, -6439359.0, -10162128.0, -4955116.0, -44293616.0], [-12413871.0, 13313929.0, -13371990.0, 12474385.0, 3291769.75], [-6944378.0, 19034806.0, 26609742.0, -5268436.0, 9414966.0]], [[-8634863.0, -7264159.5, -8965938.0, -7674885.5, -44366384.0], [-28669442.0, 21970710.0, -9322401.0, 3327492.75, 14874522.0], [8826308.0, -12321422.0, 5205042.0, 14716233.0, -10172091.0], [24492526.0, -28125564.0, -1455733.75, -11824749.0, -4177074.0], [7340392.5, 9172567.0, -532583.375, -28417032.0, -19979266.0]], [[-27272848.0, -38112276.0, 13165484.0, -7987197.5, -12660446.0], [-49034804.0, -30068144.0, -9314754.0, -16147835.0, -12180019.0], [-11518062.0, -7895837.0, -3579313.5, 2226244.5, 16621806.0], [16312413.0, 9013776.0, -1265467.0, -21391264.0, 18678952.0], [21198634.0, -9517592.0, -16024486.0, -2131201.0, -27699096.0]], [[-12166222.0, -3478630.5, -3162752.0, 26530458.0, -8487264.0], [-26502810.0, 24536982.0, 14219483.0, 4818812.5, -2229607.25], [23154374.0, 19913482.0, -9637491.0, -52356800.0, 12102390.0], [-3036756.0, -5927821.5, 6189782.5, -23516020.0, 29055468.0], [-15870797.0, -11055959.0, -1579761.0, -33551036.0, 7846500.0]], [[-19243614.0, -1135737.25, -31171264.0, 17380132.0, -11107407.0], [-9425317.0, 1101111.5, 21169914.0, 14288011.0, 3401078.75], [-19500826.0, 325198.21875, 34847424.0, -20805614.0, 12747099.0], [16470168.0, 6573727.0, -7205724.0, 17212148.0, -15049323.0], [3994436.25, -1846997.0, 41138104.0, 6978342.0, -1722787.75]], [[-39733580.0, 26376820.0, 981771.375, 14202197.0, 19338948.0], [29953900.0, -3720225.0, -8483728.0, 25383600.0, -20820664.0], [-26973934.0, -264897.9375, -19747120.0, 2227392.5, -20026622.0], [-27485766.0, 4899707.5, -5831316.0, -10729797.0, 2983767.25], [-22729072.0, 11397342.0, 11486551.0, -9660774.0, -12982798.0]], [[21280958.0, -18259204.0, -3663733.0, -3135791.0, -15774520.0], [-589966.8125, -23541490.0, 1936710.875, 15910684.0, -15398189.0], [-8826726.0, 14398360.0, 15115195.0, -7768752.0, -812959.0], [12329468.0, 3992649.0, 7209040.5, 21469670.0, -5769688.0], [36174520.0, -20004780.0, -7760318.0, 29658796.0, 5297456.5]], [[11071758.0, 9113700.0, 10089135.0, -21731272.0, -17052270.0], [31361394.0, -12208238.0, 21361684.0, 34462324.0, 11031657.0], [39669256.0, -13721366.0, 20666476.0, 12363116.0, 3881383.0], [-7781337.5, -11949420.0, 6729220.5, -7782728.0, 6922935.0], [3476697.0, -10366437.0, -11094829.0, 14517366.0, 3372032.5]]], [[[25810676.0, 11351984.0, -29759158.0, -8649741.0, 29768618.0], [3653372.25, 19630468.0, 9254938.0, -15854973.0, 27300640.0], [39650624.0, -10901838.0, -7909615.5, -6949944.5, -10923464.0], [29845248.0, -9393324.0, 5974175.5, 6140828.5, -5539426.5], [2962317.75, 9408076.0, 10886388.0, 542704.125, 9295092.0]], [[-24636922.0, -42880204.0, 6652849.5, 5836971.0, -46018472.0], [19052820.0, 9459699.0, 25331684.0, -5847702.5, 4919669.5], [14426930.0, -6704041.0, 1379389.875, 29189112.0, 8728972.0], [11492599.0, -12775956.0, -22562562.0, 20760242.0, -35492616.0], [7717315.5, -1460634.875, -16822832.0, 22501258.0, 3782185.0]], [[-30075000.0, -2132236.5, 23661712.0, 1222246.75, 4074546.0], [34612476.0, 52032888.0, -13143552.0, 4526370.0, -24841918.0], [15701151.0, 3696717.75, -17121042.0, -20234106.0, -31835554.0], [-16815048.0, -12726105.0, 1233624.5, -28268834.0, -14801248.0], [-6539088.0, 2110539.75, 18387896.0, 15387431.0, -13386247.0]], [[986688.5, -15488697.0, 11594318.0, 897074.375, 11515519.0], [-1970819.375, -19568484.0, 778128.1875, -7258991.5, -15443363.0], [-10537830.0, -3383770.5, -35354448.0, 20682832.0, -18051202.0], [-14463635.0, 971937.75, -18759156.0, 35413628.0, 8931259.0], [-20907126.0, -4040082.75, 6501577.0, 394915.1875, -6296045.0]], [[13867690.0, 5635198.0, -21425502.0, -2913166.0, 11656225.0], [14151660.0, 24752602.0, -663148.8125, 9617786.0, -1238003.875], [4077558.75, 11831528.0, -625116.375, -4653262.5, 1177501.125], [-52299288.0, 12990069.0, -2322186.5, -7170355.0, -3344120.25], [-1509836.125, -18306504.0, 25737096.0, -16429287.0, 15110144.0]], [[-13945766.0, 785847.4375, -11787182.0, 16588282.0, -16758954.0], [1666295.25, 17662324.0, -30403948.0, 14312312.0, -23755932.0], [17638724.0, 3003077.75, -12525659.0, -18147652.0, -8531233.0], [-11652505.0, -4626308.5, 38117768.0, -8713576.0, 9838125.0], [-8434563.0, 18882850.0, 6119385.5, -8636160.0, -10269672.0]], [[12916460.0, -17306442.0, -4932282.5, -31849772.0, -1243701.0], [-891829.125, 26606436.0, -17613250.0, 4232762.0, -333916.0], [3333828.25, 3541089.5, -16649850.0, 19354788.0, -15491244.0], [14945817.0, 1074544.75, 10972151.0, -25692190.0, 4182177.0], [-4260686.0, -2729159.0, 21425340.0, 1722842.5, 7651301.5]], [[-214949.71875, -13014027.0, 2960191.25, -1070468.125, -21486496.0], [-965965.875, 1397325.375, 5872439.0, -33146898.0, -4978808.0], [5243494.5, -4293423.0, 16840850.0, -14387562.0, 6043400.0], [-13749895.0, -12351693.0, 6598702.0, -22313808.0, 16851800.0], [8873172.0, -9487522.0, -9551695.0, 13978083.0, 43661100.0]], [[-13784245.0, -31663974.0, 1545323.125, -3660905.25, 32185030.0], [-2306059.75, 3774427.5, -23799296.0, 311767.75, 25494974.0], [7280541.0, 25685156.0, -4612986.0, 2977315.5, 1258840.5], [24002106.0, -13232042.0, 4170846.25, -3609540.0, 19366166.0], [-17543834.0, 2176545.0, -28535192.0, 15116077.0, 37398976.0]], [[27685950.0, 455235.84375, 44075520.0, 3525215.25, -5614765.5], [-17758458.0, -4266511.5, -26042900.0, 12108935.0, 22952802.0], [-12168571.0, -16815952.0, 31600776.0, 16837812.0, -22242256.0], [-6277779.0, -10027957.0, -14695627.0, 4167721.25, 4068605.5], [-16600566.0, -8362203.5, -4587096.0, -10725355.0, -24415258.0]], [[-27988308.0, -34016064.0, 6692251.5, -18612116.0, 16762134.0], [-19280060.0, -36901928.0, -24023056.0, 8304370.5, 14678070.0], [-19976764.0, 8858786.0, -23949726.0, -22838494.0, -7955773.0], [4252153.5, -15280204.0, -7666072.0, 23675340.0, -19670312.0], [14207786.0, 20363578.0, 24640290.0, -8116947.0, -31676700.0]], [[9930492.0, -1095177.375, 2623399.0, -4552555.5, -33329214.0], [10433269.0, 9917696.0, -7355656.5, -20219086.0, 7719229.5], [13733504.0, -14305437.0, -12240771.0, -410710.0625, 5222437.0], [22282070.0, -12222825.0, 28104976.0, -23413534.0, 5111854.5], [-24201322.0, -6896224.5, -15650588.0, 29097420.0, -11899529.0]], [[-19591242.0, -14252629.0, 5014741.0, 4138922.75, -7809914.5], [14962614.0, -18963408.0, 919448.5, 8049637.0, 24265528.0], [24556736.0, 4411543.5, -18798952.0, 8198212.5, 7262730.0], [2377569.5, -9857965.0, -6099657.0, -11276863.0, 23229480.0], [21852890.0, -16123139.0, -37036240.0, -22215384.0, 39905232.0]], [[-7427945.5, 23133162.0, 2146229.75, -16836738.0, 5124868.5], [-15177759.0, -31542384.0, -7877271.0, -19579896.0, -14880742.0], [19595312.0, 7218138.5, -5625763.0, -2039347.5, -15083916.0], [-4788964.5, 3862536.0, 2043899.375, 15046082.0, 6181374.5], [16444456.0, -13313314.0, 3599030.25, -17684520.0, -24213546.0]], [[15314538.0, -7016088.0, -23425092.0, -19852134.0, 9852646.0], [13158842.0, -12592640.0, -8084880.0, -13335169.0, 21264926.0], [-15080904.0, 3175709.5, 10715880.0, -14500304.0, 42993136.0], [19514140.0, 3206761.0, -850041.4375, 17236208.0, -13106662.0], [-843217.3125, -35464828.0, 967635.375, -13653574.0, 769161.0625]], [[3792033.5, 5935951.0, -15171239.0, 28960642.0, 6591407.0], [7678589.0, 2363399.75, 27460418.0, 46231164.0, -6274931.5], [-439352.3125, 12349842.0, -20941558.0, -11337829.0, 23134294.0], [6601028.5, -1356294.625, -9915021.0, 8638971.0, -3593103.75], [46331948.0, 3269660.0, -24915210.0, 21284452.0, -8813130.0]]], [[[4867902.0, -29638286.0, 2387849.25, 33228702.0, 18742438.0], [748378.1875, -21988314.0, 33445562.0, 6793082.0, 7398289.5], [18597428.0, 5329358.0, -12054534.0, 6052881.0, 18252956.0], [-5370087.0, -9691415.0, -16810260.0, 10944824.0, 25009392.0], [13025566.0, -10794090.0, -600335.75, -5600616.0, -4635741.0]], [[-3917827.5, 12851076.0, 12321410.0, 12499200.0, 3431170.0], [4085980.25, -1885295.25, 8249319.0, 15554312.0, 7443757.0], [-31584814.0, 9084599.0, 2324361.0, -501671.3125, -16003650.0], [4852207.0, -4877309.5, 10500778.0, -239233.265625, -6197860.5], [14768814.0, 447459.09375, -3259537.5, -32679922.0, -3705331.5]], [[-3181525.25, -50191016.0, 10326667.0, -8797188.0, -487200.40625], [-7798188.5, 12617568.0, 606989.5625, -8421195.0, 9768705.0], [-632652.625, 2152923.75, 20238210.0, 5518044.5, 16075111.0], [27102434.0, 26630394.0, 630045.5, -975880.4375, 9838935.0], [-18609044.0, 13906180.0, -20765840.0, 23227842.0, 107158.8359375]], [[-6179749.0, -1380298.5, -7945100.0, -3347910.5, -25758840.0], [8952516.0, 15292954.0, 8750316.0, -8848121.0, -35686036.0], [24492352.0, 16241802.0, -8636325.0, 15415951.0, -23606342.0], [-12424459.0, -12129676.0, -8698634.0, 14336949.0, 2774202.0], [-30270066.0, 19586316.0, 3038261.5, 7916617.5, 4374009.0]], [[12892676.0, -18566452.0, 9463560.0, -6360799.5, -2895044.75], [4780124.0, -4822792.0, -15061293.0, -3563253.75, -19835124.0], [-19227120.0, -9423888.0, 3931881.25, -4881375.5, -9737368.0], [23059464.0, 14153888.0, 3000589.0, 15512358.0, -22867560.0], [19266794.0, 18744022.0, 3881996.25, -19938144.0, 13402484.0]], [[23433966.0, -28185072.0, -25776844.0, -5896358.5, 11560466.0], [-1319407.75, -757448.3125, 33364500.0, -17519332.0, -14852937.0], [9341933.0, 10083795.0, -26166330.0, 13913449.0, -11287015.0], [-8734933.0, 454060.90625, 12134958.0, -21702172.0, -19120670.0], [13201859.0, 3644087.5, 513614.84375, 26900932.0, 4342646.5]], [[-13142090.0, -25836686.0, -23650182.0, -22750432.0, -30278868.0], [16179012.0, 21285104.0, 13497243.0, 20806392.0, -1629477.375], [-21808036.0, -8583941.0, 24850022.0, 27142382.0, -20696634.0], [-26028004.0, 13240629.0, -20128594.0, 7312601.5, 26531484.0], [15902571.0, 15250255.0, 19172518.0, 12332189.0, -1988149.875]], [[-9978688.0, 1724776.125, 5620568.5, 2960327.25, 1767512.875], [2276840.0, -13251292.0, -9938083.0, -293190.0, -16796104.0], [8700568.0, -14646075.0, 4522950.0, 23049486.0, -14874150.0], [4896554.5, 6084445.5, 11588102.0, 21648146.0, -9755883.0], [-29327690.0, 30204772.0, 18278568.0, 28025400.0, -10063280.0]], [[-21370434.0, 31134272.0, -9367805.0, -18195666.0, 2611381.75], [-24489948.0, 22544302.0, 5817427.5, -10526932.0, 26981942.0], [4501906.5, -21310730.0, -1987121.25, -10618191.0, -19175004.0], [-1424489.25, -1890531.75, 1908533.625, -16638193.0, 17086290.0], [9494877.0, -10414416.0, 5187151.5, -4559857.0, 18204366.0]], [[31885638.0, -31805494.0, 6002382.0, 10956388.0, 16655017.0], [42140.15625, 8058631.5, 27057852.0, 11107905.0, -29266538.0], [23478726.0, 11550766.0, -40618532.0, 16538492.0, 3808845.5], [20484888.0, -8243895.5, 2628179.25, -7537848.0, 18541832.0], [-15389966.0, -857160.1875, 24285726.0, -5166784.0, -9762230.0]], [[25511738.0, 18179178.0, 15510248.0, -36149216.0, -10224809.0], [3339677.25, 24056028.0, 3959085.75, -6586887.5, -6760758.0], [14006023.0, 7203286.0, 5081775.0, 15142634.0, -167279.75], [-11008683.0, 9548750.0, 647455.1875, 13272745.0, -10915901.0], [13213311.0, -4374998.5, -32730150.0, -28138398.0, 34926648.0]], [[20714754.0, -11498546.0, -16648958.0, -7578079.0, -37577880.0], [-36900148.0, 15918901.0, -5144497.0, 13619763.0, 6871162.0], [2267591.0, 13321729.0, -19358514.0, -1335117.625, 22000976.0], [-33078732.0, 7421283.5, -14266361.0, -1146460.0, -30305422.0], [18467938.0, 11902379.0, 11665661.0, 6967984.0, 7479520.0]], [[-33133182.0, -20804900.0, 22555722.0, 19529670.0, -10187165.0], [-19761568.0, -5925847.0, -29779878.0, 15334083.0, 13257999.0], [1792174.0, 14703381.0, 10489023.0, -17049088.0, 7892304.5], [13928751.0, 17243498.0, 20840784.0, -18269272.0, 117264.375], [14788078.0, -36245108.0, -3577377.5, -25600878.0, -15748090.0]], [[-12875113.0, 13006442.0, -2444743.75, 14597348.0, -4056341.75], [-433568.5625, 31444560.0, -26645282.0, 1987550.25, 24254296.0], [19314286.0, -17983328.0, -14163276.0, 24995880.0, 2955243.5], [3106156.75, 23224618.0, -14061133.0, -642815.875, -7452135.0], [13829235.0, 19817500.0, 13273732.0, -28547886.0, -11608190.0]], [[-17196288.0, 18773332.0, 6425715.0, -6481078.0, 3539079.5], [32514542.0, -552352.9375, -20368374.0, 14153796.0, 24255482.0], [14093227.0, -38311080.0, 1974879.75, 8845077.0, 22554040.0], [155150.015625, -8574414.0, -39621108.0, 8351510.5, -9029096.0], [-24836616.0, -32918834.0, 1006534.3125, 16113738.0, 5644112.0]], [[-2484090.25, -44975196.0, -2974244.25, -56794560.0, -8898158.0], [14526076.0, 32884350.0, -16197527.0, 21145660.0, 7745189.5], [-1519032.25, -1489248.25, 28285864.0, -17367012.0, -14409636.0], [14991269.0, 13322377.0, -4918068.0, 35649956.0, -8076172.0], [16493970.0, 12660075.0, 5327913.0, 18980802.0, 29882092.0]]], [[[-13010948.0, -23920646.0, -9517653.0, -25057474.0, 48015444.0], [24617586.0, 16257243.0, -29038140.0, -22602870.0, -21094848.0], [-32408080.0, -2368405.5, -6547869.0, 13541678.0, 20941068.0], [2355427.0, -26368722.0, 8974261.0, 6547186.0, -18955766.0], [-20487290.0, -29480394.0, 35009712.0, 7305999.5, -9046668.0]], [[-45346384.0, 22748220.0, 4519626.5, 25324396.0, -32899254.0], [24602530.0, 11895407.0, 17232782.0, -9004056.0, -22209396.0], [-34496680.0, 25412088.0, -17138850.0, -7672514.0, -25914072.0], [2616611.0, 593001.5, 4800786.0, -6990502.0, 2911415.0], [-16318043.0, -35537580.0, -9205512.0, 13436559.0, 9137856.0]], [[-16957396.0, -11667165.0, -32206774.0, 12153054.0, -2670994.25], [4152645.0, -11445812.0, -21465398.0, -31776110.0, 3750645.0], [-19797906.0, -4235909.0, -10977472.0, 21445044.0, 20689198.0], [22481266.0, 24363802.0, -17503216.0, -4761018.0, 13108033.0], [17403370.0, -2888131.5, 8170639.5, 8233899.0, -37010400.0]], [[15192276.0, -14241196.0, 3488609.5, -4669472.0, -13547403.0], [8114939.5, 12422778.0, 19059188.0, -11991729.0, -17377348.0], [-1977800.25, 33095812.0, 18667878.0, -1137870.0, -5552251.5], [17438920.0, -4874003.5, 1962571.375, -540910.375, -8810568.0], [11521990.0, -18494464.0, -476165.125, 12161618.0, 4977969.0]], [[15614722.0, -40473684.0, 20786214.0, -10268460.0, -20747436.0], [-19099150.0, 25415272.0, 2355771.75, 5387719.5, -2428545.5], [43747400.0, -17066782.0, -20014758.0, -9205165.0, -29318790.0], [5078780.0, 8701269.0, 45279368.0, -26044380.0, -6491107.5], [-10936949.0, -10137528.0, 9023785.0, 9921081.0, 9924172.0]], [[33082346.0, -945706.4375, -8388197.0, -25432316.0, 26153116.0], [-10267376.0, 20037610.0, 46849276.0, 9004538.0, -12618536.0], [3296934.5, -128752.1953125, 1812665.125, 1008027.5, -5622567.5], [-4907243.0, 11106181.0, 4518453.0, -4088125.5, 5688636.5], [13975102.0, 3325668.25, 430148.9375, -3518840.0, 7058746.5]], [[28889712.0, -30182182.0, -25872436.0, -8855142.0, 11363478.0], [30436572.0, 6934408.0, 7437714.0, 10971248.0, -29900022.0], [-30051024.0, -9888087.0, -12574781.0, 8998604.0, 13941893.0], [9949195.0, -15071459.0, 23033586.0, -11262345.0, 21774654.0], [-17813106.0, 7394715.0, 6531612.5, 26558812.0, 17303374.0]], [[21015088.0, -14266771.0, -14337195.0, 2069758.625, 12088965.0], [-4768033.5, -21226974.0, -7837665.0, 3952467.75, 20272870.0], [-13407870.0, 6038611.0, -15289403.0, 15267888.0, 2042016.375], [-12117013.0, -35552520.0, -8646959.0, -4656672.5, 35440988.0], [13209794.0, -14750593.0, -6309867.0, -589822.0625, -30274798.0]], [[11457878.0, -22361270.0, 17825978.0, 15522246.0, 925678.8125], [-4420886.0, 6016822.5, 1718202.875, 18083670.0, -12676273.0], [21718626.0, -16038252.0, -1957577.75, -6383587.5, 19721188.0], [16138221.0, 35160488.0, -936153.25, 18810200.0, 26805678.0], 