{"conv1.0.weight": [[[[24255788.0, 57926624.0, -51223800.0, 27583396.0, -35010336.0], [7540842.5, -19451418.0, -34784020.0, -50134624.0, 22792916.0], [1753394.25, -9035448.0, 14168476.0, 59316896.0, 67557768.0], [-39048380.0, -2654538.0, 6816690.5, 6278455.0, -23253348.0], [9074745.0, -18163588.0, 6248365.5, -9175363.0, 39493656.0]]], [[[3624622.75, -581061.8125, -48837976.0, 16248414.0, -10013701.0], [-2636894.0, 26138336.0, -1377869.75, -18330580.0, -24088280.0], [12487202.0, 20865018.0, -22768292.0, 14666844.0, -26235908.0], [9488844.0, -19638536.0, 32263362.0, 16993128.0, -64490880.0], [-2371509.5, 21702920.0, -35446944.0, 30804132.0, 3451204.0]]], [[[-31347070.0, 21409728.0, -4407847.0, -25800920.0, -44706588.0], [53236592.0, -7212902.5, -848532.0, 47068752.0, 8155511.5], [-45057360.0, 35932528.0, -31381692.0, -16853572.0, -34833800.0], [28773788.0, 7655676.5, -29787632.0, -35621152.0, -26751604.0], [68246208.0, 44580120.0, 33078038.0, -29733020.0, 15246175.0]]], [[[26080084.0, -31192468.0, 3992733.75, -6398152.0, 5042446.0], [12141970.0, -27402430.0, 15558338.0, -24458534.0, 7159160.0], [-45161288.0, -35195100.0, -43244340.0, -2974327.25, -53270576.0], [68037408.0, 35575784.0, -25011408.0, -50556476.0, 11767050.0], [-74062344.0, -18935190.0, -22582656.0, 8500900.0, -18568576.0]]], [[[-16721662.0, -42763824.0, 62553064.0, -13862186.0, 101235016.0], [-15406921.0, 9250602.0, 11047880.0, -6053438.0, -23421312.0], [-30906004.0, 5054894.0, -43208240.0, 13817348.0, -15171644.0], [-283135.5625, 20909440.0, -14884272.0, -274859.96875, 2372977.75], [-1189966.75, 21630924.0, -7019397.5, -2010162.875, -50492436.0]]], [[[4618092.5, -10790208.0, -10913846.0, -1737990.75, 18547648.0], [17382732.0, -22259664.0, -50886196.0, 1760001.875, 3256716.0], [-8945602.0, 57639256.0, 42203464.0, 35069192.0, 31144404.0], [-37915536.0, 40389544.0, 33182828.0, 55694356.0, 26049546.0], [-8855272.0, -59351992.0, 30265644.0, 8795880.0, 13324350.0]]], [[[-31763316.0, -17524100.0, 24621080.0, -950006.1875, -12046150.0], [-39992632.0, -15174110.0, -22563248.0, -21819916.0, -7215778.5], [82320880.0, -5854541.0, 66047996.0, -7656118.0, 7760677.0], [-3357509.0, 26380612.0, 23976590.0, 23210280.0, -48289792.0], [17939090.0, -7774166.0, -11064664.0, -32984736.0, -2060045.375]]], [[[-26330252.0, -18212416.0, 1020635.9375, 26451416.0, -15083803.0], [-52608288.0, -4579558.5, 1365921.25, -43146260.0, 61643652.0], [-39449444.0, -1796760.0, 58829088.0, -34877112.0, 13501913.0], [31848180.0, -23866844.0, -7427271.0, 49080536.0, -26504744.0], [-32975096.0, -20015554.0, 11221894.0, -19120664.0, -47033344.0]]], [[[-10747202.0, -22960436.0, 28932374.0, -14828340.0, -2861041.0], [-7988462.0, 2013154.375, 7615694.0, 30999308.0, -10721148.0], [36130692.0, -14297052.0, -20307564.0, -28765476.0, 696235.75], [-2216027.0, 25050612.0, 18410740.0, 4211637.5, 14830080.0], [-52605432.0, -60764740.0, 25370834.0, -5057974.0, -10043878.0]]], [[[-5156312.0, -56244628.0, 21874522.0, 42722312.0, 17762404.0], [-18845816.0, -11910033.0, -4685131.5, -27010874.0, -25064684.0], [37236976.0, 27941928.0, 5814603.0, -27650500.0, -35632168.0], [-26170286.0, -20417284.0, 33439332.0, 969874.3125, -17284512.0], [-16779098.0, 52284404.0, 3140929.0, 25737786.0, 14281543.0]]], [[[-30269614.0, -56207312.0, -44664208.0, -46774280.0, 29099518.0], [6726070.0, -18027062.0, 2687958.0, -20356328.0, -6900379.0], [5404709.5, -55866328.0, -31988664.0, 44686064.0, -30883484.0], [-3522725.0, -30427116.0, -23835694.0, -10453513.0, -2896722.25], [9658042.0, -64021264.0, 20993688.0, 6127493.0, -16255846.0]]], [[[-38285104.0, 34884648.0, 5059975.0, 24597536.0, 31728380.0], [-49325492.0, 24976194.0, -32139578.0, -18180864.0, 29946314.0], [-19526308.0, -43431340.0, 14602418.0, -9839034.0, 24441826.0], [-37979164.0, 27983684.0, 17624284.0, -66985820.0, 42402688.0], [-41303984.0, 43015200.0, 23501830.0, 19963858.0, 8636805.0]]], [[[-6534089.0, -50562728.0, 18837888.0, -44543448.0, 24197168.0], [-12743457.0, 6864906.0, -33462944.0, -5856335.0, -5961777.0], [-12833857.0, -77241656.0, 31293916.0, 31344018.0, -46881440.0], [10566738.0, 32322488.0, 18376570.0, -34536752.0, 11061840.0], [20966026.0, 2478817.0, 10003343.0, 60724248.0, 488262.25]]], [[[-38782320.0, 14824177.0, -32432058.0, -8021485.0, 4051985.5], [-4241440.5, -3935006.75, -8982485.0, 38367288.0, -1824037.125], [25313452.0, -20565672.0, 27163120.0, -7317320.0, -17334756.0], [52307288.0, 25559512.0, -1005400.0, 22830046.0, -11571304.0], [-18282258.0, 23568594.0, 28366524.0, -77708592.0, -5415982.0]]], [[[-43125584.0, -16775630.0, 23227134.0, -59723096.0, -58644496.0], [-25420250.0, -6314564.5, -17686562.0, -22609908.0, 62639768.0], [33598032.0, 13722815.0, -16724348.0, -4243099.0, -3110399.5], [-42653804.0, -416830.40625, -735885.1875, 24011510.0, -11073248.0], [-25493406.0, -85876448.0, -24850802.0, -31727176.0, 14211446.0]]], [[[16731732.0, 6943169.5, 38471600.0, -21300936.0, -22404796.0], [23014558.0, -1435822.75, -11401773.0, -39523352.0, -24507532.0], [14530438.0, 29515650.0, 41959348.0, -75142536.0, 23714386.0], [-33002792.0, -21891286.0, -75478336.0, 36629020.0, -21772610.0], [30823408.0, 34945280.0, 1594889.625, 12913508.0, 13537656.0]]]], "conv1.0.bias": [-7734297.0, 29257134.0, 46434752.0, -9109924.0, -4783999.0, 17625940.0, 38548276.0, 5497701.5, 39217732.0, 21907952.0, 11505422.0, -19742796.0, 60435584.0, 33461956.0, 6630516.5, -4582457.0], "conv2.0.weight": [[[[-6955070.5, -10673471.0, 8642812.0, -31235440.0, 15872790.0], [4986333.5, -34721304.0, 22316434.0, 38702244.0, -5937314.0], [71492000.0, -32172196.0, 56244576.0, -19458712.0, 17219032.0], [-5405488.0, -64301660.0, -2885571.5, -20630940.0, 29695176.0], [32820398.0, 9728265.0, 44502624.0, 38045408.0, 2870442.0]], [[-8847872.0, -33937644.0, -452762.21875, -36735016.0, 18983508.0], [17643632.0, 39970800.0, 23366708.0, -1990447.75, -53630648.0], [-42469372.0, 32326754.0, 50532896.0, 5002845.0, -1129937.875], [42792096.0, 10205428.0, -73602672.0, 11309210.0, -14538094.0], [36884384.0, 633044.9375, -31074832.0, -2069259.625, -1985603.5]], [[-11131191.0, -30706720.0, -612905.375, 39082296.0, 25365722.0], [40454272.0, -4125938.0, 34533640.0, 28947472.0, 66034876.0], [-2464514.0, -9699766.0, 11622620.0, -47119912.0, 3923594.75], [399286.4375, -31058344.0, 4443687.0, 23222032.0, -33902696.0], [-27983264.0, -29341156.0, 43982256.0, 73260752.0, -16332871.0]], [[9972602.0, -31452432.0, -46807384.0, -28512326.0, -68593072.0], [5466145.0, 48734436.0, -22760752.0, -54820840.0, -9576265.0], [12499921.0, 28517316.0, 10064093.0, 12420980.0, 6889483.0], [-17106598.0, 36627752.0, -35312360.0, 28416184.0, 24506288.0], [-2853799.0, -3342279.0, -23365748.0, -70920064.0, 29628082.0]], [[2259575.0, -17526820.0, -23191742.0, -25538156.0, 25403508.0], [-17904820.0, 49215256.0, -9120921.0, 29062328.0, 18960884.0], [-12606433.0, 702245.5625, 42608884.0, -488665.5625, 52361464.0], [-14604676.0, 722869.75, -17967374.0, -2453262.0, 47876464.0], [-68495384.0, 28335050.0, -48514672.0, 9705552.0, -43517776.0]], [[32483060.0, -14102537.0, -62554208.0, 44861024.0, -2271877.5], [-3165758.5, -2071011.625, 69614080.0, 11031580.0, 31016768.0], [-39977824.0, -21769916.0, 26232484.0, -20738060.0, 53818432.0], [4200246.5, 25451576.0, 27413658.0, -58221900.0, 4386617.0], [17969292.0, 1341980.75, -18825358.0, 45586240.0, 71762624.0]], [[49802888.0, 12910007.0, -43881928.0, 38750696.0, 3041333.75], [-12222136.0, 2700367.75, -35602592.0, -45106960.0, -17732800.0], [-18489408.0, -13784338.0, 96244472.0, -54560396.0, -31078664.0], [-66231528.0, -21938892.0, 26739718.0, 14281098.0, 30824806.0], [21616470.0, 4299236.5, 28350726.0, -18194000.0, 11678529.0]], [[26656370.0, 58109476.0, -27355678.0, -25935484.0, 8732453.0], [-30255520.0, -21366538.0, -26488352.0, 16581818.0, 8746088.0], [-50723000.0, 39970156.0, -36859904.0, -875061.0, 10938512.0], [-37406296.0, -20652002.0, 5951799.5, 5929923.5, -21467390.0], [-12212004.0, 38100296.0, 15138041.0, -19825940.0, 15430185.0]], [[22562086.0, -40661912.0, 22455084.0, -34821640.0, -6660463.0], [7434822.0, -64262160.0, 33809028.0, -15985650.0, -28056742.0], [34688024.0, -26142676.0, 1999483.75, 44063936.0, -64843556.0], [16924174.0, -23219772.0, -6963500.0, 35041768.0, -4939275.0], [-12199171.0, 31124830.0, -33719816.0, 34028652.0, -29475736.0]], [[13525925.0, 29062776.0, -18609012.0, -37408264.0, 17806902.0], [-60175248.0, -2893261.25, -114052896.0, 2886381.5, 77565448.0], [45707596.0, 14047289.0, 79147360.0, -25502144.0, -37406568.0], [-28757156.0, -2312331.0, 18179672.0, 18483144.0, 15577058.0], [67117928.0, -15547701.0, -39354904.0, 51741048.0, -58617080.0]], [[-54126944.0, -40227108.0, 39159304.0, -9714948.0, 25409734.0], [-2246837.5, 26793544.0, 32459520.0, -35193288.0, -33175544.0], [-27302698.0, 33927592.0, -44264224.0, 5762813.5, -54112220.0], [69193144.0, 47576192.0, 9452279.0, 9087510.0, 61584992.0], [-43302392.0, 2404073.5, 7503493.0, 4567941.0, -56315804.0]], [[-62636544.0, 26391448.0, 1058557.875, -6821484.0, 66911636.0], [3731097.5, 17595324.0, 25505318.0, -17996194.0, -41367320.0], [-18801412.0, -13584301.0, 29488964.0, -9413006.0, 3434828.75], [34492120.0, 3715298.75, -24747322.0, 52380332.0, -22141236.0], [12215818.0, -14066807.0, -28332256.0, 12747704.0, 4611897.0]], [[29563188.0, 17504674.0, 47441416.0, 31716100.0, -8615368.0], [18691112.0, -35963384.0, 28034184.0, -14120251.0, -2964232.0], [-14626287.0, -35422704.0, 17204844.0, 40568368.0, 2830762.25], [33089950.0, 52033912.0, 12984755.0, -37141884.0, -18996640.0], [82114240.0, -21606368.0, 17748866.0, 7456120.0, -30321818.0]], [[-2659195.5, -46290312.0, -4759340.0, 9392660.0, -77593488.0], [-1181483.375, 49854084.0, -56384900.0, -33106910.0, 30158998.0], [-4399282.0, 3184984.5, 32698054.0, 16665602.0, -10145642.0], [36006480.0, 24203570.0, -18592532.0, 39425036.0, -29171134.0], [-21140368.0, 48513744.0, 21707142.0, -45952268.0, 22770464.0]], [[-33313076.0, -1313722.625, 9365359.0, 33294824.0, -239596.0], [-13685134.0, -570634.125, 48234824.0, 7989375.0, 13606114.0], [-1318111.0, 76386256.0, -24569800.0, -4621052.5, -36929536.0], [8775396.0, 46569712.0, -32316648.0, 64968080.0, 25257928.0], [20204916.0, 83498552.0, 1136526.75, 21338224.0, -28235578.0]], [[9337709.0, 30516660.0, -18064936.0, 2361629.5, 41201864.0], [93131808.0, 58550000.0, 47120064.0, -8940606.0, -12944732.0], [-42774784.0, -5260348.0, -39480512.0, -4583727.0, 4669110.5], [30343566.0, 47321544.0, 4642768.0, 51547924.0, -6928708.0], [-27267984.0, 16842676.0, 28939740.0, -23255604.0, 29122680.0]]], [[[13483096.0, 61020752.0, 1154546.0, 17085502.0, 10966565.0], [-2008938.625, -15106109.0, -74329344.0, -13890118.0, 59242048.0], [-14888330.0, -3881250.5, 17258190.0, 59850596.0, 30959696.0], [41794688.0, 28141424.0, -21176128.0, 14649882.0, -43014864.0], [-17251206.0, 27227198.0, 15434168.0, 19450388.0, -2993124.5]], [[-56714096.0, 4563504.5, -33061268.0, 29731428.0, 52114360.0], [52449228.0, -1415924.75, 16072072.0, 172839.921875, 19153636.0], [16786528.0, 12561096.0, 21742764.0, -10982956.0, 7319154.0], [-11667556.0, 17941716.0, -19624616.0, -23186024.0, 39469384.0], [-29059882.0, -3185346.75, 1331486.875, 11357824.0, -6283388.5]], [[-26172888.0, -14962527.0, -16700080.0, 29684326.0, 21638400.0], [-53919912.0, 16913180.0, -16307486.0, 38327692.0, 33557348.0], [27323396.0, -48619664.0, -4665444.0, 34483440.0, -24396952.0], [12245760.0, 40395788.0, -13463572.0, 66454376.0, -8834676.0], [2888868.5, -5681582.0, 6148484.5, 73255104.0, 9371334.0]], [[-2320828.0, -44523328.0, -7629219.0, -17131728.0, 31958110.0], [-15913760.0, 72100816.0, 48820536.0, -53280720.0, -28548896.0], [-62342836.0, -38265560.0, 6784763.0, 22162118.0, -86737744.0], [12782266.0, 21839096.0, 35394872.0, 23192444.0, 3569012.0], [-5884189.0, 8983138.0, 38789296.0, 11592100.0, -20041036.0]], [[-27125712.0, 28863856.0, -45946120.0, -711620.0, -12282456.0], [-12655460.0, -8694478.0, -5277595.0, 1541482.625, 24737388.0], [-57883252.0, -46699408.0, 475289.5625, -38946616.0, 7975664.5], [44671180.0, -3345682.5, 17272764.0, 48751468.0, -49334008.0], [47241160.0, -22754026.0, -13002826.0, 48163528.0, 5862943.0]], [[59566816.0, -872448.25, 25994314.0, 20439704.0, -38549000.0], [46876352.0, -30709872.0, -27022264.0, 18316308.0, 4559606.5], [51675220.0, -50714648.0, -12052358.0, 45261232.0, 8513822.0], [-26976982.0, 7290929.0, 21727072.0, 7794794.0, -48336472.0], [5905719.5, 35873328.0, -7509378.0, -82465024.0, 15267712.0]], [[19957340.0, 59709472.0, 29196228.0, 27812852.0, -32754034.0], [-39302800.0, 8093194.0, 44733280.0, 44462228.0, -20550094.0], [-30874504.0, -54989840.0, 79450928.0, -8876796.0, 26198592.0], [-17016948.0, -9873588.0, 43141776.0, -5412701.5, -30167944.0], [39033424.0, -33522100.0, 4751335.0, -25949152.0, 8953940.0]], [[7745702.5, 16323931.0, -43203152.0, -9468368.0, -10431499.0], [53588208.0, 22127512.0, -25995748.0, 70511488.0, -7841587.0], [62881632.0, 16727477.0, -41086120.0, 7124754.5, -35400316.0], [6491164.0, -15795778.0, -96278256.0, -24915932.0, -55103196.0], [36776888.0, -15067886.0, 34987232.0, -8658137.0, 846457.6875]], [[-15557142.0, -11072836.0, 22087932.0, -13152749.0, 17526520.0], [17227862.0, 38141288.0, -10318814.0, 58550832.0, -60168072.0], [-62694384.0, -17524708.0, -29604064.0, 356059.5625, -8121130.5], [-28068062.0, -37373536.0, -32918520.0, 1610510.875, -7855334.0], [15864971.0, 10555968.0, -13142724.0, -12418171.0, -67732736.0]], [[-46224928.0, 23778934.0, 7413327.0, -22821760.0, 19338132.0], [-4690719.0, 33648560.0, 11923603.0, -658946.125, -21422012.0], [-63631440.0, 37814336.0, -11603296.0, 19739364.0, 48582680.0], [41373960.0, -71157104.0, 76433952.0, 6184581.0, 25530156.0], [6508617.0, -1361846.375, 13072589.0, 2025409.75, -5409289.0]], [[-69134648.0, -2672766.0, 24962648.0, -11802678.0, 30389470.0], [-7525922.0, 60852108.0, -27457984.0, 30148082.0, 16790036.0], [-21821632.0, 2631042.0, 1734433.5, -43788680.0, -11207668.0], [-44513648.0, 61372724.0, -25663408.0, -24070944.0, 50509648.0], [15532237.0, -8773210.0, 14758121.0, -44510952.0, -12488664.0]], [[-9159964.0, 22261514.0, 21115384.0, -18427658.0, 34857648.0], [-11859863.0, 27695064.0, 40081976.0, -17538412.0, 5606401.0], [-70170088.0, 38357796.0, -1685047.75, -7950344.5, -9317322.0], [-59946960.0, -13025169.0, -30640210.0, -89446976.0, -24535604.0], [28260398.0, -44951312.0, 30587176.0, -10560258.0, -35786112.0]], [[-17220440.0, 9262917.0, 8625636.0, -6827889.0, 34393192.0], [43453016.0, -21205396.0, -24160630.0, -34471108.0, -34807624.0], [-16831512.0, 38285792.0, -6184602.0, -483386.03125, -18311080.0], [-32896612.0, 35569592.0, -12021080.0, 26084682.0, 16086484.0], [-38465120.0, 34430280.0, -31588884.0, 16329208.0, 61741832.0]], [[-11388180.0, 7178548.0, -2109252.0, 48014220.0, -50452336.0], [-5793593.0, -42646888.0, -57298216.0, 10160620.0, 7738453.0], [3929583.0, 7705136.5, -27111724.0, 58098872.0, 47033036.0], [-27344698.0, 33089732.0, -21553680.0, 31930700.0, -9114140.0], [-4380116.0, -19820490.0, 8110906.0, -66559244.0, -52500776.0]], [[-21258572.0, -36490416.0, 32572004.0, 10949080.0, -1914943.75], [-27519196.0, -38994852.0, -9374504.0, -44975620.0, -18592236.0], [-34441536.0, 26935882.0, 9106462.0, 9743427.0, -5219708.0], [-31119326.0, 33637496.0, 34519936.0, -6883844.0, -8150437.0], [44194568.0, -573446.4375, -53919560.0, 40412872.0, 28793050.0]], [[25604862.0, 35004216.0, 71159.8203125, -20231228.0, -24684936.0], [32398770.0, 30215450.0, -44996748.0, 28105418.0, -20199512.0], [48200128.0, 27974434.0, -23940000.0, 592139.625, -70572288.0], [-10692790.0, -18299490.0, 2113478.5, -4472350.0, 41604408.0], [-38084128.0, -28382218.0, -41437448.0, 56898488.0, 15531614.0]]], [[[15403066.0, -24237240.0, -13601928.0, -19187904.0, 6625618.0], [-24206532.0, 26414592.0, -31642258.0, 11367434.0, 46310888.0], [41938808.0, -49147192.0, -20364970.0, 7035701.0, -5290522.0], [6062587.0, -4841297.0, -6693457.5, 31176568.0, 33855584.0], [-37662224.0, 25858102.0, 31847700.0, -14089016.0, 6867484.0]], [[-36904024.0, 18676044.0, 25571010.0, -9894380.0, -21476368.0], [59832980.0, -6287274.5, -1068847.75, -5279936.5, -54218072.0], [-7890798.0, 4940239.0, 15421074.0, -1978318.875, -4513455.0], [59331332.0, -31596044.0, -14719981.0, -23339224.0, 16528292.0], [53115052.0, -928575.9375, 40775432.0, -22344642.0, 4546378.0]], [[727511.125, 22040632.0, -12364570.0, 17546740.0, 7472610.5], [10332192.0, -1552579.75, -34105940.0, 22046360.0, -26664662.0], [-32016684.0, 25948696.0, 34364292.0, -32424280.0, -18552168.0], [-16320680.0, 17615568.0, 21040888.0, -16713431.0, 7892463.5], [22671350.0, -9744180.0, 11954878.0, -27832544.0, 9980836.0]], [[4253046.0, -41431160.0, 47319248.0, -45130216.0, 25238194.0], [-7554200.0, 34170856.0, 6656987.0, -7280504.5, -24998612.0], [29227256.0, -15387590.0, -46580916.0, 35319212.0, -39805588.0], [-38147016.0, 18269792.0, -31766682.0, -13136436.0, 24785560.0], [-8260772.5, 9349436.0, -10620687.0, 9231386.0, 31579644.0]], [[49366664.0, -52344328.0, -28394436.0, -33624584.0, -23143592.0], [-35389432.0, 57134972.0, -2591289.5, 3953646.5, -18633328.0], [-1396568.875, -28071614.0, -28636288.0, -12887703.0, -50546360.0], [1996968.5, 27340454.0, -28329136.0, -44897740.0, -32712752.0], [-61147916.0, 35916088.0, 1619850.625, -19487996.0, -20790164.0]], [[45142060.0, 77926656.0, 52449016.0, 6244709.0, -5227540.0], [-3773155.75, 15691390.0, 41710808.0, -5951748.0, -23998548.0], [-72992736.0, -24985732.0, -17822592.0, 6574086.5, -8177649.5], [26332044.0, -38377696.0, -2540489.5, 4061666.5, 52951648.0], [-13011231.0, -536721.5625, 37469356.0, -27747586.0, -55403708.0]], [[-20437842.0, -36743304.0, 6950882.0, 31799726.0, 9210446.0], [-18975560.0, 40994096.0, 56176136.0, 7377268.0, -17303160.0], [42618392.0, -63776204.0, -29358784.0, -60958056.0, 6346740.5], [847201.375, -10607158.0, -16683156.0, -39929560.0, 11803532.0], [-1164750.25, 25225006.0, -33511080.0, 4625579.0, -10673261.0]], [[-8563440.0, 26423048.0, 21650374.0, 2081119.625, -26965952.0], [51040880.0, 45015824.0, 32409888.0, 32880764.0, 18981784.0], [-24702280.0, 20997028.0, -11857938.0, 9970296.0, 18074958.0], [-23662650.0, -30492304.0, -16396346.0, -7888437.0, 6179681.0], [-27122542.0, -6697614.0, 18881188.0, 23160660.0, 45734800.0]], [[15795665.0, -24381772.0, 4245132.5, 20981958.0, -40675648.0], [44349728.0, 32883462.0, -33412424.0, 32634878.0, 41738824.0], [17933762.0, -30928184.0, -16016362.0, 2312230.5, 24619312.0], [-11849579.0, 25176880.0, 24413084.0, -17872524.0, 30954240.0], [-23888072.0, 49290720.0, 25544256.0, -413659.8125, -37970092.0]], [[-49358912.0, -30219300.0, 41111888.0, -2653926.5, 11352020.0], [23513444.0, -45277140.0, -30578044.0, -24210826.0, -44608368.0], [3071933.0, -3318093.75, 51969776.0, 5011116.0, -15183038.0], [-44140796.0, -31671452.0, -9920784.0, 23514416.0, 26719578.0], [-18967494.0, -9783621.0, 81996520.0, 23185448.0, 872570.5]], [[-43887960.0, -34638280.0, -24655568.0, -65780948.0, -6524704.0], [-20287616.0, 17451990.0, 19500452.0, 3781815.5, 36344188.0], [6522759.0, -12763807.0, -64336924.0, 32372748.0, -11697084.0], [40721912.0, 23421042.0, 31563052.0, -34668408.0, -33476348.0], [-28192102.0, -41446736.0, -10545056.0, -82805184.0, 28538068.0]], [[-28488370.0, -42912440.0, 22139308.0, -16826756.0, -34990136.0], [5419328.5, -52489268.0, -3856325.5, -54297928.0, -24886436.0], [13927130.0, 72717792.0, -5954171.0, 48307244.0, 17637792.0], [-36013336.0, -4033001.0, 38310848.0, -4211298.0, -30373282.0], [10239378.0, -27069204.0, -3824025.25, -14578682.0, 12964777.0]], [[-37191368.0, -22383536.0, -43431240.0, 7677440.0, -86141120.0], [-22421398.0, -23703328.0, 21781620.0, 53518816.0, -39691552.0], [5992390.0, 57958064.0, 24282610.0, -30889444.0, -23816666.0], [-14884036.0, 23530560.0, 69594848.0, 30979390.0, 17565872.0], [-15698472.0, 21930598.0, 44667056.0, -2252654.5, -46710688.0]], [[-54367488.0, 5287616.5, -6672123.0, -6345162.5, -19603768.0], [-22468780.0, 23811260.0, -29816364.0, -29365678.0, 26006908.0], [-36344172.0, -64413708.0, 8221790.5, 13763843.0, 2179024.0], [55897148.0, -49977856.0, 5282524.0, 11394992.0, -21269630.0], [27621060.0, 17295472.0, 14796120.0, -27579998.0, -66838796.0]], [[2249210.0, 17833814.0, 9827930.0, 66957400.0, 22263244.0], [-21094700.0, -4443876.0, 14440780.0, 2236598.75, 42662696.0], [37953328.0, -19550716.0, -39435264.0, -16979364.0, -16469112.0], [-3070084.0, -13112728.0, -19033124.0, 41412388.0, -1824344.0], [-42362812.0, -3259010.0, -2453553.75, -12758989.0, 8460918.0]], [[29253442.0, -15752934.0, -31115950.0, 3436339.5, -29574088.0], [23515412.0, -30679844.0, -1790435.625, -35155496.0, 22967924.0], [26119676.0, 8225118.0, -62545248.0, -72052384.0, 13562224.0], [3915168.5, -45257392.0, 26549172.0, -40116132.0, 4400206.0], [-17936016.0, -8594322.0, -10077934.0, -12278126.0, 12397778.0]]], [[[4856602.0, -56494912.0, -17037612.0, -64231192.0, -51254220.0], [16797220.0, 31456440.0, -21646246.0, -31211912.0, -58696728.0], [3819284.25, -57063752.0, 3208440.5, 2858685.25, -11543591.0], [-768236.375, -39540480.0, -19843834.0, -47793420.0, 34188608.0], [69500200.0, -29406758.0, 39812008.0, 26986212.0, -30606152.0]], [[23085622.0, -51568856.0, -12410168.0, 10279656.0, 9903448.0], [11566380.0, 77191168.0, 4790527.5, -6640855.0, -26146762.0], [-5413911.5, 3183681.0, -13610842.0, 27397860.0, 2697889.5], [6538705.0, 2245018.5, 11889641.0, 74730112.0, -27076132.0], [-8022789.0, -36911360.0, 21359858.0, 16250120.0, 45457236.0]], [[-60812816.0, 26528060.0, 29654350.0, 19844402.0, -8947030.0], [-18796254.0, -18413114.0, 18602434.0, -2664436.75, 17957214.0], [-5279657.0, 21245616.0, 15562278.0, -9742203.0, -513164.75], [27758476.0, -24209928.0, -15152909.0, -11169020.0, 12096353.0], [-22474138.0, -36093792.0, 25574120.0, -45174844.0, 55072584.0]], [[20359526.0, -21428732.0, 11186196.0, -7512925.0, 31998712.0], [-28489574.0, -19947228.0, -12008406.0, 18223592.0, -19224388.0], [22389662.0, -16326110.0, -27556496.0, 19966604.0, -6996634.0], [5123165.5, -5868538.0, -18534316.0, 22386624.0, -6437126.0], [-27551728.0, 4451982.0, 48174476.0, 23325432.0, -1917065.125]], [[-60576228.0, 10473318.0, 5129371.0, 21594436.0, 38580264.0], [4042174.75, -7324809.0, -2711201.5, -375078.8125, -16980982.0], [12271675.0, -67632928.0, 48435316.0, 9455714.0, 33437760.0], [6571601.5, -2207244.75, -34616592.0, -9635222.0, -15740472.0], [15008360.0, -38217208.0, 13373546.0, -10383412.0, 23477690.0]], [[-38430588.0, -57846388.0, 54289336.0, 20040276.0, -11590114.0], [31934354.0, 11760692.0, 12174954.0, -222473.9375, 73074992.0], [28980478.0, 21125924.0, 6877419.5, -35252460.0, -41493616.0], [65497328.0, 33139396.0, 29602768.0, -15340506.0, 905844.0], [-47554480.0, 24380264.0, 21688868.0, 9211547.0, -14827908.0]], [[27498676.0, -18270036.0, 44245056.0, 86536048.0, 4000605.75], [-30109884.0, 16112364.0, -27155896.0, -30322816.0, -29963704.0], [84207696.0, 31556098.0, 31019948.0, -33097696.0, 38644040.0], [5120527.0, 7465725.5, 69098640.0, 28933120.0, -17098330.0], [-31985464.0, 14051321.0, -16469606.0, 9382392.0, 70098016.0]], [[-30491704.0, 28733004.0, -12724097.0, -60122536.0, 7190120.0], [783287.75, -15928828.0, 35810592.0, 1159164.75, -9743357.0], [6898005.5, 31361644.0, -64675004.0, 48339648.0, -60265024.0], [23018124.0, 4316884.5, 2667021.5, -17894614.0, 12201869.0], [-38865176.0, 39620256.0, 43418512.0, 18043676.0, -24128568.0]], [[30140172.0, 7413152.5, 28747984.0, 17057236.0, -13549152.0], [-33262576.0, 25598944.0, -24798828.0, -729371.25, 43696392.0], [40905024.0, 13710630.0, -54205896.0, -428444.8125, 26929856.0], [-10608379.0, 3953751.25, 25467432.0, 27719382.0, -42972476.0], [-9987098.0, -35991592.0, -1346762.375, 193215.59375, 3982296.0]], [[42489304.0, -21076772.0, -16572409.0, -15212726.0, 43190816.0], [21841454.0, 29007144.0, 10630628.0, 68779936.0, 706586.125], [26725916.0, -64399496.0, 25330388.0, -45181724.0, -1263543.5], [-23737640.0, 20438280.0, 4121447.25, 24582518.0, -34352192.0], [-26667108.0, 13638002.0, -21087410.0, 13739895.0, -26099396.0]], [[13592249.0, -38752508.0, -24530326.0, 28382408.0, 2875588.5], [17868496.0, 45304864.0, -12507167.0, 25440062.0, 4038543.5], [-8610035.0, -50150944.0, 13419522.0, 33414594.0, -2666675.75], [-10805676.0, 21200110.0, 1872619.75, 51344168.0, 72763616.0], [19036496.0, 60459236.0, 989047.4375, -8444512.0, 37541568.0]], [[-34147536.0, -30841286.0, -40868280.0, -7755435.0, -28502590.0], [-1828804.75, 35778832.0, -16090434.0, -13857662.0, 26206984.0], [-3483040.0, -5628313.0, -10377490.0, 17126516.0, 51233060.0], [-36540996.0, -3387785.0, -5557562.5, -15866983.0, -38354968.0], [24167898.0, -10410817.0, -4821632.0, 58947728.0, -53025928.0]], [[32217420.0, -27626952.0, -7073390.0, -10882528.0, -63347128.0], [29769180.0, -5527109.0, 15611766.0, 30758984.0, 3413874.0], [-11162593.0, 22322118.0, 19390072.0, 6606782.5, 15820006.0], [53882168.0, 7836742.0, -3236841.25, 57086360.0, -33294904.0], [-28452000.0, 10252364.0, 31707368.0, -34175384.0, -25559116.0]], [[-686870.875, -1862284.75, -22034416.0, -38106600.0, 10278676.0], [-736245.375, 65184852.0, 6735439.5, -4402243.5, -38002888.0], [30051038.0, 30897338.0, -1553305.875, -41937440.0, 13398169.0], [-13836012.0, 16515630.0, 21554912.0, -62534920.0, -14858726.0], [32769994.0, -3443858.0, 8207765.5, 1946405.5, 5480728.0]], [[-50419076.0, -11015301.0, 43208080.0, -47952088.0, 2489383.0], [40998200.0, -106136784.0, -6864591.0, 33690220.0, 33644020.0], [-15461141.0, 30104176.0, -29332680.0, -6076110.0, -13399199.0], [-45370648.0, 4015212.0, 5782336.0, -14956115.0, -8367911.5], [35086416.0, -6372777.0, 19938752.0, -74362600.0, -4666281.0]], [[31751140.0, -16500066.0, 1895441.875, 6274372.0, -6631213.5], [11748005.0, 32064936.0, -16911768.0, -69571824.0, 30498814.0], [-27697372.0, -23630264.0, -3930638.25, -989183.8125, -38698076.0], [21938316.0, 35177280.0, -37885000.0, 40437160.0, 54656432.0], [-58718684.0, 2148365.75, 23490900.0, -8679404.0, -24041716.0]]], [[[35146488.0, 3793290.5, -32847434.0, -9036872.0, -19356796.0], [25219584.0, -14199425.0, 52950488.0, 9123480.0, 5285203.0], [39041740.0, 16257432.0, 27857428.0, -44280660.0, -24855564.0], [-20608688.0, 36371392.0, -67167960.0, 16468050.0, 11700863.0], [-60733752.0, -35720488.0, 46959968.0, -2788578.0, 42240168.0]], [[50635000.0, 8574652.0, 4893805.5, 2745470.0, -29284408.0], [-16921968.0, 15202630.0, -33313298.0, -5977757.0, -20686140.0], [-17898928.0, 55125380.0, -107063920.0, -16640105.0, -29320984.0], [-10086574.0, 6153551.5, -18404068.0, -70557056.0, -64285.5859375], [-33751688.0, -18229376.0, -31328560.0, 7048503.0, 21947480.0]], [[27651254.0, 7735246.0, -4845668.0, -13751525.0, -2344881.0], [6682700.5, -15067517.0, -8159889.0, -22514008.0, 501231.125], [-22136218.0, 4902198.0, -7349530.0, -41254040.0, 63683264.0], [14292948.0, -23708780.0, 25098200.0, -16119060.0, -7496286.0], [48416208.0, -23809676.0, -7752638.0, -17251116.0, 40871028.0]], [[9901856.0, 29685700.0, 25835154.0, 15289456.0, -35389552.0], [-41583848.0, 22966468.0, 18904076.0, -15474658.0, 47521468.0], [9868310.0, -3986704.75, -11215300.0, 11003290.0, 3176136.5], [1186005.25, -50385416.0, 49367000.0, -2314641.5, 22595038.0], [1097424.0, 33823080.0, 21380732.0, -2623398.5, -8182907.0]], [[30167308.0, 20110964.0, -54248072.0, 28851312.0, 32353302.0], [8092627.0, 42934192.0, 24864776.0, -14884750.0, -16718327.0], [30520004.0, 7992533.0, 17496104.0, -6243086.0, 18379466.0], [-33570800.0, -17937284.0, 5174653.0, -4683480.5, 307510.0], [28557390.0, -62737384.0, 10137356.0, -50103040.0, -34192148.0]], [[35176672.0, -49859572.0, -32887672.0, 13941810.0, -40932912.0], [-29914824.0, 7308322.0, -27491644.0, 31483148.0, 24985192.0], [20481122.0, -52936352.0, -13060076.0, -15116275.0, -73796432.0], [25542152.0, -13115818.0, 8781742.0, 33927288.0, -71239320.0], [-23305572.0, 38639460.0, 2784633.0, -22891792.0, -17382472.0]], [[-9312852.0, 24923050.0, 38592156.0, -20368652.0, 25196834.0], [-9129990.0, -24284724.0, -23728688.0, 70616336.0, -59725008.0], [27406714.0, -39275232.0, 63932240.0, 25013172.0, -16500.37890625], [-38187336.0, 58034884.0, -44039564.0, -30662800.0, -33180944.0], [-5523103.0, -13682970.0, -10834463.0, 8136318.0, -40388592.0]], [[61985576.0, 29043124.0, -22293776.0, 7094704.0, 37444524.0], [-29806606.0, -52401704.0, -44696708.0, -3253508.0, 49509588.0], [-2396447.75, -8992546.0, 12567060.0, -15862434.0, 41710824.0], [-12450395.0, 6598589.0, -14705222.0, -13312256.0, 7238667.0], [-3863100.5, -8418735.0, -5803830.5, -32439100.0, -29654044.0]], [[51881252.0, -12869774.0, -48800104.0, -50260076.0, -56478248.0], [7589459.0, 87014320.0, 8709009.0, -7379183.0, 64452648.0], [-58165936.0, 55468128.0, -60610700.0, -6006843.0, -14722264.0], [15740910.0, 5421916.5, -3406198.75, -26072998.0, 10944575.0], [41059184.0, 47765880.0, 2004388.25, 12158348.0, -40779632.0]], [[-30091574.0, -25544296.0, -100738816.0, -16233130.0, -1574204.25], [25238230.0, -29956528.0, -13056077.0, 41810500.0, 13319036.0], [-32800358.0, -39378896.0, -16884748.0, 247391.59375, 56097032.0], [-54939612.0, -11044691.0, -19004566.0, -11633792.0, 1112112.25], [-21843236.0, -41054092.0, 18984576.0, 17660548.0, 3553169.0]], [[33691176.0, -65827356.0, -7181556.0, 7734769.0, 48095836.0], [-28485748.0, -38357656.0, 17736108.0, 32390610.0, -12421424.0], [-17720116.0, 21205812.0, 18055392.0, -3192749.25, -19368592.0], [-26839130.0, -34282472.0, -66973684.0, -33494508.0, -6281007.0], [-12433956.0, 14943106.0, 9374650.0, 22543294.0, -660219.375]], [[-10796972.0, 3766148.5, 30803734.0, 37981108.0, 8565884.0], [-22742184.0, -2479309.25, -7715810.5, 39161560.0, 12131353.0], [-24948282.0, 36974184.0, 13216226.0, -6620268.5, -18373500.0], [8332442.5, -6796212.0, -3618684.0, -2574842.5, -25802924.0], [14215391.0, 520669.0625, 16270610.0, 43667568.0, -19297128.0]], [[-15469112.0, 19561548.0, 14358629.0, -53961116.0, 6914509.5], [11164943.0, -18526524.0, 57820704.0, 12666508.0, 15090460.0], [14767980.0, 20674632.0, -43395380.0, 56881132.0, 42312968.0], [55203704.0, -31738652.0, 10067934.0, -48005912.0, -55193996.0], [-31322556.0, 54262648.0, 21858556.0, -23853868.0, -76704592.0]], [[-10303103.0, 34823052.0, -28701500.0, 10679752.0, -14012894.0], [12153398.0, 59438936.0, 42173616.0, 40606832.0, -15180086.0], [-24420622.0, 48856648.0, -2164401.5, 6181556.0, -22083336.0], [50154008.0, 19305328.0, 73798408.0, -28050340.0, -10862352.0], [13030226.0, -36258424.0, -56291400.0, 37695312.0, 9804128.0]], [[-18693172.0, -21583284.0, -19161076.0, -13847219.0, 8241891.0], [31815592.0, 14510379.0, 51631128.0, -1350190.25, -41556224.0], [-10673786.0, -3910370.0, -17339762.0, 11921510.0, 29019076.0], [-17801272.0, -38914880.0, 61368004.0, 49808824.0, 17371718.0], [5307546.0, 51031064.0, 22907836.0, 12897476.0, 5459156.5]], [[9241855.0, -1554020.375, -6355305.5, -35676096.0, 20599372.0], [21228612.0, -2730547.5, 1095387.75, -12896587.0, -55231672.0], [-46593608.0, 12622184.0, 1733135.875, 13249235.0, -8290709.0], [35030704.0, 4600812.0, 35777776.0, -7309863.0, 15080592.0], [36305136.0, -18682646.0, -69395184.0, 48119696.0, 60425752.0]]], [[[-38440656.0, -3022669.75, 9930822.0, -23945410.0, 24129672.0], [12393050.0, 4515329.0, 42884632.0, 8660214.0, -6168345.0], [16417440.0, -5147001.0, -36005672.0, 43763720.0, -10073409.0], [-30766084.0, -4624371.0, 34676088.0, 9373934.0, -1846532.125], [245055.0625, -35152720.0, 22521630.0, 22127792.0, -7581086.0]], [[19305174.0, 790458.0, -31224864.0, -35963848.0, -4433878.0], [23571828.0, 9713721.0, 7915899.0, -4324800.0, 9746225.0], [49884916.0, -72419592.0, -28822594.0, 3231974.5, 25969336.0], [6144537.5, -14855183.0, -26828894.0, 16505711.0, 39873756.0], [16006576.0, 13236356.0, -19942852.0, 28325710.0, -3939097.25]], [[-26956786.0, -18035348.0, 2113690.0, 6799853.5, -39752520.0], [-37197600.0, 28924728.0, -20126126.0, 30231960.0, 17124468.0], [-37169536.0, -37469684.0, -30123200.0, -23127094.0, -19295226.0], [23181938.0, -54172944.0, 36345984.0, -5113486.0, -67459024.0], [-43862152.0, 49367864.0, 13307341.0, -5704144.0, -53800992.0]], [[-42615552.0, 21081552.0, 19546646.0, 88807744.0, 4902940.5], [-18673764.0, 20505574.0, -57559924.0, 13252630.0, 11178314.0], [31361440.0, 21073228.0, 21070996.0, -10759946.0, -2610157.0], [-19009094.0, -20084780.0, 21280508.0, 41105436.0, -4467500.0], [62719632.0, 23755648.0, -18928920.0, 974082.125, 4813508.0]], [[58847160.0, 34973592.0, -47867908.0, -36971068.0, 20778028.0], [16604860.0, -16954286.0, 30942306.0, 63558496.0, 38069680.0], [15540682.0, 55412624.0, 11550371.0, 9098413.0, -4809808.0], [8807460.0, -7469437.5, 10320865.0, -49760680.0, -15415616.0], [8963062.0, 49533856.0, 32306832.0, -516885.0625, 7163431.0]], [[-32223054.0, 42875872.0, 6178687.0, -19314210.0, -50477876.0], [-14004660.0, 3093566.0, -2736462.0, -4807623.0, -2396808.5], [49186432.0, -39929680.0, 6762334.0, -19368276.0, 39300072.0], [-5853646.0, -21533486.0, -9845868.0, 18052444.0, -9339925.0], [-10130460.0, -52471016.0, -3194434.0, 65070980.0, -13794804.0]], [[-63096800.0, 29813.57421875, 40004632.0, 52830496.0, 71035920.0], [633521.875, 20989344.0, -40396696.0, -9066426.0, -20780594.0], [18298854.0, 20297014.0, -16645456.0, 15000690.0, 51360104.0], [23423976.0, -304556.21875, -12363992.0, 555654.5625, -27040612.0], [-10728242.0, -13323535.0, -26191334.0, -47320884.0, 17341304.0]], [[4991960.0, 44348976.0, -3556396.5, 35497220.0, -26463674.0], [12743847.0, -6476715.0, -69880008.0, 74646840.0, -30622970.0], [-13294177.0, 26485900.0, -52413776.0, -14798810.0, -57713696.0], [21009284.0, -44278244.0, -29598916.0, -24709904.0, 13699235.0], [-49879096.0, -1085894.0, -90437984.0, -41518000.0, 20935178.0]], [[11612710.0, -51287876.0, -32318978.0, -18967312.0, -60787992.0], [9707498.0, 5520694.0, 20121856.0, -42474656.0, -22214368.0], [-20965716.0, -36308344.0, -33448444.0, 66635812.0, 17214532.0], [31266922.0, -2142548.5, 46184492.0, -13945221.0, -34726384.0], [-16591243.0, 37265636.0, -28426296.0, 54295856.0, -373898.125]], [[-25737170.0, 21588032.0, 34697464.0, -39579804.0, 13728920.0], [-15175036.0, -10020131.0, -9632987.0, -3723543.75, -12180167.0], [-9753051.0, 38870392.0, 1448019.375, 10465458.0, 16815486.0], [30690888.0, 52777360.0, -30940076.0, 43825052.0, -1457945.625], [-53924380.0, 27191270.0, -11335452.0, 1955596.0, 13081786.0]], [[9739727.0, 14420327.0, 11112358.0, 9807057.0, -1110679.125], [10045396.0, 29569528.0, 12748054.0, 16598300.0, 24432342.0], [-37844632.0, 21165688.0, 22175006.0, 20493928.0, -52276568.0], [8605972.0, -24175096.0, 9594217.0, -15822488.0, -13766118.0], [25387858.0, 36128044.0, 13896818.0, 8786065.0, -16626943.0]], [[31595224.0, -33772504.0, -14005326.0, 48812524.0, 46066760.0], [-27336622.0, -50376872.0, -4794301.5, 11156238.0, -43602940.0], [-22300156.0, 18783792.0, -42574320.0, 27662500.0, 17182804.0], [-20966728.0, 59783424.0, -21628826.0, 15120674.0, 22355148.0], [-1436970.5, 13035290.0, -7247628.0, -8293020.5, -15606070.0]], [[-14833514.0, 21106420.0, -31692624.0, -22977844.0, -19821228.0], [3461903.5, -17815102.0, 25826304.0, -13311432.0, 5219195.0], [35934340.0, 291365.875, -18317978.0, 26056420.0, 16484347.0], [-1945069.75, -21817980.0, 3490371.5, 9384166.0, -5332846.0], [2794753.5, -11417141.0, -8645382.0, 32207776.0, -34858896.0]], [[-23145538.0, -42853376.0, -19826204.0, -33013248.0, -61281700.0], [16342496.0, -27707620.0, 23377124.0, -43837.19921875, -33625652.0], [-41249132.0, 28668012.0, -34313840.0, -7408504.0, -5003375.0], [-8985169.0, -21606292.0, 45686252.0, -48963460.0, 9513778.0], [38658948.0, 65759884.0, -16530666.0, -17533352.0, -20098942.0]], [[17778512.0, -14487782.0, -5305993.0, -926241.1875, -5324560.0], [-14548526.0, -7823184.0, 9482752.0, -11361822.0, -24307706.0], [-36272276.0, 6809565.0, 36562960.0, -58118012.0, -42395344.0], [-39089624.0, -2732973.0, 39992392.0, 4580589.0, 2749079.75], [-22094452.0, 37716400.0, 17555716.0, -7803654.5, 16523484.0]], [[-6648969.0, -40587064.0, -68392112.0, -15229027.0, 11437792.0], [-13365379.0, -6585218.5, -25612740.0, 15164318.0, -52628004.0], [1346800.5, -10215172.0, -7238155.0, -2676394.0, 92374472.0], [24581086.0, -9140330.0, -28493604.0, 32288094.0, 28614164.0], [-7197189.0, 11798508.0, -27562846.0, 4141087.75, -30238666.0]]], [[[-4531138.0, -44594576.0, 355554.4375, 29512884.0, -27755254.0], [8513780.0, -15628294.0, 19155896.0, -10276459.0, 45877400.0], [-85669456.0, -2243907.0, 20259088.0, 10442094.0, -4753421.0], [-595687.375, 1570693.25, -41744624.0, 38089144.0, -18040668.0], [566088.6875, 20368210.0, 300411.8125, -52292636.0, 5064961.0]], [[-31966206.0, 3892881.25, -43043408.0, 36169880.0, -4130418.5], [-18614688.0, 58437740.0, -44476536.0, 6811706.0, -17333372.0], [21521362.0, -1163856.0, 17845864.0, 74707680.0, 45012040.0], [44287200.0, -7178050.0, 29153396.0, -41545492.0, 803065.625], [-24418108.0, 8470658.0, 57372344.0, 34276680.0, 34876748.0]], [[51702252.0, 31768726.0, 63729572.0, 878292.3125, -3658447.0], [32625408.0, 23249018.0, -25204680.0, -15423281.0, 28552092.0], [-22331954.0, -34627912.0, 60140384.0, 4611263.0, 9675362.0], [35246256.0, 40347316.0, -5486713.0, -28288766.0, 59521704.0], [35894520.0, 4148555.75, -17695896.0, -26958466.0, -45845304.0]], [[-79716816.0, 5536283.5, -26207180.0, -11742976.0, 48836352.0], [-16849800.0, 15397366.0, 21198078.0, 62385540.0, 65262028.0], [-12644016.0, -16480541.0, -26479716.0, -9160462.0, -35830072.0], [10580832.0, 99615560.0, 9531090.0, 32906650.0, -21891556.0], [11595056.0, -10636516.0, -22840474.0, -14441611.0, -441548.125]], [[364659.125, 46411216.0, 43805440.0, -10242516.0, 29624690.0], [-16537865.0, -10645472.0, 100110928.0, -14518541.0, 846748.1875], [-31362470.0, -23244596.0, -35582032.0, 1744504.5, -39485012.0], [45548392.0, -33894260.0, -20857392.0, 10506382.0, -64992124.0], [-32672908.0, 26027872.0, -20164870.0, 2429564.5, -15245225.0]], [[26421206.0, 382409.6875, 4785619.0, -8272418.5, 1406653.25], [-12898912.0, -20612460.0, -20521052.0, 23184008.0, -20461852.0], [-16880642.0, 9708289.0, 20595502.0, -7301988.0, -2994393.75], [12715320.0, -13826656.0, -941722.0, 21920242.0, -15511694.0], [14681418.0, 47024288.0, -39608112.0, 18485264.0, -47496568.0]], [[11838768.0, 6977803.5, 49858036.0, -57316128.0, -26370808.0], [36304428.0, -28277900.0, -31620044.0, 3259327.75, 13767844.0], [43896656.0, -1575222.125, -38484524.0, -18466586.0, 23831224.0], [-12109508.0, 23966676.0, 35556092.0, -6060966.5, 12448.51953125], [-18777234.0, -17017118.0, 63317660.0, -39438308.0, -54583880.0]], [[1119906.875, 1215003.5, 22177150.0, -9299698.0, 12500781.0], [-15945830.0, -24674456.0, -16402328.0, -6485896.0, 114071.515625], [-22125896.0, 2575875.25, -32034642.0, -2874813.75, 14413532.0], [21212832.0, -34160128.0, -42392584.0, 34713776.0, 21339668.0], [-34610848.0, -23126326.0, -34760656.0, 29223016.0, -20862428.0]], [[14922339.0, 24459992.0, -55059704.0, -7455253.5, 38077024.0], [21147428.0, 4423090.5, -8332579.0, -30372828.0, 6619270.0], [52058768.0, 40142248.0, -102902008.0, 11108387.0, -3386684.0], [-10416120.0, 14195580.0, 5928229.0, 10739172.0, -26465400.0], [-49433412.0, -1355540.25, 55307316.0, 16391197.0, 484943.5625]], [[-49358240.0, -25108236.0, 13746637.0, 56496652.0, 10347374.0], [-14642190.0, 40938992.0, -8181668.0, 56959560.0, 23168136.0], [-8321507.0, -8844334.0, 13162429.0, 12933606.0, -32044872.0], [37776048.0, -10311172.0, 5477211.0, 20108532.0, -1255626.125], [-60063048.0, 40956928.0, 15189346.0, 3206510.75, 13066442.0]], [[-20353896.0, 34680076.0, -66128204.0, -2170716.0, -47316980.0], [-51942172.0, -12626146.0, 16605532.0, -18961068.0, 17106088.0], [-2672200.5, -20382976.0, 23685640.0, 33476250.0, 14111876.0], [-6051696.5, 31096568.0, -48117256.0, 24860692.0, 22896778.0], [-19050646.0, 19939468.0, 8415350.0, -12810774.0, 991743.3125]], [[29605728.0, 21303244.0, -38887608.0, -3461681.5, 50931344.0], [-18571200.0, 22154520.0, 16647632.0, 25572928.0, 4558789.5], [-11057372.0, -11852666.0, 45651640.0, 10242382.0, 13462826.0], [26729260.0, -47474448.0, 82441648.0, 23649248.0, -2612949.75], [31757464.0, 33086904.0, 11732497.0, -73437624.0, -31373616.0]], [[-2544615.0, -20821724.0, -54085300.0, -28276748.0, -32492496.0], [32560176.0, 89849936.0, 21477134.0, 46905056.0, 14940927.0], [-24300116.0, 354004.84375, 18096108.0, -21745062.0, -20031924.0], [63830276.0, -4586167.0, 8503774.0, -28586816.0, 17903128.0], [75622528.0, 15241031.0, 9751154.0, -4770835.5, -44856728.0]], [[33581896.0, 49475708.0, 7956412.0, 59630912.0, -5144197.0], [33170310.0, 15876338.0, 11233730.0, 20476868.0, -21327820.0], [-43794548.0, -18586406.0, 14232458.0, -7678505.5, -70263216.0], [-43876744.0, 33946820.0, 45072176.0, 14709032.0, -10145322.0], [-97180528.0, -3954183.25, -12240017.0, -17739798.0, 12366000.0]], [[74982912.0, 39701160.0, -3929775.75, -15873942.0, -19027564.0], [-19292688.0, -19265540.0, -14878246.0, 21247468.0, -28352792.0], [10245964.0, -18318656.0, 44986864.0, 13764542.0, -20311622.0], [62550112.0, -33357348.0, 10187022.0, -6802030.0, -1242312.0], [-18109198.0, -735888.375, -18516172.0, -27762588.0, 19433760.0]], [[4352191.0, -20284032.0, -45051908.0, 24076436.0, -1174943.625], [6845435.5, -14282912.0, -31723844.0, -18181538.0, 7619849.5], [-22611844.0, 28292880.0, -24760506.0, 20168800.0, 36093904.0], [7354505.0, -63245992.0, 4064911.0, -38669712.0, -1233668.0], [-28057360.0, -29639182.0, 37238608.0, -11381940.0, -44897692.0]]], [[[62289236.0, -42217960.0, 9095274.0, -47196968.0, 1665946.125], [-38556240.0, 60801944.0, 26599120.0, -23790860.0, 1909971.5], [-60797312.0, -59627156.0, 1921484.5, -11701498.0, 5434727.5], [-6085312.0, 760696.5625, 39176152.0, -16948072.0, 17859716.0], [19095032.0, -17353412.0, -15138690.0, -15779780.0, 19144448.0]], [[-64617220.0, 6987285.5, -39054804.0, 36768964.0, 19210832.0], [44059796.0, -16988492.0, 31816076.0, -21135044.0, -14234864.0], [20361684.0, 21245834.0, 30130888.0, 7127674.0, -2567537.75], [15098208.0, -7661343.0, -3191127.5, 26065954.0, -23108692.0], [8963982.0, -61221312.0, 52159884.0, -10909117.0, -17645692.0]], [[6651148.0, -1648099.25, 21704884.0, -37005328.0, -976933.75], [45867640.0, 21836576.0, -382122.375, 45922648.0, 46747736.0], [18282964.0, -13748600.0, 34313696.0, -15286596.0, -9699959.0], [-10744046.0, 18125732.0, -960386.5625, -41742784.0, -41807840.0], [67284968.0, 9700301.0, -3560704.5, -36412968.0, 8073754.0]], [[-10779300.0, -35662288.0, -700516.625, 20162038.0, -46513232.0], [-15191663.0, 10490376.0, -32337532.0, -14223256.0, -5326631.5], [-57195264.0, -35895216.0, -18663312.0, -16671943.0, 6617438.0], [52274568.0, 30603500.0, 27888254.0, 18032984.0, 14938203.0], [71014928.0, 16722148.0, -45116280.0, 47952696.0, -79509136.0]], [[13907090.0, -19434468.0, -28700028.0, -31300202.0, 10177914.0], [-38303448.0, 430480.96875, -43530008.0, 34124592.0, -35973936.0], [32398286.0, 12562820.0, -31014744.0, 41197896.0, -27927112.0], [-13574332.0, 30478704.0, -30698400.0, -5982115.0, 12892308.0], [83316288.0, -35991632.0, 6273432.0, -42977580.0, -19880416.0]], [[-41055320.0, 19378070.0, -18348412.0, -4045423.5, -46108104.0], [-43270980.0, 5587749.5, 4697742.0, 6934952.0, -4978591.0], [1019931.6875, -44392568.0, 29570516.0, 8376143.0, -10427407.0], [-82787040.0, -28757314.0, -30275868.0, -24738668.0, 53187408.0], [52428440.0, 25165716.0, -26637180.0, -27674940.0, 31249588.0]], [[6142663.5, 27985748.0, -24922984.0, 14194628.0, 16585714.0], [-12775148.0, -40003760.0, -15270144.0, -26480862.0, 22828504.0], [-24860656.0, -37445216.0, 54230064.0, -18114216.0, 1275197.875], [-21781186.0, -10063772.0, -21699284.0, 14316886.0, -16639659.0], [41783060.0, -27467992.0, 53248224.0, -2469653.25, 1983660.125]], [[4582926.5, 22700618.0, 782894.875, 27386728.0, -16033747.0], [-62058624.0, 91574240.0, 47261268.0, -21206122.0, 62911528.0], [55652184.0, 37333088.0, -17151858.0, -53645488.0, -37145996.0], [-14549360.0, -24542780.0, 22734982.0, -33370540.0, 29757364.0], [27504432.0, 21201172.0, 94858.1875, -6970993.0, -10551361.0]], [[-14209218.0, 11168964.0, 19081348.0, 19242722.0, -8304244.0], [-45693320.0, 34113180.0, -3826839.5, 8822008.0, -4856103.0], [-37659736.0, -27459064.0, 8369624.0, -47735272.0, 29233128.0], [-41522000.0, 7792909.0, 4783037.0, 18252860.0, 19644680.0], [15464262.0, 36950504.0, -17337268.0, -2899000.5, -18278334.0]], [[32239850.0, 41903228.0, -77233584.0, 125968.28125, -23152778.0], [42471544.0, -12360841.0, -23871426.0, -27112792.0, -39742892.0], [-10319780.0, 49945452.0, 49577080.0, 29697886.0, 22132500.0], [5472537.0, -12384736.0, -101374408.0, -38555216.0, -7678504.0], [10743957.0, 25600104.0, 39480536.0, 403256.65625, 13146844.0]], [[34565132.0, 18517448.0, -6782005.0, -26277856.0, -10763928.0], [-4142707.5, 31764886.0, -1320801.0, -10636360.0, -801011.625], [-519843.03125, 4097052.25, 63359032.0, 18731244.0, -2171255.75], [8193340.0, 6135891.0, -3069900.0, -16811818.0, -31544184.0], [-7602012.0, -66910744.0, 8542479.0, -15592050.0, -221654.140625]], [[-13604350.0, 17245224.0, -9498346.0, 5523740.0, 3984333.0], [5610590.0, -1422214.375, 49755928.0, 45878248.0, -10686734.0], [-30137424.0, 2842298.75, -20653618.0, -17559912.0, -22344274.0], [38612744.0, -14055339.0, 20791584.0, 23125728.0, -21195912.0], [7563856.0, -66018192.0, -5818693.0, 5678485.0, -15653302.0]], [[-911745.875, 69080240.0, 9319456.0, -50478252.0, 17106836.0], [29157282.0, -16449766.0, 19780350.0, 38969420.0, -60039672.0], [-6760382.5, -15951316.0, -18904060.0, -31357402.0, 5237633.0], [-20082644.0, 6563655.5, -32665052.0, 35499376.0, -23682424.0], [3135348.5, -8071021.0, -10101924.0, -5566350.5, 8513880.0]], [[-32871984.0, -21725554.0, 86492624.0, 49919576.0, 13550105.0], [-4708111.0, 19426760.0, -11004487.0, -32090604.0, 33811972.0], [31234764.0, 9188900.0, 15793286.0, 10540451.0, -27428410.0], [-28744082.0, -28375182.0, 14414244.0, -18781540.0, -11713427.0], [-17536914.0, 9307.859375, 11297764.0, 18513156.0, -4524597.0]], [[-3061566.25, -3011309.25, 24250020.0, 15261032.0, 5801671.0], [-23486106.0, 15819905.0, 26343214.0, -54305452.0, 23286506.0], [-17872616.0, 37404400.0, 28194590.0, 8623736.0, -6034413.5], [4148070.25, 4670608.0, 17367492.0, 3655057.5, 2658748.5], [16650404.0, -15658008.0, -13638107.0, -26912672.0, 27651826.0]], [[30199340.0, -2396465.0, -62951288.0, -25849072.0, 16144704.0], [40851164.0, -14014360.0, 8270273.0, 8976304.0, 70053864.0], [-13073729.0, -4725474.0, 41282660.0, -6523584.5, 6956317.5], [-1301474.25, 27417610.0, 52779040.0, 65879580.0, 32757544.0], [33541678.0, 76626376.0, 2741477.25, -55685692.0, -33569048.0]]], [[[-4257802.0, 36737664.0, -21834492.0, 5974850.0, -38914272.0], [2727918.25, 44980908.0, 42741264.0, 34619752.0, 998160.4375], [42332040.0, 17498832.0, 25454804.0, -37585936.0, 68772696.0], [-30669966.0, 11304536.0, 10632776.0, 36136844.0, -4519424.0], [-78543448.0, -56566600.0, 22650428.0, 44177608.0, -4737937.5]], [[53714472.0, 8070688.0, -21040100.0, -70993024.0, -12326014.0], [-27787748.0, 17621202.0, -15972440.0, 6419050.0, 3491829.25], [18541996.0, 6940043.0, -11557634.0, -10372734.0, -3002000.5], [-570264.25, 15025809.0, -14554073.0, 16654759.0, 47752536.0], [-38668056.0, -16289848.0, 10726751.0, -11680132.0, 26251312.0]], [[36267080.0, 14715602.0, 12933512.0, 49389976.0, -423637.625], [-43727160.0, 14318991.0, -3311230.5, -3841436.5, -2744566.0], [-17692074.0, -861910.0625, -1613557.0, -1670519.375, -64088616.0], [-57164008.0, -54885376.0, 1412350.625, -3379611.5, 5921288.0], [-640018.25, -16259773.0, -18118672.0, 21331644.0, 503836.9375]], [[8541040.0, -21391318.0, 4626301.0, 38302968.0, 26205518.0], [-20221644.0, -21258414.0, -13527486.0, 9631398.0, 63146620.0], [-5486056.5, 9238120.0, -15218778.0, -35087944.0, 17087664.0], [26697804.0, 3459496.75, -26316588.0, -26154738.0, 37524464.0], [28835966.0, -17429492.0, 17941976.0, -12882414.0, -11619054.0]], [[-30732288.0, 494142.625, -11226172.0, 84152176.0, 32671024.0], [5210030.5, 51233880.0, 50855152.0, 26729596.0, -31888896.0], [-22820168.0, -53914284.0, -38736960.0, 7439200.0, -1455481.5], [23631436.0, 32790976.0, -30955874.0, 40268520.0, -19717928.0], [65123448.0, 8835546.0, -55357424.0, 29572306.0, -53646512.0]], [[-17399770.0, -17125108.0, 17756492.0, 12607534.0, 15309912.0], [-54606168.0, -44044248.0, -11546935.0, -38464280.0, 1502482.5], [-9964398.0, 2770543.75, -25740244.0, 3111820.0, -8529832.0], [22561412.0, 30299734.0, 7394892.0, -28276052.0, -26595886.0], [-53496796.0, -25503168.0, 21176316.0, -30606324.0, 27152296.0]], [[-18542536.0, -40256928.0, 811210.9375, 34485632.0, -30772568.0], [843666.125, 1636093.125, -1863673.0, 10446157.0, 41939048.0], [25361522.0, 19763064.0, 29624632.0, 18402104.0, -1134325.75], [-26877632.0, 32012590.0, 431074.59375, 4078207.75, -11866324.0], [-36333496.0, -32028218.0, -4235696.0, -34898664.0, 8744752.0]], [[-16605666.0, 65385800.0, -1177057.125, -50963824.0, 12528303.0], [-40624352.0, 30666406.0, -51417008.0, -2871338.0, -14099514.0], [14506584.0, 45395744.0, 7087299.0, 25054492.0, -44024300.0], [11801895.0, 56475856.0, -79702864.0, -31380478.0, 2720180.5], [29947162.0, 14344968.0, 5245719.0, -3063401.5, -32838868.0]], [[9910553.0, 12158752.0, -24072632.0, -12285848.0, 19129760.0], [8657216.0, 37602652.0, 47515264.0, 60118504.0, 16411425.0], [11788953.0, -36624528.0, 10804552.0, 28952416.0, 7381804.0], [43195580.0, -34423664.0, 25382104.0, -20632816.0, 11441965.0], [-3556142.75, 215207.1875, -55629932.0, -16772960.0, -3064271.5]], [[492390.375, -10143884.0, 5016889.0, 22141200.0, 14776424.0], [-55594780.0, 2801280.5, 8938121.0, -6860983.0, 11354012.0], [553255.375, 22681408.0, 21852160.0, -433466.59375, -17187088.0], [-24753832.0, 6796123.0, -30865148.0, 30076742.0, 25559692.0], [14820422.0, 36886836.0, 2753334.75, 1727893.0, -6807348.0]], [[49492208.0, -30029818.0, 55206260.0, -21349324.0, -28827240.0], [9639905.0, -28447220.0, -23227344.0, 23973340.0, 43936152.0], [4927894.0, 3399281.0, 12705356.0, -48454488.0, 24953698.0], [-12556149.0, -8311280.5, -46600960.0, 46931572.0, -91171952.0], [6960710.0, 69595168.0, -3863219.75, 10501434.0, -43396176.0]], [[-9337446.0, -15968501.0, 12636188.0, 523989.375, -56873160.0], [-40014856.0, -12796860.0, -44953208.0, 19632092.0, 10174098.0], [-25542704.0, -17329680.0, -16891380.0, 28194642.0, -2323646.0], [-29228770.0, -13284749.0, -37074944.0, 13013970.0, -40487096.0], [16369558.0, 32539704.0, -16118624.0, -33989752.0, 8742906.0]], [[25586872.0, 46307228.0, 9073418.0, -5176086.5, 49860496.0], [-37431520.0, -49809292.0, -11120911.0, 47007832.0, 23813414.0], [52124712.0, 54798476.0, -1420797.75, -14374807.0, -892101.125], [-11068150.0, 10938002.0, 4594824.0, -18048692.0, 7881833.5], [-5555881.0, -18073356.0, -25205404.0, 48810232.0, 827739.25]], [[-5112365.0, 4918239.0, -21426532.0, -15452060.0, 8899974.0], [-50062016.0, -9247773.0, 12710505.0, -52646032.0, 27678736.0], [13703410.0, 16030716.0, 22022774.0, -7575575.5, -21395664.0], [24833290.0, 20575802.0, 885711.125, 24795356.0, 14717054.0], [16222585.0, 25290464.0, -37812420.0, 28648218.0, -33490420.0]], [[7125861.5, -87775056.0, 32581856.0, 21676948.0, 34540408.0], [-9845718.0, 5737999.0, -4219271.0, -41336336.0, 38636360.0], [-15553574.0, -20002748.0, 2401272.0, -10515954.0, 8721968.0], [-58815860.0, -47982792.0, -36610000.0, -6927565.5, -37074128.0], [15666175.0, 22659680.0, -23679514.0, -26727424.0, 10790910.0]], [[-4097618.25, -24553854.0, -1961692.75, 3966531.5, -28987690.0], [23893090.0, 927934.625, -52985688.0, 48554708.0, -31300536.0], [43703252.0, -21751842.0, 2452490.0, 4185911.5, 18644130.0], [-25382588.0, -5278591.0, -30360744.0, 4515452.0, 1948921.25], [2920908.25, -8392161.0, -44832728.0, -10128872.0, -11525335.0]]], [[[28950672.0, 5789374.0, -33281938.0, 12356618.0, -32790220.0], [-19291544.0, 6749657.5, -4659238.0, 12194956.0, -41785152.0], [-46303052.0, -18721252.0, -2961063.25, 12993262.0, 12407480.0], [18051416.0, 12311888.0, 46418872.0, -10291246.0, 26264544.0], [27657176.0, -39518236.0, -56480792.0, -36493232.0, -35890288.0]], [[34518472.0, 41799672.0, -38689760.0, -3618511.25, 37421840.0], [78109600.0, -27198204.0, 50330296.0, -46575380.0, -2825226.5], [-18074082.0, 12541269.0, -709136.625, 22420544.0, 14226940.0], [13088416.0, 33042948.0, 38357264.0, 26450768.0, -32649842.0], [21259204.0, 31442234.0, -3055640.75, -5753299.0, -16520586.0]], [[-25269120.0, 26437546.0, 1872348.75, 8403892.0, -8438763.0], [58407704.0, -25483084.0, -1512428.5, 44003288.0, -9183619.0], [-78922624.0, 4926583.5, -6188721.0, -12270886.0, -28515766.0], [30955088.0, 16701344.0, 36316496.0, 72896304.0, -6010299.0], [6794873.5, 55965724.0, 37402084.0, 25602532.0, -69411928.0]], [[32800084.0, -4576266.0, -52227588.0, 25968798.0, -3474055.25], [-20833600.0, 1491734.875, -18264880.0, -71925856.0, -33136140.0], [-33478938.0, 15899560.0, 3326565.5, -26705716.0, 3531583.0], [3103505.0, 2518470.5, 14606202.0, 75746320.0, 3530021.5], [16614048.0, 7177409.0, -78149792.0, -55750264.0, 25449308.0]], [[-11919044.0, -40186392.0, 22874776.0, 2207652.0, 38288228.0], [16921426.0, -39990412.0, 866625.875, -5591462.0, -31700066.0], [35162596.0, 41405036.0, 6797262.0, -26693874.0, 9580152.0], [17632564.0, 48793656.0, -17495282.0, -21680800.0, 32743828.0], [-11583352.0, -38400740.0, 43175288.0, -15695504.0, -6367002.5]], [[37143800.0, 36633680.0, -35979912.0, -26295204.0, -1532642.5], [9998526.0, -34110848.0, -240408.34375, -52485548.0, 78175360.0], [-639930.875, -38532056.0, -36952888.0, 12819365.0, -9061040.0], [-4168259.75, 95076192.0, 6412136.0, 15204281.0, -19171308.0], [-43873776.0, 81523432.0, -18350976.0, 25452192.0, 18528692.0]], [[31196740.0, 53487168.0, -10994948.0, 20565808.0, 29943968.0], [16223862.0, -10710228.0, -28220842.0, 30372996.0, -12329404.0], [32379132.0, -17406112.0, -25798536.0, -17070358.0, -21030956.0], [31957812.0, 7505340.0, 1006904.375, -14153184.0, 34136804.0], [-2139994.25, 3141754.25, -1591156.0, 20253040.0, 44306224.0]], [[14540701.0, 74809960.0, -30068136.0, 7581670.0, 16843678.0], [-10246818.0, -30844440.0, 4070644.0, -19348732.0, 14618393.0], [5310011.0, -4345983.0, -36222800.0, -9936424.0, -61624148.0], [-42934712.0, -1243100.0, -38627520.0, -4732494.0, -17561556.0], [-5162720.0, 25624688.0, 16014958.0, -8223495.0, 18601428.0]], [[-29136914.0, 16920180.0, -56460848.0, 25316168.0, 12302068.0], [17646284.0, -12395637.0, 11986854.0, -4295874.0, 6374191.5], [7768077.5, 26940416.0, -23579686.0, 25057860.0, -20241394.0], [-63099800.0, 18413756.0, -53118188.0, -49281644.0, 14040872.0], [19701498.0, 25609248.0, 14123754.0, 7039165.0, -9088554.0]], [[-18356210.0, 24159524.0, -6131711.5, -2184715.5, -49442320.0], [-23720060.0, 23581430.0, -7901335.0, -12681855.0, -14529458.0], [26049664.0, -8110492.5, 19473994.0, -53088584.0, 71113456.0], [-17790392.0, 32146570.0, -12542256.0, -39548776.0, 26202324.0], [4677618.0, -41974304.0, 50538448.0, 5453849.0, -15093751.0]], [[-21051946.0, 66312112.0, 21322504.0, 38562240.0, 38634720.0], [28108518.0, 13779223.0, 27881184.0, -13178596.0, 17278460.0], [9797549.0, 50857936.0, 40823120.0, 70578448.0, 2223849.25], [4503206.0, 28894024.0, 24986820.0, 11238122.0, -676742.5], [-39243768.0, -35820232.0, 7384396.0, -34557224.0, -24741124.0]], [[43431552.0, -25876504.0, -22074080.0, -31005008.0, -35455408.0], [-15245243.0, -12246472.0, -25580788.0, -14831602.0, 27860560.0], [23389860.0, 35123328.0, 2307777.5, -33242780.0, -3142970.75], [42444488.0, -53406064.0, -33465136.0, 45137120.0, -10468960.0], [-84843552.0, -23315010.0, 14084051.0, -25430662.0, -8867048.0]], [[55425896.0, -43123772.0, -13106086.0, 21355738.0, -15429405.0], [-56768336.0, 49144864.0, 23599468.0, -3701650.5, 8785832.0], [-8649535.0, 42350792.0, -204062.375, -86507672.0, -22005714.0], [29617508.0, 10989291.0, 20111388.0, -12892734.0, -25307680.0], [-12008452.0, 3352893.25, 22114518.0, 1384179.25, 45147412.0]], [[-60296936.0, 3775242.5, 74360336.0, 19410636.0, 11228495.0], [36623328.0, -1440829.125, 24948520.0, -16674703.0, 14515244.0], [7244040.5, 5990841.0, -3540050.5, -8004468.0, -13624088.0], [1647756.125, 5599446.0, 35366824.0, 71438160.0, 12571054.0], [-20495318.0, -29482104.0, 35163176.0, -24141796.0, -14992196.0]], [[10598564.0, 23144332.0, -23805898.0, -3915518.0, -15367136.0], [7883196.5, -7325715.0, 41853552.0, -13763464.0, 50040928.0], [-6551392.0, 25597510.0, 45870652.0, 7125687.0, 24001626.0], [42915264.0, -29089116.0, 25163108.0, -40106904.0, -51452616.0], [18392604.0, 3343358.0, -23615482.0, -46095064.0, 34109112.0]], [[-15588234.0, -52007488.0, 16679205.0, -21287028.0, 56131612.0], [-13810382.0, -681132.875, -67937696.0, -7913663.0, 61647972.0], [-56812952.0, 69612096.0, 27589006.0, -14111720.0, 4012092.5], [15861539.0, 28178808.0, -5167823.0, -19328772.0, -20362902.0], [6148012.0, -29458540.0, -25843514.0, -29465812.0, -23606890.0]]], [[[-28299940.0, -2838806.5, 41579472.0, -43328112.0, 39636984.0], [-1881966.75, 25879436.0, 13914787.0, 3940566.5, -55359360.0], [-30701052.0, 10487544.0, 4309724.0, -5568469.0, -4529413.0], [-44623844.0, 42748436.0, 12407216.0, -16689906.0, 28283722.0], [4720991.5, -10155845.0, -2771438.0, 52163440.0, 4322740.0]], [[-92035296.0, 30568172.0, -7384321.0, -12804796.0, 41922120.0], [30680236.0, -18002750.0, 11575866.0, 59712520.0, 39272388.0], [34334552.0, 18682960.0, 25531596.0, -9192780.0, 13448150.0], [-46352648.0, -42199024.0, 24087860.0, -21790506.0, -5872012.5], [-10524546.0, -50742280.0, -10951155.0, -12119728.0, 42097200.0]], [[120818.875, 5964833.0, 40432464.0, -35479704.0, -5439189.0], [17910204.0, 16585099.0, 24860584.0, 40487564.0, 33383182.0], [-23031146.0, -39598416.0, 3259716.5, 19920026.0, 45590520.0], [41236784.0, -12906254.0, 41194928.0, -6228259.0, 40743820.0], [-16112892.0, -40130200.0, 29833476.0, 11071878.0, 8247639.0]], [[46054304.0, 1632281.75, -44810176.0, 2485681.5, 40899364.0], [-8874364.0, -2491219.5, -2812208.5, -11337914.0, -17294874.0], [-12867903.0, 5337769.0, 32876196.0, 56748028.0, 144471.171875], [-9214571.0, 11554001.0, 20714412.0, -55848360.0, -13435663.0], [8584153.0, -41245256.0, 63250424.0, -17341140.0, 56130716.0]], [[32253758.0, 23387834.0, -965677.1875, -12563474.0, 50445040.0], [-1819215.75, -43798384.0, 21521800.0, 225406.90625, -58121016.0], [60126000.0, 23343394.0, 10559297.0, -22614440.0, 23666492.0], [17966108.0, -7996380.5, 12546171.0, 3816467.0, 11323094.0], [-35160228.0, -15814225.0, 44389264.0, 25754884.0, 17632736.0]], [[-7140175.5, -4017725.75, -276654.4375, 33628928.0, -6628771.5], [9658918.0, -36249296.0, 25320632.0, 7543109.5, 59391000.0], [20781682.0, -6127433.0, -73996848.0, -11711000.0, -58908440.0], [140528.9375, 30017120.0, -31084142.0, 47939524.0, 26886290.0], [1467826.25, 1103103.625, 14145758.0, 13291196.0, -6615117.0]], [[47994980.0, -26098192.0, 13142071.0, 15382724.0, 27853722.0], [-47321972.0, 9260048.0, 15360100.0, -13020544.0, -1637981.0], [5938250.0, 13528874.0, 16786502.0, -26444902.0, 15936529.0], [25674600.0, -23984500.0, -18412920.0, -36730624.0, 1637291.75], [-47737856.0, 6570165.0, -63935448.0, -34744208.0, -36854200.0]], [[20104840.0, 28228064.0, -39475848.0, 6777703.0, 34459248.0], [-72988208.0, -2611630.0, 16638112.0, 7228598.5, -7639074.0], [19935054.0, -30400192.0, -5855695.5, -10296430.0, -31308090.0], [52213424.0, 24658748.0, -13181794.0, -33731536.0, 31280868.0], [-36365840.0, 47198956.0, -37955940.0, 20688286.0, -38954792.0]], [[1388279.25, 25356808.0, 27540196.0, 4831384.0, -29034454.0], [39184000.0, -24571960.0, -27044992.0, -24100624.0, -9311802.0], [52586968.0, 23927440.0, -839513.75, -12749562.0, -9229983.0], [10322258.0, -60641280.0, 18394420.0, -38127176.0, -29345520.0], [-12482374.0, -13995272.0, 1604688.625, 27331948.0, 38163312.0]], [[-39866840.0, 59206840.0, 73378456.0, -9298686.0, -14164436.0], [32551030.0, 10233041.0, 9338084.0, 6411220.0, 9318156.0], [51947184.0, 13160728.0, -34503860.0, -34635600.0, 41098732.0], [35586552.0, 17994402.0, -37863344.0, -12871784.0, -22343324.0], [-14869287.0, -16503546.0, -56043408.0, 40812848.0, 14605504.0]], [[-31092346.0, 35982624.0, -58478436.0, 42844648.0, -8165359.0], [32427302.0, 18782676.0, 30200464.0, -951742.375, 638197.5625], [-5354628.0, 64405412.0, -14909412.0, 11975075.0, 22414384.0], [5016288.0, -4305693.5, -45334524.0, -2283498.0, 29836424.0], [-50213572.0, 1428719.25, 27455738.0, 44322968.0, -52705032.0]], [[8838659.0, 31175570.0, -20554588.0, -38787508.0, 19269354.0], [10649396.0, 33395374.0, 73315592.0, 24261860.0, 31278046.0], [-11064238.0, 32939386.0, 14987010.0, 27278842.0, -21630472.0], [3919421.5, -14426648.0, -22123468.0, -1883635.375, -46165200.0], [33629064.0, -10000459.0, -35678232.0, -12623120.0, 3532249.0]], [[14138860.0, -5638273.0, 30876216.0, -2165670.5, 22800144.0], [-16038661.0, -12664842.0, 25894804.0, 20422310.0, 17852560.0], [-4398846.5, 38934096.0, -9178020.0, 34438600.0, 5977669.0], [-861244.75, -63946760.0, 31922570.0, -25453784.0, 27275542.0], [-58869056.0, -14941155.0, -3374040.5, -14965523.0, -15654629.0]], [[-31101778.0, 7105173.0, -40894356.0, 14576191.0, 11177149.0], [53155272.0, 10153705.0, 19291806.0, 88942.203125, 35669016.0], [-26898096.0, -1387279.0, 58408968.0, 1053766.125, 12669790.0], [-24225886.0, 35889576.0, -49711212.0, -43169304.0, -17427920.0], [25917482.0, -10965418.0, -20955454.0, -26070286.0, 24459490.0]], [[-6155642.0, -14686740.0, 17865098.0, -25227278.0, -27511792.0], [6842872.0, -34082376.0, -4583092.0, 16819826.0, -3999120.5], [59533956.0, -49742884.0, 39981408.0, 62077784.0, -13611930.0], [-6851128.0, 6227656.0, -17392288.0, 515758.5, -33399160.0], [53107388.0, -12195763.0, -57627916.0, -86866160.0, -21065604.0]], [[11546197.0, 3663367.0, 68839584.0, 22827732.0, -15156654.0], [-7863639.0, -29437736.0, -32754886.0, 19126104.0, -5442040.0], [43803688.0, -45663408.0, -9367256.0, -10259035.0, -2425390.0], [-22123416.0, -23584764.0, -38138540.0, -50271528.0, -36315232.0], [673948.0, -15805176.0, -64801656.0, -16247920.0, -40284200.0]]], [[[-52485736.0, -12888268.0, -34560816.0, 19016904.0, -73031816.0], [14179706.0, 64223960.0, -12196750.0, -8559640.0, -10884562.0], [-47231768.0, -8620306.0, -78304192.0, 27971008.0, -42849984.0], [-63503764.0, -12161332.0, 6946283.0, -31471900.0, 10597518.0], [-1822314.75, 43175400.0, 41091992.0, 9837432.0, 49889560.0]], [[-2822050.75, -6941909.0, 6188471.0, -3842304.25, 21744214.0], [-50627152.0, -15617194.0, 6752012.5, -1821354.25, 30413794.0], [44031088.0, 2654855.75, -18234760.0, -4791556.5, -2010926.75], [-25360064.0, -48217208.0, 35344236.0, -52952904.0, -7680476.0], [-6152584.0, 13264792.0, 11168897.0, 79308864.0, -25158714.0]], [[-5537007.0, -6312367.0, 7009272.0, 24216444.0, 22885456.0], [-67071864.0, -8536862.0, -6710214.0, 1848783.25, -55055016.0], [-29870912.0, -20088692.0, 8067468.5, -4093599.75, 63580224.0], [-16919256.0, -16698363.0, 2446160.5, 3080747.5, -14642218.0], [-28023332.0, 25915858.0, -14996023.0, -6231257.0, 34262864.0]], [[55026020.0, -15741451.0, 7785254.5, -46782776.0, -5753126.5], [-17411426.0, 24195198.0, 8978425.0, 4070128.5, 33142334.0], [60836312.0, 4913525.0, 20261624.0, 8898552.0, -10255679.0], [47438200.0, -12115018.0, 50948552.0, -50361276.0, -33292740.0], [-6709535.5, 32776156.0, -14344145.0, 207576.1875, 70698272.0]], [[-17824224.0, 3503931.0, -3620879.75, -5129229.0, 4534206.0], [-40585400.0, 39712056.0, 11428691.0, 3301987.75, -12484596.0], [30519642.0, 10677281.0, 53820248.0, 28167604.0, 12314233.0], [-808326.875, -16638048.0, -8833770.0, -34378596.0, 31413612.0], [16076948.0, -46357408.0, -37831540.0, -33803088.0, -6418252.0]], [[-5011243.0, -5916530.0, 75114416.0, -5716524.0, 7775348.5], [-26179828.0, 14864596.0, 45519928.0, -1849563.625, -42111956.0], [-10705720.0, -1015884.375, 6669331.0, -35927408.0, 15335516.0], [-3136904.5, 34473960.0, 3663394.5, -28990940.0, 12026479.0], [-13146000.0, -39623720.0, 58876208.0, 63800848.0, 32206810.0]], [[-17900904.0, 20335340.0, -33692080.0, -29868050.0, -23684738.0], [-38410232.0, -19374160.0, -21060216.0, -16627609.0, 16731238.0], [89756840.0, 1793913.625, 81456208.0, 25319188.0, -27286384.0], [-35116656.0, -36691048.0, 8259982.0, -10386455.0, 44146288.0], [-17241796.0, 31447840.0, 61362344.0, 12185264.0, -1514582.375]], [[41768136.0, 12886944.0, -4470500.0, -29306848.0, -98903632.0], [-35009840.0, 24940584.0, 23988328.0, 7217395.0, 43944296.0], [-4494790.5, -19440072.0, -17304392.0, -6730903.0, 39060568.0], [5914141.0, -26682000.0, -17814460.0, -3071787.5, -16521183.0], [-4284813.0, 26127536.0, -28380176.0, -18405736.0, -16285416.0]], [[-3033199.0, 8402271.0, -62892720.0, -18207466.0, 31629196.0], [9007782.0, -8530400.0, -24038164.0, 5559759.0, -9275629.0], [-24975100.0, -47297748.0, 39919376.0, -5657423.5, -32458560.0], [28615144.0, -29848678.0, -34406592.0, 32447012.0, 55091976.0], [-5637689.5, 9372767.0, -69569240.0, -817296.875, -27641278.0]], [[39844144.0, -39863640.0, -25667950.0, -7252290.0, -46392424.0], [-52591664.0, -47451456.0, 24555288.0, -40460296.0, 31403440.0], [-11765766.0, 49058080.0, 2301957.5, 59503296.0, 5156597.0], [-27195974.0, -5482427.0, -12778014.0, -7710941.5, 45238092.0], [-17060250.0, 61846584.0, 26658228.0, -16128962.0, -23923090.0]], [[39497528.0, 13245946.0, -32971370.0, 46455216.0, -18903764.0], [15120302.0, 20516866.0, -17463238.0, -4789069.0, -39346140.0], [-27227548.0, -10041498.0, -14266592.0, -3832914.25, -12179694.0], [294715.5625, -12276496.0, -8440274.0, 24860600.0, -25825498.0], [19385932.0, -29239424.0, 3688899.0, -55079732.0, -1742933.625]], [[55011932.0, -27106236.0, 29337924.0, 13996763.0, 16733256.0], [49676868.0, -21442684.0, 44466496.0, 45563228.0, 10313640.0], [13547042.0, -30350312.0, 64474888.0, 61652144.0, 16324286.0], [22474024.0, -22760772.0, -12724394.0, -12155756.0, 58383512.0], [-1995753.875, -26588380.0, 21256166.0, 45260896.0, -22796972.0]], [[26169628.0, 6270897.0, 23353840.0, -25520228.0, 33303000.0], [56848208.0, -20932346.0, 39716096.0, 33565120.0, -41949972.0], [-65072896.0, 4603646.0, 36497172.0, -33563072.0, 8434796.0], [10654002.0, 22472766.0, -24961976.0, -9442041.0, 31466754.0], [-21458376.0, 12768125.0, -37221420.0, 21603976.0, 8590044.0]], [[-9994776.0, -14924354.0, -80010616.0, -14704818.0, -27908662.0], [-307466.4375, -15955460.0, 5951324.5, 28578682.0, 6653290.0], [5105593.0, 22004124.0, -29050012.0, 5687665.0, 25220000.0], [31327240.0, -7283951.5, 26257768.0, -4228056.5, 7467987.0], [-31155316.0, -45148856.0, -5498421.0, 17292236.0, 23927302.0]], [[-49145896.0, 51248932.0, -15450922.0, 23979440.0, 812467.6875], [8596965.0, -14862095.0, -3998591.0, 895663.5, 34171312.0], [-30572238.0, 20787466.0, 8420334.0, -1815248.25, -19529716.0], [-12912982.0, 67516.359375, -26781844.0, -21952412.0, 61101052.0], [-697906.375, 3917540.75, -51082712.0, 30394224.0, -42877216.0]], [[26775960.0, -1936435.5, 6298963.0, 7283952.0, -3557259.25], [-42809336.0, -27687924.0, 36110356.0, -17370344.0, -8735482.0], [63152968.0, 45422660.0, 53600660.0, 12440424.0, 12687405.0], [-83932208.0, 8707542.0, 47391504.0, -15053378.0, 89580496.0], [-8418534.0, 51007352.0, -64519976.0, -27695160.0, -7638771.5]]], [[[8535598.0, 56121824.0, 830546.0, -41608512.0, 19146918.0], [-5795687.5, 16847644.0, 38993220.0, 7594091.5, 79742384.0], [-39914536.0, 18594608.0, 11338932.0, -35100608.0, 5944225.0], [14881448.0, 19084698.0, -7349931.0, 10945928.0, 1353996.375], [-3039171.25, 67925168.0, -4133229.0, -4539064.0, 17120200.0]], [[66613504.0, -16728365.0, 13114156.0, 21431062.0, 7106735.0], [24860372.0, 3972037.0, -3322294.0, -23963560.0, -50761044.0], [-87104928.0, -68831440.0, -4334218.0, 29581458.0, -4783315.0], [-24587040.0, -15812558.0, -10932713.0, -8677692.0, -57508020.0], [-1334862.125, 28356640.0, -18285068.0, -30037614.0, 19543968.0]], [[-18808590.0, -39990200.0, -3751672.0, -42910428.0, -17118832.0], [39448648.0, -79551864.0, -14284693.0, -16568871.0, 48892704.0], [-52255120.0, 31995400.0, -32571940.0, -45624364.0, -906666.625], [48937656.0, -30062152.0, -76238144.0, 55318124.0, 53473088.0], [17604228.0, 27978452.0, -11139092.0, -21943384.0, 12550049.0]], [[-4203892.5, 14931589.0, 23541424.0, -59479040.0, -18489762.0], [19626612.0, -67403104.0, 63585380.0, -3241772.0, -9892522.0], [19221020.0, -12703007.0, 25838844.0, 25992136.0, 40806944.0], [11545334.0, -83766432.0, 23019296.0, 936654.3125, 25052352.0], [-6593746.5, -27139056.0, 28777468.0, 43425280.0, 9832212.0]], [[-24171730.0, 16786762.0, -30559864.0, -41514632.0, -5894613.0], [-41769836.0, -50831568.0, -6846962.0, 36043728.0, 9561060.0], [-21397236.0, -39345072.0, -33009288.0, -39126360.0, 37525520.0], [-5014522.0, -49014244.0, -30383230.0, -21020860.0, 21729180.0], [16891274.0, 1173280.875, 12702192.0, -70895704.0, -53414096.0]], [[17696796.0, -44643344.0, -69030832.0, -15309652.0, -18188776.0], [26872044.0, 6053561.0, 50263176.0, 7045901.0, 20895966.0], [15081536.0, -15740336.0, -32325268.0, 1158068.5, 8197295.0], [-38968688.0, -8621789.0, 7767672.5, -58959856.0, -12554238.0], [23937032.0, 73958000.0, -9942814.0, -9043079.0, 65731752.0]], [[24142114.0, -8721164.0, -3287055.0, 21824820.0, 17888380.0], [42960504.0, -1894604.875, 73362048.0, -5751721.0, 26343162.0], [-29734724.0, -18245360.0, -5923732.0, 28727296.0, 86952784.0], [7760462.5, 6250124.5, 22176088.0, -25146462.0, -28580036.0], [40500896.0, 16742352.0, -28840060.0, 513331.75, -36694832.0]], [[49449804.0, 20798588.0, -13167334.0, -22582104.0, -7421880.0], [48864272.0, 57769160.0, 43929336.0, 62312240.0, -2528735.0], [1012552.4375, -26047878.0, 9690554.0, 21940372.0, -24279884.0], [-19669444.0, 16556213.0, 12040448.0, 44438660.0, -11945802.0], [15746300.0, -14634374.0, -28978846.0, 29880736.0, 10948594.0]], [[4924496.0, 37758904.0, 37134560.0, -31263478.0, -10407749.0], [3559022.0, 64266620.0, -12791164.0, -43594392.0, 20968282.0], [-22357564.0, -10711379.0, -23207640.0, 32130160.0, 43323352.0], [10294833.0, -45377216.0, -34225248.0, 18574544.0, -43817016.0], [-49220904.0, -69937360.0, 30154408.0, 31589676.0, -7063564.0]], [[-23719522.0, -84673840.0, 12604604.0, -11982284.0, -20890574.0], [-61925732.0, 22199062.0, -68177096.0, 47079688.0, -11012330.0], [-68145360.0, -18022912.0, 3098239.0, 4496055.0, 25059940.0], [24849916.0, -21015860.0, -9857208.0, -27504268.0, -29516722.0], [-33509450.0, 24744418.0, 13538137.0, -21876916.0, -51957972.0]], [[-24763436.0, 42564784.0, -47537488.0, 21365260.0, -16173126.0], [-15047750.0, 32045212.0, 13894301.0, -10415683.0, -24662830.0], [-10244737.0, -34758128.0, -31508824.0, 22714768.0, 42620252.0], [-35027400.0, -43999884.0, -17853810.0, 18139332.0, 20658568.0], [2454888.5, 57106556.0, -353685.15625, -41947296.0, 24794498.0]], [[13875497.0, 28675656.0, -21232336.0, 4543431.5, 41483168.0], [-63655556.0, -22562660.0, 9393334.0, -22811008.0, 26792580.0], [-39335944.0, 23141692.0, 41605376.0, 43362976.0, 26725896.0], [16624673.0, 41072120.0, -1061168.375, -21508820.0, 59988236.0], [12679073.0, -22555100.0, -13850688.0, 14295131.0, -29005512.0]], [[24790674.0, -46788148.0, 1824985.875, 4008147.0, 22079738.0], [4350821.0, -53938640.0, -44302604.0, -8643616.0, -12787758.0], [27249564.0, -21676984.0, 13811490.0, 10225763.0, -7458137.0], [-13612784.0, 11512094.0, 55568236.0, 22287500.0, 18371088.0], [-20820268.0, 22048048.0, -51414492.0, -19625442.0, 19827888.0]], [[53780448.0, 51476780.0, 9409045.0, 6946860.5, 6841782.0], [2437216.75, 18095128.0, -19764320.0, 3237799.5, -1023059.125], [2415858.0, -10941108.0, 3014043.0, -24065722.0, 12188257.0], [-10852246.0, -8967656.0, 14290612.0, -46909404.0, 27896932.0], [-1796888.875, -18537884.0, -18758126.0, 1600658.0, 32952202.0]], [[38838948.0, -3834176.0, 34567528.0, 74284608.0, -36386160.0], [258685.9375, 4570128.5, 16681784.0, 36408000.0, 65850384.0], [17179748.0, -16252448.0, 35494216.0, -52481384.0, -37445296.0], [-62521472.0, 28863848.0, -36827712.0, 45842536.0, 12143889.0], [-445495.75, 2407049.0, -2457442.5, 35130208.0, 45176512.0]], [[11344208.0, -19172328.0, -59963328.0, -34202128.0, -8074282.0], [11807479.0, 8020126.5, 49404544.0, -55775784.0, 49074400.0], [-32499396.0, 31839802.0, 9263390.0, 33674892.0, 20370552.0], [-19421832.0, 58722236.0, 17355916.0, 34196584.0, 8939290.0], [19278896.0, -38333352.0, 916847.0, -16454060.0, -28039604.0]]], [[[-4145714.75, 32966392.0, -11185478.0, 29923096.0, -2122348.5], [-5945636.5, -7057735.5, -37795424.0, 12408977.0, -21399112.0], [13824480.0, -78607408.0, 5904114.0, 20032040.0, -7208593.5], [-24483424.0, 18291284.0, 8674304.0, 12384354.0, -172272.765625], [4959552.0, -34547896.0, 35696476.0, 16119227.0, 12880106.0]], [[-15154320.0, 80349376.0, -18491012.0, -43921552.0, 37979504.0], [-37440844.0, -42067072.0, -68481408.0, -7849233.0, -4270606.0], [46950364.0, -40392848.0, -27363676.0, 46933512.0, -17872704.0], [-21224884.0, -31299900.0, -59224904.0, -39369844.0, -55363440.0], [-18796544.0, 71515712.0, 7798031.5, 14534560.0, -14155394.0]], [[41697484.0, -24337986.0, 57889316.0, 10144816.0, -5058953.0], [7510552.5, 11758971.0, 58134200.0, -48719596.0, 5213748.5], [-60730040.0, -24967308.0, 15316133.0, -9410267.0, 10939998.0], [-35512068.0, -12040739.0, -5183485.0, -1928329.75, -104920.3046875], [51998816.0, -11297156.0, 30139736.0, 6846556.0, 354902.6875]], [[-4628051.5, -17260056.0, -34406024.0, -15636989.0, 47428564.0], [-4886112.0, -27565236.0, -1409883.25, -12702842.0, -5760220.5], [-9872622.0, -11731173.0, -22160740.0, -4766141.5, -30361848.0], [21967298.0, 25112308.0, -58438952.0, -7990414.0, 201866.328125], [-18058454.0, -14983258.0, 27662252.0, 18895716.0, -44836600.0]], [[37974652.0, 35158420.0, -13460384.0, -16754276.0, 13156061.0], [-32096484.0, -14419143.0, 27783806.0, -31030804.0, -33047344.0], [25696964.0, -28511376.0, 13370308.0, -13429280.0, -2823964.75], [15824834.0, -3648647.5, -1657912.25, 14820227.0, -1748703.25], [9373752.0, -8515358.0, -5843694.5, -8586104.0, 60242408.0]], [[-7359133.0, -9944272.0, 747256.75, 27679228.0, -11473944.0], [-36039984.0, 6596643.5, -60030524.0, -2924869.75, -18642890.0], [-22608290.0, 66481824.0, -40994956.0, -29493790.0, 36918352.0], [6430078.0, -769224.6875, -30783042.0, 13602898.0, -41976236.0], [-36991208.0, -7631600.0, -28078812.0, 22932364.0, 38781308.0]], [[-49986620.0, 48827336.0, -4049803.0, -24541118.0, -35635276.0], [25161496.0, -28015582.0, -894490.25, -28057344.0, 4397039.0], [-56530000.0, 25026152.0, -61048372.0, -43797896.0, 45756504.0], [42739584.0, -59564552.0, -68872976.0, 13342638.0, -16608188.0], [8039976.0, -13959140.0, 9742634.0, 15016495.0, -77970168.0]], [[3592240.0, -50546328.0, -9743684.0, 69494320.0, 3908526.5], [11238331.0, 40340904.0, -34826784.0, -21753436.0, 37574840.0], [-7445188.5, 14040564.0, -40364744.0, -33998220.0, -26197654.0], [5700203.0, 1632569.625, -638325.25, 57337788.0, -27457944.0], [-5803877.0, 34409268.0, 41473048.0, 2014155.875, 44386052.0]], [[-48573848.0, 19552800.0, 294072.125, 37052024.0, 42507832.0], [-35733880.0, 22833814.0, 29463536.0, -40047844.0, 10652109.0], [1589164.75, 112206104.0, 7655103.0, 1633102.0, -10055768.0], [-48556652.0, 6506988.0, -80959072.0, -22114124.0, 24207704.0], [-38430288.0, 14807568.0, 16212722.0, 27202104.0, 32698336.0]], [[62403452.0, 63530224.0, -30024098.0, -62920480.0, 28434324.0], [28906696.0, 27633160.0, 24874252.0, 4786228.0, -32614594.0], [68217752.0, -2175065.0, -15467331.0, -28273760.0, 381392.9375], [32390092.0, -7628797.0, 7857447.5, -39777960.0, 16659113.0], [40968368.0, -37591392.0, 21327664.0, 21476988.0, 3169974.5]], [[-39047324.0, -8412648.0, 1444784.75, 7760695.0, -11229752.0], [-11365272.0, 26941936.0, -15388540.0, -2841431.5, -93373216.0], [-89312888.0, 33325252.0, -35334024.0, 41479700.0, 14882472.0], [32146560.0, 63042224.0, 61652952.0, 65924808.0, -13607216.0], [-720832.5, 19157840.0, 24472190.0, -16413659.0, 18821992.0]], [[-21432940.0, -34482836.0, -46316432.0, -12196129.0, 25737860.0], [11430578.0, -32259092.0, 28076266.0, 41266792.0, -31354414.0], [-18214350.0, -6712604.0, -2534045.0, -64639696.0, 2740848.25], [-31632580.0, -8090359.0, 37956740.0, -11953565.0, -13330580.0], [13167383.0, 44935752.0, -14847654.0, 33536376.0, 19852384.0]], [[-2053400.5, -8314221.0, 27114660.0, 26997216.0, 12657371.0], [-39318320.0, -20972924.0, -16173984.0, 18235302.0, -1619780.5], [-28861748.0, 48167984.0, 12799347.0, 25525656.0, 25279468.0], [-21178728.0, 35234280.0, -41348816.0, 5077735.0, -4362143.5], [38632688.0, 7955042.5, 10371318.0, -33147244.0, 22402864.0]], [[-1288827.75, 8662493.0, -38694048.0, -7098293.0, 50993076.0], [-5746161.0, -43141936.0, -27162054.0, 70342800.0, 19528180.0], [-27513786.0, 28746822.0, -58890404.0, -11808302.0, -1721079.75], [-28674372.0, 3142972.0, 6354295.5, 28490064.0, 15728974.0], [-26194870.0, -10201838.0, 3009886.5, 44360768.0, 64867844.0]], [[-18619420.0, 25984894.0, -32213866.0, 31403416.0, -43613484.0], [-31560236.0, 17999150.0, 44045232.0, -4268650.5, 36340904.0], [-4312923.0, -34475912.0, 7895919.5, -10899170.0, 7766605.5], [18867892.0, -6030372.5, 4940077.0, -12055208.0, 49500944.0], [49840628.0, 12719892.0, 20515926.0, 4190281.75, -5883308.0]], [[-71055296.0, 3071605.75, 12023549.0, 17622952.0, -19526782.0], [-31433612.0, -24959026.0, 69406528.0, 12784346.0, 45760648.0], [-9449338.0, -32316700.0, -16927382.0, 22228708.0, 21259632.0], [12027593.0, -12864452.0, -12492253.0, -22607160.0, 4252866.0], [-59798168.0, -14164286.0, 12064214.0, -45252896.0, -36761268.0]]], [[[-31289320.0, 11740796.0, 6348938.5, -70249216.0, -5509481.0], [20929744.0, -1033866.0, -7697298.5, 23976788.0, -27413782.0], [17823596.0, -46045868.0, 76109312.0, 3003764.5, 7139559.5], [42883480.0, 34796388.0, -12959172.0, -235395.15625, 24050448.0], [-7475765.5, -82773216.0, 21882140.0, -26472742.0, -168278.203125]], [[28222368.0, -13640260.0, -14421224.0, 4374926.0, -10834680.0], [40349392.0, -12669393.0, -44464708.0, 34402000.0, 8677738.0], [-25500224.0, -8196432.0, 39234452.0, 8310185.5, -1491664.75], [33903500.0, 34411536.0, 19923100.0, -20400958.0, -26648504.0], [17049386.0, 64272320.0, -42274316.0, 67001872.0, 2790617.0]], [[-12653383.0, 34842756.0, -35771700.0, 658190.0, -16902894.0], [-2873012.75, 6666237.0, 12857204.0, -30370024.0, 29284976.0], [28124580.0, -76754904.0, -32494468.0, -33090932.0, 25189834.0], [-68111248.0, -2387062.5, 48652080.0, 28613536.0, -22556332.0], [-21136052.0, -16415030.0, -3088323.0, 25998460.0, -4557579.5]], [[-4974228.0, 47170436.0, -9893316.0, -67456304.0, 2129949.0], [9176874.0, 39993488.0, 26818104.0, -34752968.0, -32572318.0], [22280698.0, 24570292.0, 727052.875, 18975852.0, -1093379.375], [-29590776.0, 27523718.0, -23561960.0, -12570380.0, -15056072.0], [-51206316.0, -18375988.0, 31606828.0, -29435776.0, -23043484.0]], [[20332272.0, -16456799.0, -11950335.0, 9592516.0, -5914123.0], [73401136.0, 5456633.0, -53209928.0, -17516568.0, 83125808.0], [-16697388.0, -26214310.0, 46022708.0, -5604973.5, -44765344.0], [-32634256.0, 576363.25, 24057560.0, -11576830.0, -60895968.0], [-15584448.0, -51321328.0, 37223432.0, -45043292.0, -22417210.0]], [[-22532076.0, -21958564.0, -10588298.0, 22249068.0, -16622802.0], [-81532568.0, -8331488.0, -8783580.0, -63135296.0, 20356048.0], [14046155.0, -1899883.875, 22276890.0, 17020988.0, -45829840.0], [-5064789.0, -39729136.0, -26571042.0, 14414928.0, 3993887.0], [-25615920.0, -15196016.0, -23667310.0, -18316340.0, 19473740.0]], [[33076996.0, -4808548.0, -19243700.0, 26275086.0, 19237268.0], [-48959008.0, -22110932.0, 12599342.0, -36799432.0, 562978.0625], [42666328.0, -12693587.0, 6566475.5, 8073488.5, -31437824.0], [24770060.0, -61453704.0, -4503260.0, 28781554.0, -17842296.0], [-39071192.0, 19243380.0, 24804044.0, -24545200.0, -5511269.0]], [[42003888.0, 12648306.0, -78667368.0, 25818644.0, 31248736.0], [-22779224.0, 12781407.0, 16655298.0, 334484.375, 50889360.0], [9716436.0, -15955062.0, -9969166.0, -66799696.0, -14246573.0], [43445280.0, 11046240.0, -18954152.0, -6411130.5, 65986756.0], [64878312.0, 10725175.0, -35063704.0, 20465300.0, 16430078.0]], [[-4465838.5, 35828760.0, -2487309.5, -15820082.0, 50539704.0], [-29888478.0, -93230760.0, -954057.0, 58849808.0, -67621824.0], [36864976.0, 27652426.0, -66252968.0, 12212665.0, -26636782.0], [16238012.0, -31429162.0, 4829913.5, 7471759.0, -25716196.0], [-1411949.375, -27241192.0, -39432792.0, -9209686.0, -7482493.0]], [[-15947099.0, -45644788.0, -18655252.0, 970678.375, 44998436.0], [-14153814.0, -38336816.0, -21863728.0, 39705212.0, -17085694.0], [38089728.0, 4679387.0, -50188516.0, -34623812.0, -3499563.5], [-40161176.0, -31493036.0, 29726432.0, 61782116.0, -27397420.0], [-51294008.0, 55296996.0, -13224629.0, -11034660.0, -11234310.0]], [[-44623480.0, 40278448.0, -4293451.0, 29533320.0, 20349206.0], [-10640160.0, -11031092.0, -10097402.0, -62655368.0, 7354395.5], [13756928.0, 17902432.0, -48070816.0, -27888240.0, -21263012.0], [37967344.0, -19937058.0, 31593070.0, 31906126.0, -40974368.0], [-9751351.0, -17261664.0, -19355216.0, -10728354.0, -59112984.0]], [[64035288.0, 26496460.0, -36440584.0, -42192236.0, 45570296.0], [55447152.0, 65562080.0, -33602552.0, -8042713.0, -29759228.0], [14237154.0, 17439194.0, -9775032.0, 60284520.0, 10061184.0], [-50008240.0, -47987672.0, 32247160.0, -61677584.0, -37448368.0], [-64441128.0, -21390704.0, 22432332.0, -3805601.75, 43934096.0]], [[-64701020.0, 92054032.0, 46619496.0, 28426028.0, 8181336.0], [83447056.0, -18248460.0, -24857320.0, -15845128.0, 80710720.0], [-17565768.0, -12629248.0, 25967514.0, 2737281.5, -17185240.0], [75829536.0, 29791860.0, 50709000.0, -66198344.0, -37939628.0], [-31325624.0, -21733920.0, 38244480.0, 37248928.0, 11141935.0]], [[-29307180.0, -615128.75, 35076940.0, 63468184.0, -29355308.0], [-28367812.0, 39676520.0, 55617784.0, -90523936.0, -22210372.0], [55913084.0, -24204960.0, 17342280.0, -34301968.0, 17762404.0], [-17255832.0, -29829936.0, 5356628.0, -10337746.0, 16320632.0], [-11611186.0, 44077616.0, 31816516.0, -16194449.0, 12053177.0]], [[121332.8671875, -16968160.0, -71838080.0, -11005148.0, 27787888.0], [23493342.0, 6434546.0, 11994238.0, -22349288.0, 8286231.0], [18591944.0, -1836166.0, 19426064.0, -25524316.0, 49525504.0], [3148524.0, 8025254.5, 31090120.0, 5271031.0, 59217668.0], [3243713.75, 3253235.75, 17090016.0, 54474856.0, 54145304.0]], [[9310242.0, 8239263.5, 32783506.0, 270367.5625, 23053224.0], [28103278.0, -58914572.0, -17634416.0, -35860448.0, -52261000.0], [35467936.0, -11077517.0, 13587522.0, 15998122.0, -24807772.0], [9697292.0, -23495496.0, -32825208.0, 33985008.0, -8371791.0], [8585166.0, -35608360.0, -66662360.0, 24923998.0, -13706022.0]]], [[[-49080312.0, -42093688.0, 10786066.0, 58059524.0, -27943944.0], [25644426.0, -15075727.0, 21618586.0, 14032886.0, -3935469.0], [11146166.0, -27027532.0, 19911392.0, -51696500.0, 2361026.0], [-48540784.0, 20923504.0, 48004700.0, -45168912.0, 33591444.0], [76221200.0, 1450700.0, -18833724.0, -27814372.0, -15386202.0]], [[-18847808.0, -14372227.0, -24508656.0, -36690432.0, 60045288.0], [-83610168.0, 8382225.0, -29304208.0, 26938452.0, -12444873.0], [-5488720.0, -29127064.0, -27924490.0, 52972544.0, 7619237.5], [-4429349.0, -4508639.0, 10425758.0, -7325935.5, -5677994.5], [-87712232.0, -7266668.5, 14937478.0, -52802180.0, -13486106.0]], [[19452852.0, 5510412.0, -1625566.125, 9139754.0, -24913432.0], [36565144.0, 2214441.0, -684452.75, 17933372.0, 20336402.0], [25079248.0, -27412442.0, -33342012.0, -13620328.0, -16391423.0], [-9688413.0, -18901894.0, -29708606.0, 101845040.0, 50499176.0], [18060968.0, 19522960.0, 16564038.0, 10811046.0, -1486823.5]], [[-3348554.75, -7714843.0, 12189596.0, -4962173.0, -29215840.0], [-1149437.75, -74957088.0, 2475647.25, 457797.15625, 229183.34375], [-22014964.0, 4792746.0, -25811578.0, -29331212.0, -18275214.0], [50122640.0, 4627707.5, 39705864.0, 13759494.0, -19230176.0], [-23233462.0, 17721252.0, -4958947.0, -45983056.0, 1398236.875]], [[-14041179.0, -33087604.0, 3970386.5, -16716641.0, 706145.75], [952195.0625, -27301642.0, 16659624.0, 6032030.0, -12380667.0], [-27227660.0, 30034254.0, -21421820.0, -5979759.0, -1389845.75], [-18917916.0, -11264660.0, 35012396.0, -6107043.0, -8072681.5], [-45807768.0, 6147417.5, -54936724.0, 1546894.25, 55846532.0]], [[-11049275.0, -28105660.0, 42339296.0, -13556783.0, -41963536.0], [-999881.0, -38532048.0, 23891916.0, -2724731.5, -7598013.0], [55847928.0, -27971066.0, -61744512.0, -4324296.0, -44169296.0], [-13871096.0, -39056768.0, 25555304.0, -33785228.0, -4311598.0], [17968420.0, -20898732.0, 65952052.0, -24582440.0, 11703650.0]], [[-5594834.0, 63609680.0, -3811680.0, -25225940.0, -6763748.0], [-4859964.5, 39588520.0, 12742477.0, -5770024.0, 43492004.0], [-10027538.0, -17276140.0, 4789911.0, -32548208.0, 12252036.0], [-7608010.0, 55143912.0, 18024302.0, 26052132.0, 37594312.0], [-3467145.75, 33826508.0, 21654352.0, 6543665.0, -7634460.0]], [[-16337966.0, -34591820.0, -25059712.0, -20202212.0, 10832210.0], [11333879.0, -42681008.0, 5904601.0, 13171900.0, 33478912.0], [23842176.0, 24565768.0, 51395540.0, -6556673.5, -13976870.0], [-6406917.0, -306043.15625, 47672844.0, -33820760.0, -17864532.0], [61543788.0, 13343798.0, -64853688.0, 4844753.0, -3986134.75]], [[5366703.0, 2795450.0, 24191546.0, -69077408.0, -5328566.5], [-31590180.0, -33330768.0, 12258233.0, 43982064.0, 20378224.0], [-34100276.0, -11429908.0, -18037848.0, -8795366.0, -78621472.0], [-22034710.0, 23632322.0, -23735376.0, 22142120.0, 5842914.0], [-12326319.0, 33786916.0, 47232476.0, -9351510.0, 16711631.0]], [[-15326941.0, -12893933.0, -15914604.0, -13622977.0, -78750640.0], [-50888468.0, 38998164.0, -16547326.0, 5906323.5, 26402382.0], [15666759.0, -21870612.0, 9238988.0, 26121416.0, -18055534.0], [43474400.0, -49923072.0, -2583938.0, -20989016.0, -7414335.5], [13029248.0, 16281370.0, -945339.1875, -50440436.0, -35463340.0]], [[-48409496.0, -67649552.0, 23368826.0, -14177332.0, -22472378.0], [-87037128.0, -53371160.0, -16533756.0, -28662520.0, -21619618.0], [-20444644.0, -14015165.0, -6353307.0, 3951600.0, 29503824.0], [28954648.0, 15999516.0, -2246212.75, -37969648.0, 33155276.0], [37627720.0, -16893790.0, -28443574.0, -3782897.0, -49166096.0]], [[-21595128.0, -6174594.0, -5613907.5, 47091748.0, -15064955.0], [-47042676.0, 43553312.0, 25239684.0, 8553426.0, -3957568.75], [41099172.0, 35346572.0, -17106616.0, -92933680.0, 21481826.0], [-5390263.0, -10521924.0, 10986908.0, -41741096.0, 51573656.0], [-28170776.0, -19624404.0, -2804087.0, -59553328.0, 13927592.0]], [[-34157552.0, -2015941.75, -55329208.0, 30849854.0, -19715724.0], [-16730004.0, 1954480.625, 37576748.0, 25361316.0, 6036938.5], [-34614104.0, 577229.125, 61854416.0, -36930112.0, 22626192.0], [29234664.0, 11668412.0, -12790214.0, 30551684.0, -26712652.0], [7090152.5, -3278432.5, 73020424.0, 12386604.0, -3057960.25]], [[-70527392.0, 46819048.0, 1742651.125, 25208998.0, 34326772.0], [53168384.0, -6603425.0, -15058678.0, 45056064.0, -36956828.0], [-47878928.0, -470195.59375, -35051280.0, 3953637.0, -35547400.0], [-48787428.0, 8697016.0, -10350628.0, -19045468.0, 5296208.0], [-40344256.0, 20230360.0, 20388712.0, -17147944.0, -23044558.0]], [[37773848.0, -32410214.0, -6503152.0, -5566051.0, -27999884.0], [-1047195.25, -41786312.0, 3437675.75, 28241580.0, -27331894.0], [-15667502.0, 25557192.0, 26829580.0, -13789589.0, -1443008.125], [21884890.0, 7086981.0, 12796098.0, 38108816.0, -10241238.0], [64210032.0, -35508624.0, -13774619.0, 52644572.0, 9403024.0]], [[19652448.0, 16176884.0, 17908284.0, -38573160.0, -30267898.0], [55666688.0, -21669708.0, 37917136.0, 61170868.0, 19581268.0], [70413208.0, -24355520.0, 36683144.0, 21944618.0, 6889483.0], [-13811930.0, -21210302.0, 11944414.0, -13814397.0, 12288258.0], [6171162.0, -18400498.0, -19693400.0, 25768426.0, 5985381.0]]], [[[45814132.0, 20149852.0, -52822708.0, -15353352.0, 52839504.0], [6484762.0, 34844216.0, 16427584.0, -28142688.0, 48458832.0], [70380144.0, -19350840.0, -14039624.0, -12336201.0, -19389224.0], [52975528.0, -16673216.0, 10604204.0, 10900016.0, -9832522.0], [5258135.0, 16699404.0, 19323414.0, 963303.375, 16498856.0]], [[-43730704.0, -76112664.0, 11808856.0, 10360664.0, -81683120.0], [33818888.0, 16791032.0, 44963920.0, -10379714.0, 8732449.0], [25607904.0, -11899721.0, 2448426.75, 51810876.0, 15493988.0], [20399444.0, -22677412.0, -40048700.0, 36849576.0, -62999640.0], [13698290.0, -2592637.0, -29860646.0, 39939888.0, 6713405.5]], [[-53383344.0, -3784735.0, 41999708.0, 2169496.5, 7232347.5], [61437392.0, 92358760.0, -23329898.0, 8034338.5, -44094584.0], [27869654.0, 6561700.0, -30389968.0, -35915680.0, -56508332.0], [-29846824.0, -22588930.0, 2189692.25, -50177380.0, -26272320.0], [-11606928.0, 3746222.75, 32638648.0, 27312802.0, -23760680.0]], [[1751379.0, -27492544.0, 20579998.0, 1592313.625, 20440128.0], [-3498218.0, -34734200.0, 1381183.25, -12884760.0, -27412078.0], [-18704720.0, -6006216.5, -62754400.0, 36712168.0, -32041012.0], [-25673050.0, 1725196.375, -33297638.0, 62859444.0, 15853048.0], [-37110296.0, -7171175.0, 11540345.0, 700977.25, -11175524.0]], [[24615250.0, 10002517.0, -38030416.0, -5170890.0, 20689880.0], [25119296.0, 43936044.0, -1177093.75, 17071640.0, -2197466.0], [7237695.5, 21001044.0, -1109586.0, -8259573.5, 2090072.875], [-92831600.0, 23057464.0, -4121897.0, -12727431.0, -5935838.0], [-2679970.0, -32494176.0, 45683528.0, -29162098.0, 26820614.0]], [[-24753834.0, 1394884.75, -20922332.0, 29444320.0, -29747262.0], [2957686.0, 31350748.0, -53967220.0, 25404456.0, -42166944.0], [31308854.0, 5330484.0, -22233132.0, -32212208.0, -15142998.0], [-20683278.0, -8211730.0, 67659312.0, -15466659.0, 17462742.0], [-14971409.0, 33517190.0, 10861952.0, -15329244.0, -18228740.0]], [[22926808.0, -30719056.0, -8754836.0, -56533576.0, -2207578.0], [-1583003.125, 47226616.0, -31263644.0, 7513183.0, -592703.25], [5917568.0, 6285458.0, -29553600.0, 34354884.0, -27497064.0], [26528930.0, 1907324.625, 19475644.0, -45603812.0, 7423394.5], [-7562748.0, -4844277.0, 38030128.0, 3058057.5, 13581113.0]], [[-381537.21875, -23099992.0, 5254360.0, -1900088.25, -38138684.0], [-1714596.25, 2480262.25, 10423620.0, -58835980.0, -8837420.0], [9307240.0, -7620857.0, 29892624.0, -25538024.0, 10727077.0], [-24406160.0, -21924340.0, 11712742.0, -39607164.0, 29912064.0], [15749944.0, -16840420.0, -16954328.0, 24811196.0, 77498768.0]], [[-24467132.0, -56203776.0, 2742959.25, -6498133.0, 57128656.0], [-4093272.0, 6699635.0, -42243920.0, 553389.875, 45253756.0], [12923012.0, 45591336.0, -8188082.0, 5284756.0, 2234450.5], [42603908.0, -23486966.0, 7403281.0, -6406959.0, 34375088.0], [-31140428.0, 3863382.25, -50650172.0, 26831146.0, 66383448.0]], [[49142764.0, 808046.8125, 78234352.0, 6257281.0, -9966248.0], [-31521388.0, -7573087.0, -46226336.0, 21493448.0, 40741388.0], [-21599300.0, -29848432.0, 56091608.0, 29887236.0, -39480168.0], [-11143102.0, -17799694.0, -26084840.0, 7397735.0, 7221803.5], [-29466122.0, -14842970.0, -8142128.0, -19037580.0, -43337252.0]], [[-49679448.0, -60378752.0, 11878793.0, -33036638.0, 29752906.0], [-34222240.0, -65501176.0, -42641096.0, 14740315.0, 26053678.0], [-35458896.0, 15724408.0, -42510928.0, -40538488.0, -14121552.0], [7547602.0, -27122472.0, -13607330.0, 42023900.0, -34914948.0], [25218922.0, 36145496.0, 43736688.0, -14407639.0, -56226368.0]], [[17626696.0, -1943947.625, 4656552.0, -8080818.0, -59159588.0], [18519128.0, 17603980.0, -13056342.0, -35889024.0, 13701688.0], [24377066.0, -25392256.0, -21727456.0, -729013.25, 9269862.0], [39550824.0, -21695600.0, 49886528.0, -41559192.0, 9073578.0], [-42957516.0, -12240848.0, -27779904.0, 51648128.0, -21121748.0]], [[-34774592.0, -25298516.0, 8901200.0, 7346617.0, -13862653.0], [26558744.0, -33660184.0, 1632027.625, 14288164.0, 43071480.0], [43588384.0, 7830520.0, -33368268.0, 14551884.0, 12891398.0], [4220203.0, -17497956.0, -10826934.0, -20016514.0, 41232488.0], [38789032.0, -28618684.0, -65739576.0, -39432456.0, 70832072.0]], [[-13184656.0, 41061528.0, 3809573.0, -29885332.0, 9096678.0], [-26940628.0, -55987952.0, -13982213.0, -34754456.0, -26413424.0], [34781816.0, 12812246.0, -9985770.0, -3619856.5, -26774054.0], [-8500447.0, 6856029.0, 3627936.0, 26706902.0, 10971982.0], [29189026.0, -23631226.0, 6388304.0, -31390148.0, -42979216.0]], [[27183412.0, -12453605.0, -41579700.0, -35237680.0, 17488516.0], [23357042.0, -22352024.0, -14350720.0, -23670018.0, 37745396.0], [-26768712.0, 5636906.5, 19020762.0, -25738140.0, 76313112.0], [34637736.0, 5692023.5, -1508829.5, 30594388.0, -23264420.0], [-1496716.5, -62950328.0, 1717559.625, -24235192.0, 1365266.375]], [[6730886.0, 10536355.0, -26929056.0, 51405340.0, 11699794.0], [13629551.0, 4195051.0, 48742432.0, 82060632.0, -11138048.0], [-779853.5, 21921058.0, -37171408.0, -20124730.0, 41063536.0], [11716872.0, -2407432.25, -17599232.0, 15334232.0, -6377785.0], [82239536.0, 5803670.0, -44224676.0, 37780048.0, -15643370.0]]], [[[8640561.0, -52608160.0, 4238449.0, 58981176.0, 33267964.0], [1328376.75, -39029416.0, 59366112.0, 12057768.0, 13132016.0], [33010568.0, 9459648.0, -21396882.0, 10743906.0, 32399124.0], [-9531942.0, -17202332.0, -29838332.0, 19427138.0, 44391844.0], [23120472.0, -19159588.0, -1065600.25, -9941132.0, -8228472.5]], [[-6954171.5, 22810750.0, 21870592.0, 22186166.0, 6090351.5], [7252644.0, -3346412.25, 14642600.0, 27609014.0, 13212721.0], [-56063260.0, 16125228.0, 4125757.25, -890470.1875, -28406590.0], [8612701.0, -8657258.0, 18638956.0, -424640.875, -11001246.0], [26214750.0, 794243.0, -5785702.0, -58007096.0, -6576989.5]], [[-5647229.5, -89089408.0, 18329904.0, -15615073.0, -864784.25], [-13841840.0, 22396276.0, 1077410.5, -14947682.0, 17339520.0], [-1122962.75, 3821454.75, 35922964.0, 9794568.0, 28533436.0], [48107012.0, 47269136.0, 1118335.25, -1732194.625, 17464180.0], [-33031180.0, 24683570.0, -36859512.0, 41229584.0, 190207.75]], [[-10969098.0, -2450039.5, -14102608.0, -5942565.5, -45722128.0], [15890778.0, 27145098.0, 15531874.0, -15705476.0, -63342968.0], [43474096.0, 28829316.0, -15329537.0, 27363424.0, -41901416.0], [-22053502.0, -21530260.0, -15440136.0, 25448188.0, 4924228.0], [-53729584.0, 34765848.0, 5392936.0, 14052053.0, 7763896.0]], [[22884592.0, -32955586.0, 16797886.0, -11290463.0, -5138725.0], [8484754.0, -8560490.0, -26733900.0, -6324800.5, -35207480.0], [-34128272.0, -16727466.0, 6979117.0, -8664477.0, -17283896.0], [40930708.0, 25123250.0, 5326067.0, 27534548.0, -40590076.0], [34198696.0, 33270768.0, 6890571.0, -35390344.0, 23789504.0]], [[41595456.0, -50028704.0, -45754076.0, -10466078.0, 20519908.0], [-2341958.0, -1344476.25, 59222228.0, -31096940.0, -26364066.0], [16581996.0, 17898808.0, -46445424.0, 24696470.0, -20034532.0], [-15504569.0, 805961.375, 21539636.0, -38521512.0, -33939324.0], [23433392.0, 6468280.0, 911670.0, 47749348.0, 7708227.5]], [[-23327302.0, -45860300.0, -41979240.0, -40382176.0, -53745200.0], [28717860.0, 37781212.0, 23957700.0, 36931488.0, -2892334.0], [-38709420.0, -15236557.0, 44108960.0, 48177920.0, -36736672.0], [-46199888.0, 23502212.0, -35728400.0, 12979919.0, 47093576.0], [28227176.0, 27069314.0, 34031352.0, 21889720.0, -3528980.5]], [[-17712244.0, 3061490.0, 9976550.0, 5254601.0, 3137347.5], [4041407.0, -23521136.0, -17640166.0, -520414.375, -29813206.0], [15443570.0, -25996888.0, 8028268.5, 40913008.0, -26401724.0], [8691418.0, 10799936.0, 20568960.0, 38425612.0, -17316762.0], [-52056856.0, 53613676.0, 32444586.0, 49745284.0, -17862394.0]], [[-37932672.0, 55263552.0, -16627920.0, -32297434.0, 4635221.0], [-43469832.0, 40016304.0, 10325975.0, -18685380.0, 47893132.0], [7990914.5, -37826700.0, -3527154.25, -18847364.0, -34035760.0], [-2528478.25, -3355707.25, 3387660.5, -29532912.0, 30328288.0], [16853476.0, -18485662.0, 9207231.0, -8093778.5, 32312874.0]], [[56597240.0, -56454980.0, 10654270.0, 19447664.0, 29562772.0], [74799.0625, 14304128.0, 48027880.0, 19716612.0, -51948312.0], [41674904.0, 20502692.0, -72098192.0, 29355936.0, 6760727.5], [36360820.0, -14632973.0, 4665037.0, -13379732.0, 32911884.0], [-27317296.0, -1521465.5, 43107336.0, -9171078.0, -17328028.0]], [[45283520.0, 32268170.0, 27530800.0, -64165112.0, -18149106.0], [5927950.0, 42699616.0, 7027404.0, -11691771.0, -12000391.0], [24860788.0, 12785882.0, 9020186.0, 26878284.0, -296922.65625], [-19540492.0, 16949098.0, 1149237.5, 23559216.0, -19375802.0], [23453722.0, -7765652.5, -58096248.0, -49945852.0, 61995048.0]], [[36768836.0, -20410000.0, -29552018.0, -13451144.0, -66701000.0], [-65498024.0, 28256160.0, -9131518.0, 24175176.0, 12196362.0], [4024989.5, 23646162.0, -34361504.0, -2369843.25, 39051888.0], [-58714984.0, 13172830.0, -25322890.0, -2034974.625, -53792336.0], [32780716.0, 21126808.0, 20706628.0, 12368221.0, 13276200.0]], [[-58811624.0, -36928844.0, 40036564.0, 34665300.0, -18082288.0], [-35076920.0, -10518418.0, -52859496.0, 27218104.0, 23533044.0], [3181121.0, 26098608.0, 18618088.0, -30262252.0, 14008896.0], [24723632.0, 30607332.0, 36992544.0, -32428082.0, 208145.125], [26248942.0, -64335328.0, -6349871.0, -45441744.0, -27952972.0]], [[-22853416.0, 23086526.0, -4339438.0, 25910396.0, -7200033.5], [-769587.1875, 55814312.0, -47295560.0, 3527916.0, 43051552.0], [34282992.0, -31920538.0, -25139914.0, 44367864.0, 5245579.0], [5513450.5, 41223864.0, -24958608.0, -1141002.5, -13227592.0], [24546988.0, 35176200.0, 23560968.0, -50672700.0, -20604620.0]], [[-30523532.0, 33322800.0, 11405688.0, -11503958.0, 6281891.0], [57713540.0, -980430.375, -36154004.0, 25123088.0, 43053656.0], [25015576.0, -68002440.0, 3505425.5, 15700074.0, 40033576.0], [275392.375, -15219646.0, -70327752.0, 14823990.0, -16026710.0], [-44085176.0, -58431164.0, 1786605.5, 28601996.0, 10018340.0]], [[-4409277.5, -79831288.0, -5279305.0, -100810744.0, -15794292.0], [25783884.0, 58369952.0, -28750724.0, 37533692.0, 13747765.0], [-2696293.5, -2643426.5, 50207612.0, -30826570.0, -25577206.0], [26609608.0, 23647314.0, -8729607.0, 63278928.0, -14335262.0], [29276914.0, 22471720.0, 9457082.0, 33691056.0, 53040928.0]]], [[[-23094526.0, -42459320.0, -16893902.0, -44477192.0, 85227760.0], [43696396.0, 28856722.0, -51542896.0, -40120252.0, -37443504.0], [-57524564.0, -4203937.0, -11622514.0, 24036572.0, 37170548.0], [4180899.75, -46804668.0, 15929376.0, 11621302.0, -33646620.0], [-36365080.0, -52327908.0, 62142488.0, 12968201.0, -16057898.0]], [[-80490160.0, 40378252.0, 8022368.0, 44950976.0, -58396400.0], [43669664.0, 21114436.0, 30588308.0, -15982264.0, -39421836.0], [-61231852.0, 45106632.0, -30421580.0, -13618766.0, -45997660.0], [4644503.0, 1052581.75, 8521430.0, -12408189.0, 5167783.0], [-28964638.0, -63079464.0, -16339848.0, 23849990.0, 16219758.0]], [[-30099496.0, -20709300.0, -57167240.0, 21571760.0, -4741033.5], [7370975.0, -20316396.0, -38101240.0, -56402824.0, 6657420.0], [-35141424.0, -7518767.5, -19485092.0, 38065104.0, 36723472.0], [39904408.0, 43245920.0, -31068328.0, -8450841.0, 23266852.0], [30891100.0, -5126454.0, 14502944.0, 14615230.0, -65693720.0]], [[26966400.0, -25278224.0, 6192307.0, -8288346.0, -24046736.0], [14404072.0, 22050516.0, 33830192.0, -21285406.0, -30844912.0], [-3510609.25, 58745300.0, 33135614.0, -2019727.375, -9855286.0], [30954208.0, -8651390.0, 3483578.0, -960119.75, -15638820.0], [20451612.0, -32827802.0, -845196.4375, 21586956.0, 8835932.0]], [[27716242.0, -71841064.0, 36895680.0, -18226588.0, -36826848.0], [-33901124.0, 45112292.0, 4181511.5, 9563241.0, -4310686.0], [77651952.0, -30293656.0, -35526336.0, -16339233.0, -52041060.0], [9014870.0, 15444812.0, 80371200.0, -46228956.0, -11521762.0], [-19413164.0, -17994184.0, 16017283.0, 17609990.0, 17615476.0]], [[58721396.0, -1678635.625, -14889108.0, -45142540.0, 46421968.0], [-18224664.0, 35566900.0, 83157792.0, 15983118.0, -22397992.0], [5852082.0, -228536.03125, 3217493.25, 1789255.875, -9980098.0], [-8710392.0, 19713552.0, 8020286.0, -7256452.0, 10097370.0], [24805906.0, 5903085.0, 763517.5, -6245966.0, 12529325.0]], [[51279444.0, -53573576.0, -45923760.0, -15717940.0, 20170256.0], [54025132.0, 12308623.0, 13201994.0, 19474042.0, -53072748.0], [-53340780.0, -17551424.0, -22320326.0, 15972584.0, 24746958.0], [17659892.0, -26751944.0, 40884776.0, -19990740.0, 38650168.0], [-31618388.0, 13125671.0, 