{"conv1.0.weight": [[[[13665178.0, 32634592.0, -28858366.0, 15539879.0, -19724054.0], [4248345.5, -10958502.0, -19596554.0, -28244748.0, 12841029.0], [987823.8125, -5090373.0, 7982208.5, 33417838.0, 38060568.0], [-21999000.0, -1495508.375, 3840373.5, 3537143.75, -13100426.0], [5112512.5, -10232966.0, 3520192.25, -5169198.0, 22249858.0]]], [[[2042032.75, -327357.59375, -27514246.0, 9154000.0, -5641500.0], [-1485568.125, 14725763.0, -776261.625, -10327046.0, -13570809.0], [7035016.0, 11754893.0, -12827156.0, 8262978.5, -14780737.0], [5345807.0, -11063920.0, 18176472.0, 9573557.0, -36332748.0], [-1336056.625, 12226950.0, -19970030.0, 17354374.0, 1944332.625]]], [[[-17660252.0, 12061772.0, -2483284.75, -14535671.0, -25186712.0], [29992326.0, -4063590.75, -478044.34375, 26517502.0, 4594636.5], [-25384326.0, 20243596.0, -17679756.0, -9494934.0, -19624600.0], [16210522.0, 4313040.0, -16781698.0, -20068176.0, -15071265.0], [38448416.0, 25115460.0, 18635444.0, -16750931.0, 8589360.0]]], [[[14692948.0, -17573154.0, 2249418.75, -3604578.5, 2840803.5], [6840519.0, -15437928.0, 8765227.0, -13779402.0, 4033313.5], [-25442880.0, -19828148.0, -24362912.0, -1675670.75, -30011476.0], [38330780.0, 20042614.0, -14090879.0, -28482406.0, 6629298.0], [-41725100.0, -10667671.0, -12722573.0, 4789220.5, -10461130.0]]], [[[-9420618.0, -24092200.0, 35241024.0, -7809651.5, 57033584.0], [-8679922.0, 5211586.0, 6224133.0, -3410374.25, -13195055.0], [-17411764.0, 2847816.25, -24342576.0, 7784391.0, -8547371.0], [-159512.421875, 11779919.0, -8385473.0, -154850.03125, 1336883.75], [-670401.125, 12186388.0, -3954574.5, -1132481.75, -28446332.0]]], [[[2601732.0, -6078967.0, -6148622.0, -979145.75, 10449338.0], [9793050.0, -12540607.0, -28668166.0, 991546.4375, 1834762.625], [-5039755.5, 32472692.0, 23776508.0, 19757216.0, 17546076.0], [-21360784.0, 22754584.0, 18694478.0, 31376980.0, 14675742.0], [-4988865.0, -33437612.0, 17051002.0, 4955406.0, 7506646.0]]], [[[-17894756.0, -9872694.0, 13870976.0, -535212.6875, -6786536.0], [-22530974.0, -8548760.0, -12711638.0, -12292862.0, -4065211.25], [46377776.0, -3298320.0, 37209992.0, -4313289.0, 4372195.5], [-1891547.0, 14862260.0, 13507884.0, 13076162.0, -27205408.0], [10106491.0, -4379795.0, -6233588.5, -18582878.0, -1160584.5]]], [[[-14833886.0, -10260476.0, 575003.8125, 14902145.0, -8497884.0], [-29638360.0, -2580022.75, 769530.0, -24307658.0, 34728680.0], [-22224952.0, -1012255.25, 33143020.0, -19649000.0, 7606681.5], [17942566.0, -13446056.0, -4184361.5, 27650902.0, -14932192.0], [-18577448.0, -11276324.0, 6322168.0, -10772162.0, -26497552.0]]], [[[-6054737.0, -12935407.0, 16299864.0, -8353962.5, -1611847.75], [-4500524.0, 1134167.125, 4290514.5, 17464332.0, -6040059.5], [20355240.0, -8054645.5, -11440836.0, -16205840.0, 392244.03125], [-1248461.125, 14112966.0, 10372208.0, 2372744.5, 8354942.0], [-29636752.0, -34233520.0, 14293370.0, -2849551.5, -5658500.5]]], [[[-2904953.25, -31686992.0, 12323626.0, 24068812.0, 10006949.0], [-10617319.0, -6709851.0, -2639500.25, -15217334.0, -14120894.0], [20978496.0, 15741869.0, 3275819.75, -15577688.0, -20074382.0], [-14743766.0, -11502650.0, 18838988.0, 546405.875, -9737713.0], [-9452976.0, 29455884.0, 1769530.5, 14500106.0, 8045908.5]]], [[[-17053238.0, -31665970.0, -25162834.0, -26351604.0, 16394030.0], [3789320.5, -10156053.0, 1514336.5, -11468309.0, -3887522.5], [3044895.0, -31473860.0, -18021712.0, 25175148.0, -17399076.0], [-1984626.0, -17141970.0, -13428506.0, -5889280.0, -1631949.75], [5441129.0, -36068176.0, 11827382.0, 3452095.0, -9158187.0]]], [[[-21568988.0, 19653244.0, 2850678.75, 13857713.0, 17875072.0], [-27788900.0, 14071040.0, -18106734.0, -10242700.0, 16871098.0], [-11000695.0, -24468264.0, 8226681.0, -5543095.5, 13769990.0], [-21396628.0, 15765394.0, 9929137.0, -37738348.0, 23888746.0], [-23269762.0, 24233822.0, 13240418.0, 11247200.0, 4865786.5]]], [[[-3681162.25, -28485928.0, 10612853.0, -25094800.0, 13632152.0], [-7179384.5, 3867537.5, -18852288.0, -3299330.75, -3358734.0], [-7230314.0, -43516256.0, 17630306.0, 17658534.0, -26411978.0], [5953068.0, 18209782.0, 10352958.0, -19457252.0, 6231998.0], [11811800.0, 1396511.25, 5635664.5, 34210708.0, 275076.1875]]], [[[-21849110.0, 8351616.0, -18271512.0, -4519129.0, 2282800.0], [-2389534.5, -2216896.5, -5060535.0, 21615288.0, -1027622.5], [14261044.0, -11586248.0, 15303106.0, -4122418.0, -9766022.0], [29468776.0, 14399666.0, -566420.375, 12861948.0, -6519019.0], [-10299822.0, 13278030.0, 15981078.0, -43779312.0, -3051245.5]]], [[[-24296008.0, -9451022.0, 13085658.0, -33646680.0, -33039024.0], [-14321212.0, -3557487.25, -9964222.0, -12737926.0, 35289868.0], [18928396.0, 7731133.0, -9422132.0, -2390469.5, -1752330.75], [-24030216.0, -234833.09375, -414581.5625, 13527559.0, -6238425.0], [-14362428.0, -48380904.0, -14000399.0, -17874398.0, 8006417.5]]], [[[9426292.0, 3911629.25, 21674056.0, -12000479.0, -12622373.0], [12965898.0, -808910.8125, -6423509.5, -22266588.0, -13807006.0], [8186130.0, 16628471.0, 23638976.0, -42333664.0, 13360165.0], [-18593052.0, -12333071.0, -42522844.0, 20635988.0, -12266210.0], [17365232.0, 19687408.0, 898526.0, 7275187.0, 7626818.5]]]], "conv1.0.bias": [-4357333.5, 16482828.0, 26160322.0, -5132332.0, -2695200.5, 9930068.0, 21717252.0, 3097284.5, 22094410.0, 12342458.0, 6481902.5, -11122658.0, 34048080.0, 18851734.0, 3735487.5, -2581655.5], "conv2.0.weight": [[[[-3918334.5, -6013199.5, 4869170.5, -17597360.0, 8942381.0], [2809191.5, -19561222.0, 12572590.0, 21803998.0, -3344952.0], [40277016.0, -18125108.0, 31686964.0, -10962611.0, 9700825.0], [-3045333.25, -36226148.0, -1625667.625, -11623020.0, 16729610.0], [18490288.0, 5480691.0, 25071806.0, 21433946.0, 1617144.0]], [[-4984697.5, -19119728.0, -255076.28125, -20695704.0, 10694893.0], [9940035.0, 22518672.0, 13164290.0, -1121374.75, -30214332.0], [-23926312.0, 18212182.0, 28469132.0, 2818493.0, -636582.1875], [24108130.0, 5749514.0, -41466136.0, 6371361.0, -8190442.5], [20779852.0, 356643.625, -17506882.0, -1165775.5, -1118645.5]], [[-6271069.0, -17299492.0, -345297.375, 22018108.0, 14290490.0], [22791046.0, -2324463.0, 19455496.0, 16308371.0, 37202600.0], [-1388453.0, -5464635.0, 6547929.0, -26546326.0, 2210467.5], [224949.28125, -17497590.0, 2503476.0, 13082783.0, -19100034.0], [-15765158.0, -16530166.0, 24778638.0, 41273504.0, -9201582.0]], [[5618346.0, -17719610.0, -26370250.0, -16063217.0, -38643832.0], [3079506.0, 27455914.0, -12822908.0, -30884864.0, -5395057.5], [7042180.0, 16066031.0, 5669889.5, 6997707.5, 3881383.25], [-9637481.0, 20635268.0, -19894208.0, 16009055.0, 13806306.0], [-1607767.75, -1882966.75, -13163749.0, -39954800.0, 16691811.0]], [[1272995.0, -9874226.0, -13065717.0, -14387636.0, 14311780.0], [-10087184.0, 27726792.0, -5138527.0, 16373078.0, 10682147.0], [-7102187.5, 395629.71875, 24004908.0, -275303.5, 29499300.0], [-8227953.0, 407249.03125, -10122425.0, -1382114.0, 26972546.0], [-38588792.0, 15963346.0, -27332102.0, 5467895.0, -24516962.0]], [[18300244.0, -7945060.0, -35241668.0, 25273718.0, -1279925.875], [-1783518.75, -1166762.5, 39219048.0, 6214951.0, 17474166.0], [-22522626.0, -12264690.0, 14778804.0, -11683368.0, 30320124.0], [2366326.75, 14338860.0, 15444254.0, -32800942.0, 2471324.0], [10123505.0, 756042.4375, -10605795.0, 25682290.0, 40429488.0]], [[28057854.0, 7273215.0, -24722116.0, 21831292.0, 1713420.75], [-6885683.5, 1521327.75, -20057720.0, -25412274.0, -9990271.0], [-10416527.0, -7765793.0, 54222024.0, -30738128.0, -17509040.0], [-37313392.0, -12359890.0, 15064569.0, 8045657.5, 17366020.0], [12178244.0, 2422095.5, 15972176.0, -10250099.0, 6579426.5]], [[15017612.0, 32737604.0, -15411588.0, -14611481.0, 4919672.0], [-17045298.0, -12037439.0, -14922956.0, 9341834.0, 4927353.5], [-28576224.0, 22518308.0, -20766062.0, -492990.28125, 6162517.0], [-21073888.0, -11634887.0, 3353113.0, 3340788.5, -12094256.0], [-6879975.5, 21464870.0, 8528440.0, -11169499.0, 8693029.0]], [[12710984.0, -22908028.0, 12650702.0, -19617748.0, -3752358.75], [4188615.75, -36203896.0, 19047266.0, -9005965.0, -15806554.0], [19542472.0, -14728211.0, 1126465.25, 24824656.0, -36531436.0], [9534708.0, -13081509.0, -3923083.0, 19741766.0, -2782678.75], [-6872745.0, 17535046.0, -18997006.0, 19170996.0, -16605983.0]], [[7620209.5, 16373332.0, -10483909.0, -21074996.0, 10032018.0], [-33901412.0, -1629999.75, -64254888.0, 1626124.0, 43698672.0], [25750658.0, 7913935.0, 44589880.0, -14367350.0, -21074040.0], [-16201151.0, -1302716.5, 10242030.0, 10412998.0, 8775772.0], [37812768.0, -8759234.0, -22171688.0, 29149768.0, -33023578.0]], [[-30493936.0, -22663068.0, 22061492.0, -5473188.5, 14315286.0], [-1265819.125, 15094895.0, 18286982.0, -19827128.0, -18690372.0], [-15381740.0, 19114060.0, -24937490.0, 3246642.5, -30485634.0], [38981904.0, 26803380.0, 5325207.0, 5119703.5, 34695636.0], [-24395614.0, 1354402.25, 4227304.0, 2573477.25, -31727084.0]], [[-35288056.0, 14868364.0, 596368.25, -3843074.75, 37696548.0], [2102018.5, 9912817.0, 14369137.0, -10138662.0, -23305436.0], [-10592303.0, -7653097.0, 16613435.0, -5303082.0, 1935107.125], [19432104.0, 2093117.75, -13942098.0, 29509926.0, -12473887.0], [6882124.0, -7924930.0, -15961772.0, 7181777.0, 2598241.25]], [[16655250.0, 9861749.0, 26727452.0, 17868154.0, -4853709.5], [10530163.0, -20260982.0, 15793847.0, -7955040.0, -1669983.0], [-8240130.0, -19956372.0, 9692831.0, 22855324.0, 1594789.375], [18642150.0, 29314768.0, 7315325.5, -20924924.0, -10702291.0], [46261364.0, -12172553.0, 9999322.0, 4200615.0, -17082648.0]], [[-1498132.25, -26078944.0, -2681307.75, 5291618.5, -43714480.0], [-665621.9375, 28086698.0, -31766014.0, -18651706.0, 16990918.0], [-2478458.75, 1794350.25, 18421366.0, 9389036.0, -5715831.5], [20285264.0, 13635761.0, -10474625.0, 22211202.0, -16434376.0], [-11910020.0, 27331582.0, 12229328.0, -25888500.0, 12828379.0]], [[-18767856.0, -740122.5, 5276238.0, 18757572.0, -134983.171875], [-7709903.0, -321482.6875, 27174440.0, 4501038.5, 7665386.0], [-742594.8125, 43034336.0, -13842085.0, -2603399.5, -20805292.0], [4943865.5, 26236354.0, -18206494.0, 36601592.0, 14229762.0], [11383007.0, 47041256.0, 640294.1875, 12021488.0, -15907307.0]], [[5260660.0, 17192416.0, -10177388.0, 1330490.25, 23212230.0], [52468420.0, 32985788.0, 26546412.0, -5036942.5, -7292778.0], [-24098376.0, -2963565.0, -22242454.0, -2582371.0, 2630474.5], [17094898.0, 26659922.0, 2615634.0, 29040970.0, -3903482.5], [-15362183.0, 9488794.0, 16304015.0, -13101697.0, 16407078.0]]], [[[7596081.0, 34377752.0, 650446.0, 9625597.0, 6178322.5], [-1131791.875, -8510450.0, -41875524.0, -7825388.0, 33375668.0], [-8387759.0, -2186611.25, 9722888.0, 33718508.0, 17442014.0], [23546212.0, 15854263.0, -11930166.0, 8253422.5, -24233634.0], [-9718952.0, 15339206.0, 8695272.0, 10957922.0, -1686260.875]], [[-31951480.0, 2570978.0, -18625992.0, 16750036.0, 29360090.0], [29548744.0, -797701.0, 9054653.0, 97374.203125, 10790738.0], [9457162.0, 7076646.0, 12249395.0, -6187555.5, 4123450.5], [-6573244.5, 10107970.0, -11056076.0, -13062496.0, 22236188.0], [-16371700.0, -1794554.875, 750130.5625, 6398749.0, -3539923.25]], [[-14745230.0, -8429560.0, -9408457.0, 16723499.0, 12190601.0], [-30377300.0, 9528515.0, -9187280.0, 21592980.0, 18905474.0], [15393401.0, -27391252.0, -2628409.0, 19427212.0, -13744707.0], [6898992.0, 22758100.0, -7585081.0, 37438936.0, -4977263.0], [1627525.0, -3200878.75, 3463921.5, 41270312.0, 5279604.5]], [[-1307503.625, -25083470.0, -4298135.5, -9651640.0, 18004500.0], [-8965464.0, 40620016.0, 27504418.0, -30017190.0, -16083823.0], [-35122584.0, -21557976.0, 3822386.25, 12485652.0, -48866136.0], [7201248.0, 12303668.0, 19940696.0, 13066112.0, 2010703.125], [-3315023.0, 5060903.0, 21853040.0, 6530734.5, -11290680.0]], [[-15282033.0, 16261264.0, -25885040.0, -400911.03125, -6919667.0], [-7129808.5, -4898278.0, -2973281.0, 868437.5, 13936502.0], [-32610160.0, -26309420.0, 267767.71875, -21941668.0, 4493314.5], [25166762.0, -1884884.5, 9731096.0, 27465506.0, -27793696.0], [26614632.0, -12819118.0, -7325507.5, 27134278.0, 3303053.5]], [[33558640.0, -491518.25, 14644626.0, 11515281.0, -21717658.0], [26409106.0, -17301268.0, -15223751.0, 10319009.0, 2568782.0], [29112682.0, -28571514.0, -6790034.5, 25499184.0, 4796500.5], [-15198239.0, 4107550.0, 12240556.0, 4391416.0, -27231708.0], [3327153.0, 20210248.0, -4230619.0, -46458984.0, 8601494.0]], [[11243527.0, 33639008.0, 16448513.0, 15669152.0, -18452906.0], [-22142336.0, 4559528.0, 25201748.0, 25049040.0, -11577472.0], [-17394018.0, -30980068.0, 44760908.0, -5000991.5, 14759714.0], [-9586976.0, -5562563.0, 24305132.0, -3049397.25, -16995958.0], [21990574.0, -18885614.0, 2676798.0, -14619184.0, 5044454.0]], [[4363759.5, 9196545.0, -24339708.0, -5334270.5, -5876877.5], [30190420.0, 12466154.0, -14645433.0, 39724620.0, -4417778.5], [35426132.0, 9423894.0, -23147020.0, 4013930.0, -19943762.0], [3656979.5, -8898995.0, -54241052.0, -14037089.0, -31043932.0], [20719292.0, -8488916.0, 19711038.0, -4877804.5, 476875.75]], [[-8764554.0, -6238193.0, 12443857.0, -7409971.0, 9874058.0], [9705800.0, 21487966.0, -5813393.5, 32986256.0, -33897368.0], [-35320636.0, -9873037.0, -16678280.0, 200596.15625, -4575267.0], [-15812930.0, -21055432.0, -18545576.0, 907326.625, -4425523.0], [8937977.0, 5947000.5, -7404323.0, -6996124.5, -38159140.0]], [[-26042108.0, 13396530.0, 4176506.0, -12857279.0, 10894680.0], [-2642648.75, 18956860.0, 6717496.0, -371235.78125, -12068692.0], [-35848556.0, 21303770.0, -6537043.0, 11120725.0, 27370414.0], [23309180.0, -40088352.0, 43061216.0, 3484257.0, 14383130.0], [3666812.0, -767234.375, 7364810.0, 1141071.5, -3047474.0]], [[-38948944.0, -1505777.75, 14063408.0, -6649370.5, 17120762.0], [-4239940.0, 34282740.0, -15469226.0, 16984768.0, 9459139.0], [-12293828.0, 1482271.375, 977141.625, -24669588.0, -6314154.0], [-25078010.0, 34576048.0, -14458200.0, -13561041.0, 28456028.0], [8750522.0, -4942634.5, 8314402.0, -25076494.0, -7035838.0]], [[-5160522.0, 12541648.0, 11895945.0, -10381739.0, 19638036.0], [-6681587.0, 15602792.0, 22581304.0, -9880757.0, 3158523.0], [-39532288.0, 21609942.0, -949318.9375, -4479050.5, -5249174.5], [-33772800.0, -7338095.0, -17262022.0, -50392468.0, -13822820.0], [15921290.0, -25324582.0, 17232146.0, -5949419.0, -20161114.0]], [[-9701617.0, 5218524.0, 4859494.5, -3846683.25, 19376368.0], [24480476.0, -11946654.0, -13611569.0, -19420264.0, -19609850.0], [-9482504.0, 21569378.0, -3484269.0, -272329.0625, -10316060.0], [-18533230.0, 20039128.0, -6772413.0, 14695540.0, 9062772.0], [-21670404.0, 19397266.0, -17796484.0, 9199519.0, 34783996.0]], [[-6415850.5, 4044236.5, -1188306.25, 27050158.0, -28423742.0], [-3263983.5, -24026320.0, -32280558.0, 5724271.0, 4359675.5], [2213840.75, 4340904.5, -15274151.0, 32731626.0, 26497382.0], [-15405402.0, 18642028.0, -12142870.0, 17989056.0, -5134706.5], [-2467662.0, -11166429.0, 4569506.5, -37498020.0, -29577788.0]], [[-11976614.0, -20557900.0, 18350352.0, 6168472.5, -1078837.25], [-15503712.0, -21968844.0, -5281390.0, -25338276.0, -10474459.0], [-19403608.0, 15175083.0, 5130381.5, 5489233.0, -2940669.0], [-17531946.0, 18950630.0, 19447778.0, -3878206.5, -4591778.0], [24898248.0, -323067.09375, -30377098.0, 22767724.0, 16221372.0]], [[14425216.0, 19720612.0, 40089.84765625, -11397830.0, -13906950.0], [18252756.0, 17022720.0, -25350180.0, 15833974.0, -11379961.0], [27154894.0, 15760182.0, -13487270.0, 333598.40625, -39758884.0], [-6024083.0, -10309531.0, 1190687.625, -2519624.0, 23439012.0], [-21455764.0, -15989918.0, -23344950.0, 32055362.0, 8750172.0]]], [[[8677750.0, -13654728.0, -7663027.5, -10810044.0, 3732728.5], [-13637428.0, 14881400.0, -17826554.0, 6404163.0, 26090538.0], [23627404.0, -27688450.0, -11473178.0, 3963760.25, -2980564.0], [3415528.75, -2727480.5, -3770947.0, 17564196.0, 19073494.0], [-21218070.0, 14567890.0, 17942296.0, -7937444.0, 3868990.0]], [[-20790916.0, 10521674.0, 14406146.0, -5574277.0, -12099314.0], [33708588.0, -3542112.75, -602165.375, -2974600.5, -30545272.0], [-4445502.5, 2783222.5, 8687896.0, -1114541.5, -2542781.5], [33425974.0, -17800516.0, -8292914.0, -13148807.0, 9311677.0], [29923856.0, -523139.25, 22971984.0, -12588482.0, 2561329.75]], [[409863.8125, 12417208.0, -6965928.5, 9885448.0, 4209905.0], [5820930.0, -874689.3125, -19214540.0, 12420436.0, -15022288.0], [-18037498.0, 14618928.0, 19360090.0, -18267128.0, -10451884.0], [-9194712.0, 9924224.0, 11853976.0, -9415981.0, 4446440.5], [12772541.0, -5489657.0, 6735116.0, -15680246.0, 5622984.0]], [[2396072.75, -23341406.0, 26658626.0, -25425374.0, 14218645.0], [-4255870.0, 19251112.0, 3750400.5, -4101676.75, -14083667.0], [16465995.0, -8669031.0, -26242666.0, 19898070.0, -22425596.0], [-21491192.0, 10292801.0, -17896652.0, -7400780.5, 13963640.0], [-4653938.0, 5267267.0, -5983462.0, 5200761.0, 17791280.0]], [[27812096.0, -29489644.0, -15996802.0, -18943352.0, -13038593.0], [-19937630.0, 32188588.0, -1459875.625, 2227397.75, -10497608.0], [-786796.25, -15814932.0, -16133057.0, -7260649.0, -28476712.0], [1125048.125, 15403010.0, -15960015.0, -25294400.0, -18429648.0], [-34449388.0, 20234334.0, 912588.25, -10979109.0, -11712722.0]], [[25432042.0, 43902168.0, 29548628.0, 3518132.0, -2945081.5], [-2125713.0, 8840186.0, 23498954.0, -3353084.75, -13520255.0], [-41122504.0, -14076414.0, -10040858.0, 3703696.0, -4607108.0], [14834897.0, -21621152.0, -1431256.125, 2288254.0, 29831800.0], [-7330242.5, -302377.125, 21109416.0, -15632381.0, -31213236.0]], [[-11514232.0, -20700372.0, 3915974.25, 17915268.0, 5188964.0], [-10690416.0, 23095178.0, 31648404.0, 4156191.0, -9748222.0], [24010266.0, -35930116.0, -16540095.0, -34342436.0, 3575614.75], [477294.625, -5975840.0, -9398924.0, -22495440.0, 6649852.0], [-656194.75, 14211214.0, -18879408.0, 2605949.75, -6013081.0]], [[-4824455.0, 14886165.0, 12197347.0, 1172457.25, -15192026.0], [28755314.0, 25360928.0, 18259020.0, 18524300.0, 10693922.0], [-13916722.0, 11829265.0, -6680502.5, 5617046.5, 10183035.0], [-13331018.0, -17178696.0, -9237342.0, -4444172.0, 3481496.5], [-15280246.0, -3773288.75, 10637249.0, 13048208.0, 25765984.0]], [[8898932.0, -13736156.0, 2391614.25, 11820776.0, -22915764.0], [24985660.0, 18525822.0, -18823826.0, 18385774.0, 23514736.0], [10103489.0, -17424262.0, -9023267.0, 1302660.0, 13869981.0], [-6675793.0, 14184103.0, 13753796.0, -10068988.0, 17438942.0], [-13458017.0, 27769308.0, 14391074.0, -233046.84375, -21391518.0]], [[-27807728.0, -17024890.0, 23161534.0, -1495164.0, 6395478.5], [13246961.0, -25508152.0, -17226998.0, -13639848.0, -25131376.0], [1730659.625, -1869341.0, 29278636.0, 2823153.25, -8553791.0], [-24867958.0, -17843002.0, -5589151.0, 13247507.0, 15053226.0], [-10685870.0, -5511878.0, 46195040.0, 13062174.0, 491586.90625]], [[-24725516.0, -19514450.0, -13890405.0, -37059540.0, -3675875.0], [-11429596.0, 9832069.0, 10986126.0, 2130592.0, 20475518.0], [3674779.5, -7190848.0, -36246016.0, 18238096.0, -6589881.0], [22941828.0, 13194903.0, 17781934.0, -19531420.0, -18859842.0], [-15882814.0, -23350182.0, -5940853.0, -46650616.0, 16077722.0]], [[-16049722.0, -24175928.0, 12472801.0, -9479825.0, -19712674.0], [3053130.5, -29571300.0, -2172569.25, -30590260.0, -14020472.0], [7846240.0, 40967612.0, -3354448.75, 27215244.0, 9936746.0], [-20289122.0, -2272104.25, 21583490.0, -2372552.75, -17111642.0], [5768641.0, -15250194.0, -2154371.75, -8213310.0, 7304071.0]], [[-20952800.0, -12610394.0, -24468208.0, 4325301.0, -48530016.0], [-12631724.0, -13353935.0, 12271288.0, 30151324.0, -22361350.0], [3375981.0, 32652304.0, 13680290.0, -17402438.0, -13417789.0], [-8385339.0, 13256602.0, 39208208.0, 17453108.0, 9896228.0], [-8844174.0, 12355216.0, 25164436.0, -1269096.25, -26315778.0]], [[-30629448.0, 2978927.5, -3758927.5, -3574725.0, -11044334.0], [-12658418.0, 13414741.0, -16797888.0, -16543979.0, 14651721.0], [-20475508.0, -36289272.0, 4631977.0, 7754247.0, 1227614.25], [31491224.0, -28156426.0, 2976058.5, 6419688.5, -11982844.0], [15561098.0, 9743891.0, 8335809.0, -15537966.0, -37655516.0]], [[1267155.625, 10047179.0, 5536840.0, 37722336.0, 12542623.0], [-11884290.0, -2503582.5, 8135620.0, 1260050.75, 24035228.0], [21382076.0, -11014447.0, -22216966.0, -9565802.0, -9278336.0], [-1729618.0, -7387424.0, -10722845.0, 23330830.0, -1027795.25], [-23866280.0, -1836054.75, -1382278.375, -7188134.5, 4766695.0]], [[16480746.0, -8874859.0, -17530044.0, 1935958.125, -16661392.0], [13248068.0, -17284354.0, -1008692.1875, -19805832.0, 12939626.0], [14715252.0, 4633851.0, -35236624.0, -40592732.0, 7640659.0], [2205720.0, -25497024.0, 14957220.0, -22600548.0, 2478979.5], [-10104759.0, -4841852.0, -5677687.0, -6917227.5, 6984636.0]]], [[[2736103.0, -31827992.0, -9598617.0, -36186444.0, -28875504.0], [9463184.0, 17721866.0, -12195019.0, -17584108.0, -33068448.0], [2151701.0, -32148466.0, 1807565.125, 1610520.625, -6503406.5], [-432807.4375, -22276240.0, -11179581.0, -26925766.0, 19261112.0], [39154888.0, -16567124.0, 22429208.0, 15203440.0, -17242834.0]], [[13005934.0, -29052762.0, -6991617.0, 5791333.0, 5579385.5], [6516245.0, 43487808.0, 2698878.25, -3741312.25, -14730512.0], [-3050078.75, 1793616.25, -7668050.0, 15435354.0, 1519931.75], [3683763.0, 1264794.25, 6698363.0, 42101312.0, -15254099.0], [-4519863.5, -20795054.0, 12033674.0, 9154961.0, 25609610.0]], [[-34260612.0, 14945327.0, 16706610.0, 11179902.0, -5040559.5], [-10589398.0, -10373545.0, 10480204.0, -1501085.125, 10116701.0], [-2974442.75, 11969312.0, 8767447.0, -5488543.0, -289105.75], [15638518.0, -13639344.0, -8536817.0, -6292381.0, 6814820.5], [-12661436.0, -20334454.0, 14407898.0, -25450516.0, 31026684.0]], [[11470111.0, -12072478.0, 6302057.0, -4232617.0, 18027372.0], [-16050400.0, -11237832.0, -6765272.0, 10266772.0, -10830599.0], [12613844.0, -9197773.0, -15524726.0, 11248746.0, -3941750.0], [2886279.0, -3306205.5, -10441826.0, 12612134.0, -3626535.5], [-15522039.0, 2508149.0, 27140440.0, 13141037.0, -1080032.5]], [[-34127320.0, 5900438.0, 2889775.25, 12165831.0, 21735278.0], [2277272.75, -4126636.5, -1527431.375, -211311.21875, -9566712.0], [6913592.5, -38102912.0, 27287392.0, 5327141.5, 18838102.0], [3702296.0, -1243513.25, -19502232.0, -5428272.0, -8867837.0], [8455380.0, -21530734.0, 7534361.5, -5849786.5, 13226816.0]], [[-21650948.0, -32589386.0, 30585420.0, 11290250.0, -6529616.0], [17991114.0, 6625715.5, 6859102.0, -125336.953125, 41168852.0], [16326964.0, 11901884.0, 3874587.5, -19860460.0, -23376590.0], [36899764.0, 18670010.0, 16677550.0, -8642504.0, 510332.59375], [-26791152.0, 13735306.0, 12219032.0, 5189583.5, -8353718.5]], [[15492152.0, -10292936.0, 24926692.0, 48752508.0, 2253853.75], [-16963248.0, 9077353.0, -15299035.0, -17083212.0, -16880896.0], [47440772.0, 17778016.0, 17475958.0, -18646516.0, 21771204.0], [2884792.75, 4206026.0, 38928660.0, 16300283.0, -9632823.0], [-18019910.0, 7916206.0, -9278615.0, 5285834.0, 39491692.0]], [[-17178358.0, 16187543.0, -7168476.5, -33871716.0, 4050755.75], [441287.15625, -8973953.0, 20174906.0, 653048.0625, -5489194.0], [3886185.5, 17668460.0, -36436480.0, 27233498.0, -33951992.0], [12967907.0, 2432038.0, 1502541.75, -10081433.0, 6874266.0], [-21895788.0, 22321186.0, 24461036.0, 10165410.0, -13593506.0]], [[16980310.0, 4176407.5, 16195984.0, 9609672.0, -7633295.0], [-18739406.0, 14421882.0, -13971116.0, -410911.78125, 24617588.0], [23044992.0, 7724267.0, -30538416.0, -241376.421875, 15171690.0], [-5976528.0, 2227456.75, 14347792.0, 15616493.0, -24209752.0], [-5626512.5, -20276874.0, -758736.375, 108853.4921875, 2243538.25]], [[23937542.0, -11874190.0, -9336531.0, -8570517.0, 24332762.0], [12304995.0, 16341988.0, 5989063.0, 38749112.0, 398075.09375], [15056795.0, -36281264.0, 14270585.0, -25454392.0, -711852.75], [-13373265.0, 11514479.0, 2321933.0, 13849252.0, -19353274.0], [-15023666.0, 7683351.0, -11880185.0, 7740755.5, -14703827.0]], [[7657575.0, -21832310.0, -13819848.0, 15990026.0, 1620043.375], [10066719.0, 25523768.0, -7046264.5, 14332374.0, 2275227.0], [-4850705.0, -28253940.0, 7560266.0, 18825050.0, -1502346.75], [-6087680.5, 11943677.0, 1054992.875, 28926182.0, 40993424.0], [10724744.0, 34061404.0, 557207.75, -4757453.0, 21150098.0]], [[-19237972.0, -17375304.0, -23024290.0, -4369242.0, -16057736.0], [-1030308.5, 20157010.0, -9064998.0, -7807103.5, 14764441.0], [-1962268.375, -3170868.25, -5846450.0, 9648704.0, 28863582.0], [-20586396.0, -1908603.75, -3131008.5, -8939110.0, -21608348.0], [13615664.0, -5865227.0, -2716402.0, 33209864.0, -29873644.0]], [[18150588.0, -15564419.0, -3984992.5, -6130977.0, -35688384.0], [16771302.0, -3113852.5, 8795327.0, 17328938.0, 1923301.5], [-6288760.0, 12575792.0, 10923942.0, 3722116.25, 8912644.0], [30356036.0, 4415049.0, -1823565.375, 32161200.0, -18757618.0], [-16029233.0, 5775957.5, 17863238.0, -19253664.0, -14399446.0]], [[-386967.9375, -1049170.375, -12413707.0, -21468424.0, 5790780.5], [-414784.46875, 36723720.0, 3794598.75, -2480127.5, -21409994.0], [16930096.0, 17406882.0, -875098.4375, -23626632.0, 7548235.0], [-7794906.0, 9304544.0, 12143564.0, -35230800.0, -8371080.0], [18461894.0, -1940194.25, 4624075.5, 1096562.125, 3087722.0]], [[-28405000.0, -6205779.0, 24342484.0, -27015154.0, 1402463.875], [23097486.0, -59795144.0, -3867360.0, 18980330.0, 18954304.0], [-8710467.0, 16960032.0, -16525390.0, -3423147.0, -7548815.0], [-25560828.0, 2262082.75, 3257641.5, -8425948.0, -4714298.0], [19766918.0, -3590283.0, 11233056.0, -41894260.0, -2628880.0]], [[17887896.0, -9295775.0, 1067850.5, 3534843.5, -3735880.75], [6618568.0, 18064684.0, -9527722.0, -39195240.0, 17182362.0], [-15604092.0, -13312772.0, -2214435.25, -557284.375, -21801648.0], [12359567.0, 19818108.0, -21343580.0, 22781412.0, 30792238.0], [-33080824.0, 1210342.0, 13234260.0, -4889786.0, -13544575.0]]], [[[19800758.0, 2137056.5, -18505526.0, -5091175.0, -10905194.0], [14208160.0, -7999644.5, 29831144.0, 5139968.0, 2977567.75], [21995260.0, 9159081.0, 15694265.0, -24946754.0, -14003079.0], [-11610481.0, 20490846.0, -37840956.0, 9277738.0, 6592009.0], [-34216068.0, -20124142.0, 26456216.0, -1571023.75, 23797188.0]], [[28526644.0, 4830771.0, 2757063.0, 1546737.625, -16498193.0], [-9533465.0, 8564828.0, -18767984.0, -3367737.0, -11654117.0], [-10083864.0, 31056424.0, -60317468.0, -9374671.0, -16518800.0], [-5682554.5, 3466776.0, -10368449.0, -39750296.0, -36217.14453125], [-19014962.0, -10270031.0, -17649824.0, 3970972.25, 12364728.0]], [[15578111.0, 4357867.5, -2729943.25, -7747307.5, -1321054.5], [3764886.5, -8488708.0, -4597103.0, -12683897.0, 282382.59375], [-12471060.0, 2761790.75, -4140564.0, -23241624.0, 35877752.0], [8052334.0, -13357006.0, 14139776.0, -9081126.0, -4223243.5], [27276628.0, -13413849.0, -4367665.5, -9718899.0, 23025844.0]], [[5578489.0, 16724270.0, 14554960.0, 8613744.0, -19937698.0], [-23427430.0, 12938804.0, 10650140.0, -8718082.0, 26772550.0], [5559589.0, -2246022.25, -6318454.0, 6199012.0, 1789365.5], [668169.375, -28386040.0, 27812284.0, -1304018.25, 12729548.0], [618264.625, 19055182.0, 12045435.0, -1477965.25, -4610070.5]], [[16995598.0, 11330077.0, -30562174.0, 16254197.0, 18227140.0], [4559209.0, 24188182.0, 14008270.0, -8385741.5, -9418739.0], [17194300.0, 4502818.0, 9856922.0, -3517218.0, 10354588.0], [-18913050.0, -10105472.0, 2915285.75, -2638570.0, 173244.5], [16088608.0, -35344868.0, 5711164.0, -28226952.0, -19263106.0]], [[19817768.0, -28089790.0, -18528196.0, 7854509.5, -23060704.0], [-16853356.0, 4117348.0, -15488192.0, 17736914.0, 14076108.0], [11538614.0, -29823180.0, -7357760.5, -8516179.0, -41575288.0], [14389889.0, -7389164.0, 4947441.5, 19113890.0, -40134668.0], [-13129850.0, 21768624.0, 1568801.25, -12896732.0, -9792904.0]], [[-5246656.0, 14041097.0, 21741976.0, -11475251.0, 14195344.0], [-5143636.0, -13681481.0, -13368223.0, 39783696.0, -33647760.0], [15440340.0, -22126808.0, 36018020.0, 14091872.0, -9295.9091796875], [-21513908.0, 32695580.0, -24810924.0, -17274750.0, -18693418.0], [-3111595.0, -7708684.0, -6103899.0, 4583823.5, -22754044.0]], [[34921316.0, 16362259.0, -12559824.0, 3997001.0, 21095422.0], [-16792390.0, -29521972.0, -25181144.0, -1832955.0, 27892614.0], [-1350106.0, -5066202.0, 7080007.0, -8936547.0, 23498966.0], [-7014279.5, 3717500.75, -8284599.0, -7499833.0, 4078106.75], [-2176386.0, -4742931.0, -3269750.5, -18275478.0, -16706440.0]], [[29228754.0, -7250548.0, -27492904.0, -28315428.0, -31818606.0], [4275734.5, 49021952.0, 4906465.0, -4157270.5, 36311208.0], [-32769416.0, 31249524.0, -34146740.0, -3384124.0, -8294201.0], [8868083.0, 3054589.0, -1918977.75, -14688956.0, 6165934.0], [23131844.0, 26910252.0, 1129228.25, 6849747.0, -22974352.0]], [[-16952934.0, -14391096.0, -56754040.0, -9145388.0, -886872.0], [14218667.0, -16876852.0, -7355506.5, 23555120.0, 7503654.0], [-18479002.0, -22185208.0, -9512497.0, 139375.015625, 31603840.0], [-30951772.0, -6222336.5, -10706756.0, -6554223.5, 626539.625], [-12305999.0, -23128974.0, 10695494.0, 9949564.0, 2001777.25]], [[18980870.0, -37085688.0, -4045931.25, 4357599.5, 27096140.0], [-16048244.0, -21609864.0, 9992134.0, 18248160.0, -6997957.0], [-9983126.0, 11946890.0, 10172010.0, -1798724.875, -10911842.0], [-15120578.0, -19313996.0, -37731508.0, -18870074.0, -3538582.0], [-7005018.5, 8418618.0, 5281472.0, 12700397.0, -371953.0625]], [[-6082777.0, 2121765.5, 17354150.0, 21397724.0, 4825831.5], [-12812448.0, -1396788.375, -4346918.0, 22062764.0, 6834538.0], [-14055314.0, 20830444.0, 7445731.5, -3729713.75, -10351226.0], [4694315.5, -3828836.5, -2038687.375, -1450609.75, -14536799.0], [8008638.0, 293333.53125, 9166506.0, 24601350.0, -10871578.0]], [[-8714959.0, 11020548.0, 8089337.0, -30400510.0, 3895483.5], [6290084.0, -10437439.0, 32574922.0, 7136032.0, 8501634.0], [8319956.0, 11647634.0, -24448008.0, 32045580.0, 23838196.0], [31100556.0, -17880860.0, 5672053.0, -27045476.0, -31095084.0], [-17646442.0, 30570384.0, 12314633.0, -13438747.0, -43213688.0]], [[-5804542.0, 19618548.0, -16169795.0, 6016738.5, -7894558.0], [6846958.0, 33486592.0, 23759688.0, 22876998.0, -8552128.0], [-13758042.0, 27524764.0, -1219376.25, 3482552.75, -12441266.0], [28255668.0, 10876200.0, 41576400.0, -15802946.0, -6119611.0], [7340943.0, -20427204.0, -31713344.0, 21236712.0, 5523430.0]], [[-10531324.0, -12159550.0, -10794932.0, -7801219.0, 4643301.5], [17924206.0, 8174828.5, 29087848.0, -760667.5625, -23411868.0], [-6013377.0, -2203016.75, -9768842.0, 6716318.0, 16348710.0], [-10028845.0, -21923792.0, 34573384.0, 28061200.0, 9786845.0], [2990154.5, 28749778.0, 12905772.0, 7266155.5, 3075569.0]], [[5206658.5, -875501.0, -3580439.75, -20099128.0, 11605235.0], [11959734.0, -1538330.5, 617117.4375, -7265655.0, -31116310.0], [-26249818.0, 7111061.5, 976410.6875, 7464329.0, -4670804.0], [19735528.0, 2591996.75, 20156412.0, -4118217.0, 8496074.0], [20453520.0, -10525394.0, -39095724.0, 27109584.0, 34042544.0]]], [[[-21656620.0, -1702905.875, 5594807.0, -13490320.0, 13594127.0], [6981973.0, 2543837.5, 24160260.0, 4878974.5, -3475110.25], [9249226.0, -2899707.0, -20284806.0, 24655522.0, -5675137.0], [-17332936.0, -2605269.25, 19535748.0, 5281068.5, -1040295.6875], [138058.671875, -19804270.0, 12688193.0, 12466312.0, -4271017.5]], [[10876112.0, 445326.625, -17591404.0, -20261244.0, -2497949.75], [13279851.0, 5472497.0, 4459644.0, -2436497.5, 5490810.0], [28104064.0, -40799608.0, -16238018.0, 1820823.375, 14630555.0], [3461697.5, -8369085.0, -15114809.0, 9298955.0, 22464000.0], [9017754.0, 7457072.5, -11235367.0, 15958084.0, -2219200.75]], [[-15186861.0, -10160720.0, 1190806.75, 3830888.0, -22395698.0], [-20956312.0, 16295558.0, -11338618.0, 17032024.0, 9647550.0], [-20940500.0, -21109600.0, -16970750.0, -13029296.0, -10870508.0], [13060195.0, -30519848.0, 20476530.0, -2880825.75, -38004940.0], [-24710974.0, 27812776.0, 7497064.0, -3213589.25, -30310296.0]], [[-24008664.0, 11876884.0, 11012152.0, 50032336.0, 2762209.25], [-10520388.0, 11552390.0, -32427996.0, 7466242.0, 6297618.0], [17668350.0, 11872194.0, 11870936.0, -6061917.0, -1470505.25], [-10709306.0, -11315326.0, 11988971.0, 23157900.0, -2516891.75], [35334868.0, 13383412.0, -10664138.0, 548776.5, 2711825.0]], [[33153202.0, 19703354.0, -26967734.0, -20828688.0, 11705884.0], [9354812.0, -9551672.0, 17432218.0, 35807464.0, 21447622.0], [8755280.0, 31218260.0, 6507225.5, 5125846.0, -2709740.5], [4961929.0, -4208117.0, 5814549.0, -28034076.0, -8684821.0], [5049592.0, 27906288.0, 18200960.0, -291201.71875, 4035720.0]], [[-18153760.0, 24155328.0, 3480936.5, -10881202.0, -28438128.0], [-7889919.0, 1742847.25, -1541662.625, -2708509.75, -1350309.125], [27710556.0, -22495506.0, 3809750.75, -10911663.0, 22140800.0], [-3297815.75, -12131495.0, -5546946.5, 10170350.0, -5261909.0], [-5707279.0, -29561020.0, -1799674.125, 36659564.0, -7771690.0]], [[-35547356.0, 16796.275390625, 22537732.0, 29763544.0, 40020080.0], [356912.3125, 11824936.0, -22758614.0, -5107825.0, -11707330.0], [10309173.0, 11434892.0, -9377686.0, 8451060.0, 28935154.0], [13196555.0, -171580.328125, -6965601.0, 313043.5625, -15234088.0], [-6044056.5, -7506187.0, -14755622.0, -26659546.0, 9769711.0]], [[2812361.0, 24985240.0, -2003595.875, 19998354.0, -14909054.0], [7179603.5, -3648839.0, -39368868.0, 42054392.0, -17252308.0], [-7489646.5, 14921574.0, -29528768.0, -8337325.0, -32514630.0], [11836168.0, -24945392.0, -16675380.0, -13921016.0, 7717849.5], [-28100788.0, -611768.75, -50950772.0, -23390330.0, 11794420.0]], [[6542345.0, -28894468.0, -18207802.0, -10685768.0, -34246624.0], [5468992.0, 3110238.25, 11336212.0, -23929292.0, -12515088.0], [-11811625.0, -20455328.0, -18844120.0, 37541156.0, 9698290.0], [17615096.0, -1207065.0, 26019328.0, -7856431.5, -19564088.0], [-9347141.0, 20994640.0, -16014752.0, 30589090.0, -210646.03125]], [[-14499758.0, 12162224.0, 19547792.0, -22298392.0, 7734573.0], [-8549282.0, -5645122.0, -5427014.0, -2097763.25, -6862039.0], [-5494655.5, 21898726.0, 815782.4375, 5896009.0, 9473477.0], [17290572.0, 29733608.0, -17430962.0, 24690074.0, -821374.6875], [-30379812.0, 15318964.0, -6386145.0, 1101740.0, 7369990.5]], [[5487148.0, 8124095.5, 6260458.0, 5525081.0, -625732.25], [5659356.0, 16658824.0, 7181973.0, 9351118.0, 13764644.0], [-21320836.0, 11924282.0, 12492913.0, 11545829.0, -29451476.0], [4848416.0, -13619720.0, 5405172.5, -8914043.0, -7755528.0], [14302961.0, 20353750.0, 7829162.5, 4949876.5, -9367255.0]], [[17800056.0, -19026688.0, -7890293.5, 27499904.0, 25953002.0], [-15400853.0, -28381222.0, -2701004.0, 6285180.0, -24564940.0], [-12563420.0, 10582378.0, -23985440.0, 15584445.0, 9680415.0], [-11812194.0, 33680668.0, -12185205.0, 8518657.0, 12594401.0], [-809557.625, 7343796.0, -4083155.5, -4672105.5, -8792117.0]], [[-8356877.5, 11890894.0, -17854932.0, -12945214.0, -11166846.0], [1950360.375, -10036638.0, 14549973.0, -7499368.0, 2940380.5], [20244620.0, 164149.1875, -10319948.0, 14679615.0, 9286919.0], [-1095809.625, -12291772.0, 1966398.625, 5286834.0, -3004409.0], [1574503.0, -6432166.0, -4870618.0, 18145154.0, -19638740.0]], [[-13039688.0, -24142652.0, -11169649.0, -18598938.0, -34524768.0], [9207004.0, -15609866.0, 13170158.0, -24696.859375, -18943954.0], [-23238858.0, 16150930.0, -19331668.0, -4173788.75, -2818791.25], [-5062047.0, -12172512.0, 25738632.0, -27584942.0, 5359854.0], [21779602.0, 37047676.0, -9313016.0, -9877906.0, -11323302.0]], [[10016024.0, -8162099.0, -2989280.5, -521824.0, -2999740.75], [-8196320.5, -4407410.0, 5342374.0, -6401001.5, -13694428.0], [-20435006.0, 3836359.5, 20598772.0, -32742418.0, -23884608.0], [-22022236.0, -1539697.0, 22530838.0, 2580603.5, 1548771.25], [-12447529.0, 21248596.0, 9890504.0, -4396408.0, 9308968.0]], [[-3745883.0, -22865860.0, -38530616.0, -8579700.0, 6443802.0], [-7529760.0, -3709967.75, -14429656.0, 8543245.0, -29649466.0], [758757.875, -5755003.5, -4077817.75, -1507821.5, 52041756.0], [13848447.0, -5149462.0, -16052669.0, 18190406.0, 16120592.0], [-4054738.0, 6647020.0, -15528302.0, 2332998.25, -17035802.0]]], [[[-2552743.75, -25123606.0, 200311.5625, 16626911.0, -15636701.0], [4796477.5, -8804639.0, 10792012.0, -5789531.5, 25846324.0], [-48264292.0, -1264168.0, 11413524.0, 5882847.0, -2677973.0], [-335597.15625, 884894.25, -23518008.0, 21458588.0, -10163715.0], [318921.96875, 11475003.0, 169245.40625, -29460526.0, 2853487.25]], [[-18009062.0, 2193164.0, -24249710.0, 20377320.0, -2326987.0], [-10487107.0, 32922542.0, -25057104.0, 3837565.5, -9765244.0], [12124663.0, -655690.875, 10053969.0, 42088672.0, 25358794.0], [24950436.0, -4043955.75, 16424384.0, -23405820.0, 452429.625], [-13756626.0, 4772183.5, 32322322.0, 19310732.0, 19648798.0]], [[29127912.0, 17897804.0, 35903844.0, 494810.6875, -2061088.75], [18380440.0, 13097987.0, -14199764.0, -8689138.0, 16085624.0], [-12581332.0, -19508606.0, 33881776.0, 2597884.5, 5450887.0], [19856968.0, 22730794.0, -3091094.0, -15937270.0, 33533222.0], [20222184.0, 2337205.25, -9969481.0, -15187810.0, -25828238.0]], [[-44910696.0, 3119020.5, -14764552.0, -6615734.5, 27513328.0], [-9492809.0, 8674538.0, 11942533.0, 35146648.0, 36767192.0], [-7123361.5, -9284774.0, -14918092.0, -5160803.5, -20185880.0], [5961009.0, 56121224.0, 5369607.0, 18538886.0, -12333223.0], [6532400.0, -5992379.0, -12867822.0, -8136086.5, -248758.59375]], [[205441.046875, 26147064.0, 24679024.0, -5770409.5, 16689902.0], [-9317070.0, -5997425.5, 56400304.0, -8179428.0, 477039.25], [-17668930.0, -13095494.0, -20046136.0, 982815.5, -22244988.0], [25660960.0, -19095284.0, -11750597.0, 5919066.0, -36615136.0], [-18407202.0, 14663533.0, -11360445.0, 1368763.375, -8588825.0]], [[14885127.0, 215441.1875, 2696112.75, -4660499.5, 792477.625], [-7266963.0, -11612608.0, -11561110.0, 13061362.0, -11527757.0], [-9510182.0, 5469437.0, 11603054.0, -4113779.5, -1686975.75], [7163532.5, -7789635.0, -530545.5, 12349383.0, -8738947.0], [8271188.5, 26492456.0, -22314340.0, 10414193.0, -26758522.0]], [[6669703.0, 3931141.5, 28088924.0, -32290652.0, -14856734.0], [20453120.0, -15931148.0, -17814040.0, 1836233.5, 7756501.0], [24730412.0, -887445.5, -21681334.0, -10403671.0, 13425989.0], [-6822232.0, 13502298.0, 20031522.0, -3414615.75, 7013.2099609375], [-10578683.0, -9587071.0, 35671784.0, -22218680.0, -30751364.0]], [[630931.0, 684506.375, 12494119.0, -5239246.0, 7042665.5], [-8983532.0, -13901046.0, -9240711.0, -3654011.5, 64265.44140625], [-12465244.0, 1451191.75, -18047616.0, -1619607.0, 8120267.0], [11950844.0, -19245068.0, -23883050.0, 19556984.0, 12022302.0], [-19498994.0, -13028864.0, -19583392.0, 16463608.0, -11753435.0]], [[8406919.0, 13780223.0, -31019432.0, -4200126.5, 21451760.0], [11913997.0, 2491872.25, -4694392.5, -17111388.0, 3729151.5], [29328768.0, 22615260.0, -57972740.0, 6258221.5, -1907983.375], [-5868214.0, 7997478.0, 3339834.0, 6050214.5, -14910024.0], [-27849700.0, -763681.625, 31158932.0, 9234440.0, 273206.59375]], [[-27807350.0, -14145428.0, 7744554.5, 31828972.0, 5829484.0], [-8249089.0, 23064124.0, -4609373.0, 32089764.0, 13052420.0], [-4688154.5, -4982703.5, 7415423.5, 7286509.5, -18053380.0], [21282196.0, -5809087.0, 3085740.0, 11328709.0, -707392.25], [-33838204.0, 23074234.0, 8557344.0, 1806478.0, 7361346.0]], [[-11466940.0, 19537996.0, -37255176.0, -1222934.0, -26657352.0], [-29263078.0, -7113293.5, 9355193.0, -10682252.0, 9637196.0], [-1505459.125, -11483322.0, 13343970.0, 18859784.0, 7950321.0], [-3409393.0, 17519124.0, -27108206.0, 14005968.0, 12899542.0], [-10732716.0, 11233460.0, 4741023.0, -7217309.5, 558726.5]], [[16679218.0, 12001781.0, -21908424.0, -1950235.5, 28693600.0], [-10462608.0, 12481370.0, 9378910.0, 14407226.0, 2568322.0], [-6229481.5, -6677532.0, 25719132.0, 5770334.0, 7584659.5], [15058679.0, -26746064.0, 46445808.0, 13323468.0, -1472078.5], [17891458.0, 18640438.0, 6609831.0, -41373144.0, -17675208.0]], [[-1433580.25, -11730503.0, -30470466.0, -15930500.0, -18305558.0], [18343690.0, 50619480.0, 12099748.0, 26425276.0, 8417390.0], [-13690153.0, 199438.578125, 10194952.0, -12250692.0, -11285546.0], [35960580.0, -2583746.0, 4790840.0, -16105185.0, 10086230.0], [42604072.0, 8586464.0, 5493586.5, -2687783.75, -25271292.0]], [[18919304.0, 27873532.0, 4482468.5, 33594748.0, -2898127.5], [18687424.0, 8944380.0, 6328837.0, 11536219.0, -12015626.0], [-24672890.0, -10471174.0, 8018254.0, -4325902.0, -39584760.0], [-24719194.0, 19124894.0, 25392674.0, 8286746.0, -5715652.0], [-54749372.0, -2227700.0, -6895757.5, -9994214.0, 6966732.5]], [[42243732.0, 22366764.0, -2213949.75, -8943031.0, -10719713.0], [-10869078.0, -10853782.0, -8382076.0, 11970355.0, -15973340.0], [5772351.0, -10320329.0, 25344612.0, 7754642.0, -11443122.0], [35239360.0, -18792800.0, 5739144.0, -3832114.25, -699891.375], [-10202326.0, -414583.34375, -10431605.0, -15640832.0, 10948555.0]], [[2451929.0, -11427578.0, -25381258.0, 13564135.0, -661937.5], [3856567.75, -8046679.0, -17872520.0, -10243080.0, 4292856.0], [-12739016.0, 15939590.0, -13949525.0, 11362660.0, 20334516.0], [4143367.0, -35631404.0, 2290081.75, -21785668.0, -695021.4375], [-15806900.0, -16698066.0, 20979416.0, -6412336.0, -25294374.0]]], [[[35092392.0, -23784672.0, 5124078.5, -26589732.0, 938557.625], [-21721742.0, 34254484.0, 14985361.0, -13403247.0, 1076036.0], [-34251876.0, -33592632.0, 1082522.375, -6592367.0, 3061805.75], [-3428331.0, 428559.8125, 22070984.0, -9548171.0, 10061773.0], [10757722.0, -9776532.0, -8528806.0, -8889983.0, 10785563.0]], [[-36403924.0, 3936483.0, -22002622.0, 20714828.0, 10822962.0], [24822326.0, -9570944.0, 17924478.0, -11907020.0, -8019610.0], [11471327.0, 11969437.0, 16975080.0, 4015575.5, -1446494.375], [8505998.0, -4316233.0, -1797811.375, 14684989.0, -13018928.0], [5050110.0, -34490748.0, 29385734.0, -6145957.0, -9941196.0]], [[3747110.5, -928503.0, 12228056.0, -20847992.0, -550383.125], [25840824.0, 12302248.0, -215279.328125, 25871812.0, 26336652.0], [10300221.0, -7745659.5, 19331580.0, -8612132.0, -5464744.0], [-6052959.5, 10211640.0, -541060.625, -23516968.0, -23553620.0], [37906876.0, 5464936.0, -2006022.875, -20514268.0, 4548576.5]], [[-6072821.5, -20091352.0, -394655.6875, 11358848.0, -26204536.0], [-8558650.0, 5910048.5, -18218256.0, -8013071.5, -3000908.0], [-32222560.0, -20222578.0, -10514501.0, -9392606.0, 3728119.25], [29450344.0, 17241340.0, 15711629.0, 10159388.0, 8415857.0], [40008260.0, 9420892.0, -25417522.0, 27015502.0, -44793700.0]], [[7834948.5, -10948952.0, -16168965.0, -17633850.0, 5734013.0], [-21579326.0, 242523.640625, -24523848.0, 19225048.0, -20266932.0], [18252488.0, 7077618.0, -17473028.0, 23209992.0, -15733524.0], [-7647481.0, 17171034.0, -17294806.0, -3370192.25, 7263244.0], [46938568.0, -20276896.0, 3534314.0, -24212628.0, -11200190.0]], [[-23129668.0, 10917181.0, -10337094.0, -2279103.0, -25976294.0], [-24377920.0, 3148015.5, 2646604.5, 3907000.0, -2804829.0], [574607.1875, -25009800.0, 16659380.0, 4718935.5, -5874572.5], [-46640400.0, -16201240.0, -17056762.0, -13937224.0, 29964622.0], [29537034.0, 14177813.0, -15006803.0, -15591455.0, 17605334.0]], [[3460642.25, 15766559.0, -14041061.0, 7996942.0, 9344028.0], [-7197239.0, -22537240.0, -8602864.0, -14918738.0, 12861080.0], [-14005948.0, -21095810.0, 30552028.0, -10205153.0, 718418.5625], [-12271044.0, -5669708.5, -12224901.0, 8065820.5, -9374420.0], [23539658.0, -15474864.0, 29998882.0, -1391348.375, 1117550.625]], [[2581920.5, 12789030.0, 441065.71875, 15429081.0, -9033062.0], [-34962464.0, 51590920.0, 26625960.0, -11947066.0, 35442980.0], [31353216.0, 21032644.0, -9662981.0, -30222688.0, -20927240.0], [-8196790.0, -13826864.0, 12808392.0, -18800230.0, 16764647.0], [15495393.0, 11944276.0, 53441.0390625, -3927304.75, -5944406.0]], [[-8005162.5, 6292349.5, 10750013.0, 10840927.0, -4678429.0], [-25742616.0, 19218616.0, -2155957.5, 4970125.0, -2735821.5], [-21216668.0, -15469835.0, 4715263.0, -26893002.0, 16469305.0], [-23392586.0, 4390354.0, 2694658.25, 10283261.0, 11067382.0], [8712227.0, 20817104.0, -9767438.0, -1633233.25, -10297613.0]], [[18163224.0, 23607358.0, -43511712.0, 70967.8203125, -13043766.0], [23927536.0, -6963827.5, -13448639.0, -15274752.0, -22390274.0], [-5813937.0, 28138170.0, 27930634.0, 16731138.0, 12468964.0], [3083107.75, -6977289.0, -57112124.0, -21721166.0, -4325900.5], [6052910.0, 14422536.0, 22242470.0, 227185.921875, 7406644.0]], [[19473238.0, 10432325.0, -3820832.75, -14804368.0, -6064162.0], [-2333910.75, 17895640.0, -744110.3125, -5992291.5, -451272.375], [-292868.1875, 2308189.25, 35695088.0, 10552772.0, -1223238.0], [4615948.0, 3456826.25, -1729514.375, -9471410.0, -17771302.0], [-4282806.5, -37696048.0, 4812646.0, -8784218.0, -124875.09375]], [[-7664393.0, 9715581.0, -5351160.0, 3111953.75, 2244686.0], [3160883.25, -801244.4375, 28031398.0, 25846800.0, -6020671.0], [-16978762.0, 1601289.0, -11635794.0, -9892868.0, -12588274.0], [21753578.0, -7918470.0, 11713522.0, 13028528.0, -11941313.0], [4261310.5, -37193200.0, -3278124.25, 3199134.5, -8818727.0]], [[-513657.65625, 38918292.0, 5250377.0, -28438342.0, 9637617.0], [16426574.0, -9267438.0, 11143816.0, 21954518.0, -33825032.0], [-3808651.25, -8986622.0, -10650133.0, -17666072.0, 2950767.0], [-11314120.0, 3697819.25, -18402772.0, 19999570.0, -13342157.0], [1766386.5, -4547036.0, -5691201.5, -3135959.5, 4796533.0]], [[-18519354.0, -12239700.0, 48728044.0, 28123596.0, 7633831.5], [-2652446.25, 10944611.0, -6199687.0, -18079142.0, 19048924.0], [17596982.0, 5176824.5, 8897591.0, 5938259.0, -15452566.0], [-16193785.0, -15985955.0, 8120669.0, -10581108.0, -6599088.0], [-9879914.0, 5243.86767578125, 6364912.0, 10429907.0, -2549058.75]], [[-1724819.25, -1696505.5, 13661929.0, 8597731.0, 3268534.0], [-13231557.0, 8912588.0, 14841190.0, -30594500.0, 13119108.0], [-10069038.0, 21072818.0, 15884215.0, 4858424.0, -3399656.25], [2336932.0, 2631317.75, 9784464.0, 2059179.25, 1497880.5], [9380472.0, -8821379.0, -7683410.0, -15162010.0, 15578434.0]], [[17013648.0, -1350115.75, -35465376.0, -14562799.0, 9095572.0], [23014648.0, -7895383.0, 4659290.5, 5057053.0, 39466808.0], [-7365452.0, -2662228.5, 23257744.0, -3675244.75, 3919037.0], [-733222.0, 15446480.0, 29734552.0, 37115108.0, 18454880.0], [18896644.0, 43169616.0, 1544488.125, -31372102.0, -18912068.0]]], [[[-2398752.0, 20697192.0, -12301074.0, 3366099.5, -21923446.0], [1536849.375, 25341258.0, 24079490.0, 19504008.0, 562341.8125], [23848944.0, 9858458.0, 14340680.0, -21175090.0, 38745032.0], [-17278786.0, 6368727.5, 5990272.0, 20358706.0, -2546144.0], [-44249656.0, -31868380.0, 12760754.0, 24888696.0, -2669250.5]], [[30261560.0, 4546849.0, -11853530.0, -39995916.0, -6944205.5], [-15655008.0, 9927398.0, -8998523.0, 3616352.0, 1967220.0], [10446154.0, 3909868.0, -6511317.5, -5843771.0, -1691261.25], [-321274.40625, 8465211.0, -8199445.0, 9382925.0, 26902728.0], [-21784734.0, -9177344.0, 6043215.5, -6580329.0, 14789414.0]], [[20432078.0, 8290448.5, 7286457.0, 27825232.0, -238668.140625], [-24634922.0, 8067006.5, -1865474.625, -2164181.0, -1546228.25], [-9967327.0, -485581.1875, -909042.625, -941133.875, -36106124.0], [-32204950.0, -30921216.0, 795687.3125, -1903999.0, 3335923.75], [-360572.25, -9160400.0, -10207663.0, 12017780.0, 283850.625]], [[4811834.0, -12051400.0, 2606356.5, 21579052.0, 14763614.0], [-11392430.0, -11976524.0, -7621089.0, 5426118.5, 35575424.0], [-3090724.0, 5204554.0, -8573926.0, -19767776.0, 9626814.0], [15040960.0, 1949004.625, -14826188.0, -14735004.0, 21140460.0], [16245548.0, -9819394.0, 10108118.0, -7257670.0, -6545921.0]], [[-17313900.0, 278389.125, -6324580.0, 47409488.0, 18406140.0], [2935217.0, 28864048.0, 28650676.0, 15058870.0, -17965504.0], [-12856382.0, -30374122.0, -21823556.0, 4191082.25, -819986.375], [13313434.0, 18473716.0, -17439858.0, 22686400.0, -11108648.0], [36689124.0, 4977752.5, -31187156.0, 16660388.0, -30223268.0]], [[-9802649.0, -9647910.0, 10003618.0, 7102808.0, 8625269.0], [-30763918.0, -24813568.0, -6505290.5, -21669932.0, 846465.6875], [-5613723.5, 1560863.75, -14501489.0, 1753131.25, -4805520.0], [12710604.0, 17070206.0, 4166120.0, -15930107.0, -14983538.0], [-30138920.0, -14367926.0, 11930271.0, -17242932.0, 15297006.0]], [[-10446458.0, -22679872.0, 457018.4375, 19428448.0, -17336590.0], [475303.0, 921739.0, -1049952.625, 5885135.0, 23627540.0], [14288124.0, 11134075.0, 16689869.0, 10367342.0, -639054.3125], [-15142268.0, 18035192.0, 242858.015625, 2297573.0, -6685227.5], [-20469496.0, -18043996.0, -2386298.0, -19661140.0, 4926601.0]], [[-9355268.0, 36836924.0, -663128.25, -28711900.0, 7058171.5], [-22886868.0, 17276780.0, -28967214.0, -1617649.0, -7943357.5], [8172691.0, 25574966.0, 3992828.5, 14115152.0, -24802328.0], [6648929.5, 31817260.0, -44902852.0, -17679076.0, 1532489.875], [16871574.0, 8081641.0, 2955323.0, -1725853.375, -18500698.0]], [[5583388.0, 6849973.0, -13561992.0, -6921577.0, 10777286.0], [4877285.5, 21184510.0, 26769054.0, 33869448.0, 9245837.0], [6641637.5, -20633456.0, 6087048.0, 16311157.0, 4158746.75], [24335444.0, -19393534.0, 14299723.0, -11624076.0, 6446151.5], [-2003452.75, 121242.984375, -31340686.0, -9449519.0, -1726343.25]], [[277402.0, -5714841.0, 2826404.75, 12473867.0, 8324713.0], [-31320874.0, 1578179.875, 5035541.0, -3865328.0, 6396601.0], [311691.90625, 12778210.0, 12311026.0, -244205.65625, -9682829.0], [-13945764.0, 3828787.0, -17388748.0, 16944578.0, 14399771.0], [8349500.0, 20781236.0, 1551168.25, 973456.8125, -3835110.5]], [[27882826.0, -16918142.0, 31101996.0, -12027740.0, -16240635.0], [5430911.5, -16026540.0, -13085774.0, 13506056.0, 24752666.0], [2776267.25, 1915080.5, 7157919.0, -27298192.0, 14058366.0], [-7073859.5, -4682394.0, -26253958.0, 26440214.0, -51364272.0], [3921512.0, 39208392.0, -2176453.5, 5916277.0, -24448454.0]], [[-5260513.0, -8996303.0, 7118951.5, 295204.15625, -32041090.0], [-22543492.0, -7209470.0, -25325650.0, 11060289.0, 5731863.5], [-14390200.0, -9763162.0, -9516234.0, 15884243.0, -1309091.5], [-16466848.0, -7484336.5, -20887208.0, 7331786.0, -22809546.0], [9222249.0, 18332156.0, -9080880.0, -19149082.0, 4925561.5]], [[14415081.0, 26088478.0, 5111765.0, -2916093.5, 28090312.0], [-21088096.0, -28061464.0, -6265277.5, 26483178.0, 13415954.0], [29365920.0, 30872260.0, -800446.25, -8098450.5, -502590.21875], [-6235554.0, 6162231.5, 2588623.5, -10168238.0, 4440452.0], [-3130061.75, -10182134.0, -14200172.0, 27498610.0, 466330.125]], [[-2880194.5, 2770827.75, -12071239.0, -8705351.0, 5014050.5], [-28203842.0, -5209992.0, 7160819.5, -29659620.0, 15593593.0], [7720201.5, 9031355.0, 12407148.0, -4267913.0, -12053846.0], [13990530.0, 11591956.0, 498990.1875, 13969159.0, 8291266.0], [9139448.0, 14248093.0, -21302688.0, 16139777.0, -18867770.0]], [[4014554.0, -49450544.0, 18355904.0, 12212316.0, 19459308.0], [-5546861.5, 3232663.75, -2377045.0, -23287984.0, 21766878.0], [-8762543.0, -11269111.0, 1352824.0, -5924458.0, 4913765.5], [-33135564.0, -27032452.0, -20625274.0, -3902838.75, -20886750.0], [8825979.0, 12765966.0, -13340519.0, -15057644.0, 6079362.5]], [[-2308508.5, -13833102.0, -1105174.75, 2234656.5, -16331030.0], [13460843.0, 522778.0, -29850972.0, 27354658.0, -17634034.0], [24621454.0, -12254510.0, 1381679.125, 2358250.75, 10503693.0], [-14299994.0, -2973842.25, -17104580.0, 2543906.75, 1097979.5], [1645575.625, -4727959.5, -25257772.0, -5706384.5, -6493121.5]]], [[[16310173.0, 3261606.25, -18750316.0, 6961447.0, -18473292.0], [-10868432.0, 3802608.75, -2624912.5, 6870371.0, -23540836.0], [-26086126.0, -10547144.0, -1668198.0, 7320119.0, 6990101.5], [10169772.0, 6936248.5, 26151372.0, -5797863.0, 14796866.0], [15581447.0, -22263708.0, -31820044.0, -20559486.0, -20219802.0]], [[19446952.0, 23549022.0, -21796964.0, -2038589.875, 21082646.0], [44005240.0, -15322872.0, 28354980.0, -26239546.0, -1591670.75], [-10182542.0, 7065475.0, -399512.03125, 12631244.0, 8015146.0], [7373725.5, 18615672.0, 21609644.0, 14901782.0, -18394204.0], [11976970.0, 17713864.0, -1721481.25, -3241282.25, -9307336.0]], [[-14236067.0, 14894333.0, 1054840.375, 4734568.0, -4754214.0], [32905620.0, -14356610.0, -852069.0, 24790490.0, -5173849.5], [-44463272.0, 2775528.5, -3486589.75, -6913147.5, -16065156.0], [17439418.0, 9409172.0, 20459918.0, 41068180.0, -3386070.5], [3828082.75, 31529864.0, 21071514.0, 14423904.0, -39105156.0]], [[18478848.0, -2578168.0, -29423880.0, 14630252.0, -1957206.625], [-11737192.0, 840410.6875, -10290032.0, -40521448.0, -18668180.0], [-18861298.0, 8957464.0, 1874114.0, -15045413.0, 1989616.25], [1748446.75, 1418850.75, 8228813.0, 42673808.0, 1988736.5], [9359990.0, 4043594.75, -44027880.0, -31408480.0, 14337582.0]], [[-6714928.0, -22640132.0, 12887147.0, 1243742.75, 21570748.0], [9533161.0, -22529722.0, 488237.96875, -3150106.75, -17859120.0], [19809836.0, 23326688.0, 3829428.0, -15038744.0, 5397248.0], [9933800.0, 27489278.0, -9856457.0, -12214487.0, 18447154.0], [-6525806.5, -21634134.0, 24324012.0, -8842503.0, -3587029.25]], [[20926002.0, 20638618.0, -20270294.0, -14814142.0, -863457.125], [5632949.5, -19217306.0, -135440.75, -29569206.0, 44042280.0], [-360523.09375, -21708116.0, -20818448.0, 7222147.5, -5104791.5], [-2348306.0, 53563832.0, 3612456.5, 8565758.0, -10800695.0], [-24717524.0, 45928512.0, -10338538.0, 14339207.0, 10438656.0]], [[17575560.0, 30133496.0, -6194311.5, 11586324.0, 16869774.0], [9140168.0, -6033908.0, -15899003.0, 17111480.0, -6946115.5], [18241692.0, -9806222.0, -14534330.0, -9617064.0, -11848379.0], [18004332.0, 4228343.5, 567267.875, -7973594.0, 19231924.0], [-1205626.0, 1769995.5, -896422.375, 11410120.0, 24961154.0]], [[8191913.0, 42146292.0, -16939730.0, 4271346.5, 9489359.0], [-5772832.0, -17377080.0, 2293312.0, -10900651.0, 8235681.0], [2991543.5, -2448431.5, -20407132.0, -5597963.0, -34717692.0], [-24188476.0, -700335.3125, -21761900.0, -2666183.75, -9893795.0], [-2908563.5, 14436388.0, 9022476.0, -4632937.0, 10479637.0]], [[-16415098.0, 9532457.0, -31808802.0, 14262574.0, 6930715.5], [9941528.0, -6983430.0, 6753131.5, -2420201.0, 3591079.25], [4376365.0, 15177640.0, -13284276.0, 14117050.0, -11403556.0], [-35549044.0, 10373906.0, -29925622.0, -27764198.0, 7910319.5], [11099392.0, 14427687.0, 7957013.5, 3965711.5, -5120291.5]], [[-10341486.0, 13610945.0, -3454472.0, -1230820.625, -27854716.0], [-13363362.0, 13285258.0, -4451439.0, -7144678.5, -8185577.0], [14675808.0, -4569273.5, 10971222.0, -29908942.0, 40063760.0], [-10022719.0, 18110674.0, -7066032.5, -22280914.0, 14761816.0], [2635267.5, -23647400.0, 28472254.0, 3072579.0, -8503488.0]], [[-11860204.0, 37358792.0, 12012632.0, 21725124.0, 21765954.0], [15835722.0, 7762911.0, 15707646.0, -7424532.0, 9734305.0], [5519724.0, 28652248.0, 22998852.0, 39762344.0, 1252867.75], [2537007.5, 16278260.0, 14077027.0, 6331312.0, -381261.90625], [-22109080.0, -20180336.0, 4160207.0, -19468780.0, -13938608.0]], [[24468386.0, -14578253.0, -12436053.0, -17467542.0, -19974800.0], [-8588836.0, -6899393.5, -14411653.0, -8355800.0, 15696028.0], [13177333.0, 19787710.0, 1300151.125, -18728252.0, -1770680.75], [23912294.0, -30087802.0, -18853522.0, 25429262.0, -5897982.0], [-47799000.0, -13135166.0, 7934644.5, -14327076.0, -4995501.0]], [[31225732.0, -24294988.0, -7383681.0, 12031354.0, -8692588.0], [-31982038.0, 27687140.0, 13295423.0, -2085428.75, 4949745.5], [-4872958.5, 23859508.0, -114964.25, -48736528.0, -12397536.0], [16685854.0, 6191126.0, 11330317.0, -7263485.0, -14257791.0], [-6765297.0, 1888946.5, 12458834.0, 779816.25, 25435060.0]], [[-33969976.0, 2126889.0, 41892980.0, 10935525.0, 6325888.0], [20632782.0, -811731.5625, 14055449.0, -9394162.0, 8177570.0], [4081133.5, 3375108.25, -1994386.875, -4509542.0, -7675512.5], [928309.625, 3154605.0, 19924894.0, 40246696.0, 7082256.0], [-11546613.0, -16609570.0, 19810166.0, -13600957.0, -8446274.0]], [[5970998.5, 13039010.0, -13411721.0, -2205916.75, -8657508.0], [4441220.0, -4127147.0, 23579372.0, -7754034.5, 28191960.0], [-3690910.5, 14421074.0, 25842520.0, 4014456.0, 13521989.0], [24177518.0, -16388170.0, 14176344.0, -22595350.0, -28987278.0], [10361990.0, 1883574.5, -13304447.0, -25968946.0, 19216328.0]], [[-8782069.0, -29299882.0, 9396700.0, -11992644.0, 31623322.0], [-7780467.0, -383735.28125, -38274608.0, -4458384.0, 34731120.0], [-32007166.0, 39217936.0, 15543039.0, -7950234.5, 2260324.75], [8936043.0, 15875322.0, -2911438.25, -10889405.0, -11472013.0], [3463654.75, -16596298.0, -14559669.0, -16600391.0, -13299603.0]]], [[[-15943564.0, -1599321.25, 23424964.0, -24410106.0, 22330604.0], [-1060258.75, 14579906.0, 7839285.0, 2220029.0, -31188250.0], [-17296300.0, 5908452.5, 2428004.0, -3137153.0, -2551771.75], [-25140096.0, 24083534.0, 6989953.0, -9402728.0, 15934430.0], [2659703.0, -5721580.0, -1561367.25, 29387740.0, 2435337.0]], [[-51850656.0, 17221436.0, -4160164.0, -7213941.0, 23618006.0], [17284572.0, -10142354.0, 6521589.5, 33640728.0, 22125204.0], [19343336.0, 10525568.0, 14383942.0, -5179010.5, 7576392.5], [-26114066.0, -23774004.0, 13570571.0, -12276293.0, -3308163.25], [-5929298.0, -28587088.0, -6169641.0, -6827989.0, 23716640.0]], [[68066.6875, 3360455.75, 22778760.0, -19988484.0, -3064320.25], [10090217.0, 9343682.0, 14005907.0, 22809808.0, 18807352.0], [-12975240.0, -22308876.0, 1836452.875, 11222506.0, 25684696.0], [23231900.0, -7271099.5, 23208316.0, -3508864.75, 22954174.0], [-9077650.0, -22608472.0, 16807526.0, 6237653.5, 4646538.0]], [[25945984.0, 919591.75, -25245070.0, 1400378.5, 23041804.0], [-4999622.0, -1403498.75, -1584336.375, -6387531.0, -9743552.0], [-7249495.0, 3007181.75, 18521728.0, 31970590.0, 81391.890625], [-5191287.5, 6509271.0, 11670044.0, -31463740.0, -7569358.0], [4836124.0, -23236672.0, 35633900.0, -9769617.0, 31622812.0]], [[18171060.0, 13176192.0, -544041.375, -7077985.0, 28419626.0], [-1024906.25, -24675050.0, 12124909.0, 126989.2421875, -32744106.0], [33873672.0, 13151156.0, 5948876.5, -12740480.0, 13333183.0], [10121713.0, -4504985.5, 7068237.0, 2150113.75, 6379182.5], [-19808504.0, -8909388.0, 25007938.0, 14509736.0, 9933898.0]], [[-4022618.25, -2263498.75, -155861.0625, 18945802.0, -3734504.5], [5441622.5, -20422058.0, 14265087.0, 4249622.5, 33459588.0], [11707943.0, -3452061.25, -41688200.0, -6597720.0, -33187720.0], [79170.953125, 16910988.0, -17512124.0, 27008074.0, 15147146.0], [826940.9375, 621464.5, 7969411.0, 7487969.0, -3726811.5]], [[27039318.0, -14703148.0, 7403954.5, 8666290.0, 15692178.0], [-26660162.0, 5216908.0, 8653544.0, -7335488.5, -922802.6875], [3345479.75, 7621871.0, 9457145.0, -14898477.0, 8978291.0], [14464505.0, -13512341.0, -10373436.0, -20693228.0, 922414.3125], [-26894460.0, 3701487.5, -36019828.0, -19574126.0, -20762846.0]], [[11326625.0, 15903072.0, -22239826.0, 3818408.75, 19413590.0], [-41119960.0, -1471335.0, 9373547.0, 4072433.75, -4303687.0], [11230972.0, -17126804.0, -3298970.75, -5800783.0, -17638292.0], [29415898.0, 13892198.0, -7426334.0, -19003606.0, 17622956.0], [-20487718.0, 26590854.0, -21383546.0, 11655326.0, -21946276.0]], [[782126.0, 14285469.0, 15515544.0, 2721895.5, -16357373.0], [22075408.0, -13843304.0, -15236555.0, -13577762.0, -5246065.0], [29626344.0, 13480195.0, -472963.625, -7182824.0, -5199970.0], [5815332.5, -34163972.0, 10363012.0, -21480016.0, -16532624.0], [-7032296.5, -7884629.5, 904046.25, 15398220.0, 21500374.0]], [[-22460100.0, 33355838.0, 41339812.0, -5238675.0, -7979932.0], [18338536.0, 5765071.0, 5260871.5, 3611941.25, 5249644.0], [29265906.0, 7414465.0, -19438720.0, -19512936.0, 23154124.0], [20048680.0, 10137654.0, -21331380.0, -7251681.5, -12587738.0], [-8377031.0, -9297736.0, -31573626.0, 22993060.0, 8228420.5]], [[-17516746.0, 20271820.0, -32945468.0, 24137736.0, -4600185.0], [18268832.0, 10581747.0, 17014280.0, -536190.8125, 359546.5625], [-3016680.25, 36284596.0, -8399636.0, 6746495.5, 12627774.0], [2826066.5, -2425733.0, -25540476.0, -1286472.75, 16809184.0], [-28289228.0, 804909.0, 15467960.0, 24970592.0, -29692860.0]], [[4979506.0, 17563634.0, -11580004.0, -21852030.0, 10855931.0], [5999636.0, 18814222.0, 41304400.0, 13668599.0, 17621366.0], [-6233349.0, 18557326.0, 8443352.0, 15368300.0, -12186134.0], [2208116.0, -8127656.0, -12463875.0, -1061198.875, -26008460.0], [18945878.0, -5634039.5, -20100336.0, -7111589.5, 1989991.75]], [[7965524.5, -3176479.75, 17394982.0, -1220091.375, 12845099.0], [-9035830.0, -7135094.0, 14588566.0, 11505480.0, 10057741.0], [-2478213.5, 21934612.0, -5170696.0, 19401952.0, 3367687.5], [-485206.3125, -36026204.0, 17984476.0, -14340104.0, 15366442.0], [-33165538.0, -8417519.0, -1900860.375, -8431247.0, -8819475.0]], [[-17522060.0, 4002898.25, -23038984.0, 8211906.0, 6296960.5], [29946514.0, 5720375.0, 10868581.0, 50108.09765625, 20095144.0], [-15153796.0, -781562.625, 32906332.0, 593668.625, 7137882.5], [-13648333.0, 20219400.0, -28006208.0, -24320640.0, -9818507.0], [14601343.0, -6177676.0, -11805843.0, -14687426.0, 13779938.0]], [[-3467954.0, -8274187.0, 10064806.0, -14212495.0, -15499540.0], [3855124.0, -19201262.0, -2582013.5, 9475922.0, -2253017.0], [33540124.0, -28024050.0, 22524650.0, 34973264.0, -7668662.0], [-3859775.5, 3508524.5, -9798434.0, 290567.0, -18816354.0], [29919536.0, -6870824.5, -32466308.0, -48938484.0, -11867900.0]], [[6504874.0, 2063860.75, 38782712.0, 12860643.0, -8538928.0], [-4430202.5, -16584574.0, -18453386.0, 10775229.0, -3065926.5], [24678040.0, -25725764.0, -5277306.0, -5779715.0, -1366411.5], [-12463847.0, -13287138.0, -21486418.0, -28321878.0, -20459206.0], [379687.46875, -8904290.0, -36507836.0, -9153722.0, -22695232.0]]], [[[-29569316.0, -7260968.0, -19470808.0, 10713704.0, -41144516.0], [7988535.0, 36182368.0, -6871381.0, -4822313.5, -6132123.5], [-26609344.0, -4856491.0, -44114864.0, 15758253.0, -24140742.0], [-35776628.0, -6851428.0, 3913384.0, -17730578.0, 5970409.0], [-1026652.0, 24324076.0, 23150324.0, 5542193.5, 28106684.0]], [[-1589881.5, -3910919.0, 3486448.5, -2164670.0, 12250212.0], [-28522228.0, -8798384.0, 3803935.75, -1026111.125, 17134464.0], [24806150.0, 1495687.625, -10273062.0, -2699458.0, -1132912.25], [-14287302.0, -27164518.0, 19912168.0, -29832502.0, -4327012.0], [-3466230.5, 7473093.5, 6292311.0, 44680876.0, -14173868.0]], [[-3119428.0, -3556249.0, 3948870.25, 13643013.0, 12893162.0], [-37786812.0, -4809480.0, -3780387.5, 1041564.0625, -31016788.0], [-16828618.0, -11317528.0, 4545034.5, -2306244.5, 35819704.0], [-9531938.0, -9407492.0, 1378113.125, 1735625.625, -8249104.0], [-15787730.0, 14600426.0, -8448430.0, -3510553.5, 19302944.0]], [[31000450.0, -8868389.0, 4386042.0, -26356386.0, -3241185.25], [-9809216.0, 13631044.0, 5058248.0, 2293021.25, 18671662.0], [34273840.0, 2768172.0, 11414954.0, 5013249.0, -5777824.0], [26725642.0, -6825335.5, 28703296.0, -28372438.0, -18756400.0], [-3780004.75, 18465368.0, -8081176.0, 116943.875, 39829856.0]], [[-10041777.0, 1974038.0, -2039924.125, -2889695.0, 2554472.25], [-22864924.0, 22372900.0, 6438673.5, 1860267.5, -7033548.0], [17194100.0, 6015345.0, 30321148.0, 15869012.0, 6937569.5], [-455393.625, -9373511.0, -4976752.0, -19368148.0, 17697740.0], [9057401.0, -26116750.0, -21313458.0, -19043920.0, -3615902.0]], [[-2823224.75, -3333243.5, 42317808.0, -3220563.5, 4380461.0], [-14749140.0, 8374387.0, 25644928.0, -1042003.5, -23724952.0], [-6031367.0, -572327.0, 3757354.5, -20240712.0, 8639693.0], [-1767263.0, 19421872.0, 2063876.25, -16332862.0, 6775454.5], [-7406168.0, -22323136.0, 33169566.0, 35944000.0, 18144612.0]], [[-10084974.0, 11456484.0, -18981382.0, -16827004.0, -13343462.0], [-21639484.0, -10914976.0, -11864864.0, -9367630.0, 9426013.0], [50567028.0, 1010651.5625, 45890632.0, 14264276.0, -15372551.0], [-19783954.0, -20670934.0, 4653493.0, -5851501.0, 24871048.0], [-9713650.0, 17717024.0, 34570200.0, 6864910.0, -853282.4375]], [[23531252.0, 7260221.5, -2518581.75, -16510835.0, -55720132.0], [-19723780.0, 14050978.0, 13514498.0, 4066122.5, 24757248.0], [-2532266.5, -10952110.0, -9748914.0, -3792043.5, 22005872.0], [3331897.25, -15032056.0, -10036274.0, -1730577.625, -9307672.0], [-2413969.5, 14719684.0, -15988769.0, -10369388.0, -9174847.0]], [[-1708837.5, 4733655.5, -35432380.0, -10257687.0, 17819194.0], [5074787.0, -4805841.0, -13542572.0, 3132246.0, -5225686.0], [-14070425.0, -26646516.0, 22489698.0, -3187268.75, -18286442.0], [16121145.0, -16816092.0, -19383920.0, 18279936.0, 31037616.0], [-3176151.0, 5280411.0, -39193792.0, -460447.1875, -15572488.0]], [[22447318.0, -22458302.0, -14460759.0, -4085781.25, -26136470.0], [-29628992.0, -26733108.0, 13833911.0, -22794444.0, 17692008.0], [-6628575.0, 27638248.0, 1296872.5, 33522850.0, 2905113.5], [-15321614.0, -3088679.5, -7198852.5, -4344175.5, 25486150.0], [-9611372.0, 34843008.0, 15018660.0, -9086704.0, -13477744.0]], [[22252044.0, 7462475.5, -18575348.0, 26171850.0, -10649968.0], [8518447.0, 11558753.0, -9838405.0, -2698056.25, -22166752.0], [-15339403.0, -5657160.0, -8037484.5, -2159379.75, -6861773.0], [166036.3125, -6916309.0, -4755065.5, 14005916.0, -14549519.0], [10921610.0, -16472850.0, 2078244.75, -31030714.0, -981930.5]], [[30992518.0, -15271060.0, 16528344.0, 7885469.0, 9427150.0], [27986858.0, -12080337.0, 25051450.0, 25669324.0, 5810479.0], [7632107.0, -17098700.0, 36323740.0, 34733464.0, 9196746.0], [12661374.0, -12822918.0, -7168644.5, -6848286.0, 32891992.0], [-1124364.125, -14979311.0, 11975258.0, 25498996.0, -12843314.0]], [[14743394.0, 3532886.0, 13157040.0, -14377537.0, 18762182.0], [32027038.0, -11792825.0, 22375180.0, 18909852.0, -23633692.0], [-36660644.0, 2593593.0, 20561708.0, -18908698.0, 4751979.0], [6002231.0, 12660665.0, -14063030.0, -5319439.0, 17727682.0], [-12089178.0, 7193282.5, -20969732.0, 12171205.0, 4839442.0]], [[-5630837.0, -8408054.0, -45076224.0, -8284372.0, -15723126.0], [-173219.828125, -8988957.0, 3352846.25, 16100603.0, 3748317.5], [2876379.25, 12396641.0, -16366142.0, 3204306.0, 14208395.0], [17649080.0, -4103618.5, 14793050.0, -2381994.25, 4207300.0], [-17552224.0, -25435872.0, -3097689.5, 9742067.0, 13480116.0]], [[-27687722.0, 28872526.0, -8704711.0, 13509491.0, 457726.46875], [4843341.5, -8372978.0, -2252718.5, 504597.125, 19251364.0], [-17223728.0, 11711204.0, 4743831.0, -1022671.0625, -11002613.0], [-7274891.5, 38037.2578125, -15088304.0, -12367507.0, 34422988.0], [-393185.125, 2207056.75, -28778880.0, 17123442.0, -24156082.0]], [[15084988.0, -1090945.375, 3548698.0, 4103619.0, -2004081.875], [-24117842.0, -15598770.0, 20343784.0, -9786071.0, -4921379.5], [35578996.0, 25590130.0, 30197434.0, 7008663.0, 7147805.5], [-47285564.0, 4905639.5, 26699338.0, -8480744.0, 50467688.0], [-4742818.0, 28736422.0, -36349140.0, -15602844.0, -4303516.0]]], [[[4808769.0, 31617808.0, 467911.375, -23441324.0, 10786955.0], [-3265162.75, 9491593.0, 21967926.0, 4278344.5, 44925104.0], [-22486972.0, 10475795.0, 6388105.0, -19774912.0, 3348846.0], [8383881.5, 10751900.0, -4140790.25, 6166696.5, 762811.875], [-1712202.5, 38267552.0, -2328570.75, -2557209.25, 9645146.0]], [[37528588.0, -9424394.0, 7388228.0, 12073790.0, 4003778.5], [14005787.0, 2237758.5, -1871707.375, -13500542.0, -28597660.0], [-49073008.0, -38778124.0, -2441803.75, 16665545.0, -2694814.75], [-13851798.0, -8908448.0, -6159251.0, -4888821.0, -32398756.0], [-752032.0, 15975510.0, -10301406.0, -16922534.0, 11010642.0]], [[-10596348.0, -22529604.0, -2113610.0, -24174796.0, -9644374.0], [22224506.0, -44817776.0, -8047682.0, -9334539.0, 27545076.0], [-29439388.0, 18025508.0, -18350318.0, -25703762.0, -510796.09375], [27570400.0, -16936360.0, -42950904.0, 31165020.0, 30125568.0], [9917835.0, 15762446.0, -6275520.0, -12362422.0, 7070423.0]], [[-2368381.25, 8412130.0, 13262720.0, -33509188.0, -10416727.0], [11057202.0, -37973424.0, 35822612.0, -1826343.0, -5573230.0], [10828700.0, -7156595.5, 14557037.0, 14643398.0, 22989736.0], [6504388.0, -47192176.0, 12968567.0, 527690.5625, 14113945.0], [-3714771.75, -15289550.0, 16212594.0, 24464848.0, 5539252.5]], [[-13617824.0, 9457293.0, -17216758.0, -23388432.0, -3320895.5], [-23532208.0, -28637392.0, -3857428.0, 20306248.0, 5386492.0], [-12054734.0, -22166148.0, -18596710.0, -22042932.0, 21141052.0], [-2825072.0, -27613550.0, -17117248.0, -11842691.0, 12241744.0], [9516174.0, 661000.6875, 7156136.0, -39941088.0, -30092326.0]], [[9969987.0, -25151078.0, -38890456.0, -8625123.0, -10247159.0], [15139121.0, 3410443.5, 28317170.0, 3969506.0, 11772329.0], [8496607.0, -8867760.0, -18211348.0, 652430.3125, 4618176.0], [-21954104.0, -4857327.0, 4376136.5, -33216692.0, -7072782.0], [13485599.0, 41666316.0, -5601563.5, -5094673.0, 37031828.0]], [[13601136.0, -4913311.5, -1851854.75, 12295625.0, 10077922.0], [24203006.0, -1067378.75, 41330572.0, -3240393.25, 14841159.0], [-16751891.0, -10279037.0, -3337300.5, 16184332.0, 48987296.0], [4372075.0, 3521182.75, 12493524.0, -14166963.0, -16101364.0], [22817316.0, 9432274.0, -16247858.0, 289199.875, -20673064.0]], [[27858936.0, 11717468.0, -7418187.5, -12722261.0, -4181324.25], [27529062.0, 32545878.0, 24748826.0, 35105344.0, -1424633.75], [570449.875, -14674804.0, 5459445.5, 12360724.0, -13678753.0], [-11081332.0, 9327407.0, 6783325.0, 25035764.0, -6730003.0], [8871121.0, -8244685.5, -16326046.0, 16834152.0, 6168197.5]], [[2774353.0, 21272542.0, 20920800.0, -17613156.0, -5863497.5], [2005075.25, 36206408.0, -7206261.0, -24560126.0, 11813070.0], [-12595762.0, -6034556.0, -13074675.0, 18101428.0, 24407426.0], [5799883.0, -25564524.0, -19281754.0, 10464491.0, -24685544.0], [-27729978.0, -39401176.0, 16988332.0, 17796930.0, -3979456.75]], [[-13363058.0, -47703376.0, 7101158.0, -6750556.0, -11769290.0], [-34887600.0, 12506465.0, -38409480.0, 26523664.0, -6204105.5], [-38391596.0, -10153714.0, 1745480.0, 2532978.75, 14118220.0], [13999896.0, -11839874.0, -5553335.0, -15495301.0, -16629074.0], [-18878486.0, 13940462.0, 7627090.0, -12324976.0, -29271982.0]], [[-13951177.0, 23980070.0, -26781574.0, 12036721.0, -9111585.0], [-8477573.0, 18053572.0, 7827744.0, -5867966.5, -13894496.0], [-5771660.0, -19581968.0, -17751382.0, 12797005.0, 24011318.0], [-19733672.0, -24788572.0, -10058446.0, 10219303.0, 11638585.0], [1383030.5, 32172580.0, -199258.390625, -23632184.0, 13968677.0]], [[7817149.5, 16155235.0, -11961831.0, 2559670.0, 23370708.0], [-35862144.0, -12711308.0, 5291999.0, -12851220.0, 15094350.0], [-22161006.0, 13037522.0, 23439556.0, 24429752.0, 15056784.0], [9365976.0, 23139132.0, -597838.9375, -12117596.0, 33796056.0], [7143111.0, -12707047.0, -7803174.0, 8053564.0, -16341070.0]], [[13966521.0, -26359418.0, 1028157.0625, 2258102.0, 12439238.0], [2451157.0, -30387844.0, -24959116.0, -4869624.5, -7204343.0], [15351806.0, -12212336.0, 7781091.0, 5760971.0, -4201751.0], [-7669143.0, 6485662.0, 31305922.0, 12556288.0, 10349868.0], [-11729683.0, 12421385.0, -28965800.0, -11056543.0, 11170596.0]], [[30298728.0, 29000890.0, 5300850.0, 3913709.0, 3854510.0], [1373074.5, 10194396.0, -11134784.0, 1824105.375, -576369.0], [1361041.25, -6163980.0, 1698045.75, -13558100.0, 6866597.0], [-6113917.0, -5052180.5, 8051017.0, -26427730.0, 15716520.0], [-1012327.75, -10443838.0, -10567917.0, 901775.625, 18564550.0]], [[21881012.0, -2160090.75, 19474588.0, 41850320.0, -20499168.0], [145737.96875, 2574710.0, 9398151.0, 20511468.0, 37098656.0], [9678694.0, -9156273.0, 19996662.0, -29566858.0, -21095858.0], [-35223228.0, 16261260.0, -20747928.0, 25826680.0, 6841601.0], [-250982.59375, 1356078.875, -1384469.5, 19791590.0, 25451456.0]], [[6391078.0, -10801270.0, -33782024.0, -19268728.0, -4548874.0], [6652074.0, 4518363.5, 27833436.0, -31422852.0, 27647436.0], [-18309446.0, 17937848.0, 5218791.5, 18971696.0, 11476322.0], [-10941835.0, 33082822.0, 9777943.0, 19265608.0, 5036199.0], [10861307.0, -21596166.0, 516531.46875, -9269855.0, -15796898.0]]], [[[-2335605.0, 18572542.0, -6301652.5, 16858016.0, -1195684.75], [-3349641.25, -3976173.5, -21293114.0, 6990945.0, -12055790.0], [7788409.0, -44285692.0, 3326248.5, 11285612.0, -4061164.0], [-13793423.0, 10304909.0, 4886912.5, 6977073.0, -97054.7109375], [2794103.0, -19463526.0, 20110612.0, 9081220.0, 7256369.5]], [[-8537612.0, 45267072.0, -10417432.0, -24744436.0, 21396820.0], [-21093350.0, -23699666.0, -38580920.0, -4422085.5, -2405966.0], [26450808.0, -22756440.0, -15416096.0, 26441314.0, -10069088.0], [-11957635.0, -17633678.0, -33366016.0, -22180106.0, -31190548.0], [-10589561.0, 40290388.0, 4393240.0, 8188451.5, -7974838.0]], [[23491450.0, -13711489.0, 32613570.0, 5715367.0, -2850103.0], [4231281.0, 6624746.5, 32751534.0, -27447554.0, 2937311.5], [-34213972.0, -14066035.0, 8628774.0, -5301538.0, 6163355.0], [-20006722.0, -6783489.0, -2920261.75, -1086378.625, -59109.75], [29294994.0, -6364569.0, 16980066.0, 3857199.0, 199944.390625]], [[-2607343.0, -9723937.0, -19383602.0, -8809538.0, 26720214.0], [-2752728.5, -15529651.0, -794297.1875, -7156502.0, -3245182.25], [-5562019.0, -6609086.0, -12484876.0, -2685139.5, -17105200.0], [12375894.0, 14147723.0, -32923228.0, -4501624.5, 113727.03125], [-10173736.0, -8441238.0, 15584305.0, 10645432.0, -25259954.0]], [[21394088.0, 19807484.0, -7583285.0, -9438992.0, 7411836.0], [-18082454.0, -8123429.0, 15652789.0, -17482072.0, -18618150.0], [14477105.0, -16062684.0, 7532538.5, -7565762.0, -1590959.875], [8915365.0, -2055567.875, -934031.375, 8349390.0, -985181.0], [5280966.0, -4797366.5, -3292209.25, -4837222.5, 33939252.0]], [[-4145974.25, -5602385.5, 420988.0625, 15593870.0, -6464168.5], [-20304138.0, 3716403.75, -33819884.0, -1647807.25, -10502996.0], [-12737015.0, 37454408.0, -23095660.0, -16616155.0, 20798986.0], [3622564.75, -433364.375, -17342494.0, 7663574.5, -23648490.0], [-20840034.0, -4299476.0, -15818987.0, 12919591.0, 21848536.0]], [[-28161368.0, 27508252.0, -2281570.25, -13825926.0, -20076132.0], [14175434.0, -15783362.0, -503936.1875, -15806892.0, 2477195.0], [-31847764.0, 14099185.0, -34393312.0, -24674776.0, 25778214.0], [24078544.0, -33557360.0, -38801520.0, 7516948.5, -9356690.0], [4529546.5, -7864273.0, 5488786.5, 8459965.0, -43926680.0]], [[2023789.25, -28476694.0, -5489377.0, 39151568.0, 2201978.0], [6331428.5, 22727180.0, -19620646.0, -12255410.0, 21168840.0], [-4194455.5, 7910145.0, -22740614.0, -19153852.0, -14759185.0], [3211369.5, 919753.875, -359618.4375, 32302848.0, -15469204.0], [-3269777.0, 19385426.0, 23365006.0, 1134731.25, 25006126.0]], [[-27365440.0, 11015620.0, 165673.875, 20874298.0, 23947980.0], [-20131684.0, 12864069.0, 16599110.0, -22562080.0, 6001164.5], [895300.5625, 63214460.0, 4312717.5, 920053.875, -5665200.0], [-27355752.0, 3665894.0, -45610564.0, -12458614.0, 13638089.0], [-21650776.0, 8342258.5, 9133892.0, 15325068.0, 18421528.0]], [[35156732.0, 35791532.0, -16914918.0, -35448024.0, 16019276.0], [16285399.0, 15567917.0, 14013607.0, 2696456.5, -18374348.0], [38432388.0, -1225383.875, -8713955.0, -15928814.0, 214868.4375], [18247870.0, -4297896.5, 4426713.5, -22410028.0, 9385378.0], [23080682.0, -21178164.0, 12015539.0, 12099665.0, 1785894.0]], [[-21998406.0, -4739501.0, 813960.125, 4372205.5, -6326597.0], [-6402945.5, 15178496.0, -8669567.0, -1600800.25, -52604424.0], [-50316924.0, 18774716.0, -19906418.0, 23368752.0, 8384459.0], [18110668.0, 35516608.0, 34733920.0, 37140592.0, -7666006.5], [-406101.21875, 10793106.0, 13787095.0, -9247095.0, 10603898.0]], [[-12074848.0, -19426872.0, -26093662.0, -6871031.0, 14500145.0], [6439736.0, -18174064.0, 15817552.0, 23248804.0, -17664390.0], [-10261566.0, -3781734.0, -1427625.25, -36416588.0, 1544133.75], [-17821104.0, -4557931.0, 21383998.0, -6734376.5, -7510156.5], [7418216.0, 25315818.0, -8364843.0, 18893660.0, 11184398.0]], [[-1156840.875, -4684050.0, 15275806.0, 15209638.0, 7130884.0], [-22151076.0, -11815686.0, -9112068.0, 10273370.0, -912548.75], [-16260077.0, 27136788.0, 7210871.0, 14380594.0, 14241897.0], [-11931630.0, 19850220.0, -23295016.0, 2860684.25, -2457536.25], [21764810.0, 4481697.0, 5842973.0, -18674432.0, 12621283.0]], [[-726097.25, 4880258.0, -21799378.0, -3999023.0, 28728380.0], [-3237260.75, -24305222.0, -15302504.0, 39629592.0, 11001748.0], [-15500664.0, 16195330.0, -33177564.0, -6652539.5, -969618.6875], [-16154510.0, 1770681.375, 3579871.0, 16050677.0, 8861359.0], [-14757616.0, -5747491.5, 1695704.25, 24991886.0, 36545120.0]], [[-10489774.0, 14639322.0, -18148586.0, 17691994.0, -24570882.0], [-17780344.0, 10140326.0, 24814118.0, -2404863.75, 20473668.0], [-2429806.0, -19422972.0, 4448388.0, -6140353.5, 4375535.0], [10629755.0, -3397379.5, 2783131.25, -6791640.0, 27887746.0], [28079114.0, 7166108.0, 11558223.0, 2360713.0, -3314527.0]], [[-40031000.0, 1730475.25, 6773804.0, 9928382.0, -11000960.0], [-17709010.0, -14061368.0, 39102112.0, 7202420.0, 25780548.0], [-5323550.0, -18206520.0, -9536517.0, 12523166.0, 11977210.0], [6776081.5, -7247550.0, -7037861.0, -12736379.0, 2395972.0], [-33688976.0, -7979848.0, 6796714.0, -25494492.0, -20710492.0]]], [[[-17627716.0, 6614506.5, 3576853.0, -39576860.0, -3103921.0], [11791360.0, -582457.4375, -4336489.0, 13507995.0, -15444323.0], [10041422.0, -25941230.0, 42878320.0, 1692255.125, 4022271.25], [24159614.0, 19603522.0, -7300912.5, -132616.5, 13549496.0], [-4211682.5, -46632608.0, 12327919.0, -14914163.0, -94804.265625]], [[15899864.0, -7684623.0, -8124601.0, 2464737.5, -6104021.0], [22731960.0, -7137657.5, -25050442.0, 19381334.0, 4888847.5], [-14366268.0, -4617690.5, 22103830.0, 4681777.0, -840371.1875], [19100492.0, 19386706.0, 11224238.0, -11493452.0, -15013181.0], [9605250.0, 36209616.0, -23816422.0, 37747388.0, 1572172.375]], [[-7128638.0, 19629644.0, -20152992.0, 370809.78125, -9522721.0], [-1618592.5, 3755612.0, 7243466.5, -17109806.0, 16498512.0], [15844772.0, -43242032.0, -18306668.0, -18642706.0, 14191399.0], [-38372384.0, -1344819.0, 27409516.0, 16120238.0, -12707744.0], [-11907587.0, -9247868.0, -1739893.5, 14646960.0, -2567640.5]], [[-2802371.25, 26574792.0, -5573677.0, -38003404.0, 1199966.5], [5170050.0, 22531454.0, 15108730.0, -19579060.0, -18350532.0], [12552456.0, 13842362.0, 409605.625, 10690580.0, -615985.875], [-16670794.0, 15506260.0, -13274292.0, -7081877.0, -8482261.0], [-28848516.0, -10352630.0, 17806594.0, -16583471.0, -12982193.0]], [[11454756.0, -9271398.0, -6732556.0, 5404213.0, -3331887.5], [41352592.0, 3074147.0, -29977306.0, -9868451.0, 46831252.0], [-9406942.0, -14768567.0, 25928186.0, -3157719.0, -25219814.0], [-18385424.0, 324710.375, 13553501.0, -6522131.5, -34307460.0], [-8779936.0, -28913310.0, 20970864.0, -25376404.0, -12629364.0]], [[-12694078.0, -12370973.0, -5965215.0, 12534637.0, -9364923.0], [-45933664.0, -4693778.0, -4948476.5, -35569040.0, 11468152.0], [7913296.0, -1070353.0, 12550311.0, 9589252.0, -25819524.0], [-2853390.75, -22382524.0, -14969543.0, 8121055.0, 2250068.25], [-14431448.0, -8561101.0, -13333642.0, -10319026.0, 10971078.0]], [[18634852.0, -2709030.75, -10841479.0, 14802808.0, 10837855.0], [-27582428.0, -12456814.0, 7098192.0, -20731992.0, 317169.53125], [24037272.0, -7151288.5, 3699408.0, 4548426.5, -17711378.0], [13954910.0, -34621672.0, -2537038.0, 16214896.0, -10051957.0], [-22011854.0, 10841297.0, 13974055.0, -13828229.0, -3104928.25]], [[23664072.0, 7125778.0, -44319472.0, 14545658.0, 17604856.0], [-12833315.0, 7200765.0, 9383230.0, 188441.09375, 28669952.0], [5474026.5, -8988732.0, -5616410.0, -37633484.0, -8026206.0], [24476116.0, 6223209.5, -10678353.0, -3611890.5, 37175492.0], [36551020.0, 6042328.5, -19754124.0, 11529701.0, 9256348.0]], [[-2515955.5, 20185138.0, -1401295.5, -8912688.0, 28472962.0], [-16838512.0, -52524168.0, -537494.8125, 33154690.0, -38096652.0], [20768920.0, 15578771.0, -37325468.0, 6880347.5, -15006581.0], [9148142.0, -17706500.0, 2721067.25, 4209425.0, -14487940.0], [-795461.375, -15347092.0, -22215572.0, -5188535.0, -4215472.5]], [[-8984246.0, -25715272.0, -10509960.0, 546858.875, 25351132.0], [-7973948.5, -21598120.0, -12317544.0, 22369046.0, -9625706.0], [21458918.0, 2636264.0, -28275108.0, -19506298.0, -1971577.25], [-22625924.0, -17742484.0, 16747222.0, 34806692.0, -15435105.0], [-28897920.0, 31153116.0, -7450466.5, -6216685.0, -6329164.0]], [[-25139888.0, 22691992.0, -2418836.0, 16638424.0, 11464296.0], [-5994433.0, -6214676.0, -5688656.0, -35298660.0, 4143305.5], [7750352.5, 10085837.0, -27082042.0, -15711623.0, -11979115.0], [21389972.0, -11232103.0, 17798842.0, 17975214.0, -23084058.0], [-5493697.5, -9724843.0, -10904304.0, -6044120.5, -33302960.0]], [[36076076.0, 14927526.0, -20529822.0, -23770182.0, 25673302.0], [31237712.0, 36936244.0, -18930942.0, -4531088.5, -16765697.0], [8020900.5, 9824858.0, -5507039.0, 33962976.0, 5668250.5], [-28173546.0, -27035200.0, 18167344.0, -34747796.0, -21097588.0], [-36304712.0, -12051053.0, 12637883.0, -2143992.25, 24751504.0]], [[-36451136.0, 51861216.0, 26264404.0, 16014601.0, 4609185.0], [47012240.0, -10280783.0, -14004068.0, -8926798.0, 45470640.0], [-9896168.0, -7115041.0, 14629528.0, 1542124.625, -9681787.0], [42720704.0, 16784080.0, 28568338.0, -37294696.0, -21374352.0], [-17648168.0, -12244414.0, 21546100.0, 20985228.0, 6277122.5]], [[-16511021.0, -346550.125, 19761578.0, 35756580.0, -16538138.0], [-15981803.0, 22352882.0, 31333840.0, -50999208.0, -12512836.0], [31500204.0, -13636544.0, 9770260.0, -19324976.0, 10006949.0], [-9721557.0, -16805534.0, 3017806.5, -5824058.5, 9194687.0], [-6541487.5, 24832362.0, 17924730.0, -9123596.0, 6790496.0]], [[68356.2734375, -9559490.0, -40471992.0, -6200059.0, 15655088.0], [13235633.0, 3625082.0, 6757291.0, -12591098.0, 4668281.5], [10474295.0, -1034455.6875, 10944221.0, -14379840.0, 27901576.0], [1773809.25, 4521252.0, 17515492.0, 2969583.5, 33361934.0], [1827437.25, 1832801.75, 9628141.0, 30689938.0, 30504276.0]], [[5245186.0, 4641821.0, 18469510.0, 152319.125, 12987680.0], [15832770.0, -33191178.0, -9934844.0, -20202990.0, -29442696.0], [19981858.0, -6240830.0, 7654912.0, 9012991.0, -13976154.0], [5463242.5, -13236846.0, -18493002.0, 19146408.0, -4716483.0], [4836694.5, -20060968.0, -37556116.0, 14041632.0, -7721673.0]]], [[[-27650770.0, -23714660.0, 6076633.0, 32709464.0, -15743006.0], [14447509.0, -8493335.0, 12179437.0, 7905821.0, -2217156.75], [6279504.0, -15226720.0, 11217641.0, -29124674.0, 1330150.25], [-27346812.0, 11787842.0, 27044794.0, -25447174.0, 18924682.0], [42941356.0, 817292.5, -10610505.0, -15670008.0, -8668249.0]], [[-10618442.0, -8096998.0, -13807640.0, -20670584.0, 33828196.0], [-47104136.0, 4722362.0, -16509349.0, 15176532.0, -7011168.0], [-3092224.25, -16409550.0, -15732044.0, 29843572.0, 4292510.5], [-2495398.25, -2540068.0, 5873644.0, -4127271.5, -3198857.25], [-49415144.0, -4093881.75, 8415448.0, -29747594.0, -7597776.5]], [[10959311.0, 3104444.75, -915808.375, 5149136.5, -14035680.0], [20600000.0, 1247567.5, -385605.71875, 10103268.0, 11457082.0], [14129098.0, -15443570.0, -18784160.0, -7673394.0, -9234569.0], [-5458239.0, -10648914.0, -16737177.0, 57377264.0, 28450128.0], [10175154.0, 10998808.0, 9331816.0, 6090705.5, -837643.75]], [[-1886502.5, -4346374.0, 6867351.5, -2795579.5, -16459563.0], [-647568.0625, -42229184.0, 1394725.375, 257912.875, 129116.921875], [-12402748.0, 2700128.5, -14541677.0, -16524563.0, -10295856.0], [28237996.0, 2607149.0, 22369416.0, 7751798.0, -10833860.0], [-13089224.0, 9983765.0, -2793762.25, -25905844.0, 787736.1875]], [[-7910492.0, -18640832.0, 2236828.75, -9417790.0, 397827.0625], [536445.8125, -15381146.0, 9385667.0, 3398313.25, -6974996.0], [-15339466.0, 16920640.0, -12068584.0, -3368865.0, -783008.625], [-10657940.0, -6346261.5, 19725216.0, -3440574.5, -4547971.0], [-25807090.0, 3463320.0, -30950142.0, 871486.25, 31462712.0]], [[-6224919.0, -15834112.0, 23853024.0, -7637594.0, -23641340.0], [-563311.0, -21708114.0, 13460183.0, -1535054.0, -4280554.0], [31463500.0, -15758286.0, -34785504.0, -2436213.5, -24884012.0], [-7814672.0, -22003730.0, 14397297.0, -19033856.0, -2429060.0], [10123014.0, -11773887.0, 37155940.0, -13849206.0, 6593580.0]], [[-3152006.5, 35836300.0, -2147417.0, -14211740.0, -3810547.25], [-2737997.25, 22303306.0, 7178831.5, -3250705.0, 24502440.0], [-5649294.5, -9732998.0, 2698530.75, -18336948.0, 6902529.0], [-4286186.0, 31066868.0, 10154497.0, 14677200.0, 21179810.0], [-1953314.0, 19057112.0, 12199588.0, 3686557.25, -4301087.5]], [[-9204452.0, -19488272.0, -14118092.0, -11381482.0, 6102629.5], [6385259.5, -24045544.0, 3326523.0, 7420760.0, 18861286.0], [13432158.0, 13839816.0, 28955122.0, -3693886.0, -7874263.0], [-3609517.0, -172418.0, 26857836.0, -19053874.0, -10064486.0], [34672420.0, 7517603.5, -36537148.0, 2729427.75, -2245701.25]], [[3023482.5, 1574895.25, 13628987.0, -38916696.0, -3001997.5], [-17797216.0, -18777826.0, 6906020.5, 24778528.0, 11480647.0], [-19211346.0, -6439360.0, -10162129.0, -4955116.0, -44293616.0], [-12413871.0, 13313930.0, -13371991.0, 12474385.0, 3291769.75], [-6944378.5, 19034808.0, 26609744.0, -5268436.0, 9414966.0]], [[-8634863.0, -7264160.0, -8965939.0, -7674886.0, -44366384.0], [-28669444.0, 21970710.0, -9322402.0, 3327492.75, 14874523.0], [8826308.0, -12321424.0, 5205043.0, 14716234.0, -10172092.0], [24492526.0, -28125564.0, -1455733.75, -11824750.0, -4177074.0], [7340393.0, 9172568.0, -532583.375, -28417034.0, -19979268.0]], [[-27272852.0, -38112276.0, 13165484.0, -7987198.0, -12660446.0], [-49034804.0, -30068146.0, -9314754.0, -16147835.0, -12180019.0], [-11518062.0, -7895837.5, -3579313.5, 2226245.0, 16621806.0], [16312414.0, 9013777.0, -1265467.0, -21391268.0, 18678956.0], [21198634.0, -9517592.0, -16024486.0, -2131201.25, -27699098.0]], [[-12166223.0, -3478630.5, -3162752.0, 26530458.0, -8487265.0], [-26502810.0, 24536982.0, 14219483.0, 4818812.5, -2229607.5], [23154374.0, 19913482.0, -9637492.0, -52356800.0, 12102391.0], [-3036756.0, -5927821.5, 6189783.0, -23516020.0, 29055468.0], [-15870797.0, -11055960.0, -1579761.125, -33551036.0, 7846500.0]], [[-19243616.0, -1135737.5, -31171264.0, 17380132.0, -11107407.0], [-9425317.0, 1101111.5, 21169916.0, 14288011.0, 3401078.75], [-19500826.0, 325198.25, 34847424.0, -20805614.0, 12747100.0], [16470169.0, 6573728.0, -7205725.0, 17212150.0, -15049324.0], [3994436.5, -1846997.125, 41138108.0, 6978342.0, -1722788.0]], [[-39733584.0, 26376820.0, 981771.375, 14202197.0, 19338950.0], [29953900.0, -3720225.25, -8483728.0, 25383602.0, -20820664.0], [-26973934.0, -264897.9375, -19747120.0, 2227392.5, -20026624.0], [-27485770.0, 4899708.0, -5831316.0, -10729798.0, 2983767.5], [-22729072.0, 11397342.0, 11486552.0, -9660774.0, -12982799.0]], [[21280958.0, -18259204.0, -3663733.0, -3135791.0, -15774520.0], [-589966.875, -23541490.0, 1936711.0, 15910686.0, -15398189.0], [-8826727.0, 14398361.0, 15115196.0, -7768752.0, -812959.0], [12329468.0, 3992649.5, 7209040.5, 21469672.0, -5769688.0], [36174520.0, -20004782.0, -7760318.5, 29658800.0, 5297457.0]], [[11071759.0, 9113701.0, 10089135.0, -21731272.0, -17052270.0], [31361394.0, -12208238.0, 21361684.0, 34462328.0, 11031657.0], [39669260.0, -13721366.0, 20666476.0, 12363118.0, 3881383.25], [-7781338.0, -11949421.0, 6729221.0, -7782728.0, 6922935.0], [3476697.0, -10366438.0, -11094830.0, 14517366.0, 3372032.75]]], [[[25810676.0, 11351984.0, -29759158.0, -8649742.0, 29768620.0], [3653372.25, 19630468.0, 9254940.0, -15854974.0, 27300640.0], [39650624.0, -10901840.0, -7909616.0, -6949944.5, -10923464.0], [29845252.0, -9393325.0, 5974176.0, 6140829.0, -5539427.0], [2962318.0, 9408078.0, 10886389.0, 542704.125, 9295093.0]], [[-24636922.0, -42880204.0, 6652850.5, 5836971.5, -46018472.0], [19052820.0, 9459700.0, 25331686.0, -5847702.5, 4919669.5], [14426930.0, -6704041.0, 1379390.0, 29189112.0, 8728973.0], [11492600.0, -12775957.0, -22562562.0, 20760242.0, -35492616.0], [7717316.0, -1460634.875, -16822834.0, 22501258.0, 3782185.25]], [[-30075004.0, -2132236.5, 23661712.0, 1222246.75, 4074546.0], [34612476.0, 52032888.0, -13143554.0, 4526370.0, -24841918.0], [15701151.0, 3696718.0, -17121042.0, -20234106.0, -31835554.0], [-16815048.0, -12726107.0, 1233624.625, -28268834.0, -14801249.0], [-6539088.5, 2110539.75, 18387896.0, 15387431.0, -13386247.0]], [[986688.5, -15488697.0, 11594318.0, 897074.375, 11515520.0], [-1970819.5, -19568484.0, 778128.25, -7258991.5, -15443363.0], [-10537830.0, -3383770.5, -35354448.0, 20682832.0, -18051202.0], [-14463635.0, 971937.75, -18759158.0, 35413632.0, 8931259.0], [-20907128.0, -4040083.0, 6501577.0, 394915.1875, -6296045.0]], [[13867692.0, 5635198.0, -21425502.0, -2913166.25, 11656225.0], [14151660.0, 24752604.0, -663148.8125, 9617786.0, -1238003.875], [4077559.0, 11831528.0, -625116.4375, -4653262.5, 1177501.125], [-52299288.0, 12990070.0, -2322187.0, -7170355.0, -3344120.75], [-1509836.25, -18306506.0, 25737096.0, -16429288.0, 15110144.0]], [[-13945766.0, 785847.5, -11787182.0, 16588284.0, -16758956.0], [1666295.25, 17662324.0, -30403948.0, 14312312.0, -23755934.0], [17638724.0, 3003077.75, -12525659.0, -18147652.0, -8531234.0], [-11652506.0, -4626308.5, 38117772.0, -8713577.0, 9838126.0], [-8434564.0, 18882850.0, 6119385.5, -8636160.0, -10269672.0]], [[12916460.0, -17306444.0, -4932282.5, -31849774.0, -1243701.125], [-891829.1875, 26606436.0, -17613252.0, 4232762.0, -333916.0], [3333828.25, 3541089.5, -16649850.0, 19354790.0, -15491245.0], [14945818.0, 1074544.875, 10972151.0, -25692190.0, 4182177.25], [-4260686.5, -2729159.5, 21425340.0, 1722842.5, 7651301.5]], [[-214949.71875, -13014028.0, 2960191.25, -1070468.125, -21486496.0], [-965966.0, 1397325.375, 5872439.0, -33146900.0, -4978808.5], [5243495.0, -4293424.0, 16840852.0, -14387562.0, 6043400.5], [-13749895.0, -12351694.0, 6598702.0, -22313810.0, 16851802.0], [8873173.0, -9487523.0, -9551696.0, 13978085.0, 43661104.0]], [[-13784245.0, -31663974.0, 1545323.125, -3660905.5, 32185030.0], [-2306060.0, 3774427.5, -23799298.0, 311767.75, 25494976.0], [7280541.0, 25685158.0, -4612986.5, 2977315.75, 1258840.625], [24002108.0, -13232042.0, 4170846.5, -3609540.0, 19366168.0], [-17543834.0, 2176545.0, -28535194.0, 15116078.0, 37398980.0]], [[27685954.0, 455235.875, 44075524.0, 3525215.25, -5614765.5], [-17758458.0, -4266511.5, -26042904.0, 12108936.0, 22952802.0], [-12168571.0, -16815952.0, 31600776.0, 16837814.0, -22242260.0], [-6277779.0, -10027957.0, -14695628.0, 4167721.25, 4068605.5], [-16600566.0, -8362204.0, -4587096.0, -10725355.0, -24415260.0]], [[-27988308.0, -34016064.0, 6692251.5, -18612118.0, 16762134.0], [-19280062.0, -36901928.0, -24023056.0, 8304370.5, 14678070.0], [-19976764.0, 8858786.0, -23949726.0, -22838494.0, -7955773.0], [4252154.0, -15280205.0, -7666072.0, 23675342.0, -19670314.0], [14207788.0, 20363578.0, 24640290.0, -8116947.5, -31676702.0]], [[9930492.0, -1095177.5, 2623399.25, -4552556.0, -33329216.0], [10433270.0, 9917696.0, -7355657.0, -20219086.0, 7719229.5], [13733504.0, -14305439.0, -12240771.0, -410710.09375, 5222437.0], [22282070.0, -12222826.0, 28104976.0, -23413536.0, 5111855.0], [-24201322.0, -6896224.5, -15650588.0, 29097424.0, -11899530.0]], [[-19591244.0, -14252629.0, 5014741.0, 4138922.75, -7809914.5], [14962614.0, -18963410.0, 919448.5, 8049637.0, 24265528.0], [24556738.0, 4411543.5, -18798952.0, 8198213.0, 7262730.0], [2377569.5, -9857965.0, -6099657.5, -11276864.0, 23229480.0], [21852892.0, -16123139.0, -37036240.0, -22215386.0, 39905232.0]], [[-7427945.5, 23133162.0, 2146229.75, -16836740.0, 5124869.0], [-15177760.0, -31542386.0, -7877271.0, -19579900.0, -14880743.0], [19595314.0, 7218139.0, -5625763.0, -2039347.625, -15083917.0], [-4788964.5, 3862536.5, 2043899.5, 15046082.0, 6181374.5], [16444457.0, -13313315.0, 3599030.25, -17684520.0, -24213548.0]], [[15314539.0, -7016088.0, -23425092.0, -19852134.0, 9852647.0], [13158844.0, -12592640.0, -8084881.0, -13335169.0, 21264928.0], [-15080904.0, 3175709.5, 10715880.0, -14500304.0, 42993140.0], [19514140.0, 3206761.25, -850041.4375, 17236210.0, -13106662.0], [-843217.3125, -35464832.0, 967635.4375, -13653576.0, 769161.125]], [[3792033.5, 5935951.0, -15171239.0, 28960642.0, 6591407.5], [7678589.5, 2363399.75, 27460418.0, 46231164.0, -6274932.0], [-439352.3125, 12349844.0, -20941558.0, -11337830.0, 23134296.0], [6601028.5, -1356294.625, -9915021.0, 8638971.0, -3593104.0], [46331952.0, 3269660.0, -24915212.0, 21284452.0, -8813131.0]]], [[[4867902.0, -29638288.0, 2387849.5, 33228704.0, 18742438.0], [748378.25, -21988316.0, 33445564.0, 6793082.0, 7398289.5], [18597430.0, 5329358.0, -12054535.0, 6052881.0, 18252958.0], [-5370087.0, -9691415.0, -16810262.0, 10944824.0, 25009392.0], [13025568.0, -10794090.0, -600335.75, -5600616.5, -4635741.5]], [[-3917827.75, 12851076.0, 12321412.0, 12499200.0, 3431170.25], [4085980.25, -1885295.375, 8249319.5, 15554312.0, 7443757.0], [-31584814.0, 9084600.0, 2324361.0, -501671.375, -16003652.0], [4852207.0, -4877310.0, 10500778.0, -239233.28125, -6197861.0], [14768816.0, 447459.09375, -3259537.5, -32679922.0, -3705331.75]], [[-3181525.25, -50191016.0, 10326667.0, -8797189.0, -487200.4375], [-7798189.0, 12617570.0, 606989.5625, -8421196.0, 9768705.0], [-632652.6875, 2152924.0, 20238212.0, 5518045.0, 16075112.0], [27102436.0, 26630398.0, 630045.5, -975880.4375, 9838936.0], [-18609044.0, 13906182.0, -20765842.0, 23227844.0, 107158.8359375]], [[-6179749.0, -1380298.5, -7945100.0, -3347910.5, -25758840.0], [8952516.0, 15292954.0, 8750317.0, -8848121.0, -35686040.0], [24492352.0, 16241802.0, -8636326.0, 15415952.0, -23606342.0], [-12424459.0, -12129676.0, -8698634.0, 14336951.0, 2774202.0], [-30270068.0, 19586318.0, 3038261.75, 7916617.5, 4374009.0]], [[12892678.0, -18566456.0, 9463560.0, -6360800.0, -2895045.0], [4780124.5, -4822792.0, -15061294.0, -3563253.75, -19835126.0], [-19227120.0, -9423888.0, 3931881.5, -4881376.0, -9737369.0], [23059466.0, 14153890.0, 3000589.25, 15512358.0, -22867560.0], [19266794.0, 18744022.0, 3881996.5, -19938146.0, 13402484.0]], [[23433966.0, -28185074.0, -25776844.0, -5896359.0, 11560466.0], [-1319407.75, -757448.375, 33364500.0, -17519336.0, -14852937.0], [9341933.0, 10083796.0, -26166330.0, 13913449.0, -11287015.0], [-8734934.0, 454060.9375, 12134958.0, -21702176.0, -19120670.0], [13201859.0, 3644087.5, 513614.875, 26900932.0, 4342646.5]], [[-13142090.0, -25836686.0, -23650182.0, -22750432.0, -30278870.0], [16179012.0, 21285106.0, 13497243.0, 20806392.0, -1629477.5], [-21808036.0, -8583941.0, 24850022.0, 27142384.0, -20696634.0], [-26028004.0, 13240629.0, -20128594.0, 7312601.5, 26531484.0], [15902572.0, 15250256.0, 19172518.0, 12332189.0, -1988149.875]], [[-9978689.0, 1724776.375, 5620569.0, 2960327.5, 1767512.875], [2276840.0, -13251293.0, -9938084.0, -293190.03125, -16796108.0], [8700568.0, -14646076.0, 4522950.5, 23049488.0, -14874152.0], [4896554.5, 6084446.0, 11588102.0, 21648148.0, -9755884.0], [-29327692.0, 30204772.0, 18278568.0, 28025402.0, -10063280.0]], [[-21370436.0, 31134272.0, -9367805.0, -18195668.0, 2611382.0], [-24489952.0, 22544304.0, 5817428.0, -10526933.0, 26981942.0], [4501906.5, -21310730.0, -1987121.25, -10618192.0, -19175006.0], [-1424489.375, -1890531.75, 1908533.75, -16638194.0, 17086292.0], [9494878.0, -10414416.0, 5187152.0, -4559857.0, 18204368.0]], [[31885640.0, -31805494.0, 6002382.0, 10956388.0, 16655018.0], [42140.15625, 8058631.5, 27057854.0, 11107906.0, -29266540.0], [23478728.0, 11550768.0, -40618536.0, 16538492.0, 3808846.0], [20484890.0, -8243896.0, 2628179.5, -7537848.0, 18541834.0], [-15389966.0, -857160.1875, 24285728.0, -5166784.0, -9762230.0]], [[25511740.0, 18179178.0, 15510248.0, -36149220.0, -10224810.0], [3339677.5, 24056028.0, 3959086.0, -6586887.5, -6760758.0], [14006024.0, 7203286.0, 5081775.5, 15142636.0, -167279.75], [-11008684.0, 9548750.0, 647455.25, 13272745.0, -10915902.0], [13213313.0, -4374998.5, -32730152.0, -28138398.0, 34926652.0]], [[20714756.0, -11498546.0, -16648958.0, -7578079.0, -37577884.0], [-36900152.0, 15918902.0, -5144497.0, 13619764.0, 6871162.0], [2267591.0, 13321729.0, -19358516.0, -1335117.75, 22000978.0], [-33078736.0, 7421284.0, -14266361.0, -1146460.125, -30305422.0], [18467938.0, 11902379.0, 11665661.0, 6967985.0, 7479520.0]], [[-33133182.0, -20804904.0, 22555724.0, 19529672.0, -10187165.0], [-19761568.0, -5925847.0, -29779880.0, 15334084.0, 13258001.0], [1792174.0, 14703381.0, 10489023.0, -17049090.0, 7892305.0], [13928752.0, 17243500.0, 20840788.0, -18269272.0, 117264.375], [14788078.0, -36245108.0, -3577377.5, -25600882.0, -15748091.0]], [[-12875114.0, 13006442.0, -2444744.0, 14597348.0, -4056341.75], [-433568.625, 31444560.0, -26645282.0, 1987550.25, 24254296.0], [19314288.0, -17983328.0, -14163276.0, 24995880.0, 2955243.5], [3106157.0, 23224618.0, -14061133.0, -642815.875, -7452135.0], [13829236.0, 19817500.0, 13273734.0, -28547890.0, -11608190.0]], [[-17196288.0, 18773332.0, 6425715.0, -6481078.0, 3539079.5], [32514544.0, -552352.9375, -20368374.0, 14153796.0, 24255482.0], [14093227.0, -38311080.0, 1974879.75, 8845078.0, 22554040.0], [155150.03125, -8574415.0, -39621112.0, 8351510.5, -9029098.0], [-24836620.0, -32918836.0, 1006534.375, 16113738.0, 5644113.0]], [[-2484090.25, -44975200.0, -2974244.25, -56794560.0, -8898158.0], [14526076.0, 32884352.0, -16197527.0, 21145660.0, 7745189.5], [-1519032.25, -1489248.25, 28285864.0, -17367012.0, -14409637.0], [14991269.0, 13322378.0, -4918068.0, 35649956.0, -8076172.0], [16493970.0, 12660075.0, 5327913.0, 18980804.0, 29882092.0]]], [[[-13010950.0, -23920648.0, -9517654.0, -25057476.0, 48015444.0], [24617588.0, 16257243.0, -29038140.0, -22602872.0, -21094850.0], [-32408080.0, -2368405.5, -6547869.0, 13541678.0, 20941072.0], [2355427.0, -26368722.0, 8974261.0, 6547187.0, -18955768.0], [-20487290.0, -29480394.0, 35009716.0, 7306000.0, -9046668.0]], [[-45346388.0, 22748220.0, 4519627.0, 25324396.0, -32899254.0], [24602532.0, 11895408.0, 17232782.0, -9004056.0, -22209400.0], [-34496680.0, 25412088.0, -17138850.0, -7672514.5, -25914074.0], [2616611.0, 593001.5, 4800786.5, -6990502.0, 2911415.0], [-16318043.0, -35537584.0, -9205513.0, 13436559.0, 9137856.0]], [[-16957396.0, -11667166.0, -32206774.0, 12153056.0, -2670994.25], [4152645.0, -11445812.0, -21465400.0, -31776112.0, 3750645.0], [-19797908.0, -4235909.5, -10977472.0, 21445046.0, 20689198.0], [22481268.0, 24363804.0, -17503216.0, -4761018.0, 13108034.0], [17403370.0, -2888131.5, 8170639.5, 8233899.5, -37010400.0]], [[15192276.0, -14241197.0, 3488610.0, -4669472.0, -13547403.0], [8114939.5, 12422779.0, 19059190.0, -11991730.0, -17377348.0], [-1977800.25, 33095812.0, 18667878.0, -1137870.125, -5552251.5], [17438922.0, -4874003.5, 1962571.375, -540910.375, -8810568.0], [11521991.0, -18494464.0, -476165.125, 12161618.0, 4977970.0]], [[15614723.0, -40473684.0, 20786214.0, -10268461.0, -20747440.0], [-19099150.0, 25415272.0, 2355771.75, 5387720.0, -2428546.0], [43747400.0, -17066782.0, -20014760.0, -9205165.0, -29318792.0], [5078780.5, 8701269.0, 45279368.0, -26044380.0, -6491108.5], [-10936950.0, -10137529.0, 9023786.0, 9921082.0, 9924174.0]], [[33082348.0, -945706.4375, -8388197.0, -25432318.0, 26153116.0], [-10267376.0, 20037610.0, 46849280.0, 9004538.0, -12618536.0], [3296934.5, -128752.203125, 1812665.125, 1008027.5, -5622567.5], [-4907243.5, 11106181.0, 4518453.5, -4088125.5, 5688636.5], [13975103.0, 3325668.5, 430148.9375, -3518840.0, 7058746.5]], [[28889712.0, -30182182.0, -25872436.0, -8855143.0, 11363478.0], [30436574.0, 6934408.0, 7437714.5, 10971248.0, -29900022.0], [-30051028.0, -9888088.0, -12574782.0, 8998604.0, 13941893.0], [9949196.0, -15071459.0, 23033586.0, -11262345.0, 21774654.0], [-17813106.0, 7394715.5, 6531613.0, 26558812.0, 17303376.0]], [[21015088.0, -14266772.0, -14337195.0, 2069758.75, 12088966.0], [-4768033.5, -21226976.0, -7837665.0, 3952468.0, 20272872.0], [-13407872.0, 6038611.0, -15289403.0, 15267888.0, 2042016.5], [-12117013.0, -35552520.0, -8646960.0, -4656672.5, 35440988.0], [13209794.0, -14750594.0, -6309867.0, -589822.0625, -30274798.0]], [[11457878.0, -22361270.0, 17825980.0, 15522246.0, 925678.8125], [-4420886.5, 6016822.5, 1718203.0, 18083670.0, -12676273.0], [21718628.0, -16038252.0, -1957577.875, -6383587.5, 19721188.0], [16138222.0, 35160492.0, -936153.3125, 18810204.0, 26805678.0], [-30318376.0, 3234990.5, 6413002.0, 28218722.0, 29784556.0]], [[-5024902.0, 1310002.625, 37339500.0, 5380801.0, -17893602.0], [11275988.0, 32421938.0, 37444376.0, -19457014.0, -9499870.0], [512103.0625, 