{"conv1.0.weight": [[[[24255786.0, 57926624.0, -51223792.0, 27583396.0, -35010328.0], [7540842.0, -19451418.0, -34784016.0, -50134620.0, 22792914.0], [1753394.0, -9035448.0, 14168474.0, 59316896.0, 67557760.0], [-39048376.0, -2654538.0, 6816690.0, 6278455.0, -23253348.0], [9074744.0, -18163588.0, 6248365.5, -9175363.0, 39493656.0]]], [[[3624622.5, -581061.75, -48837976.0, 16248412.0, -10013701.0], [-2636893.75, 26138336.0, -1377869.625, -18330578.0, -24088280.0], [12487202.0, 20865018.0, -22768290.0, 14666844.0, -26235908.0], [9488843.0, -19638536.0, 32263362.0, 16993128.0, -64490880.0], [-2371509.5, 21702920.0, -35446944.0, 30804132.0, 3451204.0]]], [[[-31347070.0, 21409728.0, -4407847.0, -25800916.0, -44706584.0], [53236588.0, -7212901.5, -848532.0, 47068748.0, 8155510.5], [-45057360.0, 35932528.0, -31381688.0, -16853572.0, -34833796.0], [28773786.0, 7655676.0, -29787628.0, -35621148.0, -26751600.0], [68246208.0, 44580120.0, 33078036.0, -29733016.0, 15246174.0]]], [[[26080084.0, -31192464.0, 3992733.75, -6398151.0, 5042446.0], [12141969.0, -27402426.0, 15558337.0, -24458534.0, 7159159.0], [-45161288.0, -35195096.0, -43244340.0, -2974327.25, -53270572.0], [68037400.0, 35575780.0, -25011404.0, -50556468.0, 11767049.0], [-74062344.0, -18935190.0, -22582656.0, 8500898.0, -18568576.0]]], [[[-16721661.0, -42763824.0, 62553060.0, -13862186.0, 101235008.0], [-15406921.0, 9250601.0, 11047880.0, -6053437.5, -23421312.0], [-30906002.0, 5054893.5, -43208240.0, 13817348.0, -15171642.0], [-283135.5625, 20909440.0, -14884272.0, -274859.96875, 2372977.75], [-1189966.75, 21630924.0, -7019397.5, -2010162.75, -50492436.0]]], [[[4618092.5, -10790208.0, -10913846.0, -1737990.75, 18547648.0], [17382732.0, -22259664.0, -50886192.0, 1760001.75, 3256716.0], [-8945600.0, 57639248.0, 42203460.0, 35069192.0, 31144404.0], [-37915536.0, 40389544.0, 33182828.0, 55694356.0, 26049546.0], [-8855270.0, -59351988.0, 30265644.0, 8795880.0, 13324350.0]]], [[[-31763316.0, -17524100.0, 24621080.0, -950006.125, -12046148.0], [-39992632.0, -15174110.0, -22563246.0, -21819916.0, -7215778.5], [82320880.0, -5854540.0, 66047988.0, -7656118.0, 7760677.0], [-3357509.0, 26380612.0, 23976588.0, 23210278.0, -48289784.0], [17939088.0, -7774166.0, -11064664.0, -32984736.0, -2060045.25]]], [[[-26330250.0, -18212416.0, 1020635.875, 26451414.0, -15083802.0], [-52608288.0, -4579558.5, 1365921.25, -43146256.0, 61643652.0], [-39449444.0, -1796760.0, 58829088.0, -34877108.0, 13501912.0], [31848176.0, -23866842.0, -7427271.0, 49080536.0, -26504742.0], [-32975094.0, -20015552.0, 11221892.0, -19120662.0, -47033340.0]]], [[[-10747200.0, -22960436.0, 28932374.0, -14828340.0, -2861041.0], [-7988462.0, 2013154.25, 7615693.0, 30999308.0, -10721148.0], [36130692.0, -14297052.0, -20307564.0, -28765476.0, 696235.75], [-2216026.5, 25050610.0, 18410740.0, 4211637.5, 14830078.0], [-52605432.0, -60764736.0, 25370832.0, -5057974.0, -10043878.0]]], [[[-5156311.5, -56244624.0, 21874520.0, 42722304.0, 17762404.0], [-18845816.0, -11910032.0, -4685131.5, -27010872.0, -25064684.0], [37236968.0, 27941928.0, 5814603.0, -27650500.0, -35632168.0], [-26170286.0, -20417284.0, 33439328.0, 969874.3125, -17284508.0], [-16779098.0, 52284400.0, 3140928.5, 25737786.0, 14281543.0]]], [[[-30269614.0, -56207312.0, -44664208.0, -46774280.0, 29099516.0], [6726070.0, -18027060.0, 2687958.0, -20356328.0, -6900378.5], [5404709.0, -55866320.0, -31988664.0, 44686064.0, -30883480.0], [-3522725.0, -30427112.0, -23835694.0, -10453512.0, -2896722.0], [9658040.0, -64021264.0, 20993686.0, 6127492.5, -16255846.0]]], [[[-38285100.0, 34884648.0, 5059974.5, 24597534.0, 31728376.0], [-49325492.0, 24976194.0, -32139578.0, -18180864.0, 29946314.0], [-19526306.0, -43431336.0, 14602416.0, -9839034.0, 24441824.0], [-37979160.0, 27983682.0, 17624284.0, -66985820.0, 42402688.0], [-41303984.0, 43015200.0, 23501830.0, 19963858.0, 8636804.0]]], [[[-6534088.0, -50562720.0, 18837888.0, -44543444.0, 24197166.0], [-12743457.0, 6864906.0, -33462944.0, -5856335.0, -5961776.0], [-12833857.0, -77241648.0, 31293916.0, 31344018.0, -46881440.0], [10566737.0, 32322488.0, 18376570.0, -34536752.0, 11061840.0], [20966026.0, 2478817.0, 10003342.0, 60724248.0, 488262.25]]], [[[-38782320.0, 14824176.0, -32432058.0, -8021484.5, 4051985.25], [-4241440.0, -3935006.5, -8982485.0, 38367280.0, -1824037.125], [25313450.0, -20565672.0, 27163120.0, -7317320.0, -17334756.0], [52307288.0, 25559512.0, -1005400.0, 22830046.0, -11571302.0], [-18282256.0, 23568594.0, 28366524.0, -77708592.0, -5415982.0]]], [[[-43125584.0, -16775628.0, 23227134.0, -59723088.0, -58644496.0], [-25420250.0, -6314564.5, -17686562.0, -22609904.0, 62639760.0], [33598032.0, 13722813.0, -16724348.0, -4243099.0, -3110399.5], [-42653804.0, -416830.40625, -735885.125, 24011510.0, -11073246.0], [-25493406.0, -85876448.0, -24850802.0, -31727176.0, 14211445.0]]], [[[16731732.0, 6943168.5, 38471600.0, -21300934.0, -22404796.0], [23014558.0, -1435822.5, -11401773.0, -39523352.0, -24507528.0], [14530438.0, 29515650.0, 41959348.0, -75142536.0, 23714386.0], [-33002788.0, -21891284.0, -75478328.0, 36629016.0, -21772608.0], [30823408.0, 34945280.0, 1594889.625, 12913508.0, 13537654.0]]]], "conv1.0.bias": [-7734297.0, 29257134.0, 46434752.0, -9109924.0, -4783999.0, 17625940.0, 38548272.0, 5497701.5, 39217728.0, 21907950.0, 11505421.0, -19742796.0, 60435584.0, 33461956.0, 6630516.0, -4582456.0], "conv2.0.weight": [[[[-6955070.0, -10673470.0, 8642812.0, -31235436.0, 15872790.0], [4986333.0, -34721304.0, 22316432.0, 38702240.0, -5937313.5], [71491992.0, -32172194.0, 56244576.0, -19458712.0, 17219028.0], [-5405487.0, -64301656.0, -2885571.25, -20630940.0, 29695176.0], [32820396.0, 9728265.0, 44502624.0, 38045408.0, 2870441.5]], [[-8847870.0, -33937644.0, -452762.15625, -36735016.0, 18983508.0], [17643630.0, 39970800.0, 23366708.0, -1990447.75, -53630644.0], [-42469368.0, 32326752.0, 50532896.0, 5002845.0, -1129937.75], [42792096.0, 10205427.0, -73602672.0, 11309210.0, -14538092.0], [36884384.0, 633044.9375, -31074832.0, -2069259.625, -1985603.5]], [[-11131191.0, -30706718.0, -612905.375, 39082296.0, 25365720.0], [40454264.0, -4125938.0, 34533640.0, 28947472.0, 66034876.0], [-2464514.0, -9699765.0, 11622620.0, -47119912.0, 3923594.75], [399286.4375, -31058340.0, 4443687.0, 23222032.0, -33902688.0], [-27983264.0, -29341156.0, 43982256.0, 73260752.0, -16332871.0]], [[9972602.0, -31452432.0, -46807380.0, -28512324.0, -68593072.0], [5466144.5, 48734432.0, -22760750.0, -54820836.0, -9576264.0], [12499920.0, 28517316.0, 10064093.0, 12420978.0, 6889482.0], [-17106598.0, 36627744.0, -35312356.0, 28416180.0, 24506288.0], [-2853798.5, -3342279.0, -23365746.0, -70920064.0, 29628078.0]], [[2259574.75, -17526818.0, -23191740.0, -25538154.0, 25403508.0], [-17904820.0, 49215248.0, -9120920.0, 29062328.0, 18960884.0], [-12606433.0, 702245.5625, 42608880.0, -488665.53125, 52361464.0], [-14604675.0, 722869.6875, -17967372.0, -2453262.0, 47876460.0], [-68495376.0, 28335048.0, -48514668.0, 9705552.0, -43517772.0]], [[32483060.0, -14102537.0, -62554208.0, 44861024.0, -2271877.0], [-3165758.5, -2071011.375, 69614080.0, 11031580.0, 31016764.0], [-39977816.0, -21769914.0, 26232480.0, -20738058.0, 53818432.0], [4200246.5, 25451576.0, 27413658.0, -58221900.0, 4386617.0], [17969290.0, 1341980.75, -18825358.0, 45586240.0, 71762624.0]], [[49802888.0, 12910007.0, -43881920.0, 38750696.0, 3041333.75], [-12222136.0, 2700367.5, -35602588.0, -45106960.0, -17732800.0], [-18489408.0, -13784336.0, 96244472.0, -54560388.0, -31078662.0], [-66231528.0, -21938890.0, 26739718.0, 14281098.0, 30824804.0], [21616468.0, 4299236.0, 28350726.0, -18193998.0, 11678528.0]], [[26656368.0, 58109472.0, -27355674.0, -25935480.0, 8732452.0], [-30255520.0, -21366536.0, -26488352.0, 16581818.0, 8746086.0], [-50722992.0, 39970156.0, -36859904.0, -875061.0, 10938512.0], [-37406296.0, -20652002.0, 5951799.0, 5929923.0, -21467388.0], [-12212003.0, 38100292.0, 15138040.0, -19825936.0, 15430185.0]], [[22562086.0, -40661908.0, 22455084.0, -34821640.0, -6660463.0], [7434822.0, -64262160.0, 33809028.0, -15985648.0, -28056740.0], [34688024.0, -26142672.0, 1999483.75, 44063936.0, -64843552.0], [16924172.0, -23219772.0, -6963499.0, 35041768.0, -4939274.0], [-12199170.0, 31124826.0, -33719812.0, 34028648.0, -29475736.0]], [[13525925.0, 29062776.0, -18609008.0, -37408256.0, 17806902.0], [-60175248.0, -2893261.25, -114052880.0, 2886381.5, 77565448.0], [45707592.0, 14047289.0, 79147344.0, -25502144.0, -37406568.0], [-28757156.0, -2312331.0, 18179672.0, 18483144.0, 15577057.0], [67117928.0, -15547701.0, -39354904.0, 51741048.0, -58617080.0]], [[-54126944.0, -40227108.0, 39159304.0, -9714947.0, 25409730.0], [-2246837.5, 26793540.0, 32459520.0, -35193288.0, -33175540.0], [-27302696.0, 33927588.0, -44264220.0, 5762813.5, -54112216.0], [69193136.0, 47576188.0, 9452278.0, 9087508.0, 61584992.0], [-43302392.0, 2404073.0, 7503492.5, 4567940.0, -56315796.0]], [[-62636544.0, 26391448.0, 1058557.875, -6821484.0, 66911628.0], [3731097.5, 17595320.0, 25505316.0, -17996194.0, -41367312.0], [-18801408.0, -13584300.0, 29488962.0, -9413006.0, 3434828.5], [34492112.0, 3715298.5, -24747320.0, 52380332.0, -22141236.0], [12215818.0, -14066806.0, -28332254.0, 12747704.0, 4611896.0]], [[29563188.0, 17504672.0, 47441412.0, 31716098.0, -8615368.0], [18691112.0, -35963384.0, 28034184.0, -14120251.0, -2964231.5], [-14626287.0, -35422704.0, 17204844.0, 40568368.0, 2830762.25], [33089946.0, 52033912.0, 12984753.0, -37141880.0, -18996640.0], [82114240.0, -21606366.0, 17748866.0, 7456120.0, -30321818.0]], [[-2659195.5, -46290312.0, -4759339.5, 9392660.0, -77593488.0], [-1181483.375, 49854084.0, -56384892.0, -33106908.0, 30158996.0], [-4399281.5, 3184984.5, 32698054.0, 16665602.0, -10145642.0], [36006480.0, 24203570.0, -18592530.0, 39425036.0, -29171132.0], [-21140368.0, 48513744.0, 21707142.0, -45952268.0, 22770464.0]], [[-33313076.0, -1313722.5, 9365358.0, 33294822.0, -239595.96875], [-13685134.0, -570634.0625, 48234816.0, 7989375.0, 13606113.0], [-1318111.0, 76386240.0, -24569796.0, -4621052.0, -36929536.0], [8775396.0, 46569704.0, -32316648.0, 64968080.0, 25257928.0], [20204916.0, 83498544.0, 1136526.75, 21338224.0, -28235576.0]], [[9337708.0, 30516660.0, -18064934.0, 2361629.5, 41201864.0], [93131800.0, 58549996.0, 47120064.0, -8940606.0, -12944732.0], [-42774784.0, -5260348.0, -39480512.0, -4583726.0, 4669110.0], [30343566.0, 47321544.0, 4642768.0, 51547920.0, -6928708.0], [-27267984.0, 16842674.0, 28939736.0, -23255604.0, 29122680.0]]], [[[13483096.0, 61020748.0, 1154546.0, 17085502.0, 10966565.0], [-2008938.375, -15106107.0, -74329344.0, -13890116.0, 59242048.0], [-14888330.0, -3881250.5, 17258190.0, 59850596.0, 30959696.0], [41794688.0, 28141424.0, -21176124.0, 14649880.0, -43014860.0], [-17251204.0, 27227198.0, 15434168.0, 19450388.0, -2993124.5]], [[-56714096.0, 4563504.5, -33061266.0, 29731428.0, 52114352.0], [52449228.0, -1415924.5, 16072071.0, 172839.921875, 19153636.0], [16786526.0, 12561095.0, 21742762.0, -10982955.0, 7319153.0], [-11667555.0, 17941714.0, -19624614.0, -23186020.0, 39469384.0], [-29059878.0, -3185346.75, 1331486.75, 11357823.0, -6283388.0]], [[-26172884.0, -14962527.0, -16700078.0, 29684322.0, 21638400.0], [-53919904.0, 16913180.0, -16307484.0, 38327692.0, 33557344.0], [27323392.0, -48619660.0, -4665444.0, 34483440.0, -24396952.0], [12245758.0, 40395784.0, -13463571.0, 66454368.0, -8834675.0], [2888868.0, -5681582.0, 6148484.5, 73255096.0, 9371334.0]], [[-2320827.75, -44523328.0, -7629219.0, -17131728.0, 31958110.0], [-15913760.0, 72100816.0, 48820528.0, -53280720.0, -28548894.0], [-62342832.0, -38265556.0, 6784762.0, 22162116.0, -86737728.0], [12782264.0, 21839096.0, 35394872.0, 23192440.0, 3569011.5], [-5884189.0, 8983136.0, 38789292.0, 11592098.0, -20041036.0]], [[-27125712.0, 28863852.0, -45946120.0, -711620.0, -12282456.0], [-12655459.0, -8694478.0, -5277594.0, 1541482.625, 24737388.0], [-57883252.0, -46699400.0, 475289.53125, -38946616.0, 7975664.5], [44671176.0, -3345682.5, 17272764.0, 48751468.0, -49334000.0], [47241152.0, -22754024.0, -13002826.0, 48163528.0, 5862943.0]], [[59566816.0, -872448.25, 25994312.0, 20439702.0, -38548996.0], [46876352.0, -30709872.0, -27022262.0, 18316308.0, 4559606.0], [51675216.0, -50714640.0, -12052358.0, 45261224.0, 8513820.0], [-26976980.0, 7290929.0, 21727072.0, 7794794.0, -48336468.0], [5905719.5, 35873328.0, -7509378.0, -82465024.0, 15267710.0]], [[19957340.0, 59709472.0, 29196224.0, 27812852.0, -32754032.0], [-39302800.0, 8093193.5, 44733272.0, 44462228.0, -20550092.0], [-30874500.0, -54989832.0, 79450920.0, -8876796.0, 26198592.0], [-17016948.0, -9873588.0, 43141776.0, -5412701.0, -30167942.0], [39033416.0, -33522100.0, 4751334.5, -25949152.0, 8953939.0]], [[7745702.5, 16323930.0, -43203152.0, -9468367.0, -10431498.0], [53588200.0, 22127512.0, -25995744.0, 70511480.0, -7841586.5], [62881624.0, 16727477.0, -41086120.0, 7124754.0, -35400316.0], [6491163.5, -15795777.0, -96278256.0, -24915928.0, -55103196.0], [36776888.0, -15067886.0, 34987228.0, -8658136.0, 846457.6875]], [[-15557142.0, -11072835.0, 22087930.0, -13152749.0, 17526518.0], [17227860.0, 38141288.0, -10318812.0, 58550832.0, -60168072.0], [-62694376.0, -17524706.0, -29604062.0, 356059.5, -8121130.5], [-28068062.0, -37373536.0, -32918520.0, 1610510.75, -7855333.0], [15864971.0, 10555968.0, -13142724.0, -12418170.0, -67732728.0]], [[-46224920.0, 23778932.0, 7413327.0, -22821760.0, 19338132.0], [-4690719.0, 33648552.0, 11923602.0, -658946.125, -21422010.0], [-63631440.0, 37814332.0, -11603296.0, 19739364.0, 48582680.0], [41373960.0, -71157104.0, 76433944.0, 6184581.0, 25530156.0], [6508616.0, -1361846.25, 13072589.0, 2025409.75, -5409288.0]], [[-69134648.0, -2672766.0, 24962648.0, -11802678.0, 30389468.0], [-7525921.5, 60852108.0, -27457984.0, 30148080.0, 16790036.0], [-21821632.0, 2631041.75, 1734433.25, -43788680.0, -11207667.0], [-44513640.0, 61372720.0, -25663408.0, -24070944.0, 50509648.0], [15532237.0, -8773210.0, 14758120.0, -44510952.0, -12488662.0]], [[-9159964.0, 22261512.0, 21115384.0, -18427656.0, 34857648.0], [-11859863.0, 27695064.0, 40081976.0, -17538412.0, 5606401.0], [-70170080.0, 38357796.0, -1685047.75, -7950344.5, -9317320.0], [-59946952.0, -13025169.0, -30640208.0, -89446976.0, -24535604.0], [28260398.0, -44951308.0, 30587176.0, -10560258.0, -35786112.0]], [[-17220438.0, 9262916.0, 8625636.0, -6827889.0, 34393192.0], [43453016.0, -21205392.0, -24160630.0, -34471104.0, -34807624.0], [-16831512.0, 38285792.0, -6184602.0, -483386.0, -18311080.0], [-32896612.0, 35569584.0, -12021080.0, 26084682.0, 16086483.0], [-38465120.0, 34430280.0, -31588880.0, 16329207.0, 61741828.0]], [[-11388178.0, 7178547.0, -2109251.75, 48014220.0, -50452336.0], [-5793593.0, -42646888.0, -57298216.0, 10160620.0, 7738452.5], [3929582.5, 7705135.5, -27111724.0, 58098864.0, 47033036.0], [-27344696.0, 33089730.0, -21553680.0, 31930696.0, -9114140.0], [-4380116.0, -19820488.0, 8110906.0, -66559244.0, -52500772.0]], [[-21258572.0, -36490416.0, 32572002.0, 10949080.0, -1914943.625], [-27519196.0, -38994848.0, -9374504.0, -44975616.0, -18592236.0], [-34441532.0, 26935878.0, 9106462.0, 9743426.0, -5219707.5], [-31119324.0, 33637496.0, 34519932.0, -6883844.0, -8150437.0], [44194560.0, -573446.375, -53919560.0, 40412872.0, 28793048.0]], [[25604862.0, 35004216.0, 71159.8125, -20231226.0, -24684936.0], [32398770.0, 30215448.0, -44996744.0, 28105416.0, -20199510.0], [48200120.0, 27974432.0, -23940000.0, 592139.5625, -70572288.0], [-10692788.0, -18299490.0, 2113478.5, -4472350.0, 41604408.0], [-38084128.0, -28382216.0, -41437448.0, 56898480.0, 15531614.0]]], [[[15403064.0, -24237236.0, -13601928.0, -19187900.0, 6625618.0], [-24206528.0, 26414592.0, -31642256.0, 11367433.0, 46310888.0], [41938808.0, -49147184.0, -20364970.0, 7035701.0, -5290522.0], [6062587.0, -4841297.0, -6693457.5, 31176568.0, 33855584.0], [-37662224.0, 25858102.0, 31847700.0, -14089016.0, 6867483.0]], [[-36904024.0, 18676042.0, 25571010.0, -9894380.0, -21476364.0], [59832972.0, -6287274.0, -1068847.5, -5279936.0, -54218068.0], [-7890798.0, 4940239.0, 15421074.0, -1978318.875, -4513454.0], [59331332.0, -31596040.0, -14719980.0, -23339222.0, 16528291.0], [53115048.0, -928575.9375, 40775432.0, -22344642.0, 4546378.0]], [[727511.0625, 22040628.0, -12364570.0, 17546738.0, 7472610.0], [10332191.0, -1552579.625, -34105936.0, 22046360.0, -26664662.0], [-32016684.0, 25948696.0, 34364288.0, -32424276.0, -18552168.0], [-16320680.0, 17615564.0, 21040888.0, -16713431.0, 7892463.0], [22671350.0, -9744180.0, 11954876.0, -27832544.0, 9980836.0]], [[4253045.5, -41431152.0, 47319248.0, -45130216.0, 25238192.0], [-7554199.5, 34170852.0, 6656987.0, -7280504.5, -24998608.0], [29227252.0, -15387590.0, -46580912.0, 35319208.0, -39805588.0], [-38147012.0, 18269792.0, -31766682.0, -13136436.0, 24785556.0], [-8260772.0, 9349436.0, -10620687.0, 9231386.0, 31579644.0]], [[49366664.0, -52344328.0, -28394436.0, -33624580.0, -23143590.0], [-35389428.0, 57134964.0, -2591289.25, 3953646.5, -18633324.0], [-1396568.875, -28071614.0, -28636288.0, -12887703.0, -50546360.0], [1996968.25, 27340452.0, -28329136.0, -44897736.0, -32712752.0], [-61147908.0, 35916084.0, 1619850.625, -19487992.0, -20790164.0]], [[45142056.0, 77926648.0, 52449016.0, 6244708.5, -5227540.0], [-3773155.75, 15691389.0, 41710800.0, -5951748.0, -23998548.0], [-72992720.0, -24985732.0, -17822592.0, 6574086.0, -8177649.0], [26332044.0, -38377696.0, -2540489.5, 4061666.0, 52951648.0], [-13011231.0, -536721.5, 37469352.0, -27747586.0, -55403708.0]], [[-20437842.0, -36743304.0, 6950882.0, 31799724.0, 9210446.0], [-18975560.0, 40994096.0, 56176136.0, 7377268.0, -17303160.0], [42618392.0, -63776204.0, -29358780.0, -60958056.0, 6346740.5], [847201.3125, -10607158.0, -16683156.0, -39929560.0, 11803532.0], [-1164750.125, 25225006.0, -33511080.0, 4625579.0, -10673261.0]], [[-8563440.0, 26423046.0, 21650372.0, 2081119.625, -26965948.0], [51040876.0, 45015824.0, 32409884.0, 32880760.0, 18981782.0], [-24702278.0, 20997028.0, -11857936.0, 9970296.0, 18074958.0], [-23662650.0, -30492304.0, -16396346.0, -7888436.0, 6179680.0], [-27122542.0, -6697614.0, 18881188.0, 23160656.0, 45734800.0]], [[15795664.0, -24381770.0, 4245132.5, 20981958.0, -40675644.0], [44349724.0, 32883462.0, -33412424.0, 32634876.0, 41738820.0], [17933762.0, -30928184.0, -16016360.0, 2312230.5, 24619312.0], [-11849578.0, 25176880.0, 24413082.0, -17872524.0, 30954240.0], [-23888070.0, 49290716.0, 25544256.0, -413659.8125, -37970092.0]], [[-49358912.0, -30219300.0, 41111884.0, -2653926.25, 11352018.0], [23513444.0, -45277140.0, -30578040.0, -24210826.0, -44608360.0], [3071932.5, -3318093.75, 51969776.0, 5011116.0, -15183037.0], [-44140796.0, -31671452.0, -9920782.0, 23514416.0, 26719578.0], [-18967492.0, -9783620.0, 81996512.0, 23185448.0, 872570.375]], [[-43887960.0, -34638276.0, -24655566.0, -65780940.0, -6524703.5], [-20287614.0, 17451988.0, 19500448.0, 3781815.0, 36344184.0], [6522759.0, -12763806.0, -64336924.0, 32372748.0, -11697084.0], [40721908.0, 23421042.0, 31563050.0, -34668400.0, -33476348.0], [-28192100.0, -41446728.0, -10545055.0, -82805176.0, 28538068.0]], [[-28488370.0, -42912432.0, 22139304.0, -16826752.0, -34990132.0], [5419328.0, -52489264.0, -3856325.5, -54297928.0, -24886434.0], [13927130.0, 72717792.0, -5954170.5, 48307244.0, 17637792.0], [-36013328.0, -4033001.0, 38310840.0, -4211298.0, -30373278.0], [10239378.0, -27069200.0, -3824025.0, -14578681.0, 12964776.0]], [[-37191364.0, -22383534.0, -43431240.0, 7677439.0, -86141112.0], [-22421396.0, -23703328.0, 21781620.0, 53518808.0, -39691552.0], [5992389.5, 57958060.0, 24282608.0, -30889444.0, -23816664.0], [-14884034.0, 23530560.0, 69594848.0, 30979386.0, 17565872.0], [-15698470.0, 21930596.0, 44667052.0, -2252654.5, -46710688.0]], [[-54367480.0, 5287616.0, -6672122.0, -6345162.5, -19603768.0], [-22468780.0, 23811260.0, -29816364.0, -29365676.0, 26006904.0], [-36344168.0, -64413708.0, 8221790.5, 13763842.0, 2179024.0], [55897140.0, -49977852.0, 5282524.0, 11394992.0, -21269628.0], [27621056.0, 17295472.0, 14796120.0, -27579998.0, -66838788.0]], [[2249210.0, 17833812.0, 9827930.0, 66957400.0, 22263244.0], [-21094698.0, -4443876.0, 14440780.0, 2236598.5, 42662696.0], [37953328.0, -19550716.0, -39435264.0, -16979364.0, -16469112.0], [-3070083.75, -13112727.0, -19033122.0, 41412384.0, -1824343.75], [-42362812.0, -3259010.0, -2453553.5, -12758988.0, 8460916.0]], [[29253440.0, -15752934.0, -31115946.0, 3436339.5, -29574084.0], [23515410.0, -30679840.0, -1790435.625, -35155488.0, 22967924.0], [26119674.0, 8225118.0, -62545240.0, -72052384.0, 13562223.0], [3915168.0, -45257392.0, 26549172.0, -40116128.0, 4400205.0], [-17936016.0, -8594320.0, -10077932.0, -12278126.0, 12397776.0]]], [[[4856602.0, -56494908.0, -17037610.0, -64231184.0, -51254220.0], [16797220.0, 31456440.0, -21646244.0, -31211912.0, -58696728.0], [3819284.25, -57063752.0, 3208440.5, 2858685.25, -11543591.0], [-768236.25, -39540480.0, -19843832.0, -47793420.0, 34188608.0], [69500200.0, -29406758.0, 39812004.0, 26986212.0, -30606148.0]], [[23085622.0, -51568852.0, -12410168.0, 10279656.0, 9903448.0], [11566380.0, 77191168.0, 4790527.5, -6640855.0, -26146760.0], [-5413911.0, 3183681.0, -13610842.0, 27397860.0, 2697889.5], [6538704.5, 2245018.5, 11889641.0, 74730112.0, -27076132.0], [-8022788.0, -36911360.0, 21359856.0, 16250120.0, 45457236.0]], [[-60812816.0, 26528058.0, 29654348.0, 19844400.0, -8947028.0], [-18796254.0, -18413112.0, 18602434.0, -2664436.5, 17957212.0], [-5279656.5, 21245616.0, 15562278.0, -9742202.0, -513164.75], [27758474.0, -24209928.0, -15152909.0, -11169019.0, 12096352.0], [-22474136.0, -36093792.0, 25574118.0, -45174840.0, 55072576.0]], [[20359524.0, -21428732.0, 11186194.0, -7512924.0, 31998712.0], [-28489572.0, -19947228.0, -12008404.0, 18223592.0, -19224388.0], [22389662.0, -16326110.0, -27556496.0, 19966602.0, -6996633.0], [5123165.5, -5868538.0, -18534316.0, 22386620.0, -6437125.0], [-27551726.0, 4451982.0, 48174472.0, 23325432.0, -1917065.0]], [[-60576228.0, 10473318.0, 5129370.5, 21594432.0, 38580264.0], [4042174.75, -7324809.0, -2711201.5, -375078.8125, -16980980.0], [12271674.0, -67632928.0, 48435312.0, 9455713.0, 33437760.0], [6571601.0, -2207244.5, -34616592.0, -9635222.0, -15740472.0], [15008358.0, -38217200.0, 13373544.0, -10383411.0, 23477688.0]], [[-38430584.0, -57846384.0, 54289332.0, 20040276.0, -11590113.0], [31934352.0, 11760691.0, 12174953.0, -222473.9375, 73074992.0], [28980474.0, 21125924.0, 6877419.5, -35252460.0, -41493612.0], [65497328.0, 33139394.0, 29602768.0, -15340504.0, 905843.875], [-47554476.0, 24380262.0, 21688864.0, 9211546.0, -14827908.0]], [[27498674.0, -18270032.0, 44245056.0, 86536048.0, 4000605.75], [-30109880.0, 16112364.0, -27155892.0, -30322816.0, -29963704.0], [84207696.0, 31556096.0, 31019946.0, -33097696.0, 38644040.0], [5120527.0, 7465725.5, 69098640.0, 28933116.0, -17098328.0], [-31985464.0, 14051321.0, -16469606.0, 9382392.0, 70098008.0]], [[-30491700.0, 28733004.0, -12724097.0, -60122532.0, 7190119.5], [783287.6875, -15928826.0, 35810592.0, 1159164.75, -9743357.0], [6898005.5, 31361642.0, -64675000.0, 48339644.0, -60265020.0], [23018122.0, 4316884.5, 2667021.5, -17894612.0, 12201868.0], [-38865176.0, 39620256.0, 43418508.0, 18043672.0, -24128568.0]], [[30140172.0, 7413152.0, 28747984.0, 17057232.0, -13549152.0], [-33262572.0, 25598940.0, -24798828.0, -729371.25, 43696392.0], [40905024.0, 13710630.0, -54205896.0, -428444.8125, 26929854.0], [-10608378.0, 3953751.0, 25467432.0, 27719382.0, -42972476.0], [-9987098.0, -35991588.0, -1346762.25, 193215.5625, 3982296.0]], [[42489304.0, -21076770.0, -16572408.0, -15212725.0, 43190816.0], [21841452.0, 29007140.0, 10630628.0, 68779936.0, 706586.0625], [26725914.0, -64399492.0, 25330388.0, -45181724.0, -1263543.5], [-23737638.0, 20438280.0, 4121447.25, 24582516.0, -34352188.0], [-26667108.0, 13638002.0, -21087408.0, 13739895.0, -26099396.0]], [[13592249.0, -38752504.0, -24530326.0, 28382408.0, 2875588.0], [17868496.0, 45304864.0, -12507167.0, 25440062.0, 4038543.25], [-8610035.0, -50150936.0, 13419522.0, 33414594.0, -2666675.5], [-10805676.0, 21200108.0, 1872619.75, 51344168.0, 72763608.0], [19036492.0, 60459232.0, 989047.4375, -8444510.0, 37541568.0]], [[-34147536.0, -30841284.0, -40868280.0, -7755435.0, -28502590.0], [-1828804.5, 35778832.0, -16090432.0, -13857661.0, 26206980.0], [-3483040.0, -5628312.0, -10377490.0, 17126516.0, 51233060.0], [-36540996.0, -3387785.0, -5557562.0, -15866983.0, -38354968.0], [24167898.0, -10410816.0, -4821632.0, 58947724.0, -53025928.0]], [[32217416.0, -27626952.0, -7073389.0, -10882528.0, -63347120.0], [29769180.0, -5527108.5, 15611766.0, 30758982.0, 3413874.0], [-11162592.0, 22322118.0, 19390070.0, 6606782.5, 15820004.0], [53882168.0, 7836742.0, -3236841.0, 57086352.0, -33294904.0], [-28452000.0, 10252364.0, 31707364.0, -34175384.0, -25559114.0]], [[-686870.8125, -1862284.75, -22034414.0, -38106600.0, 10278676.0], [-736245.25, 65184852.0, 6735439.5, -4402243.0, -38002884.0], [30051038.0, 30897336.0, -1553305.875, -41937440.0, 13398168.0], [-13836010.0, 16515630.0, 21554908.0, -62534912.0, -14858726.0], [32769994.0, -3443858.0, 8207764.5, 1946405.5, 5480727.5]], [[-50419076.0, -11015301.0, 43208080.0, -47952084.0, 2489383.0], [40998200.0, -106136784.0, -6864590.0, 33690216.0, 33644016.0], [-15461139.0, 30104176.0, -29332680.0, -6076109.0, -13399199.0], [-45370644.0, 4015212.0, 5782335.5, -14956114.0, -8367911.0], [35086416.0, -6372777.0, 19938748.0, -74362592.0, -4666280.5]], [[31751140.0, -16500066.0, 1895441.75, 6274371.5, -6631213.5], [11748004.0, 32064936.0, -16911768.0, -69571824.0, 30498812.0], [-27697372.0, -23630264.0, -3930638.25, -989183.8125, -38698076.0], [21938314.0, 35177280.0, -37885000.0, 40437160.0, 54656428.0], [-58718676.0, 2148365.5, 23490900.0, -8679404.0, -24041716.0]]], [[[35146480.0, 3793290.25, -32847434.0, -9036871.0, -19356796.0], [25219580.0, -14199424.0, 52950480.0, 9123478.0, 5285203.0], [39041740.0, 16257432.0, 27857428.0, -44280660.0, -24855562.0], [-20608686.0, 36371392.0, -67167952.0, 16468050.0, 11700862.0], [-60733752.0, -35720484.0, 46959960.0, -2788578.0, 42240168.0]], [[50634996.0, 8574651.0, 4893805.5, 2745470.0, -29284408.0], [-16921968.0, 15202629.0, -33313298.0, -5977757.0, -20686140.0], [-17898928.0, 55125376.0, -107063920.0, -16640103.0, -29320980.0], [-10086573.0, 6153551.5, -18404068.0, -70557056.0, -64285.58203125], [-33751688.0, -18229376.0, -31328560.0, 7048503.0, 21947480.0]], [[27651254.0, 7735246.0, -4845667.5, -13751524.0, -2344881.0], [6682700.0, -15067515.0, -8159888.0, -22514004.0, 501231.09375], [-22136218.0, 4902197.0, -7349530.0, -41254040.0, 63683264.0], [14292948.0, -23708778.0, 25098198.0, -16119060.0, -7496286.0], [48416208.0, -23809676.0, -7752637.0, -17251114.0, 40871028.0]], [[9901856.0, 29685700.0, 25835154.0, 15289456.0, -35389552.0], [-41583848.0, 22966464.0, 18904074.0, -15474656.0, 47521464.0], [9868310.0, -3986704.5, -11215299.0, 11003289.0, 3176136.0], [1186005.125, -50385416.0, 49366992.0, -2314641.5, 22595036.0], [1097424.0, 33823080.0, 21380732.0, -2623398.5, -8182906.0]], [[30167304.0, 20110964.0, -54248072.0, 28851312.0, 32353302.0], [8092627.0, 42934192.0, 24864776.0, -14884748.0, -16718326.0], [30520004.0, 7992533.0, 17496100.0, -6243085.5, 18379464.0], [-33570800.0, -17937280.0, 5174653.0, -4683480.0, 307510.0], [28557390.0, -62737384.0, 10137356.0, -50103036.0, -34192144.0]], [[35176672.0, -49859568.0, -32887672.0, 13941810.0, -40932908.0], [-29914824.0, 7308321.0, -27491644.0, 31483144.0, 24985192.0], [20481120.0, -52936352.0, -13060074.0, -15116274.0, -73796432.0], [25542148.0, -13115818.0, 8781741.0, 33927284.0, -71239312.0], [-23305572.0, 38639456.0, 2784632.75, -22891788.0, -17382472.0]], [[-9312852.0, 24923050.0, 38592152.0, -20368652.0, 25196834.0], [-9129989.0, -24284720.0, -23728688.0, 70616336.0, -59725008.0], [27406710.0, -39275232.0, 63932240.0, 25013170.0, -16500.376953125], [-38187336.0, 58034884.0, -44039560.0, -30662800.0, -33180944.0], [-5523103.0, -13682970.0, -10834463.0, 8136318.0, -40388592.0]], [[61985568.0, 29043124.0, -22293774.0, 7094703.5, 37444520.0], [-29806606.0, -52401704.0, -44696704.0, -3253508.0, 49509588.0], [-2396447.5, -8992544.0, 12567060.0, -15862434.0, 41710824.0], [-12450394.0, 6598589.0, -14705221.0, -13312255.0, 7238667.0], [-3863100.25, -8418734.0, -5803830.0, -32439098.0, -29654042.0]], [[51881244.0, -12869774.0, -48800096.0, -50260076.0, -56478244.0], [7589458.0, 87014312.0, 8709008.0, -7379182.5, 64452648.0], [-58165936.0, 55468120.0, -60610692.0, -6006843.0, -14722263.0], [15740908.0, 5421916.5, -3406198.75, -26072998.0, 10944574.0], [41059184.0, 47765880.0, 2004388.0, 12158347.0, -40779632.0]], [[-30091574.0, -25544292.0, -100738816.0, -16233129.0, -1574204.0], [25238230.0, -29956528.0, -13056075.0, 41810496.0, 13319036.0], [-32800358.0, -39378896.0, -16884748.0, 247391.59375, 56097032.0], [-54939612.0, -11044690.0, -19004566.0, -11633792.0, 1112112.25], [-21843234.0, -41054088.0, 18984576.0, 17660546.0, 3553169.0]], [[33691176.0, -65827356.0, -7181556.0, 7734768.5, 48095832.0], [-28485748.0, -38357652.0, 17736108.0, 32390610.0, -12421423.0], [-17720116.0, 21205812.0, 18055392.0, -3192749.25, -19368592.0], [-26839130.0, -34282472.0, -66973680.0, -33494508.0, -6281007.0], [-12433956.0, 14943106.0, 9374650.0, 22543294.0, -660219.375]], [[-10796972.0, 3766148.0, 30803730.0, 37981108.0, 8565884.0], [-22742180.0, -2479309.0, -7715809.5, 39161560.0, 12131353.0], [-24948282.0, 36974180.0, 13216225.0, -6620268.0, -18373500.0], [8332441.5, -6796211.0, -3618684.0, -2574842.25, -25802920.0], [14215389.0, 520669.0, 16270610.0, 43667568.0, -19297124.0]], [[-15469112.0, 19561548.0, 14358627.0, -53961116.0, 6914509.5], [11164942.0, -18526524.0, 57820704.0, 12666507.0, 15090460.0], [14767980.0, 20674632.0, -43395376.0, 56881128.0, 42312968.0], [55203704.0, -31738648.0, 10067934.0, -48005904.0, -55193992.0], [-31322556.0, 54262648.0, 21858556.0, -23853866.0, -76704592.0]], [[-10303102.0, 34823052.0, -28701500.0, 10679752.0, -14012893.0], [12153397.0, 59438928.0, 42173616.0, 40606832.0, -15180086.0], [-24420622.0, 48856644.0, -2164401.5, 6181555.5, -22083336.0], [50154004.0, 19305328.0, 73798408.0, -28050338.0, -10862351.0], [13030225.0, -36258424.0, -56291392.0, 37695312.0, 9804128.0]], [[-18693172.0, -21583282.0, -19161076.0, -13847219.0, 8241891.0], [31815588.0, 14510379.0, 51631128.0, -1350190.0, -41556224.0], [-10673785.0, -3910370.0, -17339762.0, 11921510.0, 29019076.0], [-17801270.0, -38914880.0, 61368000.0, 49808820.0, 17371716.0], [5307546.0, 51031056.0, 22907836.0, 12897476.0, 5459156.0]], [[9241855.0, -1554020.25, -6355305.5, -35676096.0, 20599372.0], [21228612.0, -2730547.25, 1095387.625, -12896586.0, -55231672.0], [-46593604.0, 12622183.0, 1733135.625, 13249235.0, -8290708.5], [35030700.0, 4600812.0, 35777772.0, -7309863.0, 15080592.0], [36305136.0, -18682646.0, -69395176.0, 48119696.0, 60425752.0]]], [[[-38440648.0, -3022669.5, 9930820.0, -23945410.0, 24129672.0], [12393049.0, 4515329.0, 42884632.0, 8660214.0, -6168345.0], [16417440.0, -5147001.0, -36005672.0, 43763720.0, -10073408.0], [-30766082.0, -4624370.5, 34676084.0, 9373933.0, -1846532.0], [245055.046875, -35152720.0, 22521628.0, 22127788.0, -7581085.5]], [[19305172.0, 790457.875, -31224864.0, -35963844.0, -4433878.0], [23571828.0, 9713720.0, 7915899.0, -4324800.0, 9746225.0], [49884912.0, -72419592.0, -28822590.0, 3231974.0, 25969336.0], [6144537.0, -14855182.0, -26828892.0, 16505709.0, 39873752.0], [16006576.0, 13236355.0, -19942852.0, 28325708.0, -3939096.75]], [[-26956786.0, -18035348.0, 2113690.0, 6799852.5, -39752520.0], [-37197596.0, 28924728.0, -20126124.0, 30231956.0, 17124468.0], [-37169536.0, -37469680.0, -30123196.0, -23127092.0, -19295224.0], [23181936.0, -54172944.0, 36345980.0, -5113486.0, -67459024.0], [-43862148.0, 49367864.0, 13307340.0, -5704143.0, -53800984.0]], [[-42615552.0, 21081552.0, 19546644.0, 88807744.0, 4902940.0], [-18673764.0, 20505572.0, -57559924.0, 13252630.0, 11178314.0], [31361440.0, 21073228.0, 21070996.0, -10759944.0, -2610157.0], [-19009094.0, -20084780.0, 21280508.0, 41105432.0, -4467500.0], [62719632.0, 23755648.0, -18928920.0, 974082.125, 4813508.0]], [[58847160.0, 34973592.0, -47867908.0, -36971064.0, 20778026.0], [16604858.0, -16954284.0, 30942306.0, 63558496.0, 38069672.0], [15540680.0, 55412624.0, 11550370.0, 9098412.0, -4809808.0], [8807459.0, -7469437.5, 10320865.0, -49760680.0, -15415616.0], [8963062.0, 49533852.0, 32306832.0, -516885.0, 7163430.5]], [[-32223054.0, 42875872.0, 6178687.0, -19314208.0, -50477872.0], [-14004660.0, 3093565.5, -2736462.0, -4807623.0, -2396808.0], [49186432.0, -39929680.0, 6762333.5, -19368276.0, 39300072.0], [-5853645.0, -21533486.0, -9845868.0, 18052442.0, -9339924.0], [-10130460.0, -52471012.0, -3194434.0, 65070976.0, -13794804.0]], [[-63096796.0, 29813.5703125, 40004632.0, 52830488.0, 71035920.0], [633521.875, 20989344.0, -40396696.0, -9066425.0, -20780594.0], [18298852.0, 20297014.0, -16645455.0, 15000690.0, 51360096.0], [23423976.0, -304556.1875, -12363990.0, 555654.5, -27040612.0], [-10728242.0, -13323534.0, -26191332.0, -47320884.0, 17341304.0]], [[4991960.0, 44348976.0, -3556396.5, 35497216.0, -26463674.0], [12743847.0, -6476715.0, -69880008.0, 74646832.0, -30622968.0], [-13294176.0, 26485896.0, -52413768.0, -14798809.0, -57713692.0], [21009282.0, -44278240.0, -29598912.0, -24709900.0, 13699235.0], [-49879092.0, -1085893.75, -90437968.0, -41517996.0, 20935176.0]], [[11612708.0, -51287876.0, -32318976.0, -18967312.0, -60787992.0], [9707498.0, 5520693.0, 20121852.0, -42474656.0, -22214368.0], [-20965716.0, -36308344.0, -33448440.0, 66635808.0, 17214530.0], [31266918.0, -2142548.5, 46184492.0, -13945221.0, -34726384.0], [-16591242.0, 37265636.0, -28426292.0, 54295848.0, -373898.125]], [[-25737170.0, 21588032.0, 34697464.0, -39579800.0, 13728920.0], [-15175036.0, -10020131.0, -9632987.0, -3723543.75, -12180167.0], [-9753051.0, 38870392.0, 1448019.375, 10465457.0, 16815484.0], [30690884.0, 52777360.0, -30940074.0, 43825048.0, -1457945.625], [-53924380.0, 27191268.0, -11335451.0, 1955596.0, 13081784.0]], [[9739727.0, 14420327.0, 11112356.0, 9807057.0, -1110679.0], [10045396.0, 29569526.0, 12748053.0, 16598299.0, 24432340.0], [-37844628.0, 21165686.0, 22175004.0, 20493924.0, -52276564.0], [8605971.0, -24175096.0, 9594217.0, -15822488.0, -13766116.0], [25387858.0, 36128044.0, 13896818.0, 8786064.0, -16626943.0]], [[31595224.0, -33772500.0, -14005326.0, 48812520.0, 46066760.0], [-27336622.0, -50376864.0, -4794301.5, 11156236.0, -43602936.0], [-22300156.0, 18783790.0, -42574320.0, 27662496.0, 17182804.0], [-20966724.0, 59783416.0, -21628826.0, 15120674.0, 22355148.0], [-1436970.375, 13035289.0, -7247628.0, -8293020.0, -15606068.0]], [[-14833513.0, 21106416.0, -31692624.0, -22977844.0, -19821228.0], [3461903.25, -17815102.0, 25826304.0, -13311430.0, 5219195.0], [35934336.0, 291365.84375, -18317976.0, 26056420.0, 16484347.0], [-1945069.75, -21817980.0, 3490371.5, 9384165.0, -5332846.0], [2794753.5, -11417141.0, -8645381.0, 32207776.0, -34858896.0]], [[-23145538.0, -42853376.0, -19826202.0, -33013248.0, -61281696.0], [16342495.0, -27707620.0, 23377124.0, -43837.19921875, -33625648.0], [-41249128.0, 28668012.0, -34313840.0, -7408503.0, -5003374.5], [-8985169.0, -21606292.0, 45686252.0, -48963456.0, 9513777.0], [38658944.0, 65759880.0, -16530666.0, -17533350.0, -20098940.0]], [[17778512.0, -14487782.0, -5305993.0, -926241.1875, -5324560.0], [-14548526.0, -7823183.0, 9482750.0, -11361822.0, -24307706.0], [-36272272.0, 6809565.0, 36562960.0, -58118012.0, -42395336.0], [-39089624.0, -2732973.0, 39992392.0, 4580589.0, 2749079.5], [-22094448.0, 37716400.0, 17555714.0, -7803654.0, 16523484.0]], [[-6648969.0, -40587056.0, -68392112.0, -15229027.0, 11437791.0], [-13365378.0, -6585218.5, -25612740.0, 15164317.0, -52628004.0], [1346800.5, -10215172.0, -7238154.0, -2676394.0, 92374464.0], [24581086.0, -9140330.0, -28493600.0, 32288094.0, 28614162.0], [-7197188.0, 11798507.0, -27562842.0, 4141087.5, -30238666.0]]], [[[-4531138.0, -44594568.0, 355554.4375, 29512880.0, -27755252.0], [8513780.0, -15628292.0, 19155896.0, -10276458.0, 45877400.0], [-85669456.0, -2243906.5, 20259088.0, 10442094.0, -4753421.0], [-595687.25, 1570693.125, -41744624.0, 38089144.0, -18040666.0], [566088.6875, 20368208.0, 300411.78125, -52292636.0, 5064960.0]], [[-31966206.0, 3892881.25, -43043408.0, 36169880.0, -4130418.0], [-18614688.0, 58437740.0, -44476536.0, 6811705.5, -17333372.0], [21521360.0, -1163856.0, 17845864.0, 74707680.0, 45012040.0], [44287200.0, -7178050.0, 29153394.0, -41545488.0, 803065.625], [-24418106.0, 8470658.0, 57372344.0, 34276680.0, 34876744.0]], [[51702252.0, 31768726.0, 63729572.0, 878292.3125, -3658446.5], [32625408.0, 23249016.0, -25204680.0, -15423279.0, 28552092.0], [-22331952.0, -34627912.0, 60140384.0, 4611263.0, 9675362.0], [35246256.0, 40347316.0, -5486713.0, -28288764.0, 59521704.0], [35894516.0, 4148555.5, -17695896.0, -26958464.0, -45845304.0]], [[-79716808.0, 5536283.0, -26207180.0, -11742975.0, 48836352.0], [-16849800.0, 15397366.0, 21198078.0, 62385540.0, 65262028.0], [-12644016.0, -16480539.0, -26479716.0, -9160462.0, -35830072.0], [10580831.0, 99615552.0, 9531089.0, 32906650.0, -21891556.0], [11595056.0, -10636515.0, -22840472.0, -14441610.0, -441548.09375]], [[364659.09375, 46411216.0, 43805436.0, -10242516.0, 29624690.0], [-16537864.0, -10645472.0, 100110928.0, -14518541.0, 846748.125], [-31362470.0, -23244594.0, -35582028.0, 1744504.25, -39485008.0], [45548384.0, -33894256.0, -20857392.0, 10506381.0, -64992120.0], [-32672908.0, 26027868.0, -20164868.0, 2429564.5, -15245223.0]], [[26421204.0, 382409.6875, 4785619.0, -8272418.5, 1406653.25], [-12898911.0, -20612460.0, -20521052.0, 23184006.0, -20461848.0], [-16880640.0, 9708288.0, 20595500.0, -7301987.0, -2994393.5], [12715320.0, -13826655.0, -941721.875, 21920240.0, -15511692.0], [14681418.0, 47024288.0, -39608104.0, 18485264.0, -47496560.0]], [[11838768.0, 6977803.5, 49858036.0, -57316128.0, -26370808.0], [36304424.0, -28277896.0, -31620040.0, 3259327.5, 13767843.0], [43896652.0, -1575222.0, -38484520.0, -18466584.0, 23831224.0], [-12109508.0, 23966676.0, 35556088.0, -6060966.0, 12448.51953125], [-18777232.0, -17017116.0, 63317660.0, -39438304.0, -54583880.0]], [[1119906.875, 1215003.5, 22177150.0, -9299697.0, 12500780.0], [-15945830.0, -24674456.0, -16402327.0, -6485896.0, 114071.5], [-22125894.0, 2575875.25, -32034642.0, -2874813.75, 14413530.0], [21212830.0, -34160128.0, -42392584.0, 34713776.0, 21339668.0], [-34610844.0, -23126326.0, -34760656.0, 29223016.0, -20862428.0]], [[14922339.0, 24459990.0, -55059700.0, -7455253.5, 38077020.0], [21147428.0, 4423090.0, -8332579.0, -30372828.0, 6619269.5], [52058760.0, 40142248.0, -102902008.0, 11108386.0, -3386683.5], [-10416119.0, 14195580.0, 5928228.0, 10739171.0, -26465400.0], [-49433412.0, -1355540.25, 55307316.0, 16391196.0, 484943.53125]], [[-49358236.0, -25108236.0, 13746637.0, 56496648.0, 10347374.0], [-14642190.0, 40938984.0, -8181667.5, 56959560.0, 23168136.0], [-8321506.5, -8844334.0, 13162429.0, 12933604.0, -32044872.0], [37776048.0, -10311171.0, 5477211.0, 20108532.0, -1255626.125], [-60063048.0, 40956924.0, 15189344.0, 3206510.25, 13066442.0]], [[-20353896.0, 34680072.0, -66128196.0, -2170716.0, -47316976.0], [-51942168.0, -12626146.0, 16605532.0, -18961068.0, 17106088.0], [-2672200.5, -20382974.0, 23685640.0, 33476250.0, 14111876.0], [-6051696.0, 31096564.0, -48117256.0, 24860692.0, 22896778.0], [-19050646.0, 19939468.0, 8415349.0, -12810774.0, 991743.3125]], [[29605728.0, 21303244.0, -38887608.0, -3461681.5, 50931340.0], [-18571200.0, 22154520.0, 16647632.0, 25572924.0, 4558789.5], [-11057372.0, -11852665.0, 45651636.0, 10242381.0, 13462826.0], [26729260.0, -47474448.0, 82441632.0, 23649246.0, -2612949.5], [31757460.0, 33086904.0, 11732496.0, -73437616.0, -31373616.0]], [[-2544615.0, -20821722.0, -54085296.0, -28276746.0, -32492496.0], [32560172.0, 89849920.0, 21477132.0, 46905048.0, 14940927.0], [-24300116.0, 354004.8125, 18096108.0, -21745060.0, -20031924.0], [63830276.0, -4586167.0, 8503774.0, -28586816.0, 17903128.0], [75622520.0, 15241031.0, 9751154.0, -4770835.0, -44856720.0]], [[33581888.0, 49475708.0, 7956412.0, 59630912.0, -5144196.0], [33170310.0, 15876336.0, 11233729.0, 20476868.0, -21327820.0], [-43794548.0, -18586404.0, 14232458.0, -7678505.5, -70263216.0], [-43876740.0, 33946820.0, 45072168.0, 14709032.0, -10145322.0], [-97180520.0, -3954183.0, -12240017.0, -17739796.0, 12366000.0]], [[74982912.0, 39701160.0, -3929775.75, -15873942.0, -19027564.0], [-19292688.0, -19265536.0, -14878244.0, 21247464.0, -28352788.0], [10245964.0, -18318652.0, 44986864.0, 13764542.0, -20311620.0], [62550104.0, -33357348.0, 10187021.0, -6802030.0, -1242312.0], [-18109198.0, -735888.375, -18516172.0, -27762584.0, 19433760.0]], [[4352191.0, -20284032.0, -45051904.0, 24076432.0, -1174943.5], [6845434.5, -14282912.0, -31723844.0, -18181536.0, 7619848.5], [-22611842.0, 28292880.0, -24760506.0, 20168800.0, 36093904.0], [7354504.0, -63245992.0, 4064911.0, -38669712.0, -1233667.875], [-28057360.0, -29639182.0, 37238604.0, -11381940.0, -44897688.0]]], [[[62289232.0, -42217960.0, 9095274.0, -47196964.0, 1665946.125], [-38556240.0, 60801944.0, 26599120.0, -23790856.0, 1909971.375], [-60797312.0, -59627152.0, 1921484.375, -11701498.0, 5434727.0], [-6085311.0, 760696.5, 39176144.0, -16948070.0, 17859716.0], [19095032.0, -17353412.0, -15138690.0, -15779779.0, 19144448.0]], [[-64617216.0, 6987285.5, -39054800.0, 36768960.0, 19210832.0], [44059792.0, -16988492.0, 31816074.0, -21135044.0, -14234863.0], [20361684.0, 21245832.0, 30130888.0, 7127674.0, -2567537.5], [15098208.0, -7661343.0, -3191127.5, 26065954.0, -23108692.0], [8963981.0, -61221312.0, 52159884.0, -10909116.0, -17645690.0]], [[6651147.0, -1648099.25, 21704884.0, -37005328.0, -976933.6875], [45867636.0, 21836576.0, -382122.375, 45922644.0, 46747728.0], [18282964.0, -13748599.0, 34313692.0, -15286594.0, -9699959.0], [-10744044.0, 18125732.0, -960386.5, -41742784.0, -41807840.0], [67284968.0, 9700300.0, -3560704.5, -36412968.0, 8073754.0]], [[-10779299.0, -35662288.0, -700516.5, 20162036.0, -46513232.0], [-15191661.0, 10490376.0, -32337532.0, -14223255.0, -5326631.5], [-57195264.0, -35895216.0, -18663310.0, -16671943.0, 6617437.0], [52274568.0, 30603496.0, 27888252.0, 18032984.0, 14938203.0], [71014928.0, 16722148.0, -45116272.0, 47952696.0, -79509136.0]], [[13907090.0, -19434466.0, -28700028.0, -31300202.0, 10177914.0], [-38303448.0, 430480.96875, -43530004.0, 34124592.0, -35973936.0], [32398286.0, 12562819.0, -31014744.0, 41197896.0, -27927112.0], [-13574330.0, 30478700.0, -30698400.0, -5982114.0, 12892308.0], [83316288.0, -35991628.0, 6273432.0, -42977580.0, -19880414.0]], [[-41055320.0, 19378070.0, -18348412.0, -4045423.5, -46108100.0], [-43270976.0, 5587749.0, 4697742.0, 6934951.0, -4978591.0], [1019931.6875, -44392568.0, 29570512.0, 8376142.5, -10427406.0], [-82787032.0, -28757312.0, -30275868.0, -24738668.0, 53187408.0], [52428440.0, 25165716.0, -26637180.0, -27674936.0, 31249586.0]], [[6142663.5, 27985748.0, -24922982.0, 14194628.0, 16585712.0], [-12775148.0, -40003752.0, -15270144.0, -26480862.0, 22828502.0], [-24860656.0, -37445216.0, 54230064.0, -18114216.0, 1275197.75], [-21781186.0, -10063770.0, -21699284.0, 14316885.0, -16639659.0], [41783056.0, -27467990.0, 53248224.0, -2469653.25, 1983660.0]], [[4582926.0, 22700616.0, 782894.75, 27386728.0, -16033746.0], [-62058616.0, 91574240.0, 47261268.0, -21206122.0, 62911528.0], [55652184.0, 37333084.0, -17151856.0, -53645480.0, -37145992.0], [-14549360.0, -24542780.0, 22734982.0, -33370540.0, 29757364.0], [27504432.0, 21201172.0, 94858.1796875, -6970993.0, -10551360.0]], [[-14209218.0, 11168964.0, 19081348.0, 19242722.0, -8304244.0], [-45693312.0, 34113176.0, -3826839.5, 8822008.0, -4856103.0], [-37659736.0, -27459062.0, 8369624.0, -47735264.0, 29233128.0], [-41522000.0, 7792909.0, 4783037.0, 18252860.0, 19644680.0], [15464262.0, 36950496.0, -17337268.0, -2899000.5, -18278332.0]], [[32239850.0, 41903224.0, -77233584.0, 125968.28125, -23152776.0], [42471540.0, -12360840.0, -23871426.0, -27112792.0, -39742888.0], [-10319778.0, 49945448.0, 49577072.0, 29697884.0, 22132500.0], [5472537.0, -12384735.0, -101374408.0, -38555212.0, -7678504.0], [10743957.0, 25600100.0, 39480536.0, 403256.625, 13146844.0]], [[34565128.0, 18517446.0, -6782004.0, -26277856.0, -10763927.0], [-4142707.5, 31764882.0, -1320801.0, -10636358.0, -801011.625], [-519843.03125, 4097052.25, 63359028.0, 18731242.0, -2171255.5], [8193340.0, 6135890.0, -3069900.0, -16811818.0, -31544184.0], [-7602012.0, -66910736.0, 8542479.0, -15592050.0, -221654.109375]], [[-13604350.0, 17245220.0, -9498345.0, 5523739.5, 3984332.5], [5610590.0, -1422214.375, 49755920.0, 45878248.0, -10686734.0], [-30137420.0, 2842298.75, -20653616.0, -17559908.0, -22344274.0], [38612744.0, -14055339.0, 20791584.0, 23125728.0, -21195912.0], [7563856.0, -66018192.0, -5818693.0, 5678485.0, -15653301.0]], [[-911745.875, 69080240.0, 9319456.0, -50478252.0, 17106836.0], [29157282.0, -16449766.0, 19780348.0, 38969420.0, -60039672.0], [-6760382.5, -15951316.0, -18904060.0, -31357400.0, 5237632.0], [-20082642.0, 6563655.5, -32665048.0, 35499376.0, -23682420.0], [3135348.5, -8071020.0, -10101924.0, -5566350.0, 8513879.0]], [[-32871980.0, -21725552.0, 86492616.0, 49919572.0, 13550105.0], [-4708111.0, 19426760.0, -11004487.0, -32090600.0, 33811972.0], [31234764.0, 9188898.0, 15793286.0, 10540450.0, -27428410.0], [-28744080.0, -28375182.0, 14414244.0, -18781540.0, -11713427.0], [-17536914.0, 9307.859375, 11297764.0, 18513154.0, -4524597.0]], [[-3061566.25, -3011309.25, 24250016.0, 15261031.0, 5801670.0], [-23486106.0, 15819905.0, 26343214.0, -54305448.0, 23286504.0], [-17872616.0, 37404400.0, 28194590.0, 8623736.0, -6034413.0], [4148070.25, 4670607.5, 17367490.0, 3655057.5, 2658748.25], [16650404.0, -15658008.0, -13638106.0, -26912672.0, 27651822.0]], [[30199340.0, -2396465.0, -62951288.0, -25849068.0, 16144702.0], [40851164.0, -14014360.0, 8270273.0, 8976304.0, 70053856.0], [-13073728.0, -4725474.0, 41282656.0, -6523584.5, 6956317.5], [-1301474.25, 27417608.0, 52779036.0, 65879580.0, 32757540.0], [33541674.0, 76626368.0, 2741477.0, -55685692.0, -33569048.0]]], [[[-4257802.0, 36737664.0, -21834492.0, 5974850.0, -38914272.0], [2727918.25, 44980908.0, 42741264.0, 34619752.0, 998160.4375], [42332040.0, 17498832.0, 25454804.0, -37585932.0, 68772688.0], [-30669966.0, 11304536.0, 10632776.0, 36136840.0, -4519423.5], [-78543440.0, -56566600.0, 22650428.0, 44177600.0, -4737937.5]], [[53714472.0, 8070688.0, -21040098.0, -70993024.0, -12326012.0], [-27787748.0, 17621200.0, -15972440.0, 6419049.5, 3491829.0], [18541992.0, 6940042.5, -11557634.0, -10372734.0, -3002000.25], [-570264.1875, 15025809.0, -14554071.0, 16654758.0, 47752536.0], [-38668056.0, -16289848.0, 10726750.0, -11680131.0, 26251310.0]], [[36267080.0, 14715602.0, 12933512.0, 49389976.0, -423637.625], [-43727160.0, 14318991.0, -3311230.5, -3841436.25, -2744565.75], [-17692072.0, -861909.9375, -1613556.875, -1670519.25, -64088616.0], [-57164004.0, -54885368.0, 1412350.5, -3379611.5, 5921287.5], [-640018.25, -16259773.0, -18118672.0, 21331644.0, 503836.90625]], [[8541040.0, -21391316.0, 4626301.0, 38302964.0, 26205516.0], [-20221644.0, -21258414.0, -13527486.0, 9631398.0, 63146616.0], [-5486056.5, 9238120.0, -15218778.0, -35087940.0, 17087660.0], [26697804.0, 3459496.5, -26316588.0, -26154738.0, 37524464.0], [28835964.0, -17429492.0, 17941976.0, -12882414.0, -11619054.0]], [[-30732288.0, 494142.625, -11226172.0, 84152176.0, 32671024.0], [5210030.5, 51233880.0, 50855148.0, 26729596.0, -31888892.0], [-22820164.0, -53914284.0, -38736960.0, 7439199.5, -1455481.5], [23631436.0, 32790974.0, -30955872.0, 40268520.0, -19717928.0], [65123448.0, 8835544.0, -55357416.0, 29572302.0, -53646512.0]], [[-17399768.0, -17125108.0, 17756492.0, 12607533.0, 15309912.0], [-54606168.0, -44044248.0, -11546934.0, -38464280.0, 1502482.5], [-9964398.0, 2770543.75, -25740240.0, 3111820.0, -8529832.0], [22561408.0, 30299734.0, 7394892.0, -28276050.0, -26595882.0], [-53496796.0, -25503168.0, 21176316.0, -30606324.0, 27152296.0]], [[-18542536.0, -40256928.0, 811210.9375, 34485632.0, -30772566.0], [843666.125, 1636093.125, -1863673.0, 10446156.0, 41939048.0], [25361520.0, 19763064.0, 29624632.0, 18402104.0, -1134325.75], [-26877628.0, 32012590.0, 431074.59375, 4078207.5, -11866324.0], [-36333496.0, -32028218.0, -4235695.5, -34898664.0, 8744751.0]], [[-16605664.0, 65385792.0, -1177057.125, -50963820.0, 12528303.0], [-40624352.0, 30666404.0, -51417000.0, -2871338.0, -14099514.0], [14506584.0, 45395744.0, 7087298.0, 25054488.0, -44024300.0], [11801895.0, 56475852.0, -79702864.0, -31380476.0, 2720180.25], [29947158.0, 14344968.0, 5245719.0, -3063401.5, -32838868.0]], [[9910552.0, 12158751.0, -24072632.0, -12285846.0, 19129760.0], [8657215.0, 37602648.0, 47515256.0, 60118504.0, 16411425.0], [11788953.0, -36624528.0, 10804552.0, 28952412.0, 7381804.0], [43195580.0, -34423664.0, 25382104.0, -20632816.0, 11441964.0], [-3556142.5, 215207.171875, -55629932.0, -16772960.0, -3064271.25]], [[492390.375, -10143884.0, 5016888.0, 22141198.0, 14776423.0], [-55594776.0, 2801280.0, 8938121.0, -6860983.0, 11354011.0], [553255.3125, 22681404.0, 21852160.0, -433466.5625, -17187088.0], [-24753828.0, 6796123.0, -30865148.0, 30076742.0, 25559692.0], [14820422.0, 36886836.0, 2753334.5, 1727892.75, -6807348.0]], [[49492208.0, -30029816.0, 55206256.0, -21349320.0, -28827240.0], [9639904.0, -28447220.0, -23227340.0, 23973338.0, 43936152.0], [4927894.0, 3399280.5, 12705354.0, -48454480.0, 24953696.0], [-12556149.0, -8311280.5, -46600956.0, 46931572.0, -91171936.0], [6960710.0, 69595152.0, -3863219.75, 10501434.0, -43396176.0]], [[-9337446.0, -15968499.0, 12636187.0, 523989.375, -56873160.0], [-40014856.0, -12796860.0, -44953208.0, 19632092.0, 10174098.0], [-25542704.0, -17329678.0, -16891380.0, 28194642.0, -2323645.75], [-29228766.0, -13284749.0, -37074940.0, 13013970.0, -40487096.0], [16369558.0, 32539700.0, -16118624.0, -33989748.0, 8742905.0]], [[25586872.0, 46307224.0, 9073418.0, -5176086.0, 49860496.0], [-37431520.0, -49809292.0, -11120910.0, 47007828.0, 23813412.0], [52124712.0, 54798472.0, -1420797.75, -14374806.0, -892101.0625], [-11068150.0, 10938002.0, 4594823.5, -18048692.0, 7881832.5], [-5555881.0, -18073356.0, -25205402.0, 48810224.0, 827739.25]], [[-5112365.0, 4918239.0, -21426532.0, -15452058.0, 8899974.0], [-50062016.0, -9247772.0, 12710505.0, -52646032.0, 27678732.0], [13703410.0, 16030716.0, 22022772.0, -7575574.5, -21395664.0], [24833290.0, 20575800.0, 885711.0625, 24795352.0, 14717054.0], [16222584.0, 25290464.0, -37812420.0, 28648218.0, -33490420.0]], [[7125861.5, -87775056.0, 32581856.0, 21676946.0, 34540408.0], [-9845718.0, 5737999.0, -4219271.0, -41336336.0, 38636360.0], [-15553574.0, -20002746.0, 2401272.0, -10515954.0, 8721968.0], [-58815852.0, -47982788.0, -36610000.0, -6927565.5, -37074120.0], [15666175.0, 22659680.0, -23679514.0, -26727424.0, 10790910.0]], [[-4097618.25, -24553854.0, -1961692.5, 3966531.0, -28987688.0], [23893090.0, 927934.625, -52985680.0, 48554704.0, -31300536.0], [43703252.0, -21751842.0, 2452489.75, 4185911.5, 18644130.0], [-25382588.0, -5278591.0, -30360744.0, 4515451.5, 1948921.0], [2920908.0, -8392161.0, -44832720.0, -10128872.0, -11525335.0]]], [[[28950668.0, 5789374.0, -33281936.0, 12356617.0, -32790220.0], [-19291544.0, 6749657.0, -4659238.0, 12194956.0, -41785152.0], [-46303052.0, -18721252.0, -2961063.0, 12993260.0, 12407478.0], [18051416.0, 12311888.0, 46418864.0, -10291246.0, 26264540.0], [27657172.0, -39518236.0, -56480792.0, -36493228.0, -35890288.0]], [[34518472.0, 41799672.0, -38689760.0, -3618510.75, 37421836.0], [78109600.0, -27198204.0, 50330288.0, -46575376.0, -2825226.25], [-18074080.0, 12541268.0, -709136.625, 22420542.0, 14226940.0], [13088415.0, 33042944.0, 38357264.0, 26450766.0, -32649840.0], [21259204.0, 31442232.0, -3055640.75, -5753298.5, -16520586.0]], [[-25269120.0, 26437546.0, 1872348.75, 8403892.0, -8438763.0], [58407704.0, -25483082.0, -1512428.5, 44003288.0, -9183618.0], [-78922624.0, 4926583.0, -6188721.0, -12270884.0, -28515762.0], [30955088.0, 16701344.0, 36316496.0, 72896304.0, -6010299.0], [6794873.0, 55965724.0, 37402084.0, 25602532.0, -69411920.0]], [[32800084.0, -4576266.0, -52227588.0, 25968798.0, -3474055.25], [-20833596.0, 1491734.875, -18264878.0, -71925856.0, -33136140.0], [-33478938.0, 15899558.0, 3326565.5, -26705712.0, 3531582.75], [3103504.5, 2518470.0, 14606200.0, 75746312.0, 3530021.25], [16614048.0, 7177408.5, -78149792.0, -55750260.0, 25449306.0]], [[-11919044.0, -40186392.0, 22874776.0, 2207651.75, 38288224.0], [16921426.0, -39990408.0, 866625.875, -5591461.5, -31700066.0], [35162592.0, 41405032.0, 6797262.0, -26693874.0, 9580152.0], [17632562.0, 48793656.0, -17495280.0, -21680800.0, 32743828.0], [-11583352.0, -38400736.0, 43175288.0, -15695504.0, -6367002.5]], [[37143796.0, 36633680.0, -35979908.0, -26295204.0, -1532642.5], [9998526.0, -34110848.0, -240408.34375, -52485548.0, 78175360.0], [-639930.875, -38532056.0, -36952888.0, 12819365.0, -9061039.0], [-4168259.25, 95076176.0, 6412135.0, 15204279.0, -19171306.0], [-43873772.0, 81523424.0, -18350976.0, 25452192.0, 18528690.0]], [[31196740.0, 53487160.0, -10994948.0, 20565808.0, 29943964.0], [16223862.0, -10710228.0, -28220840.0, 30372996.0, -12329404.0], [32379132.0, -17406112.0, -25798536.0, -17070356.0, -21030954.0], [31957812.0, 7505339.0, 1006904.375, -14153182.0, 34136800.0], [-2139994.25, 3141754.25, -1591155.75, 20253040.0, 44306220.0]], [[14540701.0, 74809960.0, -30068136.0, 7581670.0, 16843678.0], [-10246818.0, -30844440.0, 4070643.75, -19348732.0, 14618391.0], [5310010.0, -4345983.0, -36222796.0, -9936424.0, -61624140.0], [-42934712.0, -1243100.0, -38627520.0, -4732494.0, -17561556.0], [-5162719.5, 25624688.0, 16014957.0, -8223495.0, 18601426.0]], [[-29136914.0, 16920180.0, -56460844.0, 25316168.0, 12302066.0], [17646282.0, -12395637.0, 11986854.0, -4295874.0, 6374191.5], [7768077.0, 26940412.0, -23579684.0, 25057860.0, -20241392.0], [-63099800.0, 18413756.0, -53118188.0, -49281644.0, 14040872.0], [19701496.0, 25609248.0, 14123754.0, 7039165.0, -9088553.0]], [[-18356208.0, 24159520.0, -6131711.0, -2184715.5, -49442320.0], [-23720060.0, 23581428.0, -7901334.0, -12681855.0, -14529458.0], [26049664.0, -8110492.5, 19473992.0, -53088584.0, 71113456.0], [-17790392.0, 32146570.0, -12542255.0, -39548776.0, 26202324.0], [4677617.5, -41974300.0, 50538440.0, 5453848.5, -15093751.0]], [[-21051944.0, 66312108.0, 21322504.0, 38562240.0, 38634716.0], [28108518.0, 13779222.0, 27881180.0, -13178594.0, 17278456.0], [9797548.0, 50857936.0, 40823120.0, 70578440.0, 2223849.25], [4503205.5, 28894024.0, 24986820.0, 11238122.0, -676742.5], [-39243768.0, -35820232.0, 7384396.0, -34557224.0, -24741124.0]], [[43431552.0, -25876502.0, -22074080.0, -31005006.0, -35455408.0], [-15245242.0, -12246471.0, -25580784.0, -14831601.0, 27860560.0], [23389860.0, 35123328.0, 2307777.25, -33242780.0, -3142970.75], [42444488.0, -53406060.0, -33465136.0, 45137116.0, -10468959.0], [-84843552.0, -23315010.0, 14084050.0, -25430660.0, -8867048.0]], [[55425896.0, -43123772.0, -13106086.0, 21355736.0, -15429405.0], [-56768336.0, 49144860.0, 23599468.0, -3701650.5, 8785832.0], [-8649535.0, 42350792.0, -204062.34375, -86507664.0, -22005712.0], [29617506.0, 10989291.0, 20111388.0, -12892734.0, -25307676.0], [-12008450.0, 3352893.25, 22114518.0, 1384179.125, 45147408.0]], [[-60296932.0, 3775242.25, 74360336.0, 19410636.0, 11228495.0], [36623328.0, -1440829.125, 24948520.0, -16674703.0, 14515244.0], [7244040.0, 5990841.0, -3540050.25, -8004468.0, -13624088.0], [1647756.0, 5599446.0, 35366824.0, 71438160.0, 12571053.0], [-20495318.0, -29482104.0, 35163176.0, -24141792.0, -14992196.0]], [[10598562.0, 23144332.0, -23805898.0, -3915517.5, -15367134.0], [7883196.5, -7325715.0, 41853552.0, -13763464.0, 50040920.0], [-6551392.0, 25597506.0, 45870648.0, 7125686.0, 24001624.0], [42915264.0, -29089116.0, 25163108.0, -40106904.0, -51452616.0], [18392604.0, 3343358.0, -23615480.0, -46095060.0, 34109112.0]], [[-15588232.0, -52007488.0, 16679205.0, -21287026.0, 56131612.0], [-13810381.0, -681132.875, -67937696.0, -7913662.5, 61647972.0], [-56812944.0, 69612096.0, 27589002.0, -14111720.0, 4012092.0], [15861539.0, 28178804.0, -5167823.0, -19328772.0, -20362902.0], [6148012.0, -29458540.0, -25843512.0, -29465808.0, -23606890.0]]], [[[-28299940.0, -2838806.0, 41579472.0, -43328112.0, 39636976.0], [-1881966.5, 25879434.0, 13914786.0, 3940566.5, -55359360.0], [-30701052.0, 10487544.0, 4309723.5, -5568468.5, -4529413.0], [-44623840.0, 42748436.0, 12407215.0, -16689906.0, 28283718.0], [4720991.5, -10155845.0, -2771437.5, 52163436.0, 4322740.0]], [[-92035280.0, 30568168.0, -7384320.5, -12804795.0, 41922116.0], [30680234.0, -18002748.0, 11575866.0, 59712512.0, 39272384.0], [34334548.0, 18682958.0, 25531596.0, -9192780.0, 13448148.0], [-46352644.0, -42199024.0, 24087858.0, -21790506.0, -5872012.5], [-10524546.0, -50742272.0, -10951155.0, -12119726.0, 42097200.0]], [[120818.875, 5964832.5, 40432464.0, -35479696.0, -5439189.0], [17910202.0, 16585099.0, 24860580.0, 40487564.0, 33383180.0], [-23031144.0, -39598412.0, 3259716.0, 19920024.0, 45590512.0], [41236784.0, -12906252.0, 41194920.0, -6228258.5, 40743816.0], [-16112892.0, -40130196.0, 29833476.0, 11071877.0, 8247639.0]], [[46054296.0, 1632281.75, -44810176.0, 2485681.25, 40899360.0], [-8874362.0, -2491219.5, -2812208.0, -11337912.0, -17294874.0], [-12867903.0, 5337769.0, 32876192.0, 56748024.0, 144471.15625], [-9214571.0, 11554001.0, 20714412.0, -55848352.0, -13435663.0], [8584152.0, -41245256.0, 63250416.0, -17341136.0, 56130712.0]], [[32253758.0, 23387832.0, -965677.1875, -12563474.0, 50445032.0], [-1819215.75, -43798384.0, 21521796.0, 225406.90625, -58121016.0], [60126000.0, 23343394.0, 10559296.0, -22614438.0, 23666490.0], [17966108.0, -7996380.5, 12546170.0, 3816467.0, 11323094.0], [-35160228.0, -15814224.0, 44389260.0, 25754880.0, 17632736.0]], [[-7140175.5, -4017725.5, -276654.4375, 33628928.0, -6628771.5], [9658918.0, -36249288.0, 25320630.0, 7543108.5, 59391000.0], [20781680.0, -6127432.5, -73996840.0, -11710998.0, -58908440.0], [140528.9375, 30017120.0, -31084140.0, 47939520.0, 26886290.0], [1467826.125, 1103103.5, 14145758.0, 13291196.0, -6615117.0]], [[47994980.0, -26098188.0, 13142070.0, 15382723.0, 27853722.0], [-47321968.0, 9260048.0, 15360099.0, -13020542.0, -1637980.875], [5938249.0, 13528872.0, 16786500.0, -26444898.0, 15936528.0], [25674596.0, -23984500.0, -18412918.0, -36730624.0, 1637291.75], [-47737852.0, 6570165.0, -63935448.0, -34744200.0, -36854192.0]], [[20104838.0, 28228062.0, -39475848.0, 6777702.0, 34459248.0], [-72988208.0, -2611629.75, 16638111.0, 7228598.5, -7639074.0], [19935052.0, -30400192.0, -5855695.5, -10296430.0, -31308090.0], [52213424.0, 24658746.0, -13181794.0, -33731528.0, 31280868.0], [-36365840.0, 47198952.0, -37955936.0, 20688284.0, -38954792.0]], [[1388279.125, 25356808.0, 27540196.0, 4831383.0, -29034450.0], [39184000.0, -24571960.0, -27044988.0, -24100620.0, -9311801.0], [52586968.0, 23927440.0, -839513.75, -12749562.0, -9229982.0], [10322256.0, -60641280.0, 18394420.0, -38127176.0, -29345520.0], [-12482374.0, -13995272.0, 1604688.375, 27331946.0, 38163312.0]], [[-39866832.0, 59206840.0, 73378448.0, -9298685.0, -14164434.0], [32551026.0, 10233040.0, 9338083.0, 6411219.5, 9318156.0], [51947184.0, 13160728.0, -34503860.0, -34635600.0, 41098728.0], [35586544.0, 17994400.0, -37863344.0, -12871784.0, -22343324.0], [-14869287.0, -16503546.0, -56043408.0, 40812840.0, 14605503.0]], [[-31092344.0, 35982620.0, -58478436.0, 42844648.0, -8165359.0], [32427302.0, 18782676.0, 30200462.0, -951742.375, 638197.5], [-5354628.0, 64405404.0, -14909412.0, 11975075.0, 22414384.0], [5016288.0, -4305693.0, -45334520.0, -2283498.0, 29836420.0], [-50213568.0, 1428719.125, 27455738.0, 44322968.0, -52705032.0]], [[8838658.0, 31175570.0, -20554586.0, -38787504.0, 19269354.0], [10649396.0, 33395372.0, 73315584.0, 24261856.0, 31278044.0], [-11064238.0, 32939382.0, 14987010.0, 27278840.0, -21630472.0], [3919421.25, -14426647.0, -22123464.0, -1883635.125, -46165196.0], [33629060.0, -10000458.0, -35678232.0, -12623120.0, 3532248.75]], [[14138860.0, -5638273.0, 30876212.0, -2165670.5, 22800140.0], [-16038661.0, -12664842.0, 25894804.0, 20422308.0, 17852558.0], [-4398846.0, 38934092.0, -9178020.0, 34438600.0, 5977669.0], [-861244.75, -63946752.0, 31922568.0, -25453782.0, 27275538.0], [-58869052.0, -14941155.0, -3374040.25, -14965523.0, -15654629.0]], [[-31101778.0, 7105173.0, -40894352.0, 14576190.0, 11177149.0], [53155272.0, 10153704.0, 19291804.0, 88942.1875, 35669016.0], [-26898096.0, -1387278.875, 58408968.0, 1053766.125, 12669790.0], [-24225886.0, 35889576.0, -49711212.0, -43169304.0, -17427916.0], [25917482.0, -10965418.0, -20955452.0, -26070282.0, 24459490.0]], [[-6155641.5, -14686740.0, 17865098.0, -25227278.0, -27511790.0], [6842871.0, -34082372.0, -4583092.0, 16819826.0, -3999120.5], [59533956.0, -49742884.0, 39981408.0, 62077784.0, -13611928.0], [-6851127.0, 6227655.0, -17392288.0, 515758.5, -33399156.0], [53107388.0, -12195762.0, -57627916.0, -86866152.0, -21065604.0]], [[11546196.0, 3663366.5, 68839584.0, 22827732.0, -15156654.0], [-7863639.0, -29437736.0, -32754882.0, 19126104.0, -5442040.0], [43803688.0, -45663408.0, -9367256.0, -10259034.0, -2425390.0], [-22123416.0, -23584762.0, -38138536.0, -50271528.0, -36315232.0], [673948.0, -15805174.0, -64801656.0, -16247919.0, -40284192.0]]], [[[-52485736.0, -12888268.0, -34560816.0, 19016902.0, -73031816.0], [14179704.0, 64223960.0, -12196750.0, -8559639.0, -10884562.0], [-47231764.0, -8620306.0, -78304192.0, 27971008.0, -42849984.0], [-63503764.0, -12161332.0, 6946282.5, -31471900.0, 10597518.0], [-1822314.5, 43175400.0, 41091984.0, 9837432.0, 49889560.0]], [[-2822050.5, -6941908.0, 6188470.5, -3842304.25, 21744212.0], [-50627152.0, -15617194.0, 6752012.5, -1821354.125, 30413792.0], [44031084.0, 2654855.5, -18234758.0, -4791556.0, -2010926.75], [-25360060.0, -48217204.0, 35344232.0, -52952904.0, -7680475.5], [-6152583.0, 13264792.0, 11168897.0, 79308864.0, -25158714.0]], [[-5537007.0, -6312367.0, 7009272.0, 24216444.0, 22885452.0], [-67071856.0, -8536862.0, -6710214.0, 1848783.125, -55055016.0], [-29870910.0, -20088692.0, 8067468.5, -4093599.75, 63580224.0], [-16919256.0, -16698363.0, 2446160.0, 3080747.5, -14642216.0], [-28023332.0, 25915858.0, -14996023.0, -6231256.5, 34262856.0]], [[55026012.0, -15741450.0, 7785254.5, -46782776.0, -5753126.0], [-17411424.0, 24195198.0, 8978424.0, 4070128.5, 33142332.0], [60836304.0, 4913524.0, 20261622.0, 8898550.0, -10255678.0], [47438200.0, -12115017.0, 50948552.0, -50361276.0, -33292740.0], [-6709534.5, 32776152.0, -14344143.0, 207576.1875, 70698272.0]], [[-17824222.0, 3503930.5, -3620879.25, -5129229.0, 4534206.0], [-40585400.0, 39712048.0, 11428690.0, 3301987.5, -12484596.0], [30519642.0, 10677280.0, 53820248.0, 28167602.0, 12314232.0], [-808326.8125, -16638048.0, -8833769.0, -34378596.0, 31413612.0], [16076948.0, -46357408.0, -37831536.0, -33803088.0, -6418251.0]], [[-5011243.0, -5916530.0, 75114400.0, -5716523.0, 7775348.5], [-26179826.0, 14864595.0, 45519928.0, -1849563.5, -42111952.0], [-10705718.0, -1015884.25, 6669330.0, -35927400.0, 15335514.0], [-3136904.0, 34473952.0, 3663394.5, -28990936.0, 12026479.0], [-13146000.0, -39623716.0, 58876208.0, 63800848.0, 32206810.0]], [[-17900904.0, 20335340.0, -33692080.0, -29868048.0, -23684736.0], [-38410232.0, -19374158.0, -21060216.0, -16627608.0, 16731237.0], [89756832.0, 1793913.375, 81456192.0, 25319188.0, -27286384.0], [-35116652.0, -36691048.0, 8259982.0, -10386455.0, 44146284.0], [-17241794.0, 31447840.0, 61362344.0, 12185263.0, -1514582.25]], [[41768136.0, 12886944.0, -4470499.5, -29306848.0, -98903624.0], [-35009840.0, 24940582.0, 23988328.0, 7217395.0, 43944288.0], [-4494790.5, -19440072.0, -17304392.0, -6730903.0, 39060568.0], [5914140.5, -26682000.0, -17814460.0, -3071787.0, -16521183.0], [-4284813.0, 26127536.0, -28380172.0, -18405736.0, -16285416.0]], [[-3033198.5, 8402271.0, -62892720.0, -18207464.0, 31629192.0], [9007782.0, -8530399.0, -24038164.0, 5559759.0, -9275628.0], [-24975100.0, -47297748.0, 39919376.0, -5657423.5, -32458560.0], [28615144.0, -29848676.0, -34406588.0, 32447010.0, 55091976.0], [-5637689.5, 9372766.0, -69569232.0, -817296.75, -27641274.0]], [[39844140.0, -39863640.0, -25667948.0, -7252290.0, -46392416.0], [-52591656.0, -47451448.0, 24555288.0, -40460296.0, 31403440.0], [-11765766.0, 49058080.0, 2301957.5, 59503296.0, 5156596.5], [-27195972.0, -5482427.0, -12778012.0, -7710941.5, 45238092.0], [-17060248.0, 61846576.0, 26658228.0, -16128962.0, -23923088.0]], [[39497528.0, 13245946.0, -32971368.0, 46455216.0, -18903764.0], [15120302.0, 20516864.0, -17463238.0, -4789069.0, -39346140.0], [-27227548.0, -10041498.0, -14266590.0, -3832914.0, -12179694.0], [294715.5625, -12276496.0, -8440273.0, 24860596.0, -25825498.0], [19385932.0, -29239422.0, 3688898.5, -55079732.0, -1742933.625]], [[55011924.0, -27106236.0, 29337924.0, 13996763.0, 16733256.0], [49676868.0, -21442684.0, 44466496.0, 45563224.0, 10313640.0], [13547042.0, -30350308.0, 64474888.0, 61652144.0, 16324285.0], [22474024.0, -22760772.0, -12724394.0, -12155756.0, 58383512.0], [-1995753.875, -26588380.0, 21256164.0, 45260892.0, -22796970.0]], [[26169628.0, 6270897.0, 23353840.0, -25520224.0, 33303000.0], [56848208.0, -20932344.0, 39716096.0, 33565120.0, -41949968.0], [-65072888.0, 4603645.5, 36497168.0, -33563068.0, 8434795.0], [10654001.0, 22472766.0, -24961976.0, -9442040.0, 31466754.0], [-21458376.0, 12768125.0, -37221416.0, 21603972.0, 8590043.0]], [[-9994776.0, -14924354.0, -80010608.0, -14704818.0, -27908660.0], [-307466.40625, -15955459.0, 5951324.5, 28578682.0, 6653289.0], [5105593.0, 22004124.0, -29050012.0, 5687664.5, 25219998.0], [31327238.0, -7283951.0, 26257766.0, -4228056.0, 7467987.0], [-31155314.0, -45148856.0, -5498421.0, 17292236.0, 23927302.0]], [[-49145892.0, 51248928.0, -15450921.0, 23979436.0, 812467.6875], [8596965.0, -14862094.0, -3998591.0, 895663.5, 34171308.0], [-30572238.0, 20787464.0, 8420333.0, -1815248.25, -19529714.0], [-12912981.0, 67516.359375, -26781842.0, -21952412.0, 61101048.0], [-697906.375, 3917540.5, -51082712.0, 30394224.0, -42877216.0]], [[26775956.0, -1936435.5, 6298963.0, 7283952.0, -3557259.25], [-42809336.0, -27687924.0, 36110352.0, -17370344.0, -8735481.0], [63152968.0, 45422656.0, 53600652.0, 12440424.0, 12687405.0], [-83932200.0, 8707542.0, 47391504.0, -15053376.0, 89580496.0], [-8418534.0, 51007344.0, -64519972.0, -27695160.0, -7638771.5]]], [[[8535598.0, 56121824.0, 830545.875, -41608508.0, 19146916.0], [-5795687.5, 16847644.0, 38993216.0, 7594090.5, 79742368.0], [-39914536.0, 18594608.0, 11338930.0, -35100608.0, 5944224.5], [14881448.0, 19084696.0, -7349931.0, 10945928.0, 1353996.375], [-3039171.0, 67925168.0, -4133228.5, -4539063.5, 17120200.0]], [[66613504.0, -16728364.0, 13114156.0, 21431062.0, 7106734.5], [24860368.0, 3972036.5, -3322293.75, -23963556.0, -50761044.0], [-87104928.0, -68831440.0, -4334218.0, 29581458.0, -4783314.5], [-24587036.0, -15812556.0, -10932712.0, -8677692.0, -57508020.0], [-1334862.0, 28356640.0, -18285066.0, -30037614.0, 19543964.0]], [[-18808588.0, -39990200.0, -3751671.5, -42910428.0, -17118830.0], [39448648.0, -79551864.0, -14284692.0, -16568871.0, 48892700.0], [-52255120.0, 31995400.0, -32571936.0, -45624360.0, -906666.5625], [48937648.0, -30062150.0, -76238144.0, 55318124.0, 53473088.0], [17604226.0, 27978452.0, -11139092.0, -21943380.0, 12550049.0]], [[-4203892.0, 14931589.0, 23541420.0, -59479036.0, -18489760.0], [19626612.0, -67403096.0, 63585376.0, -3241771.5, -9892522.0], [19221018.0, -12703007.0, 25838844.0, 25992136.0, 40806936.0], [11545332.0, -83766432.0, 23019296.0, 936654.25, 25052348.0], [-6593746.5, -27139056.0, 28777468.0, 43425276.0, 9832211.0]], [[-24171730.0, 16786762.0, -30559864.0, -41514632.0, -5894613.0], [-41769836.0, -50831560.0, -6846961.5, 36043728.0, 9561059.0], [-21397236.0, -39345064.0, -33009288.0, -39126352.0, 37525516.0], [-5014522.0, -49014240.0, -30383230.0, -21020860.0, 21729180.0], [16891272.0, 1173280.875, 12702192.0, -70895696.0, -53414088.0]], [[17696796.0, -44643336.0, -69030824.0, -15309652.0, -18188776.0], [26872044.0, 6053561.0, 50263176.0, 7045901.0, 20895966.0], [15081534.0, -15740336.0, -32325268.0, 1158068.5, 8197295.0], [-38968688.0, -8621788.0, 7767672.5, -58959848.0, -12554238.0], [23937030.0, 73958000.0, -9942814.0, -9043079.0, 65731744.0]], [[24142114.0, -8721163.0, -3287054.5, 21824820.0, 17888380.0], [42960500.0, -1894604.625, 73362040.0, -5751720.0, 26343162.0], [-29734722.0, -18245360.0, -5923731.5, 28727296.0, 86952784.0], [7760461.5, 6250124.0, 22176088.0, -25146460.0, -28580032.0], [40500888.0, 16742352.0, -28840060.0, 513331.75, -36694828.0]], [[49449804.0, 20798588.0, -13167332.0, -22582102.0, -7421879.0], [48864272.0, 57769160.0, 43929336.0, 62312232.0, -2528735.0], [1012552.3125, -26047878.0, 9690554.0, 21940368.0, -24279880.0], [-19669440.0, 16556213.0, 12040448.0, 44438656.0, -11945802.0], [15746300.0, -14634374.0, -28978844.0, 29880734.0, 10948594.0]], [[4924495.5, 37758904.0, 37134560.0, -31263474.0, -10407748.0], [3559021.75, 64266620.0, -12791163.0, -43594392.0, 20968282.0], [-22357562.0, -10711378.0, -23207640.0, 32130156.0, 43323352.0], [10294833.0, -45377208.0, -34225244.0, 18574544.0, -43817016.0], [-49220904.0, -69937352.0, 30154406.0, 31589676.0, -7063564.0]], [[-23719520.0, -84673840.0, 12604604.0, -11982284.0, -20890572.0], [-61925732.0, 22199060.0, -68177088.0, 47079688.0, -11012330.0], [-68145360.0, -18022912.0, 3098239.0, 4496054.5, 25059936.0], [24849916.0, -21015860.0, -9857208.0, -27504264.0, -29516722.0], [-33509448.0, 24744416.0, 13538137.0, -21876916.0, -51957972.0]], [[-24763434.0, 42564784.0, -47537484.0, 21365260.0, -16173126.0], [-15047749.0, 32045212.0, 13894300.0, -10415682.0, -24662830.0], [-10244736.0, -34758128.0, -31508824.0, 22714768.0, 42620252.0], [-35027400.0, -43999880.0, -17853810.0, 18139332.0, 20658568.0], [2454888.5, 57106552.0, -353685.125, -41947296.0, 24794496.0]], [[13875495.0, 28675656.0, -21232332.0, 4543431.5, 41483168.0], [-63655552.0, -22562660.0, 9393334.0, -22811004.0, 26792576.0], [-39335940.0, 23141690.0, 41605376.0, 43362976.0, 26725896.0], [16624673.0, 41072120.0, -1061168.25, -21508818.0, 59988232.0], [12679073.0, -22555100.0, -13850688.0, 14295130.0, -29005512.0]], [[24790674.0, -46788144.0, 1824985.875, 4008147.0, 22079736.0], [4350820.5, -53938632.0, -44302600.0, -8643616.0, -12787758.0], [27249560.0, -21676984.0, 13811490.0, 10225762.0, -7458136.5], [-13612784.0, 11512094.0, 55568232.0, 22287500.0, 18371088.0], [-20820268.0, 22048044.0, -51414492.0, -19625440.0, 19827884.0]], [[53780448.0, 51476772.0, 9409044.0, 6946860.5, 6841782.0], [2437216.75, 18095124.0, -19764320.0, 3237799.5, -1023059.0], [2415857.75, -10941108.0, 3014043.0, -24065720.0, 12188257.0], [-10852246.0, -8967654.0, 14290611.0, -46909404.0, 27896928.0], [-1796888.75, -18537884.0, -18758124.0, 1600658.0, 32952202.0]], [[38838944.0, -3834176.0, 34567528.0, 74284608.0, -36386160.0], [258685.90625, 4570128.0, 16681784.0, 36408000.0, 65850376.0], [17179748.0, -16252448.0, 35494208.0, -52481376.0, -37445296.0], [-62521468.0, 28863844.0, -36827712.0, 45842536.0, 12143889.0], [-445495.75, 2407049.0, -2457442.5, 35130208.0, 45176508.0]], [[11344208.0, -19172328.0, -59963328.0, -34202124.0, -8074282.0], [11807478.0, 8020126.5, 49404540.0, -55775776.0, 49074396.0], [-32499396.0, 31839800.0, 9263389.0, 33674888.0, 20370552.0], [-19421832.0, 58722232.0, 17355916.0, 34196584.0, 8939289.0], [19278896.0, -38333344.0, 916846.875, -16454060.0, -28039600.0]]], [[[-4145714.75, 32966392.0, -11185476.0, 29923096.0, -2122348.5], [-5945636.5, -7057735.5, -37795424.0, 12408977.0, -21399112.0], [13824480.0, -78607408.0, 5904114.0, 20032038.0, -7208593.5], [-24483420.0, 18291282.0, 8674303.0, 12384354.0, -172272.75], [4959552.0, -34547896.0, 35696472.0, 16119227.0, 12880105.0]], [[-15154318.0, 80349360.0, -18491012.0, -43921548.0, 37979504.0], [-37440840.0, -42067068.0, -68481400.0, -7849233.0, -4270606.0], [46950364.0, -40392840.0, -27363674.0, 46933512.0, -17872700.0], [-21224884.0, -31299900.0, -59224900.0, -39369840.0, -55363440.0], [-18796544.0, 71515696.0, 7798030.5, 14534560.0, -14155393.0]], [[41697480.0, -24337986.0, 57889312.0, 10144815.0, -5058952.5], [7510552.5, 11758971.0, 58134196.0, -48719596.0, 5213748.0], [-60730036.0, -24967308.0, 15316133.0, -9410267.0, 10939998.0], [-35512068.0, -12040738.0, -5183485.0, -1928329.625, -104920.2890625], [51998816.0, -11297154.0, 30139736.0, 6846555.0, 354902.625]], [[-4628051.0, -17260056.0, -34406024.0, -15636989.0, 47428560.0], [-4886112.0, -27565236.0, -1409883.25, -12702840.0, -5760220.5], [-9872622.0, -11731173.0, -22160740.0, -4766141.0, -30361848.0], [21967296.0, 25112304.0, -58438952.0, -7990414.0, 201866.3125], [-18058452.0, -14983256.0, 27662250.0, 18895716.0, -44836596.0]], [[37974648.0, 35158416.0, -13460384.0, -16754276.0, 13156059.0], [-32096484.0, -14419143.0, 27783806.0, -31030800.0, -33047344.0], [25696964.0, -28511376.0, 13370307.0, -13429280.0, -2823964.75], [15824834.0, -3648647.0, -1657912.0, 14820226.0, -1748703.0], [9373751.0, -8515358.0, -5843694.0, -8586104.0, 60242400.0]], [[-7359133.0, -9944272.0, 747256.6875, 27679228.0, -11473944.0], [-36039984.0, 6596643.5, -60030520.0, -2924869.75, -18642888.0], [-22608290.0, 66481824.0, -40994952.0, -29493790.0, 36918344.0], [6430078.0, -769224.625, -30783042.0, 13602896.0, -41976232.0], [-36991204.0, -7631600.0, -28078808.0, 22932360.0, 38781304.0]], [[-49986616.0, 48827336.0, -4049802.75, -24541116.0, -35635272.0], [25161492.0, -28015578.0, -894490.125, -28057344.0, 4397038.5], [-56529996.0, 25026148.0, -61048368.0, -43797896.0, 45756504.0], [42739580.0, -59564544.0, -68872976.0, 13342636.0, -16608188.0], [8039976.0, -13959140.0, 9742634.0, 15016495.0, -77970168.0]], [[3592240.0, -50546328.0, -9743683.0, 69494320.0, 3908526.5], [11238330.0, 40340904.0, -34826780.0, -21753436.0, 37574840.0], [-7445188.5, 14040564.0, -40364744.0, -33998220.0, -26197652.0], [5700203.0, 1632569.625, -638325.25, 57337788.0, -27457940.0], [-5803877.0, 34409264.0, 41473044.0, 2014155.875, 44386048.0]], [[-48573848.0, 19552800.0, 294072.125, 37052016.0, 42507828.0], [-35733880.0, 22833814.0, 29463534.0, -40047840.0, 10652109.0], [1589164.75, 112206104.0, 7655103.0, 1633101.875, -10055768.0], [-48556648.0, 6506988.0, -80959072.0, -22114122.0, 24207702.0], [-38430280.0, 14807568.0, 16212722.0, 27202100.0, 32698336.0]], [[62403448.0, 63530224.0, -30024098.0, -62920480.0, 28434324.0], [28906696.0, 27633158.0, 24874250.0, 4786228.0, -32614590.0], [68217752.0, -2175064.5, -15467331.0, -28273758.0, 381392.9375], [32390090.0, -7628796.0, 7857447.0, -39777952.0, 16659112.0], [40968368.0, -37591388.0, 21327664.0, 21476988.0, 3169974.0]], [[-39047320.0, -8412647.0, 1444784.625, 7760695.0, -11229752.0], [-11365272.0, 26941934.0, -15388539.0, -2841431.5, -93373216.0], [-89312888.0, 33325252.0, -35334024.0, 41479700.0, 14882472.0], [32146560.0, 63042224.0, 61652952.0, 65924808.0, -13607214.0], [-720832.5, 19157840.0, 24472188.0, -16413658.0, 18821990.0]], [[-21432940.0, -34482836.0, -46316428.0, -12196128.0, 25737858.0], [11430577.0, -32259088.0, 28076264.0, 41266788.0, -31354412.0], [-18214350.0, -6712603.0, -2534045.0, -64639692.0, 2740848.0], [-31632580.0, -8090359.0, 37956736.0, -11953565.0, -13330580.0], [13167382.0, 44935748.0, -14847654.0, 33536372.0, 19852384.0]], [[-2053400.5, -8314221.0, 27114660.0, 26997216.0, 12657370.0], [-39318316.0, -20972922.0, -16173984.0, 18235300.0, -1619780.25], [-28861748.0, 48167984.0, 12799347.0, 25525656.0, 25279464.0], [-21178728.0, 35234280.0, -41348816.0, 5077734.5, -4362143.0], [38632688.0, 7955042.5, 10371318.0, -33147244.0, 22402864.0]], [[-1288827.75, 8662493.0, -38694048.0, -7098293.0, 50993076.0], [-5746160.5, -43141936.0, -27162054.0, 70342784.0, 19528180.0], [-27513786.0, 28746822.0, -58890404.0, -11808302.0, -1721079.75], [-28674368.0, 3142972.0, 6354295.5, 28490064.0, 15728972.0], [-26194866.0, -10201838.0, 3009886.5, 44360768.0, 64867844.0]], [[-18619420.0, 25984894.0, -32213866.0, 31403412.0, -43613484.0], [-31560232.0, 17999150.0, 44045232.0, -4268650.0, 36340900.0], [-4312923.0, -34475908.0, 7895919.5, -10899170.0, 7766605.5], [18867888.0, -6030372.0, 4940077.0, -12055206.0, 49500944.0], [49840624.0, 12719890.0, 20515926.0, 4190281.5, -5883307.5]], [[-71055296.0, 3071605.5, 12023549.0, 17622948.0, -19526780.0], [-31433612.0, -24959026.0, 69406512.0, 12784344.0, 45760648.0], [-9449338.0, -32316700.0, -16927382.0, 22228704.0, 21259632.0], [12027592.0, -12864450.0, -12492252.0, -22607160.0, 4252866.0], [-59798168.0, -14164285.0, 12064214.0, -45252892.0, -36761264.0]]], [[[-31289320.0, 11740795.0, 6348938.0, -70249208.0, -5509480.5], [20929744.0, -1033865.875, -7697298.5, 23976784.0, -27413780.0], [17823596.0, -46045868.0, 76109312.0, 3003764.5, 7139559.0], [42883480.0, 34796384.0, -12959172.0, -235395.140625, 24050448.0], [-7475765.0, -82773216.0, 21882140.0, -26472740.0, -168278.203125]], [[28222368.0, -13640258.0, -14421224.0, 4374926.0, -10834680.0], [40349392.0, -12669393.0, -44464708.0, 34402000.0, 8677738.0], [-25500224.0, -8196432.0, 39234448.0, 8310185.5, -1491664.5], [33903500.0, 34411536.0, 19923096.0, -20400956.0, -26648500.0], [17049384.0, 64272320.0, -42274316.0, 67001872.0, 2790617.0]], [[-12653382.0, 34842752.0, -35771696.0, 658190.0, -16902894.0], [-2873012.75, 6666237.0, 12857202.0, -30370020.0, 29284974.0], [28124576.0, -76754896.0, -32494464.0, -33090930.0, 25189832.0], [-68111248.0, -2387062.5, 48652080.0, 28613532.0, -22556332.0], [-21136052.0, -16415030.0, -3088323.0, 25998458.0, -4557579.5]], [[-4974228.0, 47170432.0, -9893315.0, -67456304.0, 2129949.0], [9176874.0, 39993480.0, 26818100.0, -34752968.0, -32572318.0], [22280696.0, 24570288.0, 727052.8125, 18975852.0, -1093379.375], [-29590772.0, 27523718.0, -23561960.0, -12570380.0, -15056072.0], [-51206316.0, -18375988.0, 31606828.0, -29435774.0, -23043484.0]], [[20332270.0, -16456797.0, -11950335.0, 9592516.0, -5914123.0], [73401136.0, 5456632.0, -53209928.0, -17516568.0, 83125808.0], [-16697388.0, -26214310.0, 46022704.0, -5604973.5, -44765336.0], [-32634252.0, 576363.25, 24057558.0, -11576830.0, -60895968.0], [-15584448.0, -51321324.0, 37223432.0, -45043292.0, -22417208.0]], [[-22532072.0, -21958560.0, -10588298.0, 22249068.0, -16622802.0], [-81532560.0, -8331487.0, -8783580.0, -63135296.0, 20356048.0], [14046153.0, -1899883.875, 22276890.0, 17020988.0, -45829836.0], [-5064789.0, -39729132.0, -26571042.0, 14414928.0, 3993887.0], [-25615920.0, -15196016.0, -23667310.0, -18316340.0, 19473736.0]], [[33076992.0, -4808548.0, -19243698.0, 26275086.0, 19237268.0], [-48959000.0, -22110930.0, 12599341.0, -36799424.0, 562978.0625], [42666324.0, -12693587.0, 6566475.0, 8073488.5, -31437820.0], [24770060.0, -61453704.0, -4503260.0, 28781550.0, -17842294.0], [-39071192.0, 19243376.0, 24804042.0, -24545200.0, -5511268.5]], [[42003888.0, 12648304.0, -78667360.0, 25818642.0, 31248736.0], [-22779224.0, 12781407.0, 16655296.0, 334484.375, 50889360.0], [9716436.0, -15955060.0, -9969166.0, -66799688.0, -14246571.0], [43445280.0, 11046240.0, -18954148.0, -6411130.5, 65986756.0], [64878312.0, 10725175.0, -35063704.0, 20465296.0, 16430077.0]], [[-4465838.0, 35828760.0, -2487309.5, -15820082.0, 50539704.0], [-29888478.0, -93230760.0, -954057.0, 58849804.0, -67621824.0], [36864976.0, 27652422.0, -66252968.0, 12212664.0, -26636782.0], [16238012.0, -31429160.0, 4829913.0, 7471758.5, -25716192.0], [-1411949.25, -27241188.0, -39432792.0, -9209685.0, -7482493.0]], [[-15947098.0, -45644784.0, -18655252.0, 970678.3125, 44998436.0], [-14153814.0, -38336812.0, -21863726.0, 39705208.0, -17085692.0], [38089728.0, 4679387.0, -50188512.0, -34623812.0, -3499563.0], [-40161172.0, -31493034.0, 29726430.0, 61782116.0, -27397420.0], [-51294004.0, 55296996.0, -13224628.0, -11034660.0, -11234310.0]], [[-44623472.0, 40278444.0, -4293450.0, 29533316.0, 20349204.0], [-10640160.0, -11031092.0, -10097402.0, -62655360.0, 7354395.5], [13756928.0, 17902432.0, -48070812.0, -27888240.0, -21263010.0], [37967344.0, -19937056.0, 31593068.0, 31906124.0, -40974360.0], [-9751350.0, -17261662.0, -19355212.0, -10728354.0, -59112984.0]], [[64035280.0, 26496460.0, -36440580.0, -42192232.0, 45570288.0], [55447152.0, 65562080.0, -33602552.0, -8042713.0, -29759226.0], [14237154.0, 17439192.0, -9775032.0, 60284520.0, 10061184.0], [-50008240.0, -47987664.0, 32247160.0, -61677584.0, -37448364.0], [-64441128.0, -21390702.0, 22432332.0, -3805601.25, 43934096.0]], [[-64701020.0, 92054024.0, 46619496.0, 28426028.0, 8181336.0], [83447056.0, -18248460.0, -24857316.0, -15845127.0, 80710704.0], [-17565766.0, -12629247.0, 25967514.0, 2737281.5, -17185238.0], [75829536.0, 29791860.0, 50709000.0, -66198336.0, -37939624.0], [-31325620.0, -21733920.0, 38244480.0, 37248924.0, 11141935.0]], [[-29307176.0, -615128.75, 35076936.0, 63468180.0, -29355306.0], [-28367810.0, 39676520.0, 55617784.0, -90523936.0, -22210372.0], [55913076.0, -24204960.0, 17342278.0, -34301968.0, 17762404.0], [-17255830.0, -29829936.0, 5356627.5, -10337745.0, 16320632.0], [-11611186.0, 44077616.0, 31816516.0, -16194448.0, 12053176.0]], [[121332.8671875, -16968160.0, -71838080.0, -11005148.0, 27787888.0], [23493340.0, 6434546.0, 11994238.0, -22349288.0, 8286231.0], [18591942.0, -1836166.0, 19426064.0, -25524312.0, 49525496.0], [3148524.0, 8025254.5, 31090120.0, 5271031.0, 59217660.0], [3243713.75, 3253235.75, 17090012.0, 54474852.0, 54145296.0]], [[9310242.0, 8239263.5, 32783504.0, 270367.53125, 23053220.0], [28103278.0, -58914568.0, -17634412.0, -35860448.0, -52260996.0], [35467928.0, -11077516.0, 13587522.0, 15998120.0, -24807772.0], [9697292.0, -23495496.0, -32825208.0, 33985004.0, -8371790.0], [8585166.0, -35608352.0, -66662356.0, 24923996.0, -13706022.0]]], [[[-49080304.0, -42093688.0, 10786066.0, 58059516.0, -27943944.0], [25644426.0, -15075727.0, 21618584.0, 14032885.0, -3935468.5], [11146166.0, -27027528.0, 19911390.0, -51696500.0, 2361026.0], [-48540784.0, 20923500.0, 48004696.0, -45168912.0, 33591440.0], [76221200.0, 1450700.0, -18833720.0, -27814372.0, -15386202.0]], [[-18847808.0, -14372227.0, -24508656.0, -36690428.0, 60045288.0], [-83610160.0, 8382225.0, -29304208.0, 26938448.0, -12444873.0], [-5488720.0, -29127060.0, -27924486.0, 52972544.0, 7619236.5], [-4429348.5, -4508638.0, 10425758.0, -7325935.5, -5677994.0], [-87712224.0, -7266668.0, 14937476.0, -52802176.0, -13486106.0]], [[19452852.0, 5510411.5, -1625566.125, 9139753.0, -24913428.0], [36565144.0, 2214441.0, -684452.75, 17933372.0, 20336400.0], [25079246.0, -27412440.0, -33342008.0, -13620326.0, -16391423.0], [-9688413.0, -18901892.0, -29708606.0, 101845040.0, 50499176.0], [18060966.0, 19522960.0, 16564038.0, 10811045.0, -1486823.5]], [[-3348554.25, -7714843.0, 12189595.0, -4962173.0, -29215840.0], [-1149437.75, -74957088.0, 2475647.0, 457797.125, 229183.34375], [-22014964.0, 4792746.0, -25811578.0, -29331212.0, -18275212.0], [50122640.0, 4627707.5, 39705864.0, 13759494.0, -19230176.0], [-23233462.0, 17721252.0, -4958947.0, -45983052.0, 1398236.875]], [[-14041179.0, -33087604.0, 3970386.5, -16716640.0, 706145.75], [952194.9375, -27301640.0, 16659624.0, 6032029.5, -12380667.0], [-27227660.0, 30034254.0, -21421818.0, -5979758.5, -1389845.625], [-18917916.0, -11264659.0, 35012396.0, -6107043.0, -8072680.5], [-45807760.0, 6147417.0, -54936724.0, 1546894.125, 55846528.0]], [[-11049275.0, -28105656.0, 42339288.0, -13556783.0, -41963536.0], [-999881.0, -38532048.0, 23891916.0, -2724731.25, -7598013.0], [55847928.0, -27971066.0, -61744512.0, -4324295.5, -44169288.0], [-13871096.0, -39056768.0, 25555304.0, -33785228.0, -4311598.0], [17968420.0, -20898732.0, 65952052.0, -24582436.0, 11703649.0]], [[-5594833.5, 63609680.0, -3811680.0, -25225940.0, -6763747.5], [-4859964.0, 39588520.0, 12742476.0, -5770023.0, 43492000.0], [-10027538.0, -17276140.0, 4789911.0, -32548208.0, 12252036.0], [-7608009.5, 55143904.0, 18024300.0, 26052132.0, 37594308.0], [-3467145.75, 33826504.0, 21654352.0, 6543665.0, -7634460.0]], [[-16337964.0, -34591820.0, -25059712.0, -20202210.0, 10832208.0], [11333878.0, -42681008.0, 5904601.0, 13171900.0, 33478912.0], [23842172.0, 24565766.0, 51395540.0, -6556672.5, -13976870.0], [-6406917.0, -306043.15625, 47672844.0, -33820760.0, -17864532.0], [61543788.0, 13343798.0, -64853680.0, 4844752.5, -3986134.75]], [[5366702.5, 2795449.75, 24191544.0, -69077408.0, -5328566.0], [-31590180.0, -33330768.0, 12258233.0, 43982060.0, 20378224.0], [-34100272.0, -11429908.0, -18037848.0, -8795365.0, -78621472.0], [-22034708.0, 23632320.0, -23735376.0, 22142116.0, 5842914.0], [-12326319.0, 33786916.0, 47232476.0, -9351510.0, 16711629.0]], [[-15326941.0, -12893933.0, -15914602.0, -13622977.0, -78750640.0], [-50888468.0, 38998160.0, -16547324.0, 5906323.0, 26402382.0], [15666759.0, -21870610.0, 9238986.0, 26121416.0, -18055532.0], [43474400.0, -49923072.0, -2583937.5, -20989012.0, -7414335.0], [13029246.0, 16281368.0, -945339.1875, -50440436.0, -35463340.0]], [[-48409496.0, -67649552.0, 23368824.0, -14177330.0, -22472378.0], [-87037128.0, -53371156.0, -16533754.0, -28662520.0, -21619616.0], [-20444642.0, -14015165.0, -6353307.0, 3951600.0, 29503824.0], [28954648.0, 15999516.0, -2246212.5, -37969640.0, 33155274.0], [37627720.0, -16893790.0, -28443572.0, -3782896.5, -49166088.0]], [[-21595128.0, -6174593.0, -5613907.0, 47091744.0, -15064953.0], [-47042676.0, 43553308.0, 25239680.0, 8553426.0, -3957568.75], [41099168.0, 35346568.0, -17106616.0, -92933680.0, 21481824.0], [-5390263.0, -10521923.0, 10986908.0, -41741096.0, 51573652.0], [-28170772.0, -19624404.0, -2804086.5, -59553320.0, 13927592.0]], [[-34157552.0, -2015941.75, -55329208.0, 30849854.0, -19715724.0], [-16730004.0, 1954480.625, 37576744.0, 25361316.0, 6036938.0], [-34614104.0, 577229.125, 61854416.0, -36930108.0, 22626192.0], [29234664.0, 11668411.0, -12790212.0, 30551682.0, -26712652.0], [7090152.0, -3278432.5, 73020424.0, 12386604.0, -3057960.0]], [[-70527384.0, 46819044.0, 1742651.0, 25208996.0, 34326772.0], [53168376.0, -6603424.5, -15058677.0, 45056060.0, -36956828.0], [-47878928.0, -470195.59375, -35051272.0, 3953637.0, -35547396.0], [-48787428.0, 8697015.0, -10350627.0, -19045468.0, 5296208.0], [-40344256.0, 20230360.0, 20388708.0, -17147944.0, -23044556.0]], [[37773844.0, -32410214.0, -6503151.0, -5566051.0, -27999880.0], [-1047195.25, -41786304.0, 3437675.25, 28241576.0, -27331892.0], [-15667502.0, 25557192.0, 26829580.0, -13789588.0, -1443008.0], [21884888.0, 7086980.0, 12796098.0, 38108816.0, -10241238.0], [64210032.0, -35508624.0, -13774618.0, 52644568.0, 9403024.0]], [[19652448.0, 16176884.0, 17908284.0, -38573160.0, -30267894.0], [55666688.0, -21669708.0, 37917136.0, 61170864.0, 19581264.0], [70413200.0, -24355516.0, 36683140.0, 21944616.0, 6889482.0], [-13811929.0, -21210302.0, 11944412.0, -13814397.0, 12288258.0], [6171161.5, -18400498.0, -19693400.0, 25768422.0, 5985381.0]]], [[[45814128.0, 20149852.0, -52822704.0, -15353350.0, 52839504.0], [6484761.0, 34844216.0, 16427583.0, -28142688.0, 48458828.0], [70380136.0, -19350840.0, -14039624.0, -12336201.0, -19389220.0], [52975528.0, -16673216.0, 10604202.0, 10900014.0, -9832521.0], [5258135.0, 16699404.0, 19323412.0, 963303.375, 16498854.0]], [[-43730704.0, -76112656.0, 11808856.0, 10360664.0, -81683112.0], [33818888.0, 16791030.0, 44963920.0, -10379712.0, 8732448.0], [25607904.0, -11899721.0, 2448426.75, 51810876.0, 15493988.0], [20399444.0, -22677412.0, -40048696.0, 36849568.0, -62999640.0], [13698290.0, -2592636.75, -29860644.0, 39939888.0, 6713405.5]], [[-53383344.0, -3784734.5, 41999704.0, 2169496.5, 7232347.5], [61437384.0, 92358752.0, -23329896.0, 8034337.5, -44094576.0], [27869654.0, 6561699.5, -30389968.0, -35915680.0, -56508324.0], [-29846824.0, -22588930.0, 2189692.0, -50177380.0, -26272320.0], [-11606926.0, 3746222.25, 32638644.0, 27312798.0, -23760680.0]], [[1751379.0, -27492542.0, 20579996.0, 1592313.375, 20440128.0], [-3498218.0, -34734196.0, 1381183.25, -12884760.0, -27412076.0], [-18704720.0, -6006216.0, -62754392.0, 36712168.0, -32041008.0], [-25673050.0, 1725196.125, -33297636.0, 62859444.0, 15853047.0], [-37110296.0, -7171174.0, 11540345.0, 700977.1875, -11175524.0]], [[24615250.0, 10002516.0, -38030412.0, -5170890.0, 20689880.0], [25119294.0, 43936040.0, -1177093.625, 17071636.0, -2197465.5], [7237695.0, 21001044.0, -1109586.0, -8259573.5, 2090072.75], [-92831600.0, 23057460.0, -4121897.0, -12727431.0, -5935837.0], [-2679969.75, -32494172.0, 45683524.0, -29162096.0, 26820612.0]], [[-24753834.0, 1394884.75, -20922330.0, 29444320.0, -29747262.0], [2957685.5, 31350748.0, -53967220.0, 25404452.0, -42166944.0], [31308852.0, 5330484.0, -22233132.0, -32212208.0, -15142998.0], [-20683278.0, -8211730.0, 67659304.0, -15466659.0, 17462742.0], [-14971408.0, 33517190.0, 10861952.0, -15329244.0, -18228738.0]], [[22926808.0, -30719054.0, -8754836.0, -56533568.0, -2207578.0], [-1583003.0, 47226608.0, -31263644.0, 7513183.0, -592703.25], [5917567.5, 6285458.0, -29553596.0, 34354884.0, -27497064.0], [26528928.0, 1907324.625, 19475644.0, -45603812.0, 7423393.5], [-7562748.0, -4844277.0, 38030128.0, 3058057.5, 13581112.0]], [[-381537.1875, -23099988.0, 5254360.0, -1900088.25, -38138680.0], [-1714596.125, 2480262.0, 10423620.0, -58835976.0, -8837420.0], [9307240.0, -7620856.5, 29892624.0, -25538024.0, 10727077.0], [-24406160.0, -21924340.0, 11712741.0, -39607164.0, 29912064.0], [15749942.0, -16840416.0, -16954326.0, 24811196.0, 77498760.0]], [[-24467130.0, -56203776.0, 2742959.25, -6498132.0, 57128652.0], [-4093272.0, 6699635.0, -42243912.0, 553389.875, 45253752.0], [12923010.0, 45591332.0, -8188081.5, 5284755.5, 2234450.5], [42603908.0, -23486966.0, 7403281.0, -6406958.0, 34375084.0], [-31140426.0, 3863382.25, -50650172.0, 26831146.0, 66383448.0]], [[49142764.0, 808046.8125, 78234352.0, 6257281.0, -9966248.0], [-31521388.0, -7573086.5, -46226336.0, 21493444.0, 40741388.0], [-21599300.0, -29848428.0, 56091600.0, 29887236.0, -39480168.0], [-11143100.0, -17799694.0, -26084840.0, 7397735.0, 7221802.5], [-29466122.0, -14842968.0, -8142127.5, -19037580.0, -43337248.0]], [[-49679444.0, -60378752.0, 11878793.0, -33036636.0, 29752906.0], [-34222240.0, -65501176.0, -42641096.0, 14740315.0, 26053676.0], [-35458896.0, 15724408.0, -42510924.0, -40538484.0, -14121552.0], [7547602.0, -27122468.0, -13607330.0, 42023896.0, -34914944.0], [25218922.0, 36145496.0, 43736688.0, -14407638.0, -56226368.0]], [[17626696.0, -1943947.625, 4656551.5, -8080818.0, -59159584.0], [18519126.0, 17603980.0, -13056342.0, -35889024.0, 13701686.0], [24377066.0, -25392254.0, -21727456.0, -729013.25, 9269862.0], [39550824.0, -21695600.0, 49886528.0, -41559192.0, 9073578.0], [-42957512.0, -12240848.0, -27779904.0, 51648128.0, -21121744.0]], [[-34774592.0, -25298516.0, 8901200.0, 7346617.0, -13862652.0], [26558744.0, -33660184.0, 1632027.5, 14288162.0, 43071480.0], [43588380.0, 7830519.5, -33368268.0, 14551884.0, 12891396.0], [4220203.0, -17497956.0, -10826934.0, -20016512.0, 41232488.0], [38789032.0, -28618682.0, -65739576.0, -39432456.0, 70832064.0]], [[-13184656.0, 41061528.0, 3809572.5, -29885332.0, 9096678.0], [-26940628.0, -55987944.0, -13982211.0, -34754456.0, -26413420.0], [34781816.0, 12812246.0, -9985770.0, -3619856.0, -26774054.0], [-8500446.0, 6856029.0, 3627935.5, 26706902.0, 10971982.0], [29189026.0, -23631224.0, 6388303.5, -31390144.0, -42979216.0]], [[27183410.0, -12453605.0, -41579700.0, -35237672.0, 17488516.0], [23357040.0, -22352024.0, -14350718.0, -23670018.0, 37745392.0], [-26768712.0, 5636906.5, 19020760.0, -25738140.0, 76313112.0], [34637728.0, 5692023.0, -1508829.375, 30594386.0, -23264418.0], [-1496716.5, -62950320.0, 1717559.625, -24235192.0, 1365266.25]], [[6730886.0, 10536355.0, -26929056.0, 51405336.0, 11699792.0], [13629549.0, 4195051.0, 48742432.0, 82060624.0, -11138047.0], [-779853.4375, 21921058.0, -37171408.0, -20124728.0, 41063536.0], [11716872.0, -2407432.25, -17599230.0, 15334232.0, -6377784.0], [82239528.0, 5803670.0, -44224672.0, 37780048.0, -15643368.0]]], [[[8640560.0, -52608160.0, 4238449.0, 58981176.0, 33267960.0], [1328376.625, -39029408.0, 59366104.0, 12057768.0, 13132014.0], [33010566.0, 9459648.0, -21396882.0, 10743905.0, 32399124.0], [-9531941.0, -17202328.0, -29838328.0, 19427136.0, 44391840.0], [23120472.0, -19159588.0, -1065600.25, -9941131.0, -8228472.5]], [[-6954171.0, 22810750.0, 21870588.0, 22186164.0, 6090351.0], [7252644.0, -3346412.25, 14642598.0, 27609012.0, 13212721.0], [-56063260.0, 16125228.0, 4125757.0, -890470.125, -28406588.0], [8612701.0, -8657258.0, 18638956.0, -424640.84375, -11001246.0], [26214750.0, 794243.0, -5785702.0, -58007096.0, -6576989.0]], [[-5647229.0, -89089408.0, 18329904.0, -15615073.0, -864784.125], [-13841839.0, 22396276.0, 1077410.5, -14947682.0, 17339520.0], [-1122962.75, 3821454.75, 35922964.0, 9794568.0, 28533432.0], [48107012.0, 47269136.0, 1118335.25, -1732194.625, 17464180.0], [-33031180.0, 24683568.0, -36859512.0, 41229584.0, 190207.75]], [[-10969098.0, -2450039.25, -14102607.0, -5942565.0, -45722120.0], [15890778.0, 27145098.0, 15531874.0, -15705476.0, -63342968.0], [43474096.0, 28829312.0, -15329537.0, 27363424.0, -41901416.0], [-22053500.0, -21530260.0, -15440136.0, 25448184.0, 4924227.5], [-53729584.0, 34765848.0, 5392936.0, 14052051.0, 7763896.0]], [[22884590.0, -32955584.0, 16797884.0, -11290463.0, -5138725.0], [8484754.0, -8560488.0, -26733900.0, -6324800.5, -35207480.0], [-34128272.0, -16727466.0, 6979117.0, -8664477.0, -17283896.0], [40930704.0, 25123248.0, 5326066.5, 27534544.0, -40590076.0], [34198688.0, 33270768.0, 6890571.0, -35390344.0, 23789504.0]], [[41595456.0, -50028704.0, -45754072.0, -10466077.0, 20519904.0], [-2341958.0, -1344476.125, 59222224.0, -31096940.0, -26364066.0], [16581996.0, 17898806.0, -46445420.0, 24696468.0, -20034528.0], [-15504567.0, 805961.25, 21539634.0, -38521508.0, -33939320.0], [23433392.0, 6468280.0, 911670.0, 47749344.0, 7708227.5]], [[-23327300.0, -45860296.0, -41979240.0, -40382172.0, -53745200.0], [28717856.0, 37781208.0, 23957700.0, 36931484.0, -2892334.0], [-38709416.0, -15236557.0, 44108960.0, 48177920.0, -36736672.0], [-46199880.0, 23502210.0, -35728400.0, 12979919.0, 47093568.0], [28227172.0, 27069312.0, 34031352.0, 21889720.0, -3528980.0]], [[-17712242.0, 3061489.5, 9976549.0, 5254601.0, 3137347.5], [4041407.0, -23521136.0, -17640164.0, -520414.375, -29813204.0], [15443570.0, -25996886.0, 8028268.5, 40913000.0, -26401722.0], [8691418.0, 10799934.0, 20568960.0, 38425612.0, -17316762.0], [-52056856.0, 53613676.0, 32444586.0, 49745284.0, -17862392.0]], [[-37932672.0, 55263552.0, -16627918.0, -32297432.0, 4635221.0], [-43469832.0, 40016304.0, 10325975.0, -18685380.0, 47893128.0], [7990914.5, -37826696.0, -3527154.0, -18847362.0, -34035760.0], [-2528478.0, -3355707.0, 3387660.5, -29532912.0, 30328288.0], [16853474.0, -18485660.0, 9207230.0, -8093778.0, 32312874.0]], [[56597232.0, -56454972.0, 10654270.0, 19447664.0, 29562772.0], [74799.0546875, 14304128.0, 48027880.0, 19716612.0, -51948312.0], [41674904.0, 20502692.0, -72098184.0, 29355936.0, 6760726.5], [36360816.0, -14632971.0, 4665037.0, -13379732.0, 32911884.0], [-27317294.0, -1521465.25, 43107336.0, -9171078.0, -17328028.0]], [[45283520.0, 32268168.0, 27530796.0, -64165112.0, -18149104.0], [5927950.0, 42699612.0, 7027404.0, -11691771.0, -12000391.0], [24860788.0, 12785882.0, 9020186.0, 26878280.0, -296922.65625], [-19540492.0, 16949098.0, 1149237.5, 23559216.0, -19375802.0], [23453720.0, -7765652.5, -58096248.0, -49945848.0, 61995048.0]], [[36768832.0, -20410000.0, -29552016.0, -13451143.0, -66700992.0], [-65498020.0, 28256160.0, -9131518.0, 24175176.0, 12196360.0], [4024989.0, 23646162.0, -34361504.0, -2369843.0, 39051888.0], [-58714984.0, 13172830.0, -25322888.0, -2034974.625, -53792336.0], [32780714.0, 21126808.0, 20706628.0, 12368221.0, 13276200.0]], [[-58811624.0, -36928844.0, 40036564.0, 34665300.0, -18082288.0], [-35076920.0, -10518417.0, -52859496.0, 27218100.0, 23533040.0], [3181121.0, 26098608.0, 18618088.0, -30262252.0, 14008896.0], [24723632.0, 30607332.0, 36992544.0, -32428082.0, 208145.125], [26248942.0, -64335320.0, -6349870.0, -45441740.0, -27952970.0]], [[-22853414.0, 23086524.0, -4339437.5, 25910396.0, -7200033.5], [-769587.125, 55814308.0, -47295560.0, 3527916.0, 43051552.0], [34282992.0, -31920536.0, -25139912.0, 44367864.0, 5245578.0], [5513450.0, 41223864.0, -24958608.0, -1141002.5, -13227592.0], [24546984.0, 35176200.0, 23560968.0, -50672700.0, -20604618.0]], [[-30523528.0, 33322800.0, 11405688.0, -11503958.0, 6281890.5], [57713540.0, -980430.25, -36154000.0, 25123086.0, 43053648.0], [25015576.0, -68002432.0, 3505425.5, 15700074.0, 40033572.0], [275392.375, -15219645.0, -70327744.0, 14823990.0, -16026709.0], [-44085172.0, -58431160.0, 1786605.375, 28601994.0, 10018338.0]], [[-4409277.5, -79831280.0, -5279305.0, -100810736.0, -15794292.0], [25783884.0, 58369952.0, -28750722.0, 37533692.0, 13747764.0], [-2696293.25, -2643426.5, 50207608.0, -30826566.0, -25577206.0], [26609608.0, 23647312.0, -8729606.0, 63278928.0, -14335262.0], [29276914.0, 22471720.0, 9457082.0, 33691052.0, 53040920.0]]], [[[-23094524.0, -42459320.0, -16893900.0, -44477192.0, 85227760.0], [43696392.0, 28856718.0, -51542896.0, -40120252.0, -37443504.0], [-57524560.0, -4203936.5, -11622513.0, 24036572.0, 37170544.0], [4180899.75, -46804664.0, 15929376.0, 11621302.0, -33646616.0], [-36365080.0, -52327908.0, 62142488.0, 12968201.0, -16057898.0]], [[-80490160.0, 40378248.0, 8022368.0, 44950976.0, -58396400.0], [43669656.0, 21114432.0, 30588306.0, -15982264.0, -39421832.0], [-61231848.0, 45106628.0, -30421580.0, -13618765.0, -45997656.0], [4644502.5, 1052581.75, 8521430.0, -12408189.0, 5167782.5], [-28964638.0, -63079456.0, -16339848.0, 23849988.0, 16219758.0]], [[-30099494.0, -20709300.0, -57167240.0, 21571758.0, -4741033.0], [7370974.0, -20316396.0, -38101240.0, -56402824.0, 6657420.0], [-35141424.0, -7518767.5, -19485092.0, 38065104.0, 36723472.0], [39904400.0, 43245920.0, -31068328.0, -8450840.0, 23266852.0], [30891100.0, -5126454.0, 14502942.0, 14615228.0, -65693720.0]], [[26966396.0, -25278224.0, 6192307.0, -8288345.0, -24046734.0], [14404071.0, 22050516.0, 33830192.0, -21285406.0, -30844912.0], [-3510609.25, 58745292.0, 33135614.0, -2019727.375, -9855286.0], [30954208.0, -8651390.0, 3483578.0, -960119.75, -15638818.0], [20451612.0, -32827800.0, -845196.4375, 21586956.0, 8835930.0]], [[27716240.0, -71841056.0, 36895672.0, -18226588.0, -36826848.0], [-33901124.0, 45112292.0, 4181511.5, 9563240.0, -4310686.0], [77651936.0, -30293656.0, -35526336.0, -16339233.0, -52041060.0], [9014870.0, 15444812.0, 80371200.0, -46228956.0, -11521762.0], [-19413162.0, -17994182.0, 16017282.0, 17609988.0, 17615476.0]], [[58721392.0, -1678635.375, -14889108.0, -45142540.0, 46421960.0], [-18224664.0, 35566896.0, 83157784.0, 15983118.0, -22397992.0], [5852082.0, -228536.0, 3217493.25, 1789255.875, -9980096.0], [-8710391.0, 19713548.0, 8020285.0, -7256452.0, 10097369.0], [24805904.0, 5903084.0, 763517.4375, -6245965.5, 12529325.0]], [[51279444.0, -53573576.0, -45923752.0, -15717939.0, 20170252.0], [54025128.0, 12308622.0, 13201993.0, 19474040.0, -53072748.0], [-53340780.0, -17551424.0, -22320324.0, 15972584.0, 24746958.0], [17659890.0, -26751940.0, 40884776.0, -19990740.0, 38650164.0], [-31618384.0, 13125671.0, 11593659.0, 47142084.0, 